tree
version=v4
num_class=1
num_tree_per_iteration=1
label_index=0
max_feature_idx=18
objective=binary sigmoid:1
feature_names=ret_1 ret_5 ret_15 vwap_dev rvol vol_z atr_5 atr_15 rv_5 rv_annual rsi_14 macd macd_signal macd_hist ema_9_21_spread ema_slope high_dist_5 low_dist_5 minutes_into_session
feature_infos=[-0.015677687171702148:0.014967032077990439] [-0.015690910556436122:0.015563047875927216] [-0.016330477290430023:0.016776440101495593] [-0.015876507772837896:0.0097694233743588783] [0.085897591586046582:16.421932949697943] [-2.2412863976600597:4.2477201019028978] [0.125:5.6134799999999361] [0.16165333333334123:2.3150733333332938] [0:0.0072283513829064262] [0:2.2660622193327193] [0:92.774767560002246] [-2.9941801703616875:3.3715872000049103] [-2.4501411230505341:2.9327479907069276] [-1.3227458395538956:1.4162982293934174] [-0.0045251449473134682:0.0048278690298358112] [-0.0071149865152180247:0.0074600997333376107] [0:0.016609799372185013] [0:0.029208551223345092] [0:269]
tree_sizes=3307

Tree=0
num_leaves=31
num_cat=0
split_feature=12 18 7 8 18 7 6 18 18 18 7 14 7 7 18 12 11 18 18 14 7 7 7 18 12 7 2 7 13 12
split_gain=34.8467 57.5516 50.2856 33.9544 49.7889 74.4003 39.4519 33.7943 31.0919 35.0187 30.6304 33.832 25.6985 23.6937 21.6985 21.1555 24.8344 29.9956 32.8037 34.4112 18.1047 25.9982 17.2611 16.1236 25.6583 11.2108 10.4334 10.3993 9.79282 9.50309
threshold=-0.164269268648953 53.500000000000007 0.64519000000000626 0.00057566755985771995 225.50000000000003 0.29467000000000027 0.4006600000000049 149.50000000000003 181.50000000000003 79.500000000000014 0.21392666666667237 -7.7874068103207e-05 0.47308333333331803 0.72738666666668161 212.50000000000003 0.74036919234254561 0.30226271491767426 42.500000000000007 119.50000000000001 4.4335959786593892e-05 0.61267333333334684 0.4441666666666455 0.48473333333335333 136.50000000000003 0.16117011213948987 0.55169333333331017 -0.00055918595301979168 0.47562999999998212 -0.049078299234662906 0.16117011213948987
decision_type=2 2 2 2 2 2 2 2 2 2 2 2 2 2 2 2 2 2 2 2 2 2 2 2 2 2 2 2 2 2
left_child=1 13 8 4 5 10 26 -4 9 -3 -2 -12 -11 -1 28 16 17 27 20 -20 21 29 -10 -13 -25 -18 -6 -7 -5 -19
right_child=3 2 7 14 6 15 -8 -9 22 12 11 23 -14 -15 -16 -17 25 18 19 -21 -22 -23 -24 24 -26 -27 -28 -29 -30 -31
leaf_value=0.68362301950959425 0.70206498414207041 0.7252088373344785 0.75888893377022393 0.72766597038321745 0.72260049609812482 0.78172289745547496 0.6649271732054155 0.6720191336911876 0.7252088373344785 0.59405356573292045 0.56332958037772562 0.60539902987796579 0.68257542355898981 0.59455805318378752 0.68282329224373106 0.65892691497034672 0.76445471241850382 0.66684185720951483 0.74975534829612345 0.68589470855465484 0.72955607272840128 0.61003461354358679 0.66000030642563634 0.6361798385137305 0.73390330812232407 0.7141996048433753 0.77120865371203384 0.71842715011995884 0.76363839821675616 0.72007119550529697
leaf_weight=11.722746491432188 23.224309086799622 11.50156259536743 43.794411420822144 30.523377656936646 14.376953244209288 15.704056620597841 13.271033763885496 15.040504932403563 34.504687786102295 23.44549298286438 13.049849867820738 11.059194803237913 12.607482075691221 20.570102334022522 14.155769348144529 17.915895581245422 31.850481033325195 26.984435319900513 43.794411420822144 40.697836875915527 11.50156259536743 17.473527789115906 14.376953244209288 16.14642441272736 11.50156259536743 17.031159996986389 47.554537653923035 11.059194803237913 49.766376614570618 12.165114283561705
leaf_count=53 105 52 198 138 65 71 60 68 156 106 59 50 57 93 64 81 144 122 198 184 52 79 65 73 52 77 215 50 225 55
internal_value=0.705953 0.687622 0.700252 0.712959 0.706539 0.697964 0.74316 0.736682 0.678027 0.649243 0.654358 0.632951 0.625009 0.62689 0.7399 0.711245 0.715352 0.706742 0.69818 0.718995 0.672365 0.660747 0.70603 0.656423 0.676833 0.746945 0.759925 0.755568 0.749963 0.683382
internal_weight=678.371 187.564 155.271 490.807 396.362 321.159 75.2025 58.8349 96.4362 47.5545 74.9813 51.757 36.053 32.2928 94.4455 246.178 228.262 179.38 152.617 84.4922 68.1246 56.6231 48.8816 38.7072 27.648 48.8816 61.9315 26.7633 80.2898 39.1495
internal_count=3067 848 702 2219 1792 1452 340 266 436 215 339 234 163 146 427 1113 1032 811 690 382 308 256 221 175 125 221 280 121 363 177
is_linear=0
shrinkage=1


end of trees

feature_importances:
atr_15=10
minutes_into_session=9
macd_signal=4
ema_9_21_spread=2
ret_15=1
atr_5=1
rv_5=1
macd=1
macd_hist=1

parameters:
[boosting: gbdt]
[objective: binary]
[metric: binary_logloss]
[tree_learner: serial]
[device_type: cpu]
[data_sample_strategy: bagging]
[data: ]
[valid: ]
[num_iterations: 1000]
[learning_rate: 0.05]
[num_leaves: 31]
[num_threads: 0]
[seed: 42]
[deterministic: 0]
[force_col_wise: 0]
[force_row_wise: 0]
[histogram_pool_size: -1]
[max_depth: -1]
[min_data_in_leaf: 50]
[min_sum_hessian_in_leaf: 0.001]
[bagging_fraction: 0.8]
[pos_bagging_fraction: 1]
[neg_bagging_fraction: 1]
[bagging_freq: 5]
[bagging_seed: 400]
[bagging_by_query: 0]
[feature_fraction: 0.8]
[feature_fraction_bynode: 1]
[feature_fraction_seed: 30056]
[extra_trees: 0]
[extra_seed: 12879]
[early_stopping_round: 0]
[early_stopping_min_delta: 0]
[first_metric_only: 0]
[max_delta_step: 0]
[lambda_l1: 0]
[lambda_l2: 0]
[linear_lambda: 0]
[min_gain_to_split: 0]
[drop_rate: 0.1]
[max_drop: 50]
[skip_drop: 0.5]
[xgboost_dart_mode: 0]
[uniform_drop: 0]
[drop_seed: 17869]
[top_rate: 0.2]
[other_rate: 0.1]
[min_data_per_group: 100]
[max_cat_threshold: 32]
[cat_l2: 10]
[cat_smooth: 10]
[max_cat_to_onehot: 4]
[top_k: 20]
[monotone_constraints: ]
[monotone_constraints_method: basic]
[monotone_penalty: 0]
[feature_contri: ]
[forcedsplits_filename: ]
[refit_decay_rate: 0.9]
[cegb_tradeoff: 1]
[cegb_penalty_split: 0]
[cegb_penalty_feature_lazy: ]
[cegb_penalty_feature_coupled: ]
[path_smooth: 0]
[interaction_constraints: ]
[verbosity: -1]
[saved_feature_importance_type: 0]
[use_quantized_grad: 0]
[num_grad_quant_bins: 4]
[quant_train_renew_leaf: 0]
[stochastic_rounding: 1]
[linear_tree: 0]
[max_bin: 255]
[max_bin_by_feature: ]
[min_data_in_bin: 3]
[bin_construct_sample_cnt: 200000]
[data_random_seed: 175]
[is_enable_sparse: 1]
[enable_bundle: 1]
[use_missing: 1]
[zero_as_missing: 0]
[feature_pre_filter: 1]
[pre_partition: 0]
[two_round: 0]
[header: 0]
[label_column: ]
[weight_column: ]
[group_column: ]
[ignore_column: ]
[categorical_feature: ]
[forcedbins_filename: ]
[precise_float_parser: 0]
[parser_config_file: ]
[objective_seed: 16083]
[num_class: 1]
[is_unbalance: 0]
[scale_pos_weight: 1]
[sigmoid: 1]
[boost_from_average: 1]
[reg_sqrt: 0]
[alpha: 0.9]
[fair_c: 1]
[poisson_max_delta_step: 0.7]
[tweedie_variance_power: 1.5]
[lambdarank_truncation_level: 30]
[lambdarank_norm: 1]
[label_gain: ]
[lambdarank_position_bias_regularization: 0]
[eval_at: ]
[multi_error_top_k: 1]
[auc_mu_weights: ]
[num_machines: 1]
[local_listen_port: 12400]
[time_out: 120]
[machine_list_filename: ]
[machines: ]
[gpu_platform_id: -1]
[gpu_device_id: -1]
[gpu_use_dp: 0]
[num_gpu: 1]

end of parameters

pandas_categorical:[]
