tree
version=v4
num_class=1
num_tree_per_iteration=1
label_index=0
max_feature_idx=18
objective=binary sigmoid:1
feature_names=ret_1 ret_5 ret_15 vwap_dev rvol vol_z atr_5 atr_15 rv_5 rv_annual rsi_14 macd macd_signal macd_hist ema_9_21_spread ema_slope high_dist_5 low_dist_5 minutes_into_session
feature_infos=[-0.015677687171702148:0.014967032077990439] [-0.015690910556436122:0.015563047875927216] [-0.016330477290430023:0.016776440101495593] [-0.015876507772837896:0.011555649325945815] [0.085897591586046582:16.421932949697943] [-2.2805209086729388:4.2477201019028978] [0.091999999999984539:5.6134799999999361] [0.11933999999998074:2.3150733333332938] [0:0.0072283513829064262] [0:2.2660622193327193] [8.3709696433740959:92.774767560002246] [-2.9941801703616875:3.3715872000049103] [-2.4501411230505341:2.9327479907069276] [-1.3227458395538956:1.4162982293934174] [-0.0045251449473134682:0.0048278690298358112] [-0.0071149865152180247:0.0074600997333376107] [0:0.016609799372185013] [0:0.029208551223345092] [0:379]
tree_sizes=3451

Tree=0
num_leaves=31
num_cat=0
split_feature=18 7 14 8 18 12 13 16 6 18 7 11 18 18 7 7 7 1 12 11 6 2 11 7 6 11 18 11 18 14
split_gain=41.3554 43.4915 37.6891 21.0386 20.0709 25.6351 19.572 17.0946 15.7919 15.5804 15.5656 15.0136 21.0516 19.4778 17.9023 16.792 26.1506 14.9757 13.764 15.9576 13.635 14.5636 17.4462 13.018 12.1811 20.1508 17.2754 11.9964 12.5064 11.7965
threshold=230.50000000000003 0.32091666666667612 -0.0013574017441746412 0.00031393085934546965 48.500000000000007 0.53852545424394205 0.027542200093285219 0.00028616982267685309 0.13000000000000686 303.50000000000006 0.90468999999999389 0.36660440021898927 166.50000000000003 178.50000000000003 0.29365333333333871 0.20000000000000762 0.16888333333332264 -0.00050617062002089586 -0.10345741425565008 -0.15943934350991637 1.0482900000000202 -0.0011268998110220416 0.37612127825946123 0.16366333333334074 0.7270000000000324 -0.18404901675904736 156.50000000000003 -0.13897479099790641 112.50000000000001 0.00033395961725096886
decision_type=2 2 2 2 2 2 2 2 2 2 2 2 2 2 2 2 2 2 2 2 2 2 2 2 2 2 2 2 2 2
left_child=2 6 -1 11 5 20 8 -3 -2 -8 24 12 14 -14 -4 16 -15 -10 19 -19 21 -5 -23 -20 25 26 -6 28 -26 -27
right_child=1 7 3 4 10 -7 9 -9 17 -11 -12 -13 13 15 -16 -17 -18 18 23 -21 -22 22 -24 -25 27 29 -28 -29 -30 -31
leaf_value=0.040073548559953633 -0.0022836831288291018 -0.059020044914566028 0.014388844238032182 -0.047632957566691808 -0.090314627625856708 -0.065736408641543911 -0.11818202870817554 -0.025938721957025464 -0.025533446062433837 -0.0650508449805422 0.0055622121026350294 -0.056947707282472677 -0.079173456397177641 -0.010619946812259754 -0.019583493703552501 -0.015621705022318137 -0.1056533528033691 -0.072991269070216747 -0.043323750493410737 -0.012024935073512103 -0.054153768270175338 0.028591367550543652 -0.037516193790875604 -0.083447744925747247 -0.02517730279675804 -0.024986699117746605 -0.035628737862551683 -0.10551631833186065 -0.089219004398891549 -0.058005024591760254
leaf_weight=18.493496358394623 12.745517760515211 50.232334703207016 55.980313301086426 12.495605647563933 37.486816942691803 25.740947633981705 25.740947633981705 175.43830329179764 27.240420311689377 29.739541441202164 12.745517760515211 30.489277780056 21.242529600858688 13.995078325271608 126.20561704039574 83.72055783867836 14.994726777076719 20.742705374956131 25.990859746932983 22.242178052663803 13.495254099369047 40.485762298107147 13.245341986417769 90.968009114265442 16.744111567735676 93.966954469680786 23.491738617420197 18.243584245443344 13.995078325271605 37.98664116859436
leaf_count=74 51 201 224 50 150 103 103 702 109 119 51 122 85 56 505 335 60 83 104 89 54 162 53 364 67 376 94 73 56 152
internal_value=-0.0379291 -0.0492959 -0.0303891 -0.0322329 -0.0406964 -0.0223539 -0.0634272 -0.0333023 -0.0561359 -0.0897018 -0.0482927 -0.0234399 -0.0202083 -0.0352555 -0.00914481 -0.0269782 -0.0597752 -0.0598028 -0.0656393 -0.0414447 -0.00834642 0.000987907 0.0122951 -0.0745313 -0.0511301 -0.0454768 -0.0692471 -0.0733971 -0.0543345 -0.034492
internal_weight=1206.33 481.081 725.245 706.751 360.123 105.463 255.41 225.671 199.93 55.4805 254.66 346.628 316.139 133.953 182.186 112.71 28.9898 187.184 159.944 42.9849 79.722 66.2267 53.7311 116.959 241.915 192.932 60.9786 48.9828 30.7392 131.954
internal_count=4827 1925 2902 2828 1441 422 1022 903 800 222 1019 1387 1265 536 729 451 116 749 640 172 319 265 215 468 968 772 244 196 123 528
is_linear=0
shrinkage=1


end of trees

feature_importances:
minutes_into_session=7
atr_15=6
macd=5
atr_5=3
macd_signal=2
ema_9_21_spread=2
ret_5=1
ret_15=1
rv_5=1
macd_hist=1
high_dist_5=1

parameters:
[boosting: gbdt]
[objective: binary]
[metric: binary_logloss]
[tree_learner: serial]
[device_type: cpu]
[data_sample_strategy: bagging]
[data: ]
[valid: ]
[num_iterations: 1000]
[learning_rate: 0.05]
[num_leaves: 31]
[num_threads: 0]
[seed: 42]
[deterministic: 0]
[force_col_wise: 0]
[force_row_wise: 0]
[histogram_pool_size: -1]
[max_depth: -1]
[min_data_in_leaf: 50]
[min_sum_hessian_in_leaf: 0.001]
[bagging_fraction: 0.8]
[pos_bagging_fraction: 1]
[neg_bagging_fraction: 1]
[bagging_freq: 5]
[bagging_seed: 400]
[bagging_by_query: 0]
[feature_fraction: 0.8]
[feature_fraction_bynode: 1]
[feature_fraction_seed: 30056]
[extra_trees: 0]
[extra_seed: 12879]
[early_stopping_round: 0]
[early_stopping_min_delta: 0]
[first_metric_only: 0]
[max_delta_step: 0]
[lambda_l1: 0]
[lambda_l2: 0]
[linear_lambda: 0]
[min_gain_to_split: 0]
[drop_rate: 0.1]
[max_drop: 50]
[skip_drop: 0.5]
[xgboost_dart_mode: 0]
[uniform_drop: 0]
[drop_seed: 17869]
[top_rate: 0.2]
[other_rate: 0.1]
[min_data_per_group: 100]
[max_cat_threshold: 32]
[cat_l2: 10]
[cat_smooth: 10]
[max_cat_to_onehot: 4]
[top_k: 20]
[monotone_constraints: ]
[monotone_constraints_method: basic]
[monotone_penalty: 0]
[feature_contri: ]
[forcedsplits_filename: ]
[refit_decay_rate: 0.9]
[cegb_tradeoff: 1]
[cegb_penalty_split: 0]
[cegb_penalty_feature_lazy: ]
[cegb_penalty_feature_coupled: ]
[path_smooth: 0]
[interaction_constraints: ]
[verbosity: -1]
[saved_feature_importance_type: 0]
[use_quantized_grad: 0]
[num_grad_quant_bins: 4]
[quant_train_renew_leaf: 0]
[stochastic_rounding: 1]
[linear_tree: 0]
[max_bin: 255]
[max_bin_by_feature: ]
[min_data_in_bin: 3]
[bin_construct_sample_cnt: 200000]
[data_random_seed: 175]
[is_enable_sparse: 1]
[enable_bundle: 1]
[use_missing: 1]
[zero_as_missing: 0]
[feature_pre_filter: 1]
[pre_partition: 0]
[two_round: 0]
[header: 0]
[label_column: ]
[weight_column: ]
[group_column: ]
[ignore_column: ]
[categorical_feature: ]
[forcedbins_filename: ]
[precise_float_parser: 0]
[parser_config_file: ]
[objective_seed: 16083]
[num_class: 1]
[is_unbalance: 0]
[scale_pos_weight: 1]
[sigmoid: 1]
[boost_from_average: 1]
[reg_sqrt: 0]
[alpha: 0.9]
[fair_c: 1]
[poisson_max_delta_step: 0.7]
[tweedie_variance_power: 1.5]
[lambdarank_truncation_level: 30]
[lambdarank_norm: 1]
[label_gain: ]
[lambdarank_position_bias_regularization: 0]
[eval_at: ]
[multi_error_top_k: 1]
[auc_mu_weights: ]
[num_machines: 1]
[local_listen_port: 12400]
[time_out: 120]
[machine_list_filename: ]
[machines: ]
[gpu_platform_id: -1]
[gpu_device_id: -1]
[gpu_use_dp: 0]
[num_gpu: 1]

end of parameters

pandas_categorical:[]
