tree
version=v4
num_class=1
num_tree_per_iteration=1
label_index=0
max_feature_idx=18
objective=binary sigmoid:1
feature_names=ret_1 ret_5 ret_15 vwap_dev rvol vol_z atr_5 atr_15 rv_5 rv_annual rsi_14 macd macd_signal macd_hist ema_9_21_spread ema_slope high_dist_5 low_dist_5 minutes_into_session
feature_infos=[-0.015677687171702148:0.0097655982114690509] [-0.015690910556436122:0.013139667256442777] [-0.016330477290430023:0.013921463742473383] [-0.010769316564706082:0.0060645637608415237] [0.085897591586046582:16.421932949697943] [-2.2805209086697347:4.2477201019028978] [0.089860000000021506:5.6134799999999361] [0.10528666666668111:2.3150733333332938] [0:0.0072283513829064254] [0:2.2660622193327189] [8.3709696433740959:95.682893726160088] [-2.9941801703616875:1.5715310164533776] [-2.4501411230505341:1.3807457908279961] [-1.3227458395538956:0.93491289672991629] [-0.0045251449473134682:0.0022880792654231042] [-0.0071149865152180247:0.0044503440973169273] [0:0.016609799372185013] [0:0.029208551223345092] [0:379]
tree_sizes=3459

Tree=0
num_leaves=31
num_cat=0
split_feature=18 14 18 13 12 18 7 18 7 13 7 7 16 18 11 2 18 14 12 13 18 18 18 18 12 11 7 16 7 2
split_gain=35.0601 32.2169 36.8694 29.2118 23.1823 22.9818 34.477 19.3946 16.9032 30.3782 15.3565 31.9502 18.8462 14.4111 14.0606 13.2414 14.4704 17.6807 13.1205 12.7828 12.5663 13.9041 20.9442 22.8314 13.6162 11.4869 10.7826 10.7226 10.5233 17.4913
threshold=162.50000000000003 -0.0012497367622964703 102.50000000000001 0.11772831271315908 -0.20851749493750782 365.50000000000006 0.21050333333333054 58.500000000000007 0.34690333333332629 -0.011992393347213857 0.15063999999998717 0.1269966666666619 0.00028609965084444193 138.50000000000003 0.34715790531896579 -0.0019101689550954923 14.500000000000002 0.00036293688751037125 -0.27220442222035746 -0.0055752010039506325 180.50000000000003 287.50000000000006 339.50000000000006 348.50000000000006 -0.30134615338285919 -0.017088216844229006 0.34107000000002097 0.000299884832138002 0.42482999999998966 -0.0010052541327584816
decision_type=2 2 2 2 2 2 2 2 2 2 2 2 2 2 2 2 2 2 2 2 2 2 2 2 2 2 2 2 2 2
left_child=1 -1 3 4 -3 10 -7 14 9 -4 11 -2 -12 -11 -5 -6 -17 -18 -10 -20 -14 28 24 -24 -23 -13 -25 -19 -22 -30
right_child=5 2 8 7 15 6 -8 -9 18 13 12 25 20 -15 -16 16 17 27 19 -21 21 22 23 26 -26 -27 -28 -29 29 -31
leaf_value=0.059294720422221975 -0.087176046485270206 -0.061604156099484331 0.0501016734209348 0.054669908870626505 -0.073911033932559975 -0.069634393885566193 0.028855067380265931 -0.048707510082410518 0.021048769261441721 -0.034556584191358555 -0.050896377971150729 -0.031800350873252427 -0.065083107230049869 0.017815857919302399 -0.0056227493112076636 0.019309322398008064 -0.017405714708028795 -0.083970335118365227 -0.048938899775059296 -0.0077040527836398399 -0.025459968615657372 -0.011830775185876054 0.028437500757918916 -0.017516804890902661 -0.064822707764689583 0.01413988192033375 -0.077635849457361003 -0.036419718598331596 -0.033627843812489511 0.048461163349998032
leaf_weight=13.247589647769926 12.99763512611389 69.487357020378113 34.993633031845093 17.746771037578583 14.497362256050108 12.497726082801817 30.744406163692474 12.99763512611389 18.746589124202728 27.994906425476074 235.45715939998627 20.246316254138947 27.245042860507965 24.745497643947601 21.246134340763092 17.24686199426651 109.48008048534393 17.996725559234619 33.243951380252838 43.242132246494293 150.22266751527786 14.497362256050108 18.496634602546692 18.496634602546695 73.986538410186768 41.492450594902039 12.497726082801817 34.743678510189056 12.497726082801821 13.497544169425963
leaf_count=53 52 278 140 71 58 50 123 52 75 112 942 81 109 99 85 69 438 72 133 173 601 58 74 74 296 166 50 139 50 54
internal_value=-0.0275948 -0.0176621 -0.0197076 -0.0300646 -0.0368239 -0.0349087 0.000389905 0.00418673 -0.00185157 0.013982 -0.0372511 -0.0159256 -0.0400138 -0.00998373 0.0218181 -0.0279464 -0.0242334 -0.0288627 -0.0164384 -0.0256264 -0.032509 -0.0296844 -0.0415713 -0.0155235 -0.0561404 -0.000925539 -0.0417584 -0.0526455 -0.0203772 0.00899529
internal_weight=1206.53 511.657 498.409 315.443 263.452 694.874 43.2421 51.9905 182.967 87.734 651.631 74.7364 576.895 52.7404 38.9929 193.965 179.467 162.22 95.2327 76.4861 341.438 314.193 137.975 49.491 88.4839 61.7388 30.9944 52.7404 176.218 25.9953
internal_count=4827 2047 1994 1262 1054 2780 173 208 732 351 2607 299 2308 211 156 776 718 649 381 306 1366 1257 552 198 354 247 124 211 705 104
is_linear=0
shrinkage=1


end of trees

feature_importances:
minutes_into_session=10
atr_15=6
macd_signal=3
macd_hist=3
ret_15=2
macd=2
ema_9_21_spread=2
high_dist_5=2

parameters:
[boosting: gbdt]
[objective: binary]
[metric: binary_logloss]
[tree_learner: serial]
[device_type: cpu]
[data_sample_strategy: bagging]
[data: ]
[valid: ]
[num_iterations: 1000]
[learning_rate: 0.05]
[num_leaves: 31]
[num_threads: 0]
[seed: 42]
[deterministic: 0]
[force_col_wise: 0]
[force_row_wise: 0]
[histogram_pool_size: -1]
[max_depth: -1]
[min_data_in_leaf: 50]
[min_sum_hessian_in_leaf: 0.001]
[bagging_fraction: 0.8]
[pos_bagging_fraction: 1]
[neg_bagging_fraction: 1]
[bagging_freq: 5]
[bagging_seed: 400]
[bagging_by_query: 0]
[feature_fraction: 0.8]
[feature_fraction_bynode: 1]
[feature_fraction_seed: 30056]
[extra_trees: 0]
[extra_seed: 12879]
[early_stopping_round: 0]
[early_stopping_min_delta: 0]
[first_metric_only: 0]
[max_delta_step: 0]
[lambda_l1: 0]
[lambda_l2: 0]
[linear_lambda: 0]
[min_gain_to_split: 0]
[drop_rate: 0.1]
[max_drop: 50]
[skip_drop: 0.5]
[xgboost_dart_mode: 0]
[uniform_drop: 0]
[drop_seed: 17869]
[top_rate: 0.2]
[other_rate: 0.1]
[min_data_per_group: 100]
[max_cat_threshold: 32]
[cat_l2: 10]
[cat_smooth: 10]
[max_cat_to_onehot: 4]
[top_k: 20]
[monotone_constraints: ]
[monotone_constraints_method: basic]
[monotone_penalty: 0]
[feature_contri: ]
[forcedsplits_filename: ]
[refit_decay_rate: 0.9]
[cegb_tradeoff: 1]
[cegb_penalty_split: 0]
[cegb_penalty_feature_lazy: ]
[cegb_penalty_feature_coupled: ]
[path_smooth: 0]
[interaction_constraints: ]
[verbosity: -1]
[saved_feature_importance_type: 0]
[use_quantized_grad: 0]
[num_grad_quant_bins: 4]
[quant_train_renew_leaf: 0]
[stochastic_rounding: 1]
[linear_tree: 0]
[max_bin: 255]
[max_bin_by_feature: ]
[min_data_in_bin: 3]
[bin_construct_sample_cnt: 200000]
[data_random_seed: 175]
[is_enable_sparse: 1]
[enable_bundle: 1]
[use_missing: 1]
[zero_as_missing: 0]
[feature_pre_filter: 1]
[pre_partition: 0]
[two_round: 0]
[header: 0]
[label_column: ]
[weight_column: ]
[group_column: ]
[ignore_column: ]
[categorical_feature: ]
[forcedbins_filename: ]
[precise_float_parser: 0]
[parser_config_file: ]
[objective_seed: 16083]
[num_class: 1]
[is_unbalance: 0]
[scale_pos_weight: 1]
[sigmoid: 1]
[boost_from_average: 1]
[reg_sqrt: 0]
[alpha: 0.9]
[fair_c: 1]
[poisson_max_delta_step: 0.7]
[tweedie_variance_power: 1.5]
[lambdarank_truncation_level: 30]
[lambdarank_norm: 1]
[label_gain: ]
[lambdarank_position_bias_regularization: 0]
[eval_at: ]
[multi_error_top_k: 1]
[auc_mu_weights: ]
[num_machines: 1]
[local_listen_port: 12400]
[time_out: 120]
[machine_list_filename: ]
[machines: ]
[gpu_platform_id: -1]
[gpu_device_id: -1]
[gpu_use_dp: 0]
[num_gpu: 1]

end of parameters

pandas_categorical:[]
