tree
version=v4
num_class=1
num_tree_per_iteration=1
label_index=0
max_feature_idx=18
objective=binary sigmoid:1
feature_names=ret_1 ret_5 ret_15 vwap_dev rvol vol_z atr_5 atr_15 rv_5 rv_annual rsi_14 macd macd_signal macd_hist ema_9_21_spread ema_slope high_dist_5 low_dist_5 minutes_into_session
feature_infos=[-0.015677687171702148:0.0097655982114690509] [-0.015690910556436122:0.013139667256442777] [-0.016330477290430023:0.013921463742473383] [-0.0079118014339674726:0.0060645637608415237] [0.085897591586046582:16.421932949697943] [-2.2805209086673317:4.2477201019028978] [0.091999999999984539:5.6134799999999361] [0.1176666666666506:2.3150733333332938] [0:0.0072283513829064254] [0:2.2660622193327189] [0:90.005354300489273] [-2.9941801703616875:1.5715310164533776] [-2.4501411230505341:1.3807457908279961] [-1.3227458395538956:0.93491289672991629] [-0.0045251449473134682:0.0022880792654231042] [-0.0071149865152180247:0.0044503440973169273] [0:0.016609799372185013] [0:0.029208551223345092] [0:269]
tree_sizes=3376 3429 3446 3427 3430 3430 3455 3451 3445 3451 3463 3448 3442 3441 3438 3427 3434 3429 3439

Tree=0
num_leaves=31
num_cat=0
split_feature=7 18 7 18 12 14 18 18 11 18 11 18 18 7 7 8 18 7 18 11 1 17 7 18 8 12 7 12 6 2
split_gain=341.065 102.534 64.994 53.9647 35.8427 24.279 29.0299 21.2855 17.5646 67.6884 17.452 17.1471 40.9411 17.1298 16.7 14.5961 17.8397 14.4153 12.4988 20.8597 11.6636 11.019 10.6942 27.4295 15.925 13.9013 15.784 10.2329 9.24164 8.96193
threshold=0.36562666666663979 139.50000000000003 0.52354999999999274 61.500000000000007 0.11984389480648501 -0.00035632286572535811 59.500000000000007 79.500000000000014 -0.16344057280292643 223.50000000000003 0.78780558732040629 207.50000000000003 148.50000000000003 0.44463666666668672 0.55629666666666644 0.00020968909822609806 119.50000000000001 0.61183333333333023 96.500000000000014 0.031205632336252623 0.00046049255369906566 0.0004072158428032599 0.20665666666666693 211.50000000000003 0.0002755962269400725 0.0055757213892221671 0.16622666666665209 0.17215618067183477 0.37400000000000094 -1.0000000180025095e-35
decision_type=2 2 2 2 2 2 2 2 2 2 2 2 2 2 2 2 2 2 2 2 2 2 2 2 2 2 2 2 2 2
left_child=1 15 4 10 5 6 -2 -6 9 -3 17 12 28 21 -5 16 -1 -4 19 -16 27 -8 25 24 29 26 -10 -17 -7 -24
right_child=2 8 3 14 7 11 13 -9 22 -11 -12 -13 -14 -15 18 20 -18 -19 -20 -21 -22 -23 23 -25 -26 -27 -28 -29 -30 -31
leaf_value=-0.25035142101993924 -0.31987505112317666 -0.34025294627815461 -0.2017578693667483 -0.1892723283421594 -0.24735086261896533 -0.23619278167153887 -0.22851260013372454 -0.30593259583059629 -0.25269887674707103 -0.19197855398295699 -0.22289849269409673 -0.17037529327791673 -0.29618148841204595 -0.19114667106255773 -0.30869447018613938 -0.26333491125505049 -0.31818707704924482 -0.15099491116816688 -0.21067611295574037 -0.22346453772486108 -0.19623148235586468 -0.29336606751287486 -0.24668352144629588 -0.32717066983694937 -0.32717066983694937 -0.33692578381906341 -0.32268925243348084 -0.21551744518976465 -0.19699601820271767 -0.28634679896973614
leaf_weight=30.245511844754219 13.278517395257948 16.721095979213718 18.688283741474152 14.016212806105612 35.901176661252975 20.901369974017143 14.016212806105615 27.294730201363564 12.29492351412773 14.262111276388167 14.99980668723583 18.196486800909042 15.983400568366049 14.508009746670721 15.983400568366052 31.966801136732101 14.262111276388167 55.573054283857346 12.540821984410284 13.032618924975393 14.99980668723583 12.29492351412773 23.606253147125244 62.950008392333984 15.737502098083494 69.835165560245514 23.36035467684269 17.212892919778824 53.605866521596909 35.901176661252975
leaf_count=123 54 68 76 57 146 85 57 111 50 58 61 74 65 59 65 130 58 226 51 53 61 50 96 256 64 284 95 70 218 146
internal_value=-0.258123 -0.291193 -0.223935 -0.197788 -0.240693 -0.228286 -0.255656 -0.272653 -0.307459 -0.272 -0.173706 -0.214663 -0.223569 -0.234766 -0.236468 -0.250086 -0.272089 -0.16377 -0.252386 -0.270413 -0.234827 -0.258818 -0.311968 -0.302816 -0.282442 -0.323957 -0.298555 -0.246599 -0.207992 -0.270613
internal_weight=754.171 383.356 370.815 144.834 225.981 162.785 54.0977 63.1959 274.669 30.9832 89.2611 108.687 90.4906 40.8191 55.5731 108.687 44.5076 74.2613 41.5568 29.016 64.1795 26.3111 243.685 138.195 75.2449 105.49 35.6553 49.1797 74.5072 59.5074
internal_count=3067 1559 1508 589 919 662 220 257 1117 126 363 442 368 166 226 442 181 302 169 118 261 107 991 562 306 429 145 200 303 242
is_linear=0
shrinkage=1


Tree=1
num_leaves=31
num_cat=0
split_feature=7 18 7 3 3 18 3 7 4 3 18 3 3 10 15 10 3 11 18 7 18 11 3 7 3 3 7 7 4 3
split_gain=308.099 93.5984 57.9479 55.2424 48.028 47.8363 39.4185 33.9338 33.2116 23.45 20.9181 28.4093 17.0219 19.5469 15.7904 22.1214 15.492 15.4117 15.3969 27.9184 14.9285 12.703 14.7705 12.6888 11.0569 38.9913 9.25544 14.2557 14.7089 15.4521
threshold=0.36562666666663979 139.50000000000003 0.52354999999999274 -0.0027396812593684619 0.0025507743962130494 61.500000000000007 0.0014085950021408005 0.27950666666666851 0.4188783129656391 -0.0013525352792767749 206.50000000000003 -0.0040042416075997738 -2.5605310888539609e-05 54.138187506721366 -0.00040192988001802593 50.970478342538406 0.0022113192571455516 0.78780558732040629 105.50000000000001 0.63198000000001009 68.500000000000014 -0.24976989870259556 -0.0016143878584153151 0.61183333333333023 0.0028659005393003216 0.0023004767519311056 0.24759333333333114 0.19188666666666832 0.82304163669273522 0.0001897349427826926
decision_type=2 2 2 2 2 2 2 2 2 2 2 2 2 2 2 2 2 2 2 2 2 2 2 2 2 2 2 2 2 2
left_child=1 6 4 -3 10 17 9 16 -5 -1 11 -2 -11 -14 20 21 -8 23 19 -7 -13 22 -16 -4 25 26 27 -10 29 -29
right_child=2 3 5 8 -6 18 7 -9 24 12 -12 14 13 -15 15 -17 -18 -19 -20 -21 -22 -23 -24 -25 -26 -27 -28 28 -30 -31
leaf_value=0.039415765022251498 -0.053197758580843482 0.054799337710481788 0.052691680670980762 0.0087193466199922774 -0.042189833439341531 0.040808659072496312 0.042239007000170331 0.090340731893851861 -0.074254097081031242 -0.076421565704822864 0.065350880464221092 -0.051308161741479175 0.034354283088172635 -0.046292863705750524 0.063846368941332846 0.009655749829357985 -0.033130650070695426 0.032814720145453939 0.065157607913145371 -0.041784125705392486 0.024839258192752973 0.068677465564539658 -0.0098637573066438881 0.10013945346630415 -0.079018466089661343 0.0019571563817768842 -0.076273504280883711 -0.05411087374269638 -0.063202806253544852 0.018905477289064394
leaf_weight=13.275218486785887 12.770397409796713 12.530556187033651 18.807949244976044 20.303231224417686 30.641588598489761 23.404922842979431 13.759018510580065 20.241264849901199 41.185795828700066 16.703744620084763 27.744792178273201 12.257016316056253 12.556836962699892 18.706660091876984 12.780125081539156 61.09962797164917 13.515025854110716 15.062138453125952 14.104129672050474 18.178541019558907 13.553836852312086 40.967895045876503 14.515938863158224 56.179176270961761 49.182246074080467 28.098849460482597 65.928656160831451 12.426924481987955 25.61387987434864 17.379074573516846
leaf_count=54 52 51 76 83 125 95 56 82 169 68 112 50 51 76 52 248 55 61 57 74 55 166 59 226 202 115 270 51 105 71
internal_value=-0.000520707 -0.0320997 0.0318509 -0.0477433 0.0160169 0.0564413 0.00711801 0.0412923 -0.0526831 -0.0193963 0.0251311 0.0184867 -0.0356729 -0.0139013 0.0243861 0.0315105 0.00489131 0.0789683 0.0200142 0.00470257 -0.0113215 0.0510717 0.0246476 0.0882388 -0.0578815 -0.0524283 -0.0618304 -0.0519737 -0.0354158 -0.011537
internal_weight=753.475 381.407 372.068 272.649 226.331 145.737 108.758 47.5153 260.119 61.2425 195.69 167.945 47.9672 31.2635 155.174 129.364 27.274 90.0493 55.6876 41.5835 25.8109 68.264 27.2961 74.9871 239.815 190.633 162.534 96.6057 55.4199 29.806
internal_count=3067 1559 1508 1117 919 589 442 193 1066 249 794 682 195 127 630 525 111 363 226 169 105 277 111 302 983 781 666 396 227 122
is_linear=0
shrinkage=0.05


Tree=2
num_leaves=31
num_cat=0
split_feature=18 3 6 6 18 3 3 13 3 3 6 3 3 10 18 11 12 3 17 8 13 15 6 12 3 10 12 18 13 3
split_gain=272.891 89.487 77.2325 48.1597 39.0288 26.7074 30.189 26.499 25.3596 25.2576 25.1477 23.6994 24.5611 16.8227 31.8143 37.6042 23.5696 22.2678 17.7521 17.4095 14.959 12.3807 9.84276 8.82876 16.8205 18.1991 12.0251 19.0274 9.59577 7.78255
threshold=127.50000000000001 -0.0058798993041305472 0.3902600000000121 0.64224999999999011 56.500000000000007 0.0028659005393003216 0.0022698365494444165 0.16477639145994802 0.0032551089505083136 0.0017213756537795921 0.37200000000001415 0.0011662545588210355 -0.0025262764499710253 53.242846351254961 94.500000000000014 -0.033206634667919836 0.20841511201215188 0.00062331097239999198 0.00027829835276472586 0.00027956815489274376 -0.026123126329700562 -3.3642081254392491e-05 0.31399999999997597 0.11685182322846797 0.00072650081914194485 58.296438632435049 -0.1238751037823711 223.50000000000003 0.013000842278386751 -0.0019197149549672499
decision_type=2 2 2 2 2 2 2 2 2 2 2 2 2 2 2 2 2 2 2 2 2 2 2 2 2 2 2 2 2 2
left_child=3 -2 5 7 -5 6 23 8 9 13 -11 12 -4 14 15 19 22 -18 -17 -1 -8 -16 -15 26 -25 -26 27 28 -3 -21
right_child=1 2 11 4 -6 -7 20 -9 -10 10 -12 -13 -14 16 21 18 17 -19 -20 29 -22 -23 -24 24 25 -27 -28 -29 -30 -31
leaf_value=0.023941379102782559 0.088827482521923129 -0.073740257725603497 -0.0079103415393392846 0.088570746149488469 0.012032430228239226 -0.077215764373481488 -0.041602494791053345 0.080134330408996479 -0.032761754657496298 0.091080683881816116 0.018631935166389179 -0.042590671827481281 0.065001371798609334 -0.001958706042812374 0.084412835742176784 0.0091809494052520167 0.076190521441291487 -0.0042754678264017888 0.086961512291055434 1.9390698894092395e-05 0.026297495498304575 0.023090714907006621 -0.052878126459535879 -0.074203808095089321 0.031302037258457004 -0.048364120744371762 -0.058100895900260512 0.024395220653380342 -0.015966631979118878 -0.047817712323871137
leaf_weight=20.191421225667 15.141968145966528 16.970559567213062 20.489058181643482 53.857942789793015 24.11296010017395 54.323148861527443 12.198530420660971 17.624118641018867 23.518363043665886 23.525240108370781 24.401985034346581 13.22079126536846 26.475060492753986 16.191881820559502 24.751526966691017 12.579700693488123 13.120312482118605 24.944080501794815 17.598055616021156 12.299047380685804 24.210687652230263 12.331890046596525 22.931061163544655 12.181940570473669 16.088240608572963 12.930339395999907 131.14550067484379 12.481790259480475 12.467212513089178 27.541222780942917
leaf_count=82 61 70 83 216 98 226 50 71 96 95 99 54 107 66 100 51 53 101 71 50 99 50 93 50 66 53 542 51 51 112
internal_value=-0.000506898 -0.0302794 -0.035218 0.0299711 0.0649008 -0.0454324 -0.0385447 0.0206933 0.0168966 0.0215236 0.0541936 0.016545 0.0331921 0.0138662 0.0250339 0.00900724 -0.00455089 0.0234601 0.0545384 -0.0138812 0.00354831 0.0640205 -0.031804 -0.0456973 -0.0248957 -0.00419627 -0.0506494 -0.0273375 -0.0492725 -0.03305
internal_weight=751.846 380.325 365.183 371.521 77.9709 304.998 250.675 293.55 275.926 252.407 47.9272 60.1849 46.9641 204.48 127.293 90.2094 77.1873 38.0644 30.1778 60.0317 36.4092 37.0834 39.1229 214.266 41.2005 29.0186 173.065 41.9196 29.4378 39.8403
internal_count=3067 1563 1502 1504 314 1258 1032 1190 1119 1023 194 244 190 829 516 366 313 154 122 244 149 150 159 883 169 119 714 172 121 162
is_linear=0
shrinkage=0.05


Tree=3
num_leaves=31
num_cat=0
split_feature=7 18 7 3 3 18 3 7 3 18 3 13 18 1 10 3 3 3 10 11 3 7 5 7 11 10 3 10 13 7
split_gain=257.584 77.4108 47.1847 46.8126 41.1649 38.9064 33.754 29.1024 20.5434 18.1165 25.8749 16.0722 17.9893 16.0127 19.7693 15.6983 32.311 15.4569 16.5392 13.7423 13.4128 16.2722 17.1244 15.1449 24.3621 16.2994 13.1673 12.0644 11.3485 10.581
threshold=0.36562666666663979 139.50000000000003 0.52354999999999274 -0.0027396812593684619 0.0025507743962130494 61.500000000000007 0.0014085950021408005 0.27950666666666851 -0.0013525352792767749 206.50000000000003 -0.0007517153216102698 -0.013013600895684317 127.50000000000001 0.00032316398556719866 45.890918933495506 0.0028659005393003216 0.0022698365494444165 -2.5605310888539609e-05 54.138187506721366 0.78780558732040629 8.5233429986440295e-05 0.19188666666666832 -0.037881072129893369 0.25000333333332497 0.08946730875430832 50.74768428682448 0.0022113192571455516 52.213463371379511 -0.0050774371362334305 0.58785000000000698
decision_type=2 2 2 2 2 2 2 2 2 2 2 2 2 2 2 2 2 2 2 2 2 2 2 2 2 2 2 2 2 2
left_child=1 6 4 -3 9 19 8 26 -1 10 11 -2 -13 14 -7 16 20 -10 -19 29 -5 -22 23 25 -25 -23 -8 -12 -11 -4
right_child=2 3 5 15 -6 13 7 -9 17 28 27 12 -14 -15 -16 -17 -18 18 -20 -21 21 22 -24 24 -26 -27 -28 -29 -30 -31
leaf_value=0.036090622922874238 -0.036180511029258171 0.04993814725742917 0.044235959708972893 -0.070393786645798886 -0.039535022351669863 0.01050958806971446 0.037811959063500544 0.082518347292742183 -0.07323014550294972 0.026681443483428952 0.050467566405324932 0.040132194000831789 -0.029266719059180119 -0.015904115906081408 0.08900545825796384 -0.073987466086617298 0.0035159482885489799 0.030723271683322919 -0.043450766736980638 0.0279168580327963 -0.068566038583576613 0.052015370488462435 -0.066124181146796399 -0.079354314509337637 0.010594783376707391 -0.027649229902402775 -0.031639796814320893 0.015886593988697444 0.090539492813794989 0.089851652915825142
leaf_weight=13.35387286543846 27.905536606907845 12.612303972244261 16.187840476632118 59.55289825797081 30.337904304265976 21.906778648495674 13.866223290562631 20.444291114807129 16.487640842795372 13.193891257047655 49.583680361509323 24.247316241264343 15.186263382434843 21.250533804297447 12.65471129119396 49.608771756291389 32.001393690705299 12.642532974481584 18.531313210725784 15.180259898304937 36.666567862033844 13.660174861550333 21.455010935664177 16.209814161062244 14.054387643933294 12.115192681550978 13.438435867428778 51.333064287900925 14.719003498554228 59.217842131853104
leaf_count=54 114 51 65 249 125 89 56 82 68 53 200 98 62 86 51 210 131 51 76 61 154 56 90 68 58 50 55 208 59 237
internal_value=-0.000492907 -0.0296547 0.0289657 -0.0440957 0.0146669 0.0510888 0.00592038 0.0374071 -0.0187202 0.0230494 0.0168605 -0.00714281 0.013406 0.0182505 0.0392509 -0.0487408 -0.0426524 -0.0340772 -0.0133695 0.0713211 -0.0511575 -0.0411228 -0.0281381 -0.0135949 -0.0375829 0.0145706 0.00363014 0.0328774 0.060355 0.080059
internal_weight=749.605 376.701 372.905 267.937 226.507 146.398 108.764 47.749 61.0154 196.169 168.256 67.3391 39.4336 55.812 34.5615 255.324 205.715 47.6615 31.1738 90.5859 173.714 114.161 77.4946 56.0396 30.2642 25.7754 27.3047 100.917 27.9129 75.4057
internal_count=3067 1559 1508 1117 919 589 442 193 249 794 682 274 160 226 140 1066 856 195 127 363 725 476 322 232 126 106 111 408 112 302
is_linear=0
shrinkage=0.05


Tree=4
num_leaves=31
num_cat=0
split_feature=7 7 7 3 3 3 3 12 11 7 7 13 12 11 11 15 10 3 10 6 14 10 15 8 10 7 10 12 12 7
split_gain=233.646 42.6187 38.413 37.2411 25.1376 41.9806 34.9525 30.0161 21.9034 20.1514 14.791 18.1525 13.5234 16.629 13.2369 20.3639 14.3041 12.9545 15.7499 13.4276 12.9161 12.5082 15.358 11.8895 10.7379 10.4462 9.38274 9.28353 9.12774 8.7316
threshold=0.36562666666663979 0.52354999999999274 0.21376666666667463 0.0025507743962130494 0.0001897349427826926 -0.0027396812593684619 0.0034156749819030633 0.1095948128194356 -0.19466658557092839 0.23949999999999441 0.78565666666665579 0.17137169114209011 0.0055757213892221671 -0.048443273908674193 -0.10809403125966809 0.00042580821805959795 40.762286831440598 0.0017213756537795921 55.854698653427491 0.22213000000002694 -0.00035632286572535811 50.970478342538406 -0.00033956218413822009 0.00031838797643933157 60.745084975702675 0.33135000000000148 62.655275301685165 -0.4289871496996947 -0.034155852602501313 0.41397666666667504
decision_type=2 2 2 2 2 2 2 2 2 2 2 2 2 2 2 2 2 2 2 2 2 2 2 2 2 2 2 2 2 2
left_child=2 3 12 20 5 -4 7 9 -7 -6 11 14 13 -1 16 -16 -3 18 -9 -19 23 22 -22 -2 -12 -11 -14 -25 29 -24
right_child=1 10 4 -5 6 8 -8 17 -10 25 24 -13 26 -15 15 -17 -18 19 -20 -21 21 -23 28 27 -26 -27 -28 -29 -30 -31
leaf_value=-0.048353672604899971 0.024982245594434911 0.030600643172038058 0.047273055742513767 -0.037829555919516498 0.032452838706256953 0.011049770109051138 -0.076424559058140773 0.037585166339025991 -0.061193179245272858 -0.054688852557260165 0.093306956908260796 0.087373871025809777 -0.075035098274417789 0.020684341779424815 0.062816270160237928 -0.0095490525503346378 -0.034274493655341041 -0.0018802807745876553 -0.025725235636906513 0.058968265724091279 -0.0061318213931163172 0.013980120512949027 0.01749855265187546 0.01019178610783051 0.036896093707212363 -0.0015666506488506945 -0.035611340316213748 -0.048269373781580617 0.080089059982274571 0.063553942914410952
leaf_weight=32.107328027486801 26.373588353395462 23.525359869003296 12.655955061316488 30.125793904066086 12.155115798115729 12.318618357181547 15.469228506088255 17.214616656303406 70.761038482189178 33.281012788414955 26.149817079305649 16.456978097558022 55.78685274720192 11.975517407059668 41.78791655600071 12.669002547860144 13.30017267167568 12.902410477399824 22.880195811390877 30.495744943618774 12.855524554848669 66.770997330546379 21.047306165099144 12.321876436471941 12.453508913516997 12.81882359087467 20.689438357949257 15.128041252493857 21.699019700288773 20.138232946395874
leaf_count=135 107 95 51 125 50 51 65 70 297 140 105 66 238 50 168 51 54 53 94 124 52 270 85 50 50 53 88 62 87 81
internal_value=-0.000479869 0.0275229 -0.0284295 0.0139329 -0.0173597 -0.0375585 -0.00505993 0.00272824 -0.0504814 -0.024817 0.048553 0.039038 -0.0516556 -0.0295989 0.0303237 0.045981 0.00716987 0.0219472 0.00145694 0.0408778 0.0218753 0.0297567 0.043665 0.0010076 0.0751087 -0.0399173 -0.0643696 -0.022027 0.0538449 0.040018
internal_weight=746.315 372.803 373.512 226.46 252.953 95.7356 157.217 141.748 83.0797 58.255 146.343 107.739 120.559 44.0828 91.2825 54.4569 36.8255 83.493 40.0948 43.3982 196.335 142.511 75.7401 53.8235 38.6033 46.0998 76.4763 27.4499 62.8846 41.1855
internal_count=3067 1508 1559 919 1048 399 649 584 348 243 589 434 511 185 368 219 149 341 164 177 794 575 305 219 155 193 326 112 253 166
is_linear=0
shrinkage=0.05


Tree=5
num_leaves=31
num_cat=0
split_feature=18 3 7 18 7 13 4 3 3 3 3 18 12 15 3 6 3 3 7 3 3 18 11 7 7 14 18 12 15 11
split_gain=223.034 68.2792 60.8565 43.222 31.402 32.1049 29.1546 23.9419 41.0121 18.2509 22.2389 27.0394 22.0394 20.2656 17.9666 19.889 15.3067 34.3129 14.1287 22.9181 13.7962 12.7201 12.3266 11.0176 10.5255 10.0994 8.44731 8.13444 7.681 7.2562
threshold=125.50000000000001 -0.0058798993041305472 0.40225999999998224 176.50000000000003 0.78565666666665579 0.16477639145994802 0.33193964549217886 0.0012815178885242846 -0.0011179079294709774 0.0032551089505083136 0.0021204778279932659 96.500000000000014 -0.10083408992893246 -3.3642081254392491e-05 -0.0016143878584153151 0.46137000000001088 0.0028410122042100221 0.0023685388528383714 0.52033333333334142 0.00043214321562269929 0.00039768831430858203 149.50000000000003 0.57679384863627103 0.39286666666664588 0.27950666666666851 0.00019537032166687146 52.500000000000007 -0.3635007853412775 0.00020206697107572061 0.037905619862044666
decision_type=2 2 2 2 2 2 2 2 2 2 2 2 2 2 2 2 2 2 2 2 2 2 2 2 2 2 2 2 2 2
left_child=4 -2 6 7 5 9 -3 8 -4 10 11 12 14 -13 15 -1 17 21 25 -20 -15 24 -6 -12 -8 26 29 -5 -27 -14
right_child=1 2 3 27 22 -7 16 -9 -10 -11 23 13 18 20 -16 -17 -18 -19 19 -21 -22 -23 -24 -25 -26 28 -28 -29 -30 -31
leaf_value=0.053506628204807685 0.08195930494499673 0.03335504630993285 -0.055904957315493921 0.034918505045085133 0.087554100112390426 0.079576711890490259 -0.051642943384912723 -0.071449049401644218 0.072394324877132363 -0.024561358335775541 0.091436337792427116 0.077957299820355236 -0.023335851937817155 -0.01183325813037988 -0.045299562625291383 -0.028091519205740462 -0.070443225936647744 0.011194976107125144 0.082497922163008372 0.007254989781794223 0.053236485294557358 -0.051311473281225699 0.027672848667757273 0.031018604381345363 0.009427980993773533 -0.029497721242247917 0.046585726583211376 0.091864978149380272 0.013723670857559487 0.030812004517591335
leaf_weight=13.824768096208574 13.716269105672835 12.576086670160292 12.234258472919462 12.414117723703386 27.701459333300591 22.605657801032066 11.992596596479418 14.466170594096182 12.689224347472193 23.451934084296227 15.425468534231188 26.88496533036232 12.37290368974209 17.006372138857841 29.918621629476547 16.24048538506031 47.225115805864334 29.504235416650772 19.402629539370537 21.153535425662994 15.635002657771109 181.254579231143 12.459652826189993 14.771507292985914 17.137034371495247 23.130590856075287 21.497456341981888 12.672382548451422 18.501100912690163 12.375455260276793
leaf_count=56 55 52 50 50 112 91 50 60 51 97 62 108 51 70 122 66 206 121 78 85 63 769 50 60 70 94 87 51 75 50
internal_value=-0.000640709 -0.0275542 -0.031679 0.0123877 0.0272716 0.0221053 -0.0411596 -0.0202825 0.0094157 0.0177976 0.0213691 0.0164351 0.00715432 0.0458115 -0.0178682 0.00942938 -0.0444235 -0.0393012 0.0188409 0.0432522 0.0193347 -0.0463828 0.0689764 0.0618817 -0.0157148 0.00757484 0.0236574 0.0636849 -0.0102902 0.00374087
internal_weight=742.242 377.882 364.166 64.4762 364.36 324.198 299.69 39.3897 24.9235 301.593 278.141 247.944 188.418 59.5263 59.9839 30.0653 287.114 239.888 128.434 40.5562 32.6414 210.384 40.1611 30.197 29.1296 87.8775 46.2458 25.0865 41.6317 24.7484
internal_count=3062 1585 1530 262 1477 1315 1268 161 101 1224 1127 1005 764 241 244 122 1216 1010 520 163 133 889 162 122 120 357 188 101 169 101
is_linear=0
shrinkage=0.05


Tree=6
num_leaves=31
num_cat=0
split_feature=18 3 7 3 7 18 3 4 13 10 3 3 2 3 18 7 12 18 16 3 15 13 3 3 13 7 5 10 12 7
split_gain=202.524 61.9975 55.6613 39.3898 28.8621 28.3105 28.245 26.667 18.5533 16.4225 14.5891 29.1056 14.4078 15.3954 20.9227 12.2652 17.1117 11.8048 11.3393 10.5749 24.8239 11.3487 9.92206 9.86311 18.0046 9.61032 7.31468 7.21604 8.52379 8.87589
threshold=125.50000000000001 -0.0058798993041305472 0.40225999999998224 0.0014085950021408005 0.68957666666666839 61.500000000000007 -0.003312333831151891 0.33193964549217886 0.17691921867977531 64.856698439887779 0.0028659005393003216 0.0023685388528383714 -0.0020288152810363775 0.0032551089505083136 56.500000000000007 0.58785000000000698 1.0000000180025095e-35 149.50000000000003 0.00055872293257333864 0.0015622493454768654 1.6158481963346464e-05 0.045299164026637563 -0.00067712500200291605 -0.0018846624561206487 -0.029153320671290905 0.27950666666666851 -0.63556327672297874 57.424482027807926 -0.21334217356862195 0.19188666666666832
decision_type=2 2 2 2 2 2 2 2 2 2 2 2 2 2 2 2 2 2 2 2 2 2 2 2 2 2 2 2 2 2
left_child=4 -2 7 6 8 9 -4 -3 12 -6 11 17 -1 14 15 16 -14 25 26 20 23 -22 -23 -16 -25 -9 -18 28 -19 -30
right_child=1 2 3 -5 5 -7 -8 10 -10 -11 -12 -13 13 -15 19 -17 18 27 -20 -21 21 22 -24 24 -26 -27 -28 -29 29 -31
leaf_value=-0.027942247350190026 0.077998719240076175 0.031514840516898561 -0.026248752356531613 -0.057630313101929488 0.087951947402665903 -0.0044840862255156261 0.057982914355508813 -0.049568941246674492 0.078345291886913415 0.023659926334543602 -0.068968393089381227 0.0072047706365128764 -0.040301597013855078 -0.019871513818158722 0.081684915524987634 0.046412511515387132 -0.0040923706956532881 -0.083412355017672635 -0.023757754943689986 0.055775524316076935 -0.026491767549058878 -0.0082456772304172581 0.053539445469828223 0.058823941771134938 -0.0074225691310196079 0.0089464380125868579 0.042416653241092547 -0.071898405266695761 -0.063569365386023466 -0.033914878804287674
leaf_weight=17.152545213699341 13.69253398478031 12.643103018403052 13.940508484840391 15.496857047080992 40.537401169538498 15.513896107673643 34.789629235863686 11.872719287872316 12.657872363924978 13.156253129243849 44.560657545924187 31.225093379616737 22.706562861800194 22.865056440234184 15.681066006422041 14.381951630115507 12.849438607692713 13.100120693445204 15.999063491821287 41.959308981895447 22.452073112130165 13.258645176887514 12.743240803480147 29.319118663668629 15.774870961904528 17.155963078141212 24.713874027132992 29.633019611239433 33.431595832109451 102.89546105265617
leaf_count=70 55 52 57 65 165 63 140 50 51 53 199 128 93 95 63 58 52 55 65 169 92 54 52 118 64 70 100 127 147 440
internal_value=-0.000618949 -0.0264314 -0.0303952 0.0118049 0.0259539 0.0550092 0.0338863 -0.0395359 0.0191262 0.0721988 -0.0427003 -0.0378091 0.0164668 0.0193444 0.0230522 0.00405937 -0.00392712 -0.0445638 0.011493 0.03444 0.0262442 -0.000451058 0.0220345 0.0475274 0.0356495 -0.0149863 0.0265071 -0.0493588 -0.0448889 -0.0411871
internal_weight=738.16 374.437 360.745 64.227 363.722 69.2076 48.7301 296.518 294.515 53.6937 283.875 239.314 281.857 264.704 241.839 90.6509 76.2689 208.089 53.5624 151.188 109.229 48.454 26.0019 60.7751 45.094 29.0287 37.5633 179.06 149.427 136.327
internal_count=3062 1585 1530 262 1477 281 197 1268 1196 218 1216 1017 1145 1075 980 368 310 889 217 612 443 198 106 245 182 120 152 769 642 587
is_linear=0
shrinkage=0.05


Tree=7
num_leaves=31
num_cat=0
split_feature=7 7 3 3 3 12 3 7 3 12 17 7 10 3 7 7 14 10 17 3 3 12 10 5 7 3 5 10 10 2
split_gain=165.646 57.1984 25.3897 22.777 22.8581 24.0225 18.3685 16.8837 29.9402 25.1141 14.924 11.9504 13.3055 22.7017 14.355 10.0524 15.3615 14.1656 11.1289 8.68977 24.0735 10.8338 12.9939 18.842 8.41837 8.28427 11.71 7.16837 6.71915 6.37304
threshold=0.27394999999999459 0.52354999999999274 -0.0058798993041305472 0.0028087586359605899 0.0023262626543643287 0.17483582510803888 0.0031727668788834444 0.37325999999998211 0.0017679476560875254 0.11984389480648501 0.00030638275504134369 0.19188666666666832 57.686326446805097 5.6336081862634954e-05 0.23780999999999422 0.78565666666665579 -0.00014208609680445254 61.848377847483455 0.0011788187803749102 -0.0017044910812318737 -0.00013345988660139476 -0.026644860622430076 53.242846351254961 -0.39465236702953171 0.21376666666667463 -0.0021808088996513376 -0.5949543709156796 56.895624755961471 45.581774268597428 -0.00039244683760525362
decision_type=2 2 2 2 2 2 2 2 2 2 2 2 2 2 2 2 2 2 2 2 2 2 2 2 2 2 2 2 2 2
left_child=3 2 -2 4 5 11 7 8 19 -10 29 -1 13 28 24 16 -3 -17 -18 -4 -21 -22 -23 -24 -15 -12 27 -27 -13 -9
right_child=1 15 6 -5 -6 -7 -8 10 9 -11 25 12 -14 14 -16 17 18 -19 -20 20 21 22 23 -25 -26 26 -28 -29 -30 -31
leaf_value=-0.064535528662096414 0.073423923557507362 0.010189706127976338 0.0096994529023880227 -0.06728428807198425 0.020705958547516737 0.025683565628940287 -0.038975723854814182 0.0050289493212214188 -0.019799260860486945 0.071724939628747583 0.00091343598723769631 -0.031983403487308534 -0.068984828171277907 -0.0048656429887051038 -0.036411459485442908 0.083319838117650591 0.068557730211950482 0.018762146373531602 0.026352631462314292 -0.061660960213230656 -0.046011628674462124 0.036687656147930035 -0.064301614925647052 0.017543922233398644 0.051837822194354233 0.027516337475207771 0.044027296939963628 -0.017170694994735624 -0.077107555612863338 -0.030958607894555318
leaf_weight=40.666109248995781 12.882935166358946 42.359632253646851 20.634943544864655 48.542166098952293 20.760817691683769 14.575739875435827 25.432221233844757 39.068270862102509 12.395071208477022 18.960772722959518 29.205622836947441 17.392192155122757 19.394223630428314 12.604284942150118 15.261688426136969 27.071979314088821 33.954470694065094 12.384461134672163 28.925095319747925 31.550766885280609 14.306109786033629 18.245790481567383 12.232310041785238 16.540676847100261 13.617207139730452 21.259465351700783 64.253815189003944 15.529832318425177 15.693643689155577 17.956495016813278
leaf_count=182 52 172 86 219 85 60 108 159 52 77 119 76 83 54 65 112 137 50 117 134 62 75 51 68 56 86 260 63 69 73
internal_value=-0.000598109 0.0148751 0.00446259 -0.0370774 -0.0284503 -0.0352901 0.00197798 0.00511384 -0.00770349 0.0355451 0.0150288 -0.0418914 -0.0320914 -0.022496 0.00214203 0.0415335 0.033464 0.0630567 0.0491431 -0.0196504 -0.0261712 -0.0079123 0.00367994 -0.0172512 0.0245813 0.0243682 0.0311476 0.00865264 -0.0533872 -0.00630315
internal_weight=733.659 515.151 370.455 218.508 169.966 149.205 357.572 332.14 144.866 31.3558 187.274 134.629 93.9632 74.569 41.4832 144.696 105.239 39.4564 62.8796 113.511 92.8757 61.3249 47.0188 28.773 26.2215 130.249 101.043 36.7893 33.0858 57.0248
internal_count=3062 2113 1525 949 730 645 1473 1365 605 129 760 585 403 320 175 588 426 162 254 476 390 256 194 119 110 528 409 149 145 232
is_linear=0
shrinkage=0.05


Tree=8
num_leaves=31
num_cat=0
split_feature=7 7 3 3 3 12 3 13 17 7 12 3 7 13 2 15 13 3 7 3 10 12 13 3 10 7 13 4 3 12
split_gain=151.163 51.9159 23.1009 21.5218 20.9329 22.1024 16.7127 15.8895 15.3216 13.106 17.4691 16.2775 11.7706 10.1545 16.7187 13.3534 17.3 9.6595 9.85845 8.81111 15.8795 13.2109 8.17305 8.12533 9.46862 7.96481 7.58922 10.4836 7.46751 7.44079
threshold=0.27394999999999459 0.52354999999999274 -0.0058798993041305472 0.0028087586359605899 0.0023262626543643287 0.17795087616203567 0.0031727668788834444 -0.053196603026887522 0.00028763985587874148 0.37325999999998211 0.13819912625192157 0.0016537985860482793 0.19188666666666832 -0.28831872424798177 -0.0008405718526424687 0.00022800366200559366 0.16477639145994802 0.0018937117949331167 0.3992900000000002 0.0001897349427826926 56.325401256640482 -0.06297370078864932 0.059040019970246015 -0.0021808088996513376 59.069933140189413 0.68229999999999424 -0.033548082204246814 1.0406098185193255 0.00098445695909745736 -0.37046202483555224
decision_type=2 2 2 2 2 2 2 2 2 2 2 2 2 2 2 2 2 2 2 2 2 2 2 2 2 2 2 2 2 2
left_child=3 2 -2 4 5 7 8 -1 17 10 -10 -12 -9 -3 25 -16 -17 18 26 -14 21 -21 -8 29 -25 -15 27 -4 -18 -11
right_child=1 13 6 -5 -6 -7 22 12 9 23 11 -13 19 14 15 16 28 -19 -20 20 -22 -23 -24 24 -26 -27 -28 -29 -30 -31
leaf_value=0.012785859584059187 0.070268472825470552 0.082178368238690458 0.014875372264573535 -0.065449473516773868 0.019613146076859159 0.027263571993633069 -0.064071230383026909 -0.069815431558921656 -0.01807473422562958 0.028907774882683049 -0.0050591759174555629 0.06750551023335781 -0.055357489439782442 -0.018358377436648112 0.066437454891767833 0.0011757260666609586 0.030337168276682716 0.030823649882043752 0.0045695063635612168 -0.038908422083880942 -0.058355333779613654 0.026082800718936369 -0.0070074153763781165 0.038176521631335593 0.0036308383195473924 0.029686755491462508 -0.047029817819238463 -0.043576035970820874 0.084274445088180466 -0.021831813132186271
leaf_weight=12.856525793671606 12.790644839406012 12.779479488730429 17.118037000298504 47.435984298586845 20.820115759968758 13.407736152410505 13.411083415150644 35.641647920012474 59.751371636986732 12.420790925621988 16.90553650259972 14.236023277044294 34.034401163458824 17.29395866394043 44.112456783652306 26.974364295601845 12.293802782893183 12.487263336777685 36.425476655364037 13.417993113398547 19.355335235595703 18.739393994212154 11.792240694165228 75.476061761379242 26.906401500105858 17.210818946361542 28.590309381484985 13.900357559323309 13.424235031008719 17.274293512105942
leaf_count=56 52 53 71 219 85 55 58 163 253 50 70 58 152 70 180 109 50 51 148 58 83 78 50 305 109 71 121 58 55 71
internal_value=-0.00057884 0.014174 0.00424664 -0.0357035 -0.0273181 -0.0339447 0.00187918 -0.040067 0.00486345 0.0123627 -0.00224999 0.028113 -0.045674 0.0396307 0.0354898 0.0461414 0.0291502 -0.0105448 -0.0159239 -0.035616 -0.0225728 -0.00103544 -0.037372 0.0224189 0.0290978 0.00560631 -0.0284469 -0.0113186 0.0584912 -0.000608576
internal_weight=729.284 513.575 369.486 215.709 168.273 147.453 356.695 134.045 331.492 222.97 90.8929 31.1416 121.189 144.089 131.31 96.8049 52.6924 108.521 96.0342 85.5471 51.5127 32.1574 25.2033 132.078 102.382 34.5048 59.6087 31.0184 25.718 29.6951
internal_count=3062 2113 1525 949 730 645 1473 590 1365 916 381 128 534 588 535 394 214 449 398 371 219 136 108 535 414 141 250 129 105 121
is_linear=0
shrinkage=0.05


Tree=9
num_leaves=31
num_cat=0
split_feature=6 6 3 12 3 6 13 15 3 3 3 12 8 12 6 13 12 12 8 11 2 10 13 3 10 11 11 2 12 12
split_gain=122.529 31.6695 25.7633 20.9662 32.5406 22.8495 13.5895 18.5961 10.9526 10.2228 9.37791 10.5509 9.26925 8.85235 10.6887 11.6852 10.562 10.3372 11.6837 9.1663 8.89078 8.5606 11.8131 15.8744 10.1338 9.06335 8.12444 13.1142 7.64964 7.44501
threshold=0.33199999999998231 0.64710000000002321 0.0031727668788834444 0.11685182322846797 0.00048761061531528514 0.20101000000000799 0.17137169114209011 0.00030114484105325806 0.0029067196817436601 -0.0024482320262505688 0.001637985451736953 0.19550173075392518 0.00022710504642235418 -0.021401873955815064 0.38655999999999729 -0.066810682051859624 0.17795087616203567 -0.50274299948896761 0.00030244802152211973 -0.13435516967189184 -0.0013881880811696388 34.292140379697251 0.0076550725233633802 0.00022918421971058242 57.424482027807926 0.016766632282497088 -0.72148559115908018 -0.0011424824298373324 0.12685293703325315 0.27371612871352197
decision_type=2 2 2 2 2 2 2 2 2 2 2 2 2 2 2 2 2 2 2 2 2 2 2 2 2 2 2 2 2 2
left_child=2 6 3 9 -5 -6 7 8 13 -1 11 -7 -12 17 16 29 -15 -2 19 -19 -20 -11 -23 25 -25 -24 -3 -28 -17 -16
right_child=1 26 -4 4 5 10 -8 -9 -10 21 12 -13 -14 14 15 28 -18 18 20 -21 -22 22 23 24 -26 -27 27 -29 -30 -31
leaf_value=0.015672091342182812 0.040581820814303782 0.080837475150029314 -0.065064501005324571 -0.074681999877229593 -0.030534733202365813 0.035259579762148198 0.053842770502270154 -0.019595640047614563 -0.028251293327436835 0.010189326261419742 0.022522970138110901 -0.029430445491475998 0.074295530444005484 -0.019252220857228972 -0.0074608276697907955 0.077338090117107641 0.037141679030552259 0.030201306696998022 -0.040824495050664107 -0.018490193071303989 5.7781029735073868e-05 -0.04625176221129032 -0.02381798334253718 0.021050711439947162 -0.02794839156299507 -0.076819453532840684 0.0026102454166493788 0.053986373517350486 0.032259257022016388 0.043184699485246281
leaf_weight=12.388723164796827 21.483107358217239 14.468512400984762 33.445115372538567 12.593301504850386 23.357419282197952 13.197555467486383 17.627211272716522 48.871579527854919 14.478504687547682 11.637477099895476 20.633134990930557 12.065566614270208 14.880362525582312 19.366426005959511 15.961895585060121 21.435867145657539 14.533517166972159 44.562002688646317 18.36005412042141 12.34273052215576 48.241172522306442 91.758700743317604 19.641109868884087 24.959598705172539 18.280276075005531 13.686424627900122 17.476839825510979 42.936935141682625 16.776325061917305 13.305035665631292
leaf_count=52 87 61 158 55 102 54 72 201 62 51 85 50 61 80 65 87 59 182 76 51 197 411 86 106 79 61 72 177 68 54
internal_value=-0.000559496 0.0178499 -0.0235183 -0.0187116 0.000277105 0.0114971 0.0111396 0.00870925 0.0140124 -0.0282604 0.0276506 0.00436388 0.044216 0.0164961 0.0278306 0.0393379 0.00492486 0.00857087 0.00300276 0.01964 -0.0112123 -0.0312847 -0.0341521 -0.0196517 0.000335639 -0.0455838 0.0471837 0.039124 0.0575471 0.0155631
internal_weight=724.752 402.228 322.525 289.08 96.7273 84.134 327.345 309.718 260.847 192.352 60.7766 25.2631 35.5135 246.368 101.379 67.4791 33.8999 144.989 123.506 56.9047 66.6012 179.964 168.326 76.5674 43.2399 33.3275 74.8823 60.4138 38.2122 29.2669
internal_count=3062 1651 1411 1253 407 352 1341 1269 1068 846 250 104 146 1006 413 274 139 593 506 233 273 794 743 332 185 147 310 249 155 119
is_linear=0
shrinkage=0.05


Tree=10
num_leaves=31
num_cat=0
split_feature=7 7 3 3 12 3 7 12 3 12 3 3 12 17 14 12 12 7 15 10 17 6 17 16 4 4 15 14 10 3
split_gain=123.126 28.3253 22.4217 26.3139 32.4579 25.8037 19.3369 17.3812 15.2999 19.9217 28.226 15.9876 15.1375 16.8084 13.8787 12.6652 11.4525 11.0164 10.5181 9.3872 10.228 9.38441 10.1721 8.13815 7.79065 7.27534 8.52221 6.60014 6.34892 18.0656
threshold=0.37080999999999453 0.20563333333331765 0.00039768831430858203 0.0034156749819030633 -0.021401873955815064 -0.0027396812593684619 0.78565666666665579 1.0000000180025095e-35 0.00057014335104235063 -0.34206251006882582 -0.0021808088996513376 -0.0043959220015506164 0.073121522443405862 0.000510653174036248 5.5771970413821448e-05 -0.04285571744043206 -0.1714186541058699 0.17194333333333514 0.00033141483905785313 66.637251435169375 0.00076384615896079179 0.46137000000001088 0.00075318012858756496 0.00055872293257333864 0.59678495119789654 0.39538269677021604 -0.00039019664728101583 0.00017711376656106959 53.811973796189939 0.0021076272395723268
decision_type=2 2 2 2 2 2 2 2 2 2 2 2 2 2 2 2 2 2 2 2 2 2 2 2 2 2 2 2 2 2
left_child=1 7 5 4 -4 -3 8 17 9 11 23 -2 13 -10 15 16 -7 -1 -8 20 24 -13 -23 -11 -14 -12 -27 -9 -6 -30
right_child=6 2 3 -5 28 14 18 27 12 10 25 21 19 -15 -16 -17 -18 -19 -20 -21 -22 22 -24 -25 -26 26 -28 -29 29 -31
leaf_value=0.022973560431105856 0.045387514240581281 0.035142933208400999 -0.041821192111487132 -0.066301209355532659 0.033836397907421087 0.0022807029354500736 0.077361718613309427 -0.067893057299325196 -0.017757546319618043 -0.033255708142668712 0.016008965001910177 0.014042943789960649 0.025336476825416062 0.047524020461885606 -0.066237585328356566 0.010400374764767045 -0.05399366758197896 -0.037786880253503088 0.01976629344322595 0.020792594945757203 -0.043982677813429787 -0.061516087697252045 -0.0019866395590803108 0.017112263791942178 -0.01962496752413043 0.024437337484653439 0.064770708718351305 -0.031625579197060237 -0.011365458242500194 0.036849774483749646
leaf_weight=12.569386824965479 17.174430698156357 13.373238638043402 28.95203872025013 13.91722536087036 38.764117211103439 12.233796432614325 21.561738699674606 48.731138423085213 14.465093374252318 12.883696287870405 12.726217240095137 22.25910148024559 15.260357037186621 30.973460868000984 31.430763468146324 17.635313466191292 34.643543392419815 18.35193145275116 12.535252392292021 20.268111154437065 24.173149675130844 13.195901781320574 15.73043818771839 21.242325305938721 26.134606271982193 16.394268155097961 65.112993285059929 16.893463626503944 45.648361578583717 33.822498083114624
leaf_count=55 70 55 128 65 161 52 93 233 59 53 52 90 63 126 140 76 155 83 52 84 99 54 64 87 108 67 264 79 190 142
internal_value=-0.00033487 -0.0207457 -0.0124454 -0.000585724 0.00562798 -0.0299235 0.0203508 -0.0439943 0.0166253 0.0254469 0.0370586 0.00364362 0.00340582 0.026742 -0.0389929 -0.0257192 -0.0393075 -0.013088 0.0561876 -0.00894751 -0.0181406 -0.0103629 -0.0291434 -0.0019033 -0.00304982 0.0511684 0.0566581 -0.0585569 0.0172468 0.00915476
internal_weight=729.058 366.967 270.421 161.104 147.187 109.317 362.091 96.5459 327.994 196.719 128.36 68.3599 131.275 45.4386 95.9434 64.5127 46.8773 30.9213 34.097 85.8362 65.5681 51.1854 28.9263 34.126 41.395 94.2335 81.5073 65.6246 118.235 79.4709
internal_count=3099 1614 1164 686 621 478 1485 450 1340 801 523 278 539 185 423 283 207 138 145 354 270 208 118 140 171 383 331 312 493 332
is_linear=0
shrinkage=0.05


Tree=11
num_leaves=31
num_cat=0
split_feature=18 12 18 4 3 18 3 6 3 8 18 14 14 6 8 12 3 3 11 1 3 12 4 14 15 6 10 10 12 1
split_gain=129.523 51.0596 39.5596 31.7615 24.4745 33.6485 24.0176 23.2832 24.0891 17.6546 12.7816 12.1321 12.1976 20.4444 10.6255 10.3476 25.5093 35.1159 13.2101 11.3764 14.2183 11.7794 10.8826 10.695 17.735 10.6883 9.15918 8.5775 8.41781 10.2522
threshold=119.50000000000001 -0.145738992578756 233.50000000000003 0.33193964549217886 -0.0027396812593684619 183.50000000000003 0.0028659005393003216 0.37799999999998596 0.0021076272395723268 0.00011968414823614326 188.50000000000003 -0.00099570424049920977 -0.00030835703553477818 0.41400000000002141 0.00034065786358250722 0.08356048859747682 -0.00039324041703702595 -0.0017044910812318737 0.17587713050340884 0.0012073328633461779 0.00054125828879655002 0.2767422799901933 0.52917953443044918 0.00066100181503301692 0.00014535092667855579 0.33465000000002199 57.850095725087108 54.789819659783142 -0.53652998305342237 -0.00097647190465377498
decision_type=2 2 2 2 2 2 2 2 2 2 2 2 2 2 2 2 2 2 2 2 2 2 2 2 2 2 2 2 2 2
left_child=11 2 4 -3 10 -6 7 8 26 -10 -2 -1 13 -13 -9 16 17 -14 -17 20 -20 25 -18 24 -23 -22 -5 -11 -15 -30
right_child=1 3 -4 6 5 -7 -8 14 9 27 -12 12 15 28 -16 18 22 -19 19 -21 21 23 -24 -25 -26 -27 -28 -29 29 -31
leaf_value=0.063491603476689626 -0.080994224329160869 0.04887975763139385 0.076610963459843015 -0.036104502853564362 0.076191309524841613 -0.019644735003098858 -0.063480165088031615 0.039598298903053289 0.048626515493557072 -0.047621122942116331 -0.0080709690083527914 0.054528913432254349 0.060819240041363222 0.017974445667635282 -0.015058247977952769 -0.0083501715839310407 0.016598288911665232 -0.040395987699364026 0.061937040963940683 -0.010436631508698366 0.082048970696042056 0.0229376832692888 0.06783297488614641 0.037479611508873405 -0.048472493316524021 0.016080503484663538 -0.066041056034110313 0.0043009342962153779 0.0060024008805017112 -0.04867730140300669
leaf_weight=16.744581699371338 11.943257018923761 12.279679998755453 19.628137484192848 121.9561410099268 15.694309279322622 21.99503268301487 53.442997887730598 16.913846045732498 12.903383791446684 15.339669421315195 12.093193009495733 13.663987368345259 15.118443384766577 14.334448397159575 18.749018132686615 39.126684322953224 13.170490384101866 19.782660067081451 27.938328489661217 19.290252506732941 12.320228502154352 19.486670359969139 48.646524012088776 19.188181400299072 15.699400141835211 12.240553036332129 32.321591332554817 16.520965039730072 14.063175857067103 21.956299617886547
leaf_count=72 50 51 81 553 64 95 261 69 54 65 50 55 61 59 77 161 54 84 116 79 50 80 199 79 66 50 147 69 58 90
internal_value=-0.000326546 -0.0203576 0.0147808 -0.0298728 -0.00488054 0.0202626 -0.033229 -0.0263407 -0.0330067 -0.000714639 -0.0443052 0.0219842 0.0198524 0.000287038 0.0108637 0.0246329 0.0376227 0.00344838 0.017032 0.0249037 0.0312825 0.0204327 0.0569171 0.00745124 -0.00892427 0.0491717 -0.0423763 -0.0206975 -0.014432 -0.0273286
internal_weight=724.552 381.781 81.3539 300.427 61.7258 37.6893 288.148 234.705 199.042 44.764 24.0365 342.771 326.026 64.0179 35.6629 262.008 96.7181 34.9011 165.29 126.164 106.873 78.935 61.817 54.3743 35.1861 24.5608 154.278 31.8606 50.3539 36.0195
internal_count=3099 1686 340 1346 259 159 1295 1034 888 188 100 1413 1341 262 146 1079 398 145 681 520 441 325 253 225 146 100 700 134 207 148
is_linear=0
shrinkage=0.05


Tree=12
num_leaves=31
num_cat=0
split_feature=18 7 18 4 11 3 3 8 7 13 17 18 3 18 15 4 7 18 11 3 3 12 14 12 3 17 1 8 7 11
split_gain=117.999 56.9077 39.0537 28.8012 21.3397 17.3147 16.5399 16.738 15.6067 20.5287 12.5391 11.7176 43.1711 10.6061 9.83346 9.83053 9.05629 19.9678 21.1089 20.3766 28.6337 20.1316 15.1425 12.3577 13.0779 10.5631 8.40032 8.26132 8.39606 7.00205
threshold=125.50000000000001 0.40935666666667886 176.50000000000003 0.33193964549217886 0.081551497962436784 0.0028659005393003216 0.0021076272395723268 0.00011968414823614326 0.78565666666665579 0.2198462394190446 0.0011591081687939307 238.50000000000003 0.00084940355733385722 181.50000000000003 0.00033141483905785313 0.80907745902459693 0.52652333333333379 60.500000000000007 -0.22319985812873708 -0.0016685407369664367 -0.00056498625239619798 0.073121522443405862 -0.00018183385729018294 0.17795087616203567 0.0025186091181572056 0.00046534200219526122 -0.00075894654104935444 0.0005779010008926884 0.5436566666666599 -0.40399062979741979
decision_type=2 2 2 2 2 2 2 2 2 2 2 2 2 2 2 2 2 2 2 2 2 2 2 2 2 2 2 2 2 2
left_child=8 3 4 -2 -3 6 11 -8 9 10 16 -5 15 -9 -10 -13 17 18 -1 -19 -21 -22 26 -23 -25 -20 -18 28 -12 -4
right_child=1 2 29 5 -6 -7 7 13 14 -11 27 12 -14 -15 -16 -17 22 19 25 20 21 23 -24 24 -26 -27 -28 -29 -30 -31
leaf_value=-0.061001697828364947 0.04514130304724142 0.015386476053119042 0.037203803052995914 -0.041336129107448383 -0.066091833643353456 -0.062522285694415605 0.049846492970633316 0.019130827978509478 0.073765434178725886 0.079802960650119784 -0.0019698443463421257 0.051069121092385907 -0.068854099241078215 -0.038617952839938852 0.01752604632420238 -0.0060662055066216516 0.035773169132477571 0.06646298806541058 -0.017687142554887177 -0.045827039337383177 0.064767520956655236 -0.017913065654400651 0.062499198659863309 0.05213432590165995 -0.012907587541484036 0.023572733695715754 -0.019982644813064977 0.01889834566864141 -0.051459883817784539 0.08704347956794764
leaf_weight=14.190595641732214 12.350946545600889 23.223906829953194 12.373626440763475 145.70240664482117 12.288053706288336 41.934278666973114 12.003121986985205 12.18231564760208 20.778263583779335 12.407151281833647 21.553823530673981 16.260033696889881 20.867152810096741 22.889648452401161 12.417705744504927 14.019670426845549 14.719188675284387 25.320500895380974 26.553535595536232 15.658816635608671 25.568093881011009 22.067864537239075 28.137247547507286 22.725457355380058 11.711162626743315 37.30618155002594 12.485999673604963 19.36111806333065 14.226595044136046 16.370917648077011
leaf_count=59 51 96 50 656 54 215 50 50 93 52 88 72 98 98 52 64 60 102 110 67 104 91 116 92 51 153 51 79 58 67
internal_value=-0.000318872 -0.0204173 0.0222627 -0.0296137 -0.0128071 -0.0328436 -0.0277414 -0.00111694 0.0200764 0.016731 0.0142195 -0.0341084 -0.0135189 -0.0185588 0.0527278 0.0246151 0.0188707 0.0139415 -0.00584108 0.0264894 0.0161329 0.0279544 0.036782 0.0112966 0.030015 0.00641645 0.0101837 -0.00741117 -0.0216475 0.0655891
internal_weight=719.655 362.466 64.2565 298.21 35.512 285.859 243.924 47.0751 357.189 323.993 311.586 196.849 51.1469 35.072 33.196 30.2797 256.445 201.102 78.0503 123.052 97.7314 82.0726 55.3424 56.5045 34.4366 63.8597 27.2052 55.1415 35.7804 28.7445
internal_count=3099 1621 267 1354 150 1303 1088 198 1478 1333 1281 890 234 148 145 136 1056 829 322 507 405 338 227 234 143 263 111 225 146 117
is_linear=0
shrinkage=0.05


Tree=13
num_leaves=31
num_cat=0
split_feature=18 7 18 4 3 3 3 3 8 7 13 3 18 10 3 3 7 18 10 12 3 7 3 13 4 7 10 7 3 14
split_gain=107.431 52.1218 38.1262 26.6072 17.4131 27.6271 16.1408 16.4156 14.7067 14.5325 18.9976 10.1462 9.83017 9.35698 8.32756 16.9417 16.8862 11.3711 28.6191 14.1307 18.6869 12.0861 17.2925 7.73548 7.30333 7.58197 17.2721 19.6037 28.4269 6.93384
threshold=125.50000000000001 0.40225999999998224 176.50000000000003 0.33193964549217886 0.0015861284481130703 -0.0010910132406357338 0.0028659005393003216 0.0021076272395723268 0.00011968414823614326 0.78565666666665579 0.2198462394190446 -0.0052423309771510935 215.50000000000003 59.069933140189413 0.0032551089505083136 0.0017213756537795921 0.40935666666667886 95.500000000000014 51.683204882667688 -0.20889523729025031 -0.0014180405276687121 0.52354999999999274 0.00043214321562269929 -0.026598543671176141 1.0098461601914486 0.24759333333333114 56.325401256640482 0.19188666666666832 0.0001897349427826926 0.00016098984083715197
decision_type=2 2 2 2 2 2 2 2 2 2 2 2 2 2 2 2 2 2 2 2 2 2 2 2 2 2 2 2 2 2
left_child=9 3 4 -2 5 -3 7 11 -9 10 14 -5 -10 -11 15 17 -17 19 -19 20 23 29 -23 -1 25 26 27 -13 -29 -21
right_child=1 2 -4 6 -6 -7 -8 8 12 13 -12 24 -14 -15 -16 16 -18 18 -20 21 -22 22 -24 -25 -26 -27 -28 28 -30 -31
leaf_value=-0.025937748348145464 0.042707294375774953 -0.047534071518475322 0.060584489767216344 0.0097528144006618391 -0.064539527804656452 0.055131954302419087 -0.061232366958759145 0.047013571186743618 0.0032502604623665821 0.071388038500605197 0.077168117928225421 -0.045926919249450644 -0.052620143286043877 0.015895711453035533 -0.01430610161847895 0.071931867049423184 0.012658765036900789 0.055176464291800648 -0.01654087491567106 0.014776277116017559 -0.061245903845802044 0.066340900153846957 -0.00028612179913986297 0.024576133541340986 -0.052461359023277893 -0.04200743621418835 -0.067862857086863737 -0.031664112296410384 0.065886059278445097 -0.013217613910957968
leaf_weight=12.82622827589512 12.400751411914824 12.005606472492216 30.977139428257942 12.588703870773314 11.80364742875099 14.427139326930048 40.707977026700974 12.087777286767958 21.489577919244766 20.628558427095413 12.194597348570822 17.15135033428669 12.424976795911787 12.024408727884291 24.700467646121979 24.634158357977867 23.458332806825638 38.478459104895592 21.787125691771507 51.043008908629417 16.955762624740601 21.309344500303268 17.935277312994003 18.525301784276962 51.981865048408508 65.189399942755699 13.254470616579054 13.817481949925424 16.252357140183449 39.037484854459763
leaf_count=53 51 50 127 53 53 59 215 50 90 95 52 86 54 50 106 101 95 157 91 211 70 90 73 75 243 292 64 66 68 159
internal_value=-0.000310398 -0.019622 0.0193554 -0.0289456 -0.0140463 0.00850162 -0.032154 -0.0271433 -0.000340586 0.0191653 0.0159507 -0.0336247 -0.0172185 0.0509531 0.0135479 0.0159536 0.0430199 0.010482 0.0292493 0.00411478 -0.0189593 0.0127337 0.0358915 0.00391039 -0.0366986 -0.0301782 -0.017427 -0.00327021 0.0210605 0.00264478
internal_weight=714.099 358.56 69.2135 289.347 38.2364 26.4327 276.946 236.238 46.0023 355.539 322.886 190.236 33.9146 32.653 310.691 285.99 48.0925 237.898 60.2656 177.632 48.3073 129.325 39.2446 31.3515 177.647 125.665 60.4757 47.2212 30.0698 90.0805
internal_count=3099 1621 289 1332 162 109 1281 1066 194 1478 1333 872 144 145 1281 1175 196 979 248 731 198 533 163 128 819 576 284 220 134 370
is_linear=0
shrinkage=0.05


Tree=14
num_leaves=31
num_cat=0
split_feature=18 7 18 4 3 3 3 13 7 3 8 18 3 10 18 12 3 4 7 7 3 18 8 3 3 13 1 18 11 11
split_gain=98.3122 47.2037 34.6478 22.8314 17.9935 41.2056 17.0978 16.306 17.2078 15.9962 11.3696 11.4581 9.69971 8.98096 9.35347 12.0699 19.6353 10.8907 8.9879 15.1774 24.1546 8.83892 11.7434 10.676 22.5758 11.8772 9.64527 10.0473 18.7105 8.38323
threshold=119.50000000000001 0.40225999999998224 176.50000000000003 0.33193964549217886 -0.0021808088996513376 0.0011662545588210355 0.0028659005393003216 0.17137169114209011 0.78565666666665579 0.0021076272395723268 0.00011968414823614326 182.50000000000003 0.00082839991312709071 56.444816036949994 139.50000000000003 -0.23458680657832878 -0.0027396812593684619 0.9985036455441777 0.24759333333333114 0.19188666666666832 0.0001897349427826926 26.500000000000004 0.00035025959195203866 0.0032551089505083136 0.0017213756537795921 -0.026123126329700562 0.00079236642678881541 97.500000000000014 0.029055239913304835 -0.093821669068290689
decision_type=2 2 2 2 2 2 2 2 2 2 2 2 2 2 2 2 2 2 2 2 2 2 2 2 2 2 2 2 2 2
left_child=7 3 4 -2 -3 -6 9 8 21 13 -11 -12 -9 14 -5 -16 -17 18 19 -18 -21 22 -1 24 26 -26 27 29 -29 -23
right_child=1 2 -4 6 5 -7 -8 12 -10 10 11 -13 -14 -15 15 16 17 -19 -20 20 -22 23 -24 -25 25 -27 -28 28 -30 -31
leaf_value=-0.040617814774273113 0.038511129523790454 -0.064421691795818622 0.057992109316112261 0.015432834047606439 0.064471926994106074 -0.04710376761061013 -0.060275861604024317 0.019283723044887957 0.060465372657049557 0.040421325368787953 0.024754022945660769 -0.035535249062396621 0.077700386186323633 -0.052526409751656136 -0.073361814389059254 0.033984164824670177 -0.044295919417330312 -0.055217406218000691 -0.040159887934015787 -0.031000086096653185 0.061824608741971022 -0.0060364715582491429 0.012515927099982005 -0.017969370233319213 0.015780586643280508 0.073070875044463857 -0.022505845013534323 0.06118519337275851 -0.011971119331844188 0.020081396996282801
leaf_weight=16.954165667295456 12.653236508369444 11.639536812901495 30.749512627720833 12.522404879331587 16.306411370635033 16.800119668245316 40.3360296189785 11.770664662122728 20.123945400118828 13.143565639853476 12.187927335500715 22.300780326128006 17.93108032643795 40.212569355964661 14.205459862947462 12.78904841840267 16.601083323359489 33.67090405523777 35.3343166410923 13.833349689841272 14.204823598265646 53.587280601263046 26.895833015441895 20.741760969161987 13.751368165016173 26.442994326353073 18.143549397587776 27.211964502930641 12.875795498490332 72.01058192551136
leaf_count=70 52 49 127 53 67 75 219 50 93 54 50 97 78 190 63 54 85 163 162 67 59 221 112 89 56 109 74 111 54 296
internal_value=-0.000302614 -0.0181353 0.0171314 -0.0271915 -0.010948 0.00785213 -0.0301465 0.0191662 0.0157621 -0.0251039 0.000850616 -0.0142297 0.0545501 -0.031497 -0.0259758 -0.0296628 -0.024753 -0.031363 -0.0213197 -0.00640664 0.0160272 0.0126451 -0.00802771 0.0163487 0.0195261 0.0534706 0.0121041 0.0158941 0.0376881 0.00893801
internal_weight=707.932 369.491 75.4956 293.995 44.7461 33.1065 281.342 338.441 308.739 241.006 47.6323 34.4887 29.7017 193.374 153.161 140.639 126.434 113.644 79.9736 44.6393 28.0382 288.615 43.85 244.765 224.024 40.1944 183.829 165.686 40.0878 125.598
internal_count=3099 1686 318 1368 191 142 1316 1413 1285 1097 201 147 128 896 706 653 590 536 373 211 126 1192 182 1010 921 165 756 682 165 517
is_linear=0
shrinkage=0.05


Tree=15
num_leaves=31
num_cat=0
split_feature=18 7 18 3 4 7 13 12 17 3 3 18 10 3 3 18 10 12 6 10 3 5 12 6 7 12 18 10 12 12
split_gain=84.736 50.4293 33.7777 29.5099 17.1874 15.5416 16.0543 15.1271 11.3098 10.1003 19.288 11.5486 8.58807 7.60224 18.0363 14.8029 32.1802 16.8102 16.7426 15.0131 10.6663 9.60343 8.41688 8.07471 7.35672 7.33366 7.09671 7.01869 9.26053 12.8657
threshold=128.50000000000003 0.40225999999998224 176.50000000000003 -0.0058798993041305472 0.35498850822795719 0.78565666666665579 0.2198462394190446 0.035871786926524082 0.0011591081687939307 0.0028659005393003216 0.0023685388528383714 148.50000000000003 60.237751386768146 0.0031727668788834444 0.0017213756537795921 94.500000000000014 51.790719371972919 -0.084827196480072087 0.42136000000001567 49.704589673711517 -0.0023847753765534282 -0.39080277410620706 -0.1420921220696191 0.37643000000000487 0.54685666666667887 0.033492075709932255 62.500000000000007 55.997847478758395 -0.21952845243646077 -0.15855157010732454
decision_type=2 2 2 2 2 2 2 2 2 2 2 2 2 2 2 2 2 2 2 2 2 2 2 2 2 2 2 2 2 2
left_child=5 3 7 -2 -5 6 8 -3 13 10 11 -6 -7 14 15 17 22 20 19 -19 -1 -21 -17 -16 -10 -12 -26 28 -13 -30
right_child=1 2 -4 4 9 12 -8 -9 24 -11 25 27 -14 -15 23 16 -18 18 -20 21 -22 -23 -24 -25 26 -27 -28 -29 29 -31
leaf_value=0.013492269791683248 0.055776616063133201 0.013452773144343379 0.058903281125217193 0.023437383271684032 -0.0012681764188855419 0.07114431575992318 0.069770160648327667 -0.05522360947745672 0.0098184513207470424 -0.057136664063019905 0.035690008639177991 -0.075346904429754891 0.017332745358761403 -0.016667027522158991 0.070425739968401971 0.081461091188166884 -0.017473600409867295 0.036857454070148558 0.043247257604989681 -0.04039346147364592 -0.036479480092171938 0.0084834142040436881 0.035477774359270541 0.02214145888459839 0.0011471693446813561 -0.013163320833578906 -0.049194998981748533 -0.059239128579759506 0.021225542107569162 -0.035092380168135699
leaf_weight=15.964642062783239 10.468167155981062 21.072515934705734 31.967497766017914 14.359592810273169 22.570310965180397 19.706202656030658 12.480251729488371 12.943371713161467 27.932467207312584 36.485994383692741 13.30976238846779 12.278041362762449 11.887112900614737 16.27877701818943 21.743440791964531 21.066341146826744 20.383303001523018 18.79968598484993 35.903277322649956 21.223467990756035 32.248605772852898 19.088943958282471 18.861590459942818 14.388649210333822 12.807874709367754 18.167908281087875 15.439600214362143 35.10015344619751 11.213302582502363 106.04421500861645
leaf_count=65 44 89 133 60 99 95 55 58 115 205 55 56 50 72 91 86 86 78 150 87 134 78 78 59 53 75 63 171 49 508
internal_value=0.000301939 -0.0173219 0.0220009 -0.0265887 -0.0297876 0.01742 0.0141617 -0.0126792 0.0119383 -0.0327828 -0.0287196 -0.0348086 0.0508975 0.0163973 0.0186431 0.0128641 0.0336436 0.00411415 0.0163161 -4.13004e-05 -0.0199326 -0.017249 0.059739 0.0511978 -0.00837674 0.00749342 -0.026369 -0.0394067 -0.0340327 -0.0297067
internal_weight=702.185 345.981 65.9834 279.997 269.529 356.204 324.611 34.0159 312.131 255.17 218.684 187.206 31.5933 255.951 239.672 203.54 60.3112 143.229 95.0154 59.1121 48.2132 40.3124 39.9279 36.1321 56.1799 31.4777 28.2475 164.636 129.536 117.258
internal_count=3097 1602 280 1322 1278 1495 1350 147 1295 1218 1013 883 145 1064 992 842 250 592 393 243 199 165 164 150 231 130 116 784 613 557
is_linear=0
shrinkage=0.05


Tree=16
num_leaves=31
num_cat=0
split_feature=18 7 18 3 4 7 13 3 17 3 3 18 10 7 3 3 10 18 11 18 14 7 3 13 4 15 8 7 8 10
split_gain=77.2395 46.1312 30.8396 26.9943 15.7738 14.5242 14.9375 12.3443 10.2595 9.822 17.7867 10.7462 8.27459 7.34725 14.6582 21.2554 18.7388 28.4315 16.3099 12.9326 18.1755 8.47459 8.33077 8.00832 7.87365 7.44674 6.89833 9.32592 6.78461 6.71804
threshold=128.50000000000003 0.40225999999998224 176.50000000000003 -0.0058798993041305472 0.35498850822795719 0.78565666666665579 0.2198462394190446 0.0011662545588210355 0.0011591081687939307 0.0028659005393003216 0.0023685388528383714 148.50000000000003 60.237751386768146 0.52652333333333379 0.0031727668788834444 0.0017213756537795921 51.683204882667688 94.500000000000014 -0.093821669068290689 50.500000000000007 -0.00014208609680445254 0.37199666666667408 -0.001738142572347691 -0.038394343771449839 0.70962097329986651 -0.00011033054818748721 0.0005779010008926884 0.5436566666666599 0.00015043714763686084 55.997847478758395
decision_type=2 2 2 2 2 2 2 2 2 2 2 2 2 2 2 2 2 2 2 2 2 2 2 2 2 2 2 2 2 2
left_child=5 3 7 -2 -5 6 8 -3 13 10 11 -6 -7 14 15 16 17 18 22 -15 -21 -19 -1 -18 -25 -20 27 -10 -12 -13
right_child=1 2 -4 4 9 12 -8 -9 26 -11 28 29 -14 19 -16 -17 23 21 25 20 -22 -23 -24 24 -26 -27 -28 -29 -30 -31
leaf_value=0.013006951604080311 0.053617137859666875 0.0092869862371583369 0.056546970369567157 0.022207274042490455 -0.0012051213100488603 0.069701075860442163 0.067748603621564596 -0.054702925737428215 -0.0012878189172945819 -0.056031283114075653 0.034079203250552512 -0.032765669305809132 0.016523293895268267 0.062212357358854775 -0.039070123448992779 0.052074089451676298 0.021271949940687158 0.028157038748954578 0.0045422488451166629 -0.024628577810980833 0.051535650833065966 0.080122552853078219 -0.037835767517648722 -0.047950879144019562 -0.0071330491418490453 0.058492814640847157 0.015837260916811535 -0.053580019078783361 -0.012848641445181899 -0.057697592252242559
leaf_weight=12.259207442402834 10.348349764943121 22.54434771835804 31.642848566174507 14.396269023418425 22.563857138156891 19.123308286070827 12.216713160276411 11.321588039398192 22.764680296182632 35.373822495341301 13.401353791356089 127.87389297783375 11.84701696038246 21.414237827062607 13.47648113965988 31.950435429811478 12.893233165144919 13.143080696463583 12.62425844371319 16.369880422949795 15.019887834787367 19.465232208371162 23.50395300984383 19.283523619174957 30.502807959914207 12.964611724019049 19.735885545611382 13.631917312741278 18.110364839434624 34.257554247975349
leaf_count=50 44 95 133 60 99 95 55 52 94 205 55 613 50 92 61 134 52 54 52 67 62 81 99 81 126 53 81 56 75 171
internal_value=0.000286397 -0.0166682 0.021056 -0.0256115 -0.0286941 0.0166495 0.0135154 -0.0121052 0.011385 -0.0316068 -0.0276107 -0.0335344 0.0493591 0.0156469 0.0113072 0.0149071 0.00732599 0.0214507 0.0013992 0.0322537 0.0118157 0.0591774 -0.0204075 -0.0138478 -0.0229428 0.0318763 -0.00796603 -0.0208732 0.00710891 -0.0380337
internal_weight=696.025 341.834 65.5088 276.325 265.977 354.19 323.22 33.8659 311.003 251.581 216.207 184.695 30.9703 254.871 202.067 188.59 156.64 93.9603 61.352 52.804 31.3898 32.6083 35.7632 62.6796 49.7863 25.5889 56.1325 36.3966 31.5117 162.131
internal_count=3097 1602 280 1322 1278 1495 1350 147 1295 1218 1013 883 145 1064 843 782 648 389 254 221 129 135 149 259 207 105 231 150 130 784
is_linear=0
shrinkage=0.05


Tree=17
num_leaves=31
num_cat=0
split_feature=18 7 18 3 4 7 13 3 3 3 18 17 1 7 3 3 10 18 7 3 18 14 7 7 13 4 4 5 3 18
split_gain=70.464 42.2001 28.1897 24.6993 14.4753 13.5691 13.9161 11.3618 9.55509 16.3856 9.99165 9.32671 8.68454 6.72009 13.3571 19.378 17.0013 26.0019 12.3856 16.2191 11.9549 16.5212 8.71142 7.97523 7.25141 7.21071 6.65491 17.5093 8.0069 19.7359
threshold=128.50000000000003 0.40225999999998224 176.50000000000003 -0.0058798993041305472 0.35498850822795719 0.78565666666665579 0.2198462394190446 0.0011662545588210355 0.0028659005393003216 0.0023685388528383714 148.50000000000003 0.0011591081687939307 0.0012073328633461779 0.52652333333333379 0.0031727668788834444 0.0017213756537795921 51.683204882667688 94.500000000000014 0.47131000000000167 1.0000000180025095e-35 50.500000000000007 -0.00014208609680445254 0.3755933333333133 0.37199666666667408 -0.038394343771449839 0.70962097329986651 0.82529892394107518 -0.31794287128262561 0.00082839991312709071 215.50000000000003
decision_type=2 2 2 2 2 2 2 2 2 2 2 2 2 2 2 2 2 2 2 2 2 2 2 2 2 2 2 2 2 2
left_child=5 3 7 -2 -5 6 11 -3 9 10 -6 13 -7 14 15 16 17 18 19 22 -15 -22 -1 -19 -18 -26 27 28 29 -12
right_child=1 2 -4 4 8 12 -8 -9 -10 -11 26 -13 -14 20 -16 -17 24 23 -20 -21 21 -23 -24 -25 25 -27 -28 -29 -30 -31
leaf_value=-0.038293191379209369 0.051589284022413556 0.0088219276989049394 0.054346768164700313 0.021049617156411723 -0.0011451852721810559 0.068411824372069982 0.065882283463384442 -0.052938982658380533 -0.054975090598694112 0.0067516298875223944 -0.058213460301248438 -0.0075763549557660822 0.013012611108997716 0.059986633104309656 -0.037610115741635815 0.049874270286433445 0.020202746339153706 0.026773472020253437 -0.043533618624605669 0.055488723457954109 -0.023425086174332508 0.049362499166741791 0.013750170506971929 0.07735952517730546 -0.045952372995140933 -0.006782261749184941 -0.047652979072353163 0.021953481158416287 -0.053071987287073942 0.019964817476391193
leaf_weight=13.258890226483343 10.220629945397375 22.546110048890114 31.286776840686798 14.427768915891646 22.557711377739906 19.106301814317707 11.941644951701162 11.119072526693342 34.278654083609581 31.513575598597527 16.204595655202866 56.07541124522686 11.233516246080397 21.106193050742149 13.304098859429358 31.698123812675476 12.896706849336622 13.131443977355955 12.292547434568403 15.198774263262747 16.3508375287056 14.900120258331297 20.43112550675869 19.160112008452415 19.12024812400341 30.477104067802429 74.187203392386436 14.95620922744274 38.279635474085808 16.087123155593872
leaf_count=57 44 95 133 60 99 95 55 52 205 130 81 231 50 92 61 134 52 54 51 62 67 62 84 81 81 126 372 69 186 76
internal_value=0.000272949 -0.0160413 0.020178 -0.0246676 -0.0276368 0.0159369 0.0129191 -0.0115767 -0.0304685 -0.0265391 -0.0322948 0.0108749 0.0478999 0.0149593 0.0108026 0.0142347 0.0069915 0.0204896 0.00133092 0.0126116 0.0309142 0.0112793 -0.00673178 0.0567886 -0.0131977 -0.0218827 -0.0366943 -0.0271887 -0.0376034 -0.0192665
internal_weight=689.348 337.665 64.952 272.713 262.492 351.683 321.343 33.6652 248.065 213.786 182.272 309.402 30.3398 253.326 200.969 187.665 155.967 93.4729 61.1813 48.8888 52.3572 31.251 33.69 32.2916 62.4941 49.5974 159.715 85.5276 70.5714 32.2917
internal_count=3097 1602 280 1322 1278 1495 1350 147 1218 1013 883 1295 145 1064 843 782 648 389 254 203 221 129 141 135 259 207 784 412 343 157
is_linear=0
shrinkage=0.05


Tree=18
num_leaves=31
num_cat=0
split_feature=18 7 18 3 12 7 3 3 13 7 12 12 12 3 18 6 12 18 3 18 11 3 15 12 7 3 13 5 5 12
split_gain=64.3259 38.6315 25.7958 22.6156 12.9953 12.6511 12.0143 12.3799 11.8493 11.663 12.8272 9.48164 13.8161 11.8118 37.6766 15.2832 13.3469 9.69736 8.75368 12.0587 23.7098 17.2297 14.9275 13.0499 12.711 9.47178 11.614 14.5865 10.39 10.0673
threshold=128.50000000000003 0.40225999999998224 176.50000000000003 -0.0058798993041305472 0.035871786926524082 0.78565666666665579 0.0028659005393003216 0.0023685388528383714 0.17691921867977531 0.19188666666666832 -0.21952845243646077 -0.16529265082091968 -0.075609101993810698 0.00068100154832783581 211.50000000000003 0.27398999999996937 0.14053571597022643 215.50000000000003 0.0032551089505083136 94.500000000000014 -0.23683696015865505 -0.0023847753765534282 0.00016161509499912355 -0.1420921220696191 0.29450000000000881 0.0021204778279932659 -0.056465144691485517 0.045239463976876233 -0.54192282759984367 0.09016961002923353
decision_type=2 2 2 2 2 2 2 2 2 2 2 2 2 2 2 2 2 2 2 2 2 2 2 2 2 2 2 2 2 2
left_child=5 3 4 -2 -3 8 7 9 18 -5 -11 -12 -13 17 15 16 -15 -14 19 20 21 -1 23 -21 -25 26 27 28 -22 -28
right_child=1 2 -4 6 -6 -7 -8 -9 -10 10 11 12 13 14 -16 -17 -18 -19 -20 22 25 -23 -24 24 -26 -27 29 -29 -30 -31
leaf_value=0.012518527281207704 0.049677237979422889 0.012901947722172595 0.052282915798523101 -0.054158401373185609 -0.051570820945812806 0.046449073738704313 -0.054403606071215777 0.0063273927836832722 0.052198146793000937 -0.071789450072996405 0.025622593525996957 -0.047798104430534408 -0.050697951906503572 0.087726757878621497 -0.067621424517320158 -0.007079864158921631 0.013318456723720505 -0.0014652491056145068 -0.019707276784282163 0.073210588371130467 0.02125192482213363 -0.051324781528849367 -0.010219924003679662 0.059018729662403069 0.0023947611870519759 0.047361670864374664 0.020453428476697545 -0.01103891434311936 0.077708201873177174 -0.014463756752034655
leaf_weight=17.348365545272827 10.086745515465735 21.017871931195259 30.905470013618469 33.288249462842941 12.44283491373062 29.743750616908073 33.859657242894173 32.03520704805851 17.630636438727379 11.801801040768622 11.674437448382376 36.201051905751228 26.089864701032639 12.749710932374002 14.24795515835285 19.335634514689445 11.42910425364971 16.220316156744957 22.875544860959053 20.489390060305595 16.649193048477169 27.038405746221542 18.884665742516518 16.245334282517433 25.418478339910507 19.836778804659843 34.248367130756378 14.746455267071722 15.963385552167894 51.964183956384659
leaf_count=71 44 89 133 183 58 145 208 132 80 57 51 177 127 54 70 87 50 82 102 86 70 114 79 67 109 84 143 62 67 216
internal_value=0.000258895 -0.0154488 0.0193473 -0.0237742 -0.0110732 0.0152603 -0.0266355 -0.0224581 0.0123553 -0.0272351 -0.0216249 -0.0176233 -0.0213281 -0.0117527 0.00294912 0.0260561 0.0525546 -0.0318238 0.010027 0.0124664 0.00581089 -0.0263719 0.0287112 0.04054 0.0244733 0.0151226 0.0103347 0.0302271 0.0488865 -0.00059273
internal_weight=682.469 333.386 64.3662 269.02 33.4607 349.083 258.933 225.073 319.339 193.038 159.75 147.948 136.274 100.073 57.7624 43.5144 24.1788 42.3102 301.709 278.833 197.795 44.3868 81.0379 62.1532 41.6638 153.408 133.572 47.359 32.6126 86.2126
internal_count=3097 1602 280 1322 147 1495 1278 1070 1350 938 755 698 647 470 261 191 104 209 1270 1168 827 185 341 262 176 642 558 199 137 359
is_linear=0
shrinkage=0.05


end of trees

feature_importances:
vwap_dev=145
atr_15=86
minutes_into_session=72
macd_signal=55
rsi_14=40
macd_hist=30
macd=24
rvol=21
atr_5=18
rv_5=15
ema_slope=15
ema_9_21_spread=13
low_dist_5=13
vol_z=8
ret_5=7
ret_15=6
high_dist_5=2

parameters:
[boosting: gbdt]
[objective: binary]
[metric: binary_logloss]
[tree_learner: serial]
[device_type: cpu]
[data_sample_strategy: bagging]
[data: ]
[valid: ]
[num_iterations: 1000]
[learning_rate: 0.05]
[num_leaves: 31]
[num_threads: 0]
[seed: 42]
[deterministic: 0]
[force_col_wise: 0]
[force_row_wise: 0]
[histogram_pool_size: -1]
[max_depth: -1]
[min_data_in_leaf: 50]
[min_sum_hessian_in_leaf: 0.001]
[bagging_fraction: 0.8]
[pos_bagging_fraction: 1]
[neg_bagging_fraction: 1]
[bagging_freq: 5]
[bagging_seed: 400]
[bagging_by_query: 0]
[feature_fraction: 0.8]
[feature_fraction_bynode: 1]
[feature_fraction_seed: 30056]
[extra_trees: 0]
[extra_seed: 12879]
[early_stopping_round: 0]
[early_stopping_min_delta: 0]
[first_metric_only: 0]
[max_delta_step: 0]
[lambda_l1: 0]
[lambda_l2: 0]
[linear_lambda: 0]
[min_gain_to_split: 0]
[drop_rate: 0.1]
[max_drop: 50]
[skip_drop: 0.5]
[xgboost_dart_mode: 0]
[uniform_drop: 0]
[drop_seed: 17869]
[top_rate: 0.2]
[other_rate: 0.1]
[min_data_per_group: 100]
[max_cat_threshold: 32]
[cat_l2: 10]
[cat_smooth: 10]
[max_cat_to_onehot: 4]
[top_k: 20]
[monotone_constraints: ]
[monotone_constraints_method: basic]
[monotone_penalty: 0]
[feature_contri: ]
[forcedsplits_filename: ]
[refit_decay_rate: 0.9]
[cegb_tradeoff: 1]
[cegb_penalty_split: 0]
[cegb_penalty_feature_lazy: ]
[cegb_penalty_feature_coupled: ]
[path_smooth: 0]
[interaction_constraints: ]
[verbosity: -1]
[saved_feature_importance_type: 0]
[use_quantized_grad: 0]
[num_grad_quant_bins: 4]
[quant_train_renew_leaf: 0]
[stochastic_rounding: 1]
[linear_tree: 0]
[max_bin: 255]
[max_bin_by_feature: ]
[min_data_in_bin: 3]
[bin_construct_sample_cnt: 200000]
[data_random_seed: 175]
[is_enable_sparse: 1]
[enable_bundle: 1]
[use_missing: 1]
[zero_as_missing: 0]
[feature_pre_filter: 1]
[pre_partition: 0]
[two_round: 0]
[header: 0]
[label_column: ]
[weight_column: ]
[group_column: ]
[ignore_column: ]
[categorical_feature: ]
[forcedbins_filename: ]
[precise_float_parser: 0]
[parser_config_file: ]
[objective_seed: 16083]
[num_class: 1]
[is_unbalance: 0]
[scale_pos_weight: 1]
[sigmoid: 1]
[boost_from_average: 1]
[reg_sqrt: 0]
[alpha: 0.9]
[fair_c: 1]
[poisson_max_delta_step: 0.7]
[tweedie_variance_power: 1.5]
[lambdarank_truncation_level: 30]
[lambdarank_norm: 1]
[label_gain: ]
[lambdarank_position_bias_regularization: 0]
[eval_at: ]
[multi_error_top_k: 1]
[auc_mu_weights: ]
[num_machines: 1]
[local_listen_port: 12400]
[time_out: 120]
[machine_list_filename: ]
[machines: ]
[gpu_platform_id: -1]
[gpu_device_id: -1]
[gpu_use_dp: 0]
[num_gpu: 1]

end of parameters

pandas_categorical:[]
