tree
version=v4
num_class=1
num_tree_per_iteration=1
label_index=0
max_feature_idx=18
objective=regression
feature_names=ret_1 ret_5 ret_15 vwap_dev rvol vol_z atr_5 atr_15 rv_5 rv_annual rsi_14 macd macd_signal macd_hist ema_9_21_spread ema_slope high_dist_5 low_dist_5 minutes_into_session
feature_infos=[-0.015677687171702148:0.0097655982114690509] [-0.015690910556436122:0.013139667256442777] [-0.016330477290430023:0.013921463742473383] [-0.0079118014339674726:0.0060645637608415237] [0.10129423909246291:15.297327988996807] [-2.2805209086701552:4.2470239508918093] [0.067159999999989853:5.6134799999999361] [0.077386666666666312:2.3150733333332938] [0:0.0072283513829064254] [0:2.2660622193327189] [7.5813700558995976:90.005354300489273] [-2.9941801703616875:1.5715310164533776] [-2.4501411230506029:1.3807457908279961] [-1.3227458395538487:0.62701825053086135] [-0.0045251449473134682:0.0022560757757567008] [-0.0071149865152180247:0.003615073504743993] [0:0.016609799372185013] [0:0.029208551223345092] [0:329]
tree_sizes=2988 3055 3079 3059 3087 3067 3057

Tree=0
num_leaves=31
num_cat=0
split_feature=7 18 7 7 7 14 14 18 12 15 6 6 7 12 12 12 18 7 11 18 18 7 18 15 12 18 13 12 18 7
split_gain=0.00413078 0.00116802 0.00056468 0.000220554 0.000192318 0.000126515 8.27988e-05 7.00628e-05 6.76504e-05 6.29324e-05 6.23799e-05 6.17947e-05 6.00666e-05 5.57295e-05 4.55196e-05 8.31899e-05 4.34938e-05 3.92568e-05 4.57924e-05 4.30809e-05 3.81816e-05 3.66568e-05 2.86809e-05 2.68001e-05 2.60967e-05 2.57075e-05 2.45212e-05 2.43637e-05 5.09561e-05 4.66649e-05
threshold=0.29930333333333775 54.500000000000007 0.95345666666666307 0.18463000000000424 0.50144999999999995 0.00029248747221585503 6.3781829786812805e-06 167.50000000000003 -0.085094638684749979 2.9448937135745371e-05 0.33498999999997076 0.70057000000002756 0.67633333333334733 0.22785401028085145 -0.1510453291140165 0.23616857519138126 26.500000000000004 0.15258999999998654 0.043246112484837347 278.50000000000006 122.50000000000001 0.27632333333334608 263.50000000000006 0.0002923899414405407 -0.025427526002744446 14.500000000000002 0.0087526874035233609 -0.027497006393437325 102.50000000000001 0.40476333333333897
decision_type=2 2 2 2 2 2 2 2 2 2 2 2 2 2 2 2 2 2 2 2 2 2 2 2 2 2 2 2 2 2
left_child=3 2 5 17 9 8 7 24 12 27 -11 14 -2 -10 -6 -16 25 -1 19 -19 -12 -8 -9 -18 -5 -7 -24 28 -3 -29
right_child=1 4 -4 6 11 16 21 22 13 10 20 -13 -14 -15 15 -17 23 18 -20 -21 -22 -23 26 -25 -26 -27 -28 29 -30 -31
leaf_value=0.0026984615128136254 0.0028537351659662655 0.0027779051335693858 0.0030235700775782769 0.0028193744601793564 0.0028027468512918366 0.0028399248636725876 0.0027255427253429702 0.0027348174671027953 0.0029398243752418486 0.0027602050395338848 0.0027713098514504154 0.0028741801406652061 0.0029165487971207211 0.0028795574694996848 0.0028660555858775168 0.0027977773452620533 0.0028444944752477317 0.0027168645799824985 0.0027053190607058599 0.0027720327182920164 0.0028073898835054749 0.0027552973147536644 0.0027516286910989085 0.0027978145897310613 0.0027695002650627801 0.0028840760578751215 0.0027913343824788935 0.0027732177737490905 0.0028214098422681029 0.0028204344492517254
leaf_weight=424 150 83 66 54 127 64 508 184 88 189 107 84 51 68 123 70 62 75 189 67 233 130 146 61 51 68 53 127 356 89
leaf_count=424 150 83 66 54 127 64 508 184 88 189 107 84 51 68 123 70 62 75 189 67 233 130 146 61 51 68 53 127 356 89
internal_value=0.00278422 0.00282968 0.00288462 0.00272944 0.00280623 0.00286963 0.00274346 0.00275897 0.00288885 0.00279606 0.00278323 0.00283601 0.00286967 0.00291355 0.00282599 0.00284129 0.00284274 0.00270854 0.00272144 0.00274289 0.00279604 0.00273161 0.00274905 0.00282134 0.00279515 0.00286267 0.0027622 0.00280642 0.00281318 0.00279267
internal_weight=4147 2266 678 1881 1588 612 1126 488 357 1184 529 404 201 156 320 193 255 755 331 142 340 638 383 123 105 132 199 655 439 216
internal_count=4147 2266 678 1881 1588 612 1126 488 357 1184 529 404 201 156 320 193 255 755 331 142 340 638 383 123 105 132 199 655 439 216
is_linear=0
shrinkage=1


Tree=1
num_leaves=31
num_cat=0
split_feature=7 18 7 3 7 3 7 11 12 3 18 18 10 6 7 3 10 7 7 11 6 10 3 18 6 12 18 3 18 7
split_gain=0.00372803 0.00105731 0.000526563 0.000233341 0.000156316 0.000135747 0.000103576 9.31509e-05 8.82173e-05 8.48474e-05 6.07807e-05 5.98549e-05 6.23161e-05 5.2937e-05 4.62816e-05 4.89582e-05 4.60835e-05 4.55379e-05 4.66135e-05 4.53763e-05 4.15696e-05 3.52815e-05 5.82212e-05 4.27332e-05 3.37923e-05 3.09764e-05 3.0856e-05 3.05481e-05 3.74507e-05 4.23766e-05
threshold=0.29930333333333775 58.500000000000007 0.95345666666666307 0.00086586264126950658 0.50144999999999995 0.0018235967265330067 0.16296333333333454 0.2658098395891671 -0.067837479789662883 -0.0016287527448403285 184.50000000000003 110.50000000000001 36.613236261626881 0.5601000000000228 0.39281333333332596 0.0020886253231717027 56.397491053578499 0.42417333333333246 0.34575666666667076 0.19386273883139896 0.59709999999997776 45.987132344825902 -0.003213836210742246 122.50000000000001 0.51159999999998729 -0.0028741593988616024 302.50000000000006 0.0023269014891092775 268.50000000000006 0.20285333333334091
decision_type=2 2 2 2 2 2 2 2 2 2 2 2 2 2 2 2 2 2 2 2 2 2 2 2 2 2 2 2 2 2
left_child=3 2 7 9 11 21 -5 8 13 10 -1 -3 17 -2 15 -14 27 18 -13 24 -9 22 -6 -23 -10 -11 -12 28 29 -8
right_child=1 4 -4 6 5 -7 16 20 19 25 26 12 14 -15 -16 -17 -18 -19 -20 -21 -22 23 -24 -25 -26 -27 -28 -29 -30 -31
leaf_value=3.3407428828450428e-06 5.382170829184433e-05 -8.5364718645587511e-06 0.00022825347958573594 -8.0020215868648311e-05 8.2988473523598203e-06 0.00010139432632889151 -7.3837361729876079e-05 4.4968873303237919e-05 0.00017228617287764792 8.3174427228594919e-06 -7.2072116449817261e-05 2.9169898483788158e-05 6.9995187247915839e-06 0.00010084548204056838 2.5728647830030748e-05 -4.4625566281539713e-05 -6.3408959424279904e-05 8.7895781949295534e-06 9.4439555523730622e-05 8.4448890426756405e-05 8.9518404879779869e-05 -5.4291219397016816e-06 7.5772886356093928e-05 5.1677985098649517e-05 0.00011683755792695533 -2.5138678606190137e-05 -2.8617278667297798e-05 -6.2923516862953106e-05 -2.1375425440521959e-06 -2.8370995280352493e-05
leaf_weight=51 126 283 66 508 52 92 73 192 50 176 128 51 344 114 317 53 412 56 59 50 72 95 83 50 61 114 60 109 78 172
leaf_count=51 126 283 66 508 52 92 73 192 50 176 128 51 344 114 317 53 412 56 59 50 72 95 83 50 61 114 60 109 78 172
internal_value=8.66573e-07 4.4059e-05 9.35511e-05 -5.11664e-05 2.04897e-05 4.87019e-05 -6.2182e-05 8.01821e-05 9.5366e-05 -2.30129e-05 -4.50707e-05 1.14657e-05 1.78983e-05 7.6158e-05 1.14827e-05 1.07505e-07 -5.14453e-05 4.54929e-05 6.41782e-05 0.000123999 5.71187e-05 3.13887e-05 4.97829e-05 1.4263e-05 0.000141814 -4.83427e-06 -5.82036e-05 -4.00355e-05 -3.23117e-05 -4.19181e-05
internal_weight=4147 2266 731 1881 1535 372 1352 665 401 529 239 1163 880 240 714 397 844 166 110 161 264 280 135 145 111 290 188 432 323 245
internal_count=4147 2266 731 1881 1535 372 1352 665 401 529 239 1163 880 240 714 397 844 166 110 161 264 280 135 145 111 290 188 432 323 245
is_linear=0
shrinkage=0.05


Tree=2
num_leaves=31
num_cat=0
split_feature=6 18 3 14 11 18 8 6 14 12 18 3 12 6 10 12 18 3 6 3 18 12 6 12 14 12 8 6 18 3
split_gain=0.00319446 0.000885859 0.000264205 0.000236538 0.000148439 0.000123483 0.000102146 9.14608e-05 8.68464e-05 7.55239e-05 5.57695e-05 5.16502e-05 4.76642e-05 3.95014e-05 3.94001e-05 3.81976e-05 7.99555e-05 3.80141e-05 3.45185e-05 3.40254e-05 3.41269e-05 3.19568e-05 3.18058e-05 3.05695e-05 3.02535e-05 2.75362e-05 2.62483e-05 2.44734e-05 2.33025e-05 2.95571e-05
threshold=0.30827999999997935 62.500000000000007 0.0011726086284411517 -0.0010991936077626465 0.86715265674257591 163.50000000000003 0.00037002285313321508 0.21800000000001776 0.00029248747221585503 -0.10626308576371982 274.50000000000006 -0.0023647520391567559 -0.03032691110736779 0.71200000000000052 47.842681618324555 0.13732484186190305 112.50000000000001 -0.0013264779595247086 0.60650000000001703 0.0019615335394228147 128.50000000000003 0.22785401028085145 0.15000000000001137 -0.12810345686159882 0.00066844016015317291 0.093891410803954536 0.00018066507774297226 0.34089000000000175 210.50000000000003 0.0016290933074163969
decision_type=2 2 2 2 2 2 2 2 2 2 2 2 2 2 2 2 2 2 2 2 2 2 2 2 2 2 2 2 2 2
left_child=2 3 5 -2 8 15 26 22 9 18 23 -8 -9 24 -13 16 -1 -12 -5 20 -16 -11 -4 -7 -10 28 -3 -28 -24 -30
right_child=1 6 7 4 -6 10 11 12 13 21 17 14 -14 -15 19 -17 -18 -19 -20 -21 -22 -23 25 -25 -26 -27 27 -29 29 -31
leaf_value=-3.6980568754318356e-05 0.00018710169242694974 3.3538716216957699e-05 -7.6753052921726099e-05 5.3585893203403218e-05 0.00016235976532334462 -1.5521563501213186e-05 1.3041368572867912e-05 3.9275376836705059e-06 5.4827194508263732e-05 0.00012734566487586208 -3.8285396414644217e-05 6.7898029311862541e-05 -4.4952031203457528e-05 8.7259865382225988e-05 -8.8907132550726625e-06 5.2051639857381814e-05 3.7563080917226295e-05 3.3856134296140834e-06 9.6887790419008426e-05 5.6335756104972193e-05 4.2948722017399633e-05 8.4540884225288231e-05 -2.5035752206510072e-05 -5.6051752161362283e-05 1.4078398010800204e-05 -7.0038766912966451e-05 -9.0248755203623166e-06 1.1369631257688678e-05 -3.2822459544265039e-05 -7.5467025246900071e-05
leaf_weight=70 55 98 411 147 50 59 156 58 116 113 94 143 356 54 63 50 74 131 67 99 64 71 85 220 75 239 199 564 71 95
leaf_count=70 55 98 411 147 50 59 156 58 116 113 94 143 356 54 63 50 74 131 67 99 64 71 85 220 75 239 199 564 71 95
internal_value=8.23244e-07 4.34445e-05 -4.43599e-05 8.72961e-05 7.93751e-05 -1.94969e-05 1.97785e-05 -5.75572e-05 7.29221e-05 8.73394e-05 -3.25446e-05 3.71614e-05 -3.81042e-05 4.95015e-05 4.73584e-05 1.44001e-05 1.32658e-06 -1.40236e-05 6.7143e-05 3.43621e-05 1.72331e-05 0.000110829 -6.64956e-05 -4.74809e-05 3.88264e-05 -5.7892e-05 9.17923e-06 6.05049e-06 -4.63259e-05 -5.72275e-05
internal_weight=4147 2134 2013 748 693 698 1386 1315 643 398 504 525 414 245 369 194 144 225 214 226 127 184 901 279 191 490 861 763 251 166
internal_count=4147 2134 2013 748 693 698 1386 1315 643 398 504 525 414 245 369 194 144 225 214 226 127 184 901 279 191 490 861 763 251 166
is_linear=0
shrinkage=0.05


Tree=3
num_leaves=31
num_cat=0
split_feature=7 18 7 3 9 14 3 7 18 3 10 11 6 18 10 18 3 6 11 7 11 3 10 9 18 18 9 3 18 7
split_gain=0.00306252 0.000868785 0.000434277 0.000189887 0.000144983 9.67828e-05 8.50487e-05 8.41562e-05 7.20763e-05 7.36629e-05 5.78777e-05 5.69224e-05 4.66671e-05 4.15402e-05 3.81336e-05 3.58381e-05 3.48228e-05 3.20458e-05 3.1871e-05 4.95337e-05 3.06171e-05 4.94167e-05 2.80651e-05 2.61081e-05 3.2558e-05 4.99544e-05 2.97397e-05 2.60651e-05 3.19023e-05 3.59077e-05
threshold=0.29930333333333775 54.500000000000007 0.95345666666666307 0.00086586264126950658 0.099597972374274812 0.00029248747221585503 -0.0023186035258881276 0.16296333333333454 163.50000000000003 -0.0015071584968439379 52.432737200948175 -0.38184361136438832 0.68848999999999039 260.50000000000006 56.397491053578499 26.500000000000004 0.00099836422996456829 0.32499000000000255 -0.093191462529603072 0.68952999999999076 0.032023970875968651 0.0011513767613531485 63.720267208909171 0.084009859303260326 214.50000000000003 102.50000000000001 0.06619918747071081 0.0023269014891092775 268.50000000000006 0.20285333333334091
decision_type=2 2 2 2 2 2 2 2 2 2 2 2 2 2 2 2 2 2 2 2 2 2 2 2 2 2 2 2 2 2
left_child=3 2 5 8 10 18 -6 -5 -1 -10 23 -8 20 -11 27 16 -7 -12 19 -2 21 -13 -17 24 25 -3 -27 28 29 -9
right_child=1 4 -4 7 6 15 11 14 9 13 17 12 -14 -15 -16 22 -18 -19 -20 -21 -22 -23 -24 -25 -26 26 -28 -29 -30 -31
leaf_value=1.185467252672804e-05 6.3157713358426317e-05 1.00140351231162e-07 0.00020916576704621548 -7.2394715179265281e-05 8.347651027405689e-06 4.7702672293469943e-05 9.5297456038259462e-05 -6.7372336343396458e-05 -5.1315842747499118e-05 -4.5388837073308726e-05 -3.0224604779168321e-05 2.9797841300512406e-05 8.6228259664494552e-05 6.611036345822485e-06 -5.7520460663313009e-05 5.3060475934827671e-05 0.00010009131575607858 2.0400248764651206e-06 0.00010862565060668068 0.0001175694485905767 2.2880546201814058e-05 7.8362076061070155e-05 5.1010243428858562e-06 -1.847870876325948e-06 -3.7153040931687342e-06 6.7856797302865327e-05 2.7169235493195806e-05 -5.7400418811935909e-05 -1.2744607631294714e-06 -2.5519852974496666e-05
leaf_weight=127 150 85 66 508 213 79 52 73 215 54 135 134 50 133 412 67 53 179 149 58 237 86 56 151 86 86 94 109 78 172
leaf_count=127 150 85 66 508 213 79 52 73 215 54 135 134 50 133 412 67 53 179 149 58 237 86 56 151 86 86 94 109 78 172
internal_value=7.82082e-07 3.99298e-05 8.73111e-05 -4.63784e-05 1.97003e-05 7.41699e-05 3.52327e-05 -5.63155e-05 -2.09813e-05 -3.13548e-05 5.0054e-06 4.5477e-05 4.03672e-05 -8.40497e-06 -4.66375e-05 5.06434e-05 6.87375e-05 -1.18317e-05 9.09745e-05 7.83302e-05 3.53495e-05 4.8782e-05 3.12253e-05 1.5537e-05 2.30159e-05 3.1691e-05 4.66088e-05 -3.62584e-05 -2.91238e-05 -3.79902e-05
internal_weight=4147 2266 678 1881 1588 612 772 1352 529 402 816 559 507 187 844 255 132 314 357 208 457 220 123 502 351 265 180 432 323 245
internal_count=4147 2266 678 1881 1588 612 772 1352 529 402 816 559 507 187 844 255 132 314 357 208 457 220 123 502 351 265 180 432 323 245
is_linear=0
shrinkage=0.05


Tree=4
num_leaves=31
num_cat=0
split_feature=7 7 6 3 3 12 8 7 3 3 12 7 12 13 11 12 4 13 12 4 10 10 5 12 13 3 12 10 7 7
split_gain=0.00276392 0.000702868 0.000309833 0.000171373 8.32061e-05 0.000105985 8.22194e-05 7.5951e-05 6.28122e-05 5.69687e-05 7.72582e-05 5.35651e-05 5.17805e-05 5.11159e-05 4.70969e-05 4.61921e-05 4.42657e-05 4.52312e-05 4.19808e-05 3.90444e-05 3.60511e-05 3.44155e-05 3.13574e-05 2.63387e-05 2.62817e-05 2.35237e-05 2.1714e-05 2.88725e-05 2.58334e-05 2.10468e-05
threshold=0.29930333333333775 0.95345666666666307 0.5601000000000228 0.00086586264126950658 -0.0022070072607708363 -0.37048342729552602 0.00031510250520118183 0.16296333333333454 -0.0016287527448403285 0.0010454336551413679 0.040856997468400762 0.63336666666667363 0.46463843093410689 0.18357553859380468 0.27950696165106598 0.34361336038306278 1.0130519246846295 0.00056946968251761498 -0.24174474383025363 0.82820557446324072 53.675668682354683 56.397491053578499 -0.34771232998932028 -0.0028741593988616024 -0.050834587953525419 0.0023269014891092775 -0.40708975138939868 40.87424412975512 0.41885999999999896 0.2739566666666558
decision_type=2 2 2 2 2 2 2 2 2 2 2 2 2 2 2 2 2 2 2 2 2 2 2 2 2 2 2 2 2 2
left_child=3 2 4 8 26 -6 9 -5 -1 10 19 14 20 15 18 -13 24 -18 -4 -7 -11 25 -12 -10 -8 -9 -2 -28 -29 -23
right_child=1 -3 11 7 5 6 16 21 23 12 22 13 -14 -15 -16 -17 17 -19 -20 -21 -22 29 -24 -25 -26 -27 27 28 -30 -31
leaf_value=-3.8910806067890399e-05 -1.6616199579373483e-05 0.00019870747899844766 2.5481434355242531e-05 -6.8774978806357285e-05 7.7645025367718728e-05 -1.4673618098084581e-05 1.1786297054164431e-05 -2.7667656746872628e-05 7.8360903056694628e-06 1.4616441638465629e-05 7.5320404034250206e-05 8.0036574317398262e-05 4.3867167654503187e-05 3.8929250156258981e-05 1.2125181988490933e-05 0.00013290721587757369 9.0240269991530425e-05 3.5685246489885524e-05 8.0507085667463364e-05 2.9648612006383246e-05 -2.4583934614225278e-05 -5.9490786888373215e-05 2.9628753253356474e-05 -2.3014093888680996e-05 4.0114792819278966e-05 -5.4530397726821239e-05 2.9868932022799493e-05 -1.4132772880589412e-05 2.3892212764404752e-05 -2.8292417358954938e-05
leaf_weight=239 101 66 50 508 104 103 124 323 176 89 81 166 51 54 61 55 75 77 113 96 172 348 70 114 241 109 116 134 67 64
leaf_count=239 101 66 50 508 104 103 124 323 176 89 81 166 51 54 61 55 75 77 113 96 172 348 70 114 241 109 116 134 67 64
internal_value=7.42978e-07 3.79333e-05 3.31101e-05 -4.40594e-05 2.29471e-05 2.92592e-05 2.49911e-05 -5.34998e-05 -1.99322e-05 1.33225e-05 2.7171e-05 6.77538e-05 -2.21265e-06 8.25387e-05 4.96027e-05 9.31944e-05 3.99322e-05 6.26038e-05 6.36281e-05 6.70796e-06 -1.12168e-05 -4.43057e-05 5.41388e-05 -4.29122e-06 3.04909e-05 -3.44455e-05 3.57308e-06 1.00056e-05 -1.45778e-06 -5.46444e-05
internal_weight=4147 2266 2200 1881 1701 1283 1179 1352 529 662 350 499 312 275 224 221 517 152 163 199 261 844 151 290 365 432 418 317 201 412
internal_count=4147 2266 2200 1881 1701 1283 1179 1352 529 662 350 499 312 275 224 221 517 152 163 199 261 844 151 290 365 432 418 317 201 412
is_linear=0
shrinkage=0.05


Tree=5
num_leaves=31
num_cat=0
split_feature=7 18 7 3 7 3 14 12 7 18 3 18 11 7 18 18 4 3 12 3 7 18 12 18 18 13 11 4 3 3
split_gain=0.00247439 0.000729507 0.000438355 0.000139441 0.000134425 8.82521e-05 6.72038e-05 6.36436e-05 5.9322e-05 5.22921e-05 6.39935e-05 4.8536e-05 4.81368e-05 5.8492e-05 4.70853e-05 4.78226e-05 3.855e-05 6.04792e-05 3.20636e-05 3.11088e-05 3.02111e-05 3.61557e-05 2.87638e-05 2.34148e-05 2.33269e-05 3.7913e-05 2.39856e-05 2.30572e-05 2.157e-05 2.10284e-05
threshold=0.2973233333333421 54.500000000000007 0.88761333333333148 0.00088368982628010521 0.50144999999999995 0.0016161167217707358 0.00029248747221585503 -0.085094638684749979 0.18463000000000424 162.50000000000003 -0.0013264779595247086 259.50000000000006 -0.0013480224870363597 0.44307999999999392 28.500000000000004 14.500000000000002 0.99153450912279506 -0.0002685126224554884 -0.020202167430790455 0.00096732246502641273 0.34006666666665913 118.50000000000001 0.22785401028085145 304.50000000000006 180.50000000000003 -0.013980063430561343 -0.2010914329965203 0.7814930341357017 -0.00015092617938657866 -0.0021304504754660067
decision_type=2 2 2 2 2 2 2 2 2 2 2 2 2 2 2 2 2 2 2 2 2 2 2 2 2 2 2 2 2 2
left_child=3 2 6 9 12 27 7 -2 -5 18 23 -12 16 19 15 -8 20 -18 -1 29 -3 -22 -9 -11 25 -23 -26 28 -6 -14
right_child=1 4 -4 8 5 -7 14 22 -10 10 11 -13 13 -15 -16 -17 17 -19 -20 -21 21 24 -24 -25 26 -27 -28 -29 -30 -31
leaf_value=3.4057955453120534e-05 5.7755561199603395e-05 -1.764893385945087e-05 0.00018352635430346709 -6.1101030753462463e-05 3.2363224409298003e-05 8.1447148915115165e-05 2.9227573425790371e-05 0.00011912337502654665 -4.0130219772769723e-05 -5.6635028292013184e-05 -4.3705600863529162e-05 1.0623842030751998e-05 -2.4895397847799093e-05 2.61901467268668e-05 1.5864762888056007e-05 8.7228815117397339e-05 1.9587230688610593e-05 8.0403631420945297e-05 -1.7434862920415454e-05 -2.6110865031558542e-05 -9.6824763493577043e-06 9.3060777024740161e-06 7.6067298411674401e-05 -2.0331625473488658e-05 2.8578796287937237e-05 6.467937441218807e-05 -1.5772887278823568e-05 4.1473133524964618e-05 -6.4757366794445164e-06 1.3157657912819964e-05
leaf_weight=59 208 95 85 727 72 102 66 87 629 171 62 122 51 123 101 77 206 51 62 215 111 56 70 60 70 69 54 143 71 126
leaf_count=59 208 95 85 727 72 102 66 87 629 171 62 122 51 123 101 77 206 51 62 215 111 56 70 60 70 69 54 143 71 126
internal_value=-4.47837e-07 3.42879e-05 7.71604e-05 -4.28393e-05 1.58646e-05 4.15171e-05 6.23146e-05 7.58948e-05 -5.13734e-05 -2.12494e-05 -2.96822e-05 -7.68282e-06 7.75281e-06 -3.89174e-06 4.19999e-05 6.0459e-05 1.61755e-05 3.16559e-05 7.67321e-06 -1.33307e-05 7.43163e-06 1.40501e-05 9.99264e-05 -4.72056e-05 2.46297e-05 3.98721e-05 9.26435e-06 2.72763e-05 1.30795e-05 2.19322e-06
internal_weight=4201 2309 694 1892 1615 388 609 365 1356 536 415 184 1227 515 244 143 712 257 121 392 455 360 157 231 249 125 124 286 143 177
internal_count=4201 2309 694 1892 1615 388 609 365 1356 536 415 184 1227 515 244 143 712 257 121 392 455 360 157 231 249 125 124 286 143 177
is_linear=0
shrinkage=0.05


Tree=6
num_leaves=31
num_cat=0
split_feature=7 18 7 3 7 3 10 7 10 18 3 18 4 4 12 3 7 3 18 18 12 18 7 18 7 3 18 4 13 18
split_gain=0.00223313 0.00065838 0.000395616 0.000125845 0.000121318 7.96475e-05 6.75675e-05 5.41617e-05 5.05157e-05 4.73516e-05 5.71794e-05 4.55803e-05 4.27986e-05 3.72296e-05 5.0663e-05 5.29284e-05 3.49966e-05 3.19297e-05 5.57497e-05 3.14674e-05 3.08755e-05 2.90624e-05 2.52041e-05 3.31109e-05 2.49793e-05 2.39602e-05 2.11713e-05 2.08091e-05 2.00691e-05 4.51296e-05
threshold=0.2973233333333421 54.500000000000007 0.88761333333333148 0.00088368982628010521 0.50144999999999995 0.0016161167217707358 66.468894493114661 0.16296333333333454 51.980343210072178 164.50000000000003 -0.0013264779595247086 259.50000000000006 0.93789412692846041 0.58777286990366717 0.054392998315205415 0.00076818172491700798 0.34006666666665913 -0.001950680148291884 174.50000000000003 118.50000000000001 -0.020202167430790455 24.500000000000004 0.38878666666666967 126.50000000000001 0.58737999999999613 0.0039588246804061001 301.50000000000006 0.7814930341357017 -0.046192204611828193 172.50000000000003
decision_type=2 2 2 2 2 2 2 2 2 2 2 2 2 2 2 2 2 2 2 2 2 2 2 2 2 2 2 2 2 2
left_child=3 2 6 9 8 27 13 -5 12 20 26 -12 16 21 24 -16 -3 -14 -19 -18 -1 -2 -10 -24 -15 -9 -11 -6 -21 -30
right_child=1 4 -4 7 5 -7 -8 25 22 10 11 -13 17 14 15 -17 19 18 -20 28 -22 -23 23 -25 -26 -27 -28 -29 29 -31
leaf_value=3.2214201206950183e-05 6.4337654042614505e-05 -2.0656719376621386e-05 0.00017435003674536883 -6.1776708303789359e-05 1.2425567140834975e-05 7.737479112370685e-05 2.0459719305653095e-05 -3.8966615334931262e-05 -1.4762710643906446e-05 -5.4114740407298783e-05 -4.3746853143916113e-05 1.0092650203586397e-05 1.4464301353354716e-05 4.3905589745106354e-05 7.1435675914764801e-05 0.00013031546370310775 -8.9042615343259968e-06 2.0147461117754395e-05 8.3436445119459079e-05 3.2345960356733053e-06 -1.7499589563385599e-05 2.3931979510912428e-05 -1.3415275083225631e-05 2.8511479365192826e-05 8.3885338426720567e-05 -7.3993768903444734e-05 -2.0126769290513158e-05 3.9399477373876045e-05 6.6007315695060242e-05 1.2024523083691378e-05
leaf_weight=61 114 98 85 505 143 102 95 799 286 168 58 122 154 112 87 68 112 81 61 84 64 73 89 100 60 52 63 143 64 98
leaf_count=61 114 98 85 505 143 102 95 799 286 168 58 122 154 112 87 68 112 81 61 84 64 73 89 100 60 52 63 143 64 98
internal_value=-4.25445e-07 3.25735e-05 7.33024e-05 -4.06974e-05 1.50714e-05 3.94413e-05 5.91989e-05 -4.88047e-05 7.36517e-06 -2.01869e-05 -2.83827e-05 -7.25563e-06 1.54282e-05 6.63588e-05 7.65349e-05 9.72668e-05 5.81785e-06 3.02333e-05 4.7335e-05 1.30651e-05 6.76074e-06 4.85643e-05 -5.39989e-06 8.76819e-06 5.7852e-05 -4.11069e-05 -4.48453e-05 2.59125e-05 2.30674e-05 3.33511e-05
internal_weight=4201 2309 694 1892 1615 388 609 1356 1227 536 411 180 752 514 327 155 456 296 142 358 125 187 475 189 172 851 231 286 246 162
internal_count=4201 2309 694 1892 1615 388 609 1356 1227 536 411 180 752 514 327 155 456 296 142 358 125 187 475 189 172 851 231 286 246 162
is_linear=0
shrinkage=0.05


end of trees

feature_importances:
minutes_into_session=44
atr_15=40
vwap_dev=35
macd_signal=26
atr_5=14
rsi_14=12
macd=10
rvol=7
ema_9_21_spread=7
macd_hist=6
rv_5=3
rv_annual=3
ema_slope=2
vol_z=1

parameters:
[boosting: gbdt]
[objective: regression]
[metric: l1]
[tree_learner: serial]
[device_type: cpu]
[data_sample_strategy: bagging]
[data: ]
[valid: ]
[num_iterations: 1000]
[learning_rate: 0.05]
[num_leaves: 31]
[num_threads: 0]
[seed: 42]
[deterministic: 0]
[force_col_wise: 0]
[force_row_wise: 0]
[histogram_pool_size: -1]
[max_depth: -1]
[min_data_in_leaf: 50]
[min_sum_hessian_in_leaf: 0.001]
[bagging_fraction: 0.8]
[pos_bagging_fraction: 1]
[neg_bagging_fraction: 1]
[bagging_freq: 5]
[bagging_seed: 400]
[bagging_by_query: 0]
[feature_fraction: 0.8]
[feature_fraction_bynode: 1]
[feature_fraction_seed: 30056]
[extra_trees: 0]
[extra_seed: 12879]
[early_stopping_round: 0]
[early_stopping_min_delta: 0]
[first_metric_only: 0]
[max_delta_step: 0]
[lambda_l1: 0]
[lambda_l2: 0]
[linear_lambda: 0]
[min_gain_to_split: 0]
[drop_rate: 0.1]
[max_drop: 50]
[skip_drop: 0.5]
[xgboost_dart_mode: 0]
[uniform_drop: 0]
[drop_seed: 17869]
[top_rate: 0.2]
[other_rate: 0.1]
[min_data_per_group: 100]
[max_cat_threshold: 32]
[cat_l2: 10]
[cat_smooth: 10]
[max_cat_to_onehot: 4]
[top_k: 20]
[monotone_constraints: ]
[monotone_constraints_method: basic]
[monotone_penalty: 0]
[feature_contri: ]
[forcedsplits_filename: ]
[refit_decay_rate: 0.9]
[cegb_tradeoff: 1]
[cegb_penalty_split: 0]
[cegb_penalty_feature_lazy: ]
[cegb_penalty_feature_coupled: ]
[path_smooth: 0]
[interaction_constraints: ]
[verbosity: -1]
[saved_feature_importance_type: 0]
[use_quantized_grad: 0]
[num_grad_quant_bins: 4]
[quant_train_renew_leaf: 0]
[stochastic_rounding: 1]
[linear_tree: 0]
[max_bin: 255]
[max_bin_by_feature: ]
[min_data_in_bin: 3]
[bin_construct_sample_cnt: 200000]
[data_random_seed: 175]
[is_enable_sparse: 1]
[enable_bundle: 1]
[use_missing: 1]
[zero_as_missing: 0]
[feature_pre_filter: 1]
[pre_partition: 0]
[two_round: 0]
[header: 0]
[label_column: ]
[weight_column: ]
[group_column: ]
[ignore_column: ]
[categorical_feature: ]
[forcedbins_filename: ]
[precise_float_parser: 0]
[parser_config_file: ]
[objective_seed: 16083]
[num_class: 1]
[is_unbalance: 0]
[scale_pos_weight: 1]
[sigmoid: 1]
[boost_from_average: 1]
[reg_sqrt: 0]
[alpha: 0.9]
[fair_c: 1]
[poisson_max_delta_step: 0.7]
[tweedie_variance_power: 1.5]
[lambdarank_truncation_level: 30]
[lambdarank_norm: 1]
[label_gain: ]
[lambdarank_position_bias_regularization: 0]
[eval_at: ]
[multi_error_top_k: 1]
[auc_mu_weights: ]
[num_machines: 1]
[local_listen_port: 12400]
[time_out: 120]
[machine_list_filename: ]
[machines: ]
[gpu_platform_id: -1]
[gpu_device_id: -1]
[gpu_device_id_list: ]
[gpu_use_dp: 0]
[num_gpu: 1]

end of parameters

pandas_categorical:[]
