tree
version=v4
num_class=1
num_tree_per_iteration=1
label_index=0
max_feature_idx=18
objective=binary sigmoid:1
feature_names=ret_1 ret_5 ret_15 vwap_dev rvol vol_z atr_5 atr_15 rv_5 rv_annual rsi_14 macd macd_signal macd_hist ema_9_21_spread ema_slope high_dist_5 low_dist_5 minutes_into_session
feature_infos=[-0.015677687171702148:0.0097655982114690509] [-0.015690910556436122:0.013139667256442777] [-0.016330477290430023:0.013921463742473383] [-0.010769316564706082:0.0060645637608415237] [0.085897591586046582:16.421932949697943] [-2.2805209086673317:4.2477201019028978] [0.091999999999984539:5.6134799999999361] [0.1176666666666506:2.3150733333332938] [0:0.0072283513829064254] [0:2.2660622193327189] [0:90.005354300489273] [-2.9941801703616875:1.5715310164533776] [-2.4501411230505341:1.3807457908279961] [-1.3227458395538956:0.93491289672991629] [-0.0045251449473134682:0.0022880792654231042] [-0.0071149865152180247:0.0044503440973169273] [0:0.016609799372185013] [0:0.029208551223345092] [0:379]
tree_sizes=3473

Tree=0
num_leaves=31
num_cat=0
split_feature=18 18 7 7 14 14 18 15 12 7 7 2 18 18 12 18 7 7 15 18 7 18 14 18 7 8 18 12 13 8
split_gain=70.2869 31.5544 50.7737 27.9775 32.2158 21.8928 22.5069 21.6889 18.1795 16.2999 19.0833 14.9273 14.7094 19.1837 37.2072 18.6133 24.0319 19.6645 30.2278 14.1941 25.8032 21.572 17.7863 16.8381 20.3062 13.6386 13.6047 13.0652 12.419 12.2534
threshold=164.50000000000003 366.50000000000006 0.21028666666666901 0.29260000000001207 -0.0012107720807931351 -0.00027315768521634341 108.50000000000001 -1.7752618070632217e-05 -0.64564210267312216 0.15066666666666231 0.20758999999998956 0.0007797637980696549 180.50000000000003 234.50000000000003 -0.079924041773577384 339.50000000000006 0.46876333333334524 0.3826266666666584 -2.5854379232359556e-05 48.500000000000007 0.36638333333334011 108.50000000000001 0.0011378159198687679 118.50000000000001 0.39670333333330826 0.00015584341142355722 212.50000000000003 -0.27231966537392255 -0.031622121275126522 0.00047419275546417219
decision_type=2 2 2 2 2 2 2 2 2 2 2 2 2 2 2 2 2 2 2 2 2 2 2 2 2 2 2 2 2 2
left_child=3 9 -3 7 -5 6 8 -1 -6 -2 -11 12 -12 14 26 16 -15 18 -17 20 -7 -21 29 -23 -25 -9 27 -14 -16 -22
right_child=1 2 -4 4 5 19 -8 25 -10 10 11 -13 13 15 28 17 -18 -19 -20 21 22 23 -24 24 -26 -27 -28 -29 -30 -31
leaf_value=0.038086680054869954 -0.028666345905121186 -0.096100091059095671 0.024470763023865374 0.036219592495510475 -0.018590685036629594 -0.077524345606093295 -0.016236053544558496 -0.047895987818489805 -0.082704252753989765 -0.07420026484081918 -0.086550221549164308 -0.075787339705647522 -0.046837241364884763 -0.072019749442708822 0.025976135872220488 0.027019450898666683 -0.015844845177537287 -0.081333125816888924 -0.063141936750402361 -0.054814929610838656 0.014947069974027782 0.028333756841072949 -0.060997975181852154 -0.0039810262211329994 -0.057232852516724837 -0.00082795755889400469 -0.030481434081606931 -0.11413594739161792 -0.023121320804131908 -0.025089547817882914
leaf_weight=21.239052787423134 41.478620737791061 12.743431672453879 27.735704228281975 14.49253013730049 13.243174090981482 15.991757392883299 23.238022461533546 26.236476972699165 66.965484082698822 189.9021190404892 26.486348181962967 71.962908267974854 13.493045300245287 141.92684686183929 24.237507298588753 21.738795205950737 21.988666415214539 13.742916509509085 16.241628602147102 117.68933956325054 51.223597899079323 13.992787718772886 13.992787718772886 34.482226878404617 37.230810180306435 37.230810180306435 21.738795205950737 15.492014974355696 27.485833019018173 30.484287530183792
leaf_count=85 166 51 111 58 53 64 93 105 268 760 106 288 54 568 97 87 88 55 65 471 205 56 56 138 149 149 87 62 110 122
internal_value=-0.0458469 -0.0563145 -0.0134867 -0.0319289 -0.0370696 -0.0396074 -0.0595652 -0.00564919 -0.0721185 -0.0589902 -0.0610642 -0.0550754 -0.0507498 -0.0477687 -0.0299541 -0.0562322 -0.0644841 -0.0300814 -0.0115364 -0.0330551 -0.0187343 -0.0409192 -0.00891034 -0.0218379 -0.0316274 -0.0202852 -0.0603819 -0.0828072 -0.0001143 9.86089e-06
internal_weight=1206.13 688.395 40.4791 517.733 433.027 418.534 103.447 84.7063 80.2087 647.916 606.437 416.535 344.572 318.086 102.447 215.639 163.916 51.7233 37.9804 315.088 111.692 203.395 95.7007 85.7058 71.713 63.4673 50.7239 28.9851 51.7233 81.7079
internal_count=4827 2755 162 2072 1733 1675 414 339 321 2593 2427 1667 1379 1273 410 863 656 207 152 1261 447 814 383 343 287 254 203 116 207 327
is_linear=0
shrinkage=1


end of trees

feature_importances:
minutes_into_session=10
atr_15=8
macd_signal=3
ema_9_21_spread=3
rv_5=2
ema_slope=2
ret_15=1
macd_hist=1

parameters:
[boosting: gbdt]
[objective: binary]
[metric: binary_logloss]
[tree_learner: serial]
[device_type: cpu]
[data_sample_strategy: bagging]
[data: ]
[valid: ]
[num_iterations: 1000]
[learning_rate: 0.05]
[num_leaves: 31]
[num_threads: 0]
[seed: 42]
[deterministic: 0]
[force_col_wise: 0]
[force_row_wise: 0]
[histogram_pool_size: -1]
[max_depth: -1]
[min_data_in_leaf: 50]
[min_sum_hessian_in_leaf: 0.001]
[bagging_fraction: 0.8]
[pos_bagging_fraction: 1]
[neg_bagging_fraction: 1]
[bagging_freq: 5]
[bagging_seed: 400]
[bagging_by_query: 0]
[feature_fraction: 0.8]
[feature_fraction_bynode: 1]
[feature_fraction_seed: 30056]
[extra_trees: 0]
[extra_seed: 12879]
[early_stopping_round: 0]
[early_stopping_min_delta: 0]
[first_metric_only: 0]
[max_delta_step: 0]
[lambda_l1: 0]
[lambda_l2: 0]
[linear_lambda: 0]
[min_gain_to_split: 0]
[drop_rate: 0.1]
[max_drop: 50]
[skip_drop: 0.5]
[xgboost_dart_mode: 0]
[uniform_drop: 0]
[drop_seed: 17869]
[top_rate: 0.2]
[other_rate: 0.1]
[min_data_per_group: 100]
[max_cat_threshold: 32]
[cat_l2: 10]
[cat_smooth: 10]
[max_cat_to_onehot: 4]
[top_k: 20]
[monotone_constraints: ]
[monotone_constraints_method: basic]
[monotone_penalty: 0]
[feature_contri: ]
[forcedsplits_filename: ]
[refit_decay_rate: 0.9]
[cegb_tradeoff: 1]
[cegb_penalty_split: 0]
[cegb_penalty_feature_lazy: ]
[cegb_penalty_feature_coupled: ]
[path_smooth: 0]
[interaction_constraints: ]
[verbosity: -1]
[saved_feature_importance_type: 0]
[use_quantized_grad: 0]
[num_grad_quant_bins: 4]
[quant_train_renew_leaf: 0]
[stochastic_rounding: 1]
[linear_tree: 0]
[max_bin: 255]
[max_bin_by_feature: ]
[min_data_in_bin: 3]
[bin_construct_sample_cnt: 200000]
[data_random_seed: 175]
[is_enable_sparse: 1]
[enable_bundle: 1]
[use_missing: 1]
[zero_as_missing: 0]
[feature_pre_filter: 1]
[pre_partition: 0]
[two_round: 0]
[header: 0]
[label_column: ]
[weight_column: ]
[group_column: ]
[ignore_column: ]
[categorical_feature: ]
[forcedbins_filename: ]
[precise_float_parser: 0]
[parser_config_file: ]
[objective_seed: 16083]
[num_class: 1]
[is_unbalance: 0]
[scale_pos_weight: 1]
[sigmoid: 1]
[boost_from_average: 1]
[reg_sqrt: 0]
[alpha: 0.9]
[fair_c: 1]
[poisson_max_delta_step: 0.7]
[tweedie_variance_power: 1.5]
[lambdarank_truncation_level: 30]
[lambdarank_norm: 1]
[label_gain: ]
[lambdarank_position_bias_regularization: 0]
[eval_at: ]
[multi_error_top_k: 1]
[auc_mu_weights: ]
[num_machines: 1]
[local_listen_port: 12400]
[time_out: 120]
[machine_list_filename: ]
[machines: ]
[gpu_platform_id: -1]
[gpu_device_id: -1]
[gpu_use_dp: 0]
[num_gpu: 1]

end of parameters

pandas_categorical:[]
