tree
version=v4
num_class=1
num_tree_per_iteration=1
label_index=0
max_feature_idx=18
objective=binary sigmoid:1
feature_names=ret_1 ret_5 ret_15 vwap_dev rvol vol_z atr_5 atr_15 rv_5 rv_annual rsi_14 macd macd_signal macd_hist ema_9_21_spread ema_slope high_dist_5 low_dist_5 minutes_into_session
feature_infos=[-0.015677687171702148:0.014967032077990439] [-0.015690910556436122:0.015563047875927216] [-0.016330477290430023:0.016776440101495593] [-0.015876507772837896:0.0097694233743588783] [0.085897591586046582:16.421932949697943] [-2.0963186853308056:4.2477201019028978] [0.125:5.6134799999999361] [0.16165333333334123:2.3150733333332938] [0:0.0072283513829064254] [0:2.2660622193327189] [8.3709696433740817:99.675181079297772] [-2.9941801703616875:3.371587200005024] [-2.4501411230505576:2.9327479907069289] [-1.3227458395538725:1.4162982293933488] [-0.0045251449473137778:0.004827869029836113] [-0.0071149865152181357:0.0074600997333378327] [0:0.016609799372185013] [0:0.029208551223345092] [0:269]
tree_sizes=3417 3427 3443 3425

Tree=0
num_leaves=31
num_cat=0
split_feature=7 7 18 18 7 7 14 13 11 18 18 18 14 18 12 7 7 8 13 8 6 16 2 12 12 8 18 13 13 18
split_gain=716.961 69.909 75.4155 51.4346 43.9192 38.4699 38.3935 27.2636 46.7106 26.1157 58.1574 27.1871 25.732 22.7937 19.3451 14.5842 13.0008 12.0645 11.8178 10.452 12.0493 10.2365 10.9995 13.192 8.49555 7.9214 7.80513 7.68032 6.75174 10.8821
threshold=0.42204666666666907 0.60213333333333985 162.50000000000003 127.50000000000001 0.37308333333332566 0.30229999999999874 0.00014601910443682201 -0.14824680415671473 -0.16636868383130829 159.50000000000003 53.500000000000007 100.50000000000001 0.00055972856889764005 26.500000000000004 0.32084908376835691 0.78086666666666449 0.49824333333333098 0.00068537067742660367 0.081395410295442866 0.00079518727683438901 0.64486000000001698 0.0004087331689995433 -0.0018000866517238199 0.052774482961458515 -0.11154305979431163 0.00041711023152522954 216.50000000000003 -0.079879912726761801 -0.0038778097156951792 75.500000000000014
decision_type=2 2 2 2 2 2 2 2 2 2 2 2 2 2 2 2 2 2 2 2 2 2 2 2 2 2 2 2 2 2
left_child=3 2 13 5 27 -1 25 -7 -9 10 12 15 -3 -2 21 17 -16 -12 -13 20 -14 -15 -23 24 -24 -4 -6 -5 29 -10
right_child=1 9 6 4 26 7 -8 8 28 -11 11 18 19 14 16 -17 -18 -19 -20 -21 -22 22 23 -25 -26 -27 -28 -29 -30 -31
leaf_value=-0.055477485978602172 -0.17880824032028986 -0.013982863289622408 -0.016592870774548435 -0.15248828628482713 -0.15188496984240385 -0.079573486171676394 -0.12449479512031002 -0.09491684665434566 -0.13118697299007404 -0.014989369011597656 -0.10759467324963054 -0.034638258493121271 -0.077258523011133312 -0.12000939124625438 -0.18282084313189784 -0.073143032947945608 -0.1105939925229537 -0.16755721675048701 -0.089604993200696426 -0.10256878689973768 -0.013561960896796385 -0.12664440376938574 -0.077919941057002756 -0.10413468067987738 -0.021699407158099371 -0.054770309451571943 -0.11248227619900453 -0.19000129026845958 -0.19953388603529268 -0.19192406145076976
leaf_weight=13.208384305238722 12.460739910602568 64.795847535133362 33.893212556838989 14.70367309451103 30.902634978294373 12.959169507026671 13.956028699874876 21.43247264623642 13.208384305238722 40.123582512140274 24.672265022993088 24.672265022993088 16.198961883783344 31.650279372930527 12.460739910602571 17.9434654712677 12.460739910602568 12.709954708814619 16.19896188378334 12.460739910602568 13.706813901662825 12.460739910602568 13.956028699874876 20.435613453388214 12.959169507026674 22.678546637296677 21.183257848024368 189.40324664115906 27.164413005113605 16.697391480207443
leaf_count=53 50 260 136 59 124 52 56 86 53 161 99 99 65 127 50 72 50 51 65 50 55 50 56 82 52 91 85 760 109 67
internal_value=-0.11246 -0.0698312 -0.0917849 -0.164775 -0.176841 -0.135243 -0.0502206 -0.146762 -0.157854 -0.0518547 -0.0591284 -0.08735 -0.0337946 -0.114537 -0.107655 -0.110196 -0.146707 -0.127982 -0.0564239 -0.064095 -0.0480643 -0.0970146 -0.0848465 -0.073847 -0.0508508 -0.0318975 -0.13586 -0.187299 -0.181489 -0.165099
internal_weight=803.718 442.855 199.372 360.863 256.193 104.67 70.5278 91.4618 78.5027 243.483 203.359 96.1969 107.162 128.844 116.383 55.3257 24.9215 37.3822 40.8712 42.3665 29.9058 91.4618 59.8116 47.3508 26.9152 56.5718 52.0859 204.107 57.0702 29.9058
internal_count=3225 1777 800 1448 1028 420 283 367 315 977 816 386 430 517 467 222 100 150 164 170 120 367 240 190 108 227 209 819 229 120
is_linear=0
shrinkage=1


Tree=1
num_leaves=31
num_cat=0
split_feature=7 3 7 18 7 7 18 7 18 7 3 12 3 3 4 18 18 10 18 18 17 18 18 18 18 3 18 12 2 15
split_gain=649.016 70.5546 79.5971 47.7734 34.8306 34.4614 24.2861 39.2002 45.3506 23.3849 21.7757 21.3112 25.1752 24.6457 21.0199 20.4121 33.412 20.3174 24.0589 18.873 15.9527 14.6319 14.8575 14.5256 13.7432 10.6383 13.9547 9.92902 8.20961 7.89572
threshold=0.4186799999999759 0.00037600822108550054 0.53001333333333311 127.50000000000001 0.30229999999999874 0.37308333333332566 119.50000000000001 0.60213333333333985 53.500000000000007 0.89436666666665221 -0.0021480992750421888 -0.24437668183767733 -0.00050733783238829432 0.00071040499057248253 0.40746991234061697 129.50000000000003 61.500000000000007 50.385565326395742 210.50000000000003 71.500000000000014 0.0011554502318444082 164.50000000000003 124.50000000000001 46.500000000000007 57.500000000000007 -0.00071990934786781942 217.50000000000003 0.23382112355440324 -0.00082469634300996731 0.00031937465626064038
decision_type=2 2 2 2 2 2 2 2 2 2 2 2 2 2 2 2 2 2 2 2 2 2 2 2 2 2 2 2 2 2
left_child=3 6 21 4 -1 14 7 19 29 15 -10 -6 -13 23 -5 16 27 -8 -19 -2 -18 22 24 -14 -3 26 -7 -4 -16 -9
right_child=1 2 9 5 11 25 17 8 10 -11 -12 12 13 -15 28 -17 20 18 -20 -21 -22 -23 -24 -25 -26 -27 -28 -29 -30 -31
leaf_value=0.053757902784697956 -0.020325266169550698 -0.064104372177827787 0.081454378151800788 -0.0099540726039249981 0.026476405071685041 -0.041752481413303927 0.083471756353646842 0.095644325128511745 -0.013824111002702845 0.088045509905640973 0.058958676628945474 -0.079350802284809341 -0.024977406879771326 -0.061731382051889855 -0.052846819682318927 0.084914137476539447 0.010792088043094231 -0.010375603957708026 0.076492165881874047 0.052913475232628397 -0.061228601721410425 0.020662727598666018 -0.083873035676250707 0.051465758520737676 -0.0025876226146016763 -0.050130883075589466 0.030715140759591159 0.031363288545424049 -0.080618504842689523 0.050959511398245311
leaf_weight=13.239810496568678 29.865845635533333 13.91065828502178 14.233432099223135 12.88576105237007 12.719416275620459 12.678043425083162 93.935753598809242 47.493157655000687 23.192524001002312 21.234144374728203 18.453553050756454 29.554203629493713 12.42709866166115 19.601373255252838 31.997256606817245 14.235345914959906 17.942627355456356 14.476042300462721 17.737029433250427 12.468632549047468 13.454242259263991 12.467417493462561 13.949001938104628 12.430310189723967 26.139489755034447 23.130662858486176 13.95581007003784 32.441141486167908 158.07706129550934 12.484478607773779
leaf_count=53 120 56 57 52 51 51 376 190 93 85 74 119 50 79 129 57 72 58 71 50 54 50 56 50 105 93 56 130 638 50
internal_value=-0.00025049 0.0395447 0.0152957 -0.0510374 -0.0217793 -0.0626112 0.0557049 0.0416702 0.0585103 0.0407346 0.0184263 -0.0333101 -0.0435847 -0.0198089 -0.0717538 0.0298512 0.0198112 0.0717211 0.0374552 0.0012455 -0.0200703 -0.0281601 -0.0394324 0.0132491 -0.0239543 -0.0253242 -0.00378034 0.0466386 -0.0759434 0.0863431
internal_weight=802.811 450.115 180.008 352.697 99.9722 252.725 270.107 143.958 101.624 113.541 41.6461 86.7324 74.013 44.4588 202.96 92.3068 78.0714 126.149 32.2131 42.3345 31.3969 66.4666 53.9991 24.8574 40.0501 49.7645 26.6339 46.6746 190.074 59.9776
internal_count=3225 1804 722 1421 402 1019 1082 577 407 455 167 349 298 179 819 370 313 505 129 170 126 267 217 100 161 200 107 187 767 240
is_linear=0
shrinkage=0.05


Tree=2
num_leaves=31
num_cat=0
split_feature=6 13 6 12 18 3 12 8 3 3 13 13 3 3 18 18 6 6 8 3 6 13 17 6 1 6 18 6 13 8
split_gain=527.557 50.9128 46.1589 44.6295 34.1056 22.6483 36.2691 21.7239 21.575 18.6797 29.0953 21.8468 19.1129 28.1103 17.5909 29.2527 16.6046 15.7122 12.9305 12.6354 12.4252 11.4067 15.1597 11.0808 10.6712 15.1593 14.6494 10.611 9.59776 8.30064
threshold=0.41200000000003462 -0.13874284747213192 0.55639000000002181 -0.16268858915091158 158.50000000000003 0.001866280459755863 0.054981616648680239 0.00028869591288623839 0.00073689779711723553 0.00046411888597662233 0.081395410295442866 0.16610568058043931 -0.001859312440678259 -0.0036272162833454924 207.50000000000003 127.50000000000001 0.33614000000003447 0.26700000000000729 0.0003753313097511135 -0.0024644673249664749 0.36505000000000798 -0.079879912726761801 0.0010151970138170896 0.64486000000001698 -0.0012691975146677523 0.75358999999997434 117.50000000000001 0.50959999999997774 0.015235802351777706 0.00068537067742660367
decision_type=2 2 2 2 2 2 2 2 2 2 2 2 2 2 2 2 2 2 2 2 2 2 2 2 2 2 2 2 2 2
left_child=1 -1 4 14 7 6 19 -2 16 10 24 23 13 -12 15 -3 -8 -10 -6 -5 -21 -9 -23 -11 25 26 -4 -20 -19 -25
right_child=2 3 9 5 18 -7 8 21 17 11 12 -13 -14 -15 -16 -17 -18 28 27 20 -22 22 -24 29 -26 -27 -28 -29 -30 -31
leaf_value=0.054820626432646583 0.040223486139255124 0.025886031608459432 -0.0021327613221995005 -0.016764524853641979 0.071282603641420236 -0.079092197010917242 -0.066878364529210726 -0.047710837705009272 0.045273002595521625 -0.010491441612316733 0.044850820900215249 0.072243572875206691 0.064950506155535229 -0.053904744384669856 0.043159127000111701 -0.059076705105659572 -0.0029046835388300881 -0.045285057825806378 -0.00068053178066890838 -0.077465008452337628 -0.036869300465304712 0.015622155069153369 -0.035340319614505782 0.054766922498704719 0.084733337645407497 0.083238655791205804 0.070421233927851351 0.05614831072210591 0.01338183568497444 0.01239942658475067
leaf_weight=12.433493211865423 24.640941545367241 17.690230965614319 15.703065976500513 12.611466839909552 27.68910738825798 77.091508969664574 31.820318609476089 18.635785579681396 14.372803762555121 23.415377557277679 16.229473203420643 24.722526982426643 19.485465586185455 12.95995683968067 13.389468267560003 23.708296239376068 14.888995602726935 15.540125057101251 18.178188875317574 94.971653804183006 23.515911176800728 39.59942352771759 23.107844486832619 21.20214931666851 71.897787824273109 25.454091027379036 12.491614714264868 14.985578447580336 12.643441095948218 25.422950193285942
leaf_count=50 99 71 63 51 111 313 129 75 58 94 65 99 78 52 54 96 60 63 73 386 95 159 93 85 288 102 50 60 51 102
internal_value=-0.000244293 -0.0446178 0.0368857 -0.0481278 0.0162242 -0.055766 -0.0476056 -0.000905747 -0.0230232 0.0497009 0.0594185 0.0318351 0.0266029 0.00100386 -0.0066584 -0.0227708 -0.0464862 0.00272948 0.0460586 -0.0643439 -0.0694081 -0.0133649 -0.00315769 0.0175719 0.0721413 0.0552659 0.0300122 0.0249985 -0.0189665 0.0316655
internal_weight=800.499 364.678 435.821 352.244 166.837 297.456 220.365 105.984 89.2657 268.984 174.221 94.763 48.6749 29.1894 54.788 41.3985 46.7093 42.5564 60.8529 131.099 118.488 81.3431 62.7073 70.0405 125.547 53.6488 28.1947 33.1638 28.1836 46.6251
internal_count=3225 1477 1748 1427 670 1206 893 426 361 1078 698 380 195 117 221 167 189 172 244 532 481 327 252 281 503 215 113 133 114 187
is_linear=0
shrinkage=0.05


Tree=3
num_leaves=31
num_cat=0
split_feature=7 7 3 7 18 10 3 13 13 18 7 18 18 18 18 7 13 14 16 18 5 3 3 13 15 3 3 10 18 10
split_gain=541.331 44.4247 42.4912 45.5337 40.9808 39.2395 38.1111 28.14 24.1692 25.0479 22.547 16.2827 16.8364 17.209 15.3965 37.1518 26.9769 14.7705 15.0211 14.0402 12.8376 11.497 21.3467 10.6409 9.0023 8.60863 13.3564 18.0696 8.48422 7.63231
threshold=0.43798999999999827 0.36571999999999516 0.00034209295298138315 0.53001333333333311 125.50000000000001 59.643147003172501 0.00071040499057248253 0.12466591510741416 0.15721374920533118 129.50000000000003 0.83503999999998668 93.500000000000014 138.50000000000003 210.50000000000003 118.50000000000001 0.691330000000005 -0.1531248372634364 1.8594528291106596e-05 0.00050604890996614968 59.500000000000007 0.28712301740355628 -0.0045990975734947984 -0.0018100989961097813 -0.0016567515707345199 0.00024047076926647651 0.0015171686237548346 0.00066384959660253527 49.76217430089644 53.500000000000007 48.551803860409542
decision_type=2 2 2 2 2 2 2 2 2 2 2 2 2 2 2 2 2 2 2 2 2 2 2 2 2 2 2 2 2 2
left_child=1 4 7 20 5 -1 11 14 9 10 17 19 -13 -14 15 16 -2 -5 -19 -3 24 -9 -23 -18 -4 26 29 -28 -17 -6
right_child=2 6 3 8 25 -7 -8 21 -10 -11 -12 12 13 -15 -16 28 23 18 -20 -21 -22 22 -24 -25 -26 -27 27 -29 -30 -31
leaf_value=-0.043483218226857745 -0.046598967798611751 0.00098618166079944927 -0.0094808350727722587 -0.051241445012337884 -0.057572056268611296 0.051941601202914293 -0.059870275632037312 0.053542019375284688 0.072979254416961029 0.085605992296377539 0.068229282563472077 0.058858456152814924 -0.033289429012306027 0.028616586669478285 0.074190252729312289 0.087918263030154972 0.058073202313953833 -0.023195617225753553 0.037405371564470748 -0.071896687571970777 0.024301752520697467 -0.04507230784992397 0.039408027273544713 0.0048625709246756191 -0.055680315181392076 -0.081874875897344143 -0.062229015571385694 0.015543449036102303 0.048351153172140511 -0.086158011258637993
leaf_weight=40.372295424342155 12.929891392588614 13.882545277476313 22.585282444953918 12.693014219403265 61.273687735199928 14.694141760468481 40.37965452671051 13.480320632457731 33.903017416596413 13.224979907274244 13.475352853536604 15.18602406978607 22.241193905472755 22.667260274291039 95.691181600093842 38.274328380823135 23.404694393277168 18.438073813915253 22.95697021484375 12.610143110156057 13.916351914405821 14.690469712018965 15.229444205760958 15.696887761354445 19.778079509735107 64.159397795796394 18.525361195206646 12.513317480683325 20.971787393093109 37.727326810359955
leaf_count=164 52 56 91 51 251 59 164 54 136 53 54 61 90 91 384 154 94 74 92 51 56 59 61 63 80 264 76 51 84 155
internal_value=-0.000238001 -0.0438298 0.038687 0.0194723 -0.056092 -0.0180197 -0.0197563 0.0518082 0.0375476 0.0226787 0.0103612 -0.00104921 0.0133471 -0.00204276 0.0594842 0.046838 0.0160094 -0.00405592 0.0104126 -0.033705 -0.017363 0.0152025 -0.00207123 0.0367124 -0.0310499 -0.0668877 -0.0594932 -0.0308749 0.0739124 -0.0684656
internal_weight=797.572 376.232 421.34 170.971 249.266 55.0664 126.967 250.369 114.691 80.7884 67.5634 86.5872 60.0945 44.9085 206.969 111.278 52.0315 54.0881 41.395 26.4927 56.2797 43.4002 29.9199 39.1016 42.3634 194.199 130.04 31.0387 59.2461 99.001
internal_count=3225 1533 1692 687 1020 223 513 1005 460 324 271 349 242 181 831 447 209 217 166 107 227 174 120 157 171 797 533 127 238 406
is_linear=0
shrinkage=0.05


end of trees

feature_importances:
minutes_into_session=32
vwap_dev=17
atr_15=17
macd_hist=13
atr_5=9
macd_signal=7
rv_5=6
rsi_14=4
ema_9_21_spread=3
ret_15=2
ema_slope=2
high_dist_5=2
low_dist_5=2
ret_5=1
rvol=1
vol_z=1
macd=1

parameters:
[boosting: gbdt]
[objective: binary]
[metric: binary_logloss]
[tree_learner: serial]
[device_type: cpu]
[data_sample_strategy: bagging]
[data: ]
[valid: ]
[num_iterations: 1000]
[learning_rate: 0.05]
[num_leaves: 31]
[num_threads: 0]
[seed: 42]
[deterministic: 0]
[force_col_wise: 0]
[force_row_wise: 0]
[histogram_pool_size: -1]
[max_depth: -1]
[min_data_in_leaf: 50]
[min_sum_hessian_in_leaf: 0.001]
[bagging_fraction: 0.8]
[pos_bagging_fraction: 1]
[neg_bagging_fraction: 1]
[bagging_freq: 5]
[bagging_seed: 400]
[bagging_by_query: 0]
[feature_fraction: 0.8]
[feature_fraction_bynode: 1]
[feature_fraction_seed: 30056]
[extra_trees: 0]
[extra_seed: 12879]
[early_stopping_round: 0]
[early_stopping_min_delta: 0]
[first_metric_only: 0]
[max_delta_step: 0]
[lambda_l1: 0]
[lambda_l2: 0]
[linear_lambda: 0]
[min_gain_to_split: 0]
[drop_rate: 0.1]
[max_drop: 50]
[skip_drop: 0.5]
[xgboost_dart_mode: 0]
[uniform_drop: 0]
[drop_seed: 17869]
[top_rate: 0.2]
[other_rate: 0.1]
[min_data_per_group: 100]
[max_cat_threshold: 32]
[cat_l2: 10]
[cat_smooth: 10]
[max_cat_to_onehot: 4]
[top_k: 20]
[monotone_constraints: ]
[monotone_constraints_method: basic]
[monotone_penalty: 0]
[feature_contri: ]
[forcedsplits_filename: ]
[refit_decay_rate: 0.9]
[cegb_tradeoff: 1]
[cegb_penalty_split: 0]
[cegb_penalty_feature_lazy: ]
[cegb_penalty_feature_coupled: ]
[path_smooth: 0]
[interaction_constraints: ]
[verbosity: -1]
[saved_feature_importance_type: 0]
[use_quantized_grad: 0]
[num_grad_quant_bins: 4]
[quant_train_renew_leaf: 0]
[stochastic_rounding: 1]
[linear_tree: 0]
[max_bin: 255]
[max_bin_by_feature: ]
[min_data_in_bin: 3]
[bin_construct_sample_cnt: 200000]
[data_random_seed: 175]
[is_enable_sparse: 1]
[enable_bundle: 1]
[use_missing: 1]
[zero_as_missing: 0]
[feature_pre_filter: 1]
[pre_partition: 0]
[two_round: 0]
[header: 0]
[label_column: ]
[weight_column: ]
[group_column: ]
[ignore_column: ]
[categorical_feature: ]
[forcedbins_filename: ]
[precise_float_parser: 0]
[parser_config_file: ]
[objective_seed: 16083]
[num_class: 1]
[is_unbalance: 0]
[scale_pos_weight: 1]
[sigmoid: 1]
[boost_from_average: 1]
[reg_sqrt: 0]
[alpha: 0.9]
[fair_c: 1]
[poisson_max_delta_step: 0.7]
[tweedie_variance_power: 1.5]
[lambdarank_truncation_level: 30]
[lambdarank_norm: 1]
[label_gain: ]
[lambdarank_position_bias_regularization: 0]
[eval_at: ]
[multi_error_top_k: 1]
[auc_mu_weights: ]
[num_machines: 1]
[local_listen_port: 12400]
[time_out: 120]
[machine_list_filename: ]
[machines: ]
[gpu_platform_id: -1]
[gpu_device_id: -1]
[gpu_use_dp: 0]
[num_gpu: 1]

end of parameters

pandas_categorical:[]
