tree
version=v4
num_class=1
num_tree_per_iteration=1
label_index=0
max_feature_idx=18
objective=binary sigmoid:1
feature_names=ret_1 ret_5 ret_15 vwap_dev rvol vol_z atr_5 atr_15 rv_5 rv_annual rsi_14 macd macd_signal macd_hist ema_9_21_spread ema_slope high_dist_5 low_dist_5 minutes_into_session
feature_infos=[-0.015677687171702148:0.014967032077990439] [-0.015690910556436122:0.015563047875927216] [-0.016330477290430023:0.016776440101495593] [-0.015876507772837896:0.0097694233743588783] [0.085897591586046582:16.421932949697943] [-2.2805209086729388:4.2477201019028978] [0.091999999999984539:5.6134799999999361] [0.13232666666666168:2.3150733333332938] [0:0.0072283513829064262] [0:2.2660622193327193] [8.3709696433740959:92.774767560002246] [-2.9941801703616875:3.3715872000049103] [-2.4501411230505341:2.9327479907069276] [-1.3227458395538956:1.4162982293934174] [-0.0045251449473134682:0.0048278690298358112] [-0.0071149865152180247:0.0074600997333376107] [0:0.016609799372185013] [0:0.029208551223345092] [0:269]
tree_sizes=3322 3435 3447 3442 3441 3448 3443 3452 3452 3455 3457 3452 3451 3456 3434

Tree=0
num_leaves=31
num_cat=0
split_feature=7 7 18 7 18 18 18 7 12 18 11 7 12 2 11 12 7 12 18 12 18 18 18 15 13 12 18 18 11 12
split_gain=93.0044 64.3992 162.664 47.1961 37.8906 33.1584 31.1029 40.6366 45.4725 46.1313 28.4433 27.9539 23.5714 22.4459 21.9527 25.9183 18.9661 24.0837 30.0823 18.8541 18.4666 19.0983 16.3064 15.8243 15.6264 17.0775 16.7149 16.7837 28.0673 15.2702
threshold=0.16279666666667938 0.48139000000000659 214.50000000000003 1.0886300000000084 202.50000000000003 26.500000000000004 112.50000000000001 0.64905666666665718 -0.31019199986044921 50.500000000000007 0.3556010430125412 0.19238333333333538 0.089662586660594457 2.6732702702814141e-05 0.45594767134520003 -0.35107669766868393 0.29176666666666057 -0.15855157010732454 181.50000000000003 0.13566190765723432 111.50000000000001 201.50000000000003 105.50000000000001 -0.00037689965702109024 -0.089560789894542844 0.25179145375941164 57.500000000000007 128.50000000000003 0.0058397354752059991 0.11150633824084973
decision_type=2 2 2 2 2 2 2 2 2 2 2 2 2 2 2 2 2 2 2 2 2 2 2 2 2 2 2 2 2 2
left_child=-1 2 5 4 6 -2 7 10 9 -9 13 12 -7 -3 15 -6 20 18 22 -4 -13 -22 -18 -19 -25 26 -26 29 -29 -28
right_child=1 3 19 -5 14 11 -8 8 -10 -11 -12 16 -14 -15 -16 -17 17 23 -20 -21 21 -23 -24 24 25 -27 27 28 -30 -31
leaf_value=0.2660624804074862 0.42143441324817893 0.38040137930101869 0.43015502303817421 0.33269311495097115 0.33704258634470768 0.44354320227947663 0.43953681776526338 0.29388900741861584 0.43921679828670784 0.41229266424411054 0.42173229371240512 0.26974176564562447 0.3485251908241721 0.31425964094894487 0.31168255368286679 0.43775164312190346 0.33755703995041841 0.41901562387866209 0.3878401164493343 0.37783995368130613 0.34744349619929504 0.28449241557120242 0.26779973584442107 0.31489250054327167 0.40808395244240431 0.39961845585967981 0.30712451696453547 0.42020033703924176 0.33842937432531933 0.37340416719634506
leaf_weight=17.122891485691071 17.364058971405029 30.869438171386719 101.53151148557663 23.875581085681915 12.540709257125853 14.228881657123567 75.726590514183044 12.299541771411894 86.579127371311188 24.84025102853775 20.98157125711441 12.058374285697935 12.058374285697935 21.946241199970245 14.711216628551481 13.023044228553774 14.95238411426544 12.058374285697935 13.02304422855377 20.740403771400452 66.562226057052612 14.711216628551481 19.05223137140274 17.364058971405029 13.264211714267729 28.457763314247131 31.110605657100677 16.881723999977112 27.734260857105255 12.058374285697935
leaf_count=71 72 128 421 99 52 59 314 51 359 103 87 50 50 91 61 54 62 50 54 86 276 61 79 72 55 118 129 70 115 50
internal_value=0.381368 0.383828 0.371766 0.400459 0.405619 0.354112 0.412293 0.401847 0.419363 0.373081 0.372483 0.350522 0.399957 0.352918 0.360344 0.388347 0.34618 0.354653 0.323221 0.421281 0.327482 0.336049 0.298473 0.363953 0.359433 0.365405 0.355769 0.347864 0.36937 0.325638
internal_weight=819.728 802.605 465.212 337.393 313.518 342.94 273.243 197.516 123.719 37.1398 73.7973 325.576 26.2873 52.8157 40.275 25.5638 299.289 205.957 47.0277 122.272 93.3318 81.2734 34.0046 158.929 146.871 129.507 101.049 87.785 44.616 43.169
internal_count=3399 3328 1929 1399 1300 1422 1133 819 513 154 306 1350 109 219 167 106 1241 854 195 507 387 337 141 659 609 537 419 364 185 179
is_linear=0
shrinkage=1


Tree=1
num_leaves=31
num_cat=0
split_feature=7 7 18 3 3 3 7 7 7 18 18 3 3 18 7 12 18 3 12 18 4 18 12 6 3 11 12 2 15 15
split_gain=82.41 58.3255 147.108 85.243 65.1105 68.3124 49.7838 46.0927 42.6078 34.4565 34.3491 32.8827 43.4835 28.7877 34.4766 47.0389 39.9141 39.365 27.403 26.7326 24.8462 28.8814 24.1468 24.5188 24.125 19.5326 23.508 19.4328 19.3026 22.1441
threshold=0.16279666666667938 0.48139000000000659 215.50000000000003 -0.0018460748080180911 0.0035986022030647718 0.00071767305269455569 0.2602166666666601 0.28678666666666769 1.0886300000000084 202.50000000000003 53.500000000000007 -0.0018967285909154434 0.0027947012413695764 109.50000000000001 0.65533333333333998 -0.31019199986044921 50.500000000000007 0.0027265055911401739 0.13245272483863094 151.50000000000003 0.46999763803220068 136.50000000000003 0.11150633824084973 0.33799999999998825 0.0026368418570592816 0.45594767134520003 -0.35107669766868393 -0.00082842329485227617 -0.00030167447052048541 5.0850100213883927e-05
decision_type=2 2 2 2 2 2 2 2 2 2 2 2 2 2 2 2 2 2 2 2 2 2 2 2 2 2 2 2 2 2
left_child=-1 2 3 -2 5 6 -5 19 9 13 18 -4 -13 14 17 16 -16 27 -8 -7 -9 22 -22 -24 -21 26 -11 -3 -12 -30
right_child=1 8 11 4 -6 7 10 20 -10 25 28 12 -14 -15 15 -17 -18 -19 -20 24 21 -23 23 -25 -26 -27 -28 -29 29 -31
leaf_value=-0.10663968193805842 -0.10400922927725341 0.016567656519854129 -0.025168547205053793 0.084311637823774835 0.064671647796767553 -0.11036047397935887 0.072916064081841356 -0.083529276223432036 -0.044977608931122237 -0.040911530370518714 0.028387190501974687 0.063386336445902525 -0.032223539757463428 0.056065722702587889 -0.084385796605538965 0.057509043438540353 0.027187670755162947 0.069331712601047812 -0.023000597490990912 -0.074433141157085922 -0.090582776416226474 0.025404406751850829 -0.062464012935531416 0.024504349735255421 0.0013464872361998428 -0.064542642376776052 0.055086390203957086 -0.043577374775606553 -0.0644268743375596 -0.0035160594203154818
leaf_weight=17.439542457461357 30.838803514838219 20.001800566911697 16.714804917573929 17.121859028935432 22.695544019341469 28.985625296831131 19.421537280082706 13.331491932272909 24.077576369047165 12.637686133384703 13.294704645872114 88.185974344611168 13.745760306715963 78.193168208003044 12.233930081129072 82.935482025146484 23.247972026467323 13.939603686332701 12.076931059360502 31.832532569766045 13.868860751390455 33.805120378732681 13.98032061755657 19.282010361552238 15.674268916249273 14.885546326637266 12.873368918895723 40.875064253807068 34.54952435195446 26.264777675271034
leaf_count=71 127 83 70 71 94 119 81 55 99 52 55 369 57 328 50 348 97 58 50 131 57 140 58 80 65 61 54 169 142 108
internal_value=0.000887598 0.00322704 -0.00822795 -0.0246602 -0.016921 -0.0232305 0.00522345 -0.043681 0.0191074 0.0240558 -0.00759891 0.039834 0.0504931 0.0304678 0.0201095 0.0368969 -0.0112821 -0.00646099 0.0361403 -0.072519 -0.0202808 -0.00986275 -0.0351583 -0.0120489 -0.0494306 -0.0190271 0.00753087 -0.023816 -0.0261894 -0.0381204
internal_weight=819.011 801.572 465.67 347.024 316.185 293.49 122.729 170.76 335.901 311.824 105.607 118.647 101.932 271.427 193.234 118.417 35.4819 74.8165 31.4985 76.4924 94.2678 80.9363 47.1312 33.2623 47.5068 40.3966 25.5111 60.8769 74.109 60.8143
internal_count=3399 3328 1929 1433 1306 1212 507 705 1399 1300 436 496 426 1133 805 495 147 310 131 315 390 335 195 138 196 167 106 252 305 250
is_linear=0
shrinkage=0.05


Tree=2
num_leaves=31
num_cat=0
split_feature=6 18 3 3 3 3 3 12 6 3 3 11 18 12 10 12 18 10 18 18 6 12 15 18 18 3 3 17 3 12
split_gain=63.5927 84.5197 80.5742 71.9031 51.9646 81.8107 42.0235 41.932 39.0076 30.8911 28.5073 28.2692 41.337 67.3827 28.1959 26.8551 23.5012 23.4271 21.1559 21.0864 18.5797 20.1185 17.5269 16.589 28.4332 15.6817 15.4464 14.9688 11.4192 13.5158
threshold=0.50808999999999294 223.50000000000003 0.0025548152682621206 0.0036863214703516051 -0.001513778400957709 0.00078510331247552201 -0.0018967285909154434 0.24077032689027827 0.27189000000000768 -0.00063807817632931599 0.0012354091247248581 0.4451220001859611 34.500000000000007 -0.25758422133785713 39.729923757894191 0.029746962954651464 135.50000000000003 36.365102106422505 42.500000000000007 170.50000000000003 0.3819999999999823 0.12798656999742533 5.0850100213883927e-05 154.50000000000003 49.500000000000007 0.0022858954380695819 0.0024365242872303352 0.00061603869201647219 -0.0034018892663435682 -0.29074129854816472
decision_type=2 2 2 2 2 2 2 2 2 2 2 2 2 2 2 2 2 2 2 2 2 2 2 2 2 2 2 2 2 2
left_child=1 3 6 4 17 7 -3 9 19 14 11 12 13 -2 -6 -12 20 -1 -13 -7 -10 -22 -16 24 -11 27 -21 -18 -14 -30
right_child=10 2 -4 -5 5 8 -8 -9 16 23 15 18 28 -15 22 -17 25 -19 -20 26 21 -23 -24 -25 -26 -27 -28 -29 29 -31
leaf_value=-0.022125793498886565 -0.11407161969180141 -0.019667744198287374 -0.057935818003431928 0.05972970709534095 0.044994122676050269 -0.090940379548742609 0.065884757855647624 -0.067521979100802196 -0.065571175975890419 0.074611427339164663 -0.0081617325356549957 0.0035864091994912226 0.046229909651902587 0.020017046163399464 -0.07930125656942176 0.060469808863226573 0.013479173080802105 -0.094882049770544499 -0.086561594648531082 -0.067517336816313195 -0.063789286362192721 0.016954031398384493 -0.00053208835296021564 0.078000474596223987 -0.0017854814130588749 0.05538441700418037 -0.0080848973046083201 -0.050302891816348949 -0.012747564606269815 0.030794151020990142
leaf_weight=16.070936635136604 14.518267571926115 17.820938512682915 21.68869212269783 26.437577813863754 14.55025666952133 39.529881119728088 73.777800843119621 14.615654110908507 33.697124809026718 19.293700188398361 18.467572614550591 13.847772210836412 59.299338594079018 26.417671546339989 14.401053890585901 62.462902128696442 25.300056904554367 35.513788163661957 12.279098153114317 24.194537416100502 12.226718455553053 20.905958294868469 13.857699930667875 22.161336466670036 33.027640521526337 12.058118879795073 19.944634482264519 14.454130694270132 25.572242617607117 58.810433626174927
leaf_count=66 59 74 89 111 61 161 313 60 138 81 77 58 249 111 59 263 105 145 50 99 50 87 57 93 136 50 82 60 107 248
internal_value=0.00086218 -0.00952889 0.0287215 -0.0200404 -0.0255068 -0.0182976 0.0492401 0.0123386 -0.0382725 0.02229 0.0195844 0.00989767 0.0167867 -0.0275386 -0.0115564 0.0448087 -0.0198351 -0.0722152 -0.0387813 -0.0644165 -0.0394293 -0.0128421 -0.040674 0.0417433 0.0263862 0.00543831 -0.0406623 -0.0097112 0.0294152 0.0175988
internal_weight=817.204 525.528 113.287 412.241 385.803 334.219 91.5987 131.907 202.311 117.292 291.675 210.745 184.618 40.9359 42.809 80.9305 118.642 51.5847 26.1269 83.6691 66.8298 33.1327 28.2588 74.4827 52.3213 51.8123 44.1392 39.7542 143.682 84.3827
internal_count=3399 2177 476 1701 1590 1379 387 547 832 487 1222 882 774 170 177 340 490 211 108 342 275 137 116 310 217 215 181 165 604 355
is_linear=0
shrinkage=0.05


Tree=3
num_leaves=31
num_cat=0
split_feature=7 7 18 3 3 3 7 7 7 3 3 18 18 18 7 3 11 14 13 18 7 3 2 3 18 6 11 3 3 18
split_gain=71.7566 48.7569 123.253 67.5819 55.6182 55.2335 43.7008 36.9366 36.2242 30.7222 34.6466 30.2549 29.5133 26.1436 31.2515 34.8365 27.7034 23.6651 22.445 22.2242 21.6822 20.5472 17.2671 17.0471 19.7397 16.1812 15.7856 15.3602 12.3649 14.5125
threshold=0.16279666666667938 0.48139000000000659 214.50000000000003 -0.0018460748080180911 0.0035986022030647718 0.00071767305269455569 0.26746333333332667 1.0886300000000084 0.28678666666666769 -0.0018967285909154434 0.0030023003759544011 53.500000000000007 202.50000000000003 109.50000000000001 0.65533333333333998 0.0027265055911401739 -0.3891479272576816 -0.00038862992624254944 -0.066328723475298196 168.50000000000003 0.20254333333334293 -0.0010164272339298172 -0.00082842329485227617 0.001016799566205293 136.50000000000003 0.3819999999999823 0.38162617396505999 -0.0024216003732728522 0.00058410980662439724 160.50000000000003
decision_type=2 2 2 2 2 2 2 2 2 2 2 2 2 2 2 2 2 2 2 2 2 2 2 2 2 2 2 2 2 2
left_child=-1 2 3 -2 5 6 -5 12 19 -4 -11 18 13 14 15 22 27 -13 -8 -7 -21 -19 -3 -10 25 -25 -14 -16 -15 -30
right_child=1 7 9 4 -6 8 11 -9 23 10 -12 17 26 28 16 -17 -18 21 -20 20 -22 -23 -24 24 -26 -27 -28 -29 29 -31
leaf_value=-0.098850774354340851 -0.092971509641964739 0.015297215124290681 -0.025044570981663419 0.077388349205976814 0.060738350903776786 -0.090634755308458159 -0.017500190413086685 -0.041736102690742558 -0.066542301796351608 0.05765506113451211 -0.032161080848159378 0.036874654631547002 0.0072245992295358816 0.066426838890034243 0.023812448325416711 0.065548119015023595 0.050222590417388427 -0.07895279245087572 0.069011393757675871 0.017028453615076915 -0.064194246967344423 -0.017393577516064965 -0.041456488045050394 -0.053808667767438027 0.020697969625998326 0.006969382101878651 -0.056987282327172539 -0.045031901419449315 0.062613568453609977 -0.015717860193721282
leaf_weight=17.661083996295929 31.004671424627304 19.885102346539497 17.369575396180153 17.562939554452896 22.178218588232994 40.409290879964828 12.729287266731264 24.263958930969238 15.60410952568054 89.659162178635597 12.19798821210861 12.542587742209433 24.875410556793213 53.014141961932182 20.448602348566055 13.598215937614439 82.708007410168648 20.703197121620178 18.241276800632477 12.364313855767248 24.492896258831024 39.261065199971199 41.107280611991882 28.295371815562248 32.24830986559391 17.865495622158051 15.557237103581427 13.41903832554817 11.678998231887819 11.976948305964468
leaf_count=71 125 83 72 75 94 163 53 99 64 385 50 52 104 227 86 58 354 84 78 51 99 161 169 115 134 74 63 55 50 51
internal_value=0.00083532 0.00304358 -0.00741576 -0.022542 -0.0155987 -0.0213904 0.00446377 0.017661 -0.039661 0.0364179 0.0468991 -0.00791352 0.0223361 0.0283471 0.0184542 -0.00681908 0.0346252 -0.0255833 0.0334541 -0.0650249 -0.0369469 -0.0386474 -0.0229533 -0.0188153 -0.00931715 -0.0302859 -0.0174822 -0.00346506 0.0530138 0.0229546
internal_weight=814.924 797.263 464.73 345.503 314.498 292.32 121.04 332.533 171.28 119.227 101.857 103.477 308.269 267.836 191.166 74.5906 116.576 72.5069 30.9706 77.2665 36.8572 59.9643 60.9924 94.0133 78.4092 46.1609 40.4326 33.8676 76.6701 23.6559
internal_count=3399 3328 1929 1422 1297 1203 503 1399 700 507 435 428 1300 1133 805 310 495 297 131 313 150 245 252 387 323 189 167 141 328 101
is_linear=0
shrinkage=0.05


Tree=4
num_leaves=31
num_cat=0
split_feature=7 7 3 12 7 7 3 7 3 6 12 3 12 16 12 12 3 14 8 11 13 14 10 7 6 12 3 7 3 7
split_gain=64.5054 44.2568 71.2028 45.6739 33.4298 30.0262 24.8799 43.2899 45.8616 35.0602 20.9686 18.779 17.333 17.3098 19.8897 17.1656 37.9832 15.8495 14.7445 17.0363 12.0435 12.5246 13.2206 11.4643 11.1166 9.68408 9.15407 31.1786 12.7993 24.5183
threshold=0.16279666666667938 0.48139000000000659 -0.0018460748080180911 0.1015960571423082 1.0886300000000084 0.19584999999999964 0.00061342139427816411 0.37658999999999881 0.0024841318119802384 0.3189999999999828 0.25179145375941164 0.0022858954380695819 -0.11157660605400617 0.0015215042815376527 0.55128578392844629 -0.30412217245223205 -0.0037162848883350624 0.00038929482084485979 0.00075505961220855196 -0.088214975318408037 -0.11801429680117058 -0.00025561706231103592 37.845109302220671 0.24233666666665768 0.60799999999998156 0.058782859216235168 -0.0011845550835882664 0.28214999999999774 0.0011348240884250687 0.27266666666667266
decision_type=2 2 2 2 2 2 2 2 2 2 2 2 2 2 2 2 2 2 2 2 2 2 2 2 2 2 2 2 2 2
left_child=-1 2 12 5 11 -4 9 10 -9 -5 23 13 -2 14 15 16 -3 -12 19 -17 -7 22 -22 -8 -18 26 27 -23 -28 -30
right_child=1 4 3 6 -6 20 7 8 -10 -11 17 -13 -14 -15 -16 18 24 -19 -20 -21 21 25 -24 -25 -26 -27 28 -29 29 -31
leaf_value=-0.093493745219096203 -0.03936294198244205 0.037999152940958444 0.057132220126291322 0.070303027905028195 -0.039435816880604088 0.053466406756180564 -0.082099134533244023 -0.036645579110843825 0.069019938011948667 -0.034990657008410968 0.026887973935740925 0.050193955252927684 -0.09993731708420138 0.035798515019303014 -0.049479448297068657 0.053780238542385533 -0.076454671426186976 -0.043902896610368537 0.065302704435418135 0.003207699755596663 0.0069017128827317436 0.04144184685262358 -0.058860880288858254 -0.042372150748179793 -0.019136807416925281 -0.01761810260657699 0.039371520607445282 -0.068413913057383299 -0.038181648469435503 0.031507022506903223
leaf_weight=17.736996993422508 28.863794833421707 25.054195448756218 34.615652337670326 16.796603426337246 24.391836792230606 12.895021453499792 32.075966879725456 20.818411663174629 20.264509543776512 14.935943484306334 14.754330947995188 47.747689634561539 19.987546786665916 77.682402700185776 14.084926232695578 22.278118878602982 14.348822459578512 17.036672323942184 18.291871950030327 65.94988913834095 15.381746262311937 13.349197164177896 15.189384102821348 41.858103841543198 20.609584376215935 27.755192086100578 51.14563162624836 12.513009414076803 20.696631371974945 32.348226919770241
leaf_count=71 117 106 150 71 99 55 130 86 86 62 60 206 81 333 58 95 59 70 79 278 64 58 62 171 86 115 217 51 86 137
internal_value=0.000810008 0.00291738 -0.00705387 -0.00032397 0.0168972 0.0141169 -0.0194034 -0.028081 0.0154749 0.0207432 -0.0450061 0.021387 -0.064147 0.0160619 0.00757328 0.0123987 -0.00898808 -0.0110486 0.0244478 0.0159776 0.00671897 0.00351899 -0.0257727 -0.0596075 -0.0426632 0.00919348 0.0149155 -0.0117101 0.0215245 0.00431644
internal_weight=811.458 793.721 463.282 414.43 330.439 235.89 178.541 146.808 41.0829 31.7325 105.725 306.048 48.8513 258.3 180.617 166.532 60.0126 31.791 106.52 88.228 201.274 188.379 30.5711 73.9341 34.9584 157.808 130.053 25.8622 104.19 53.0449
internal_count=3399 3328 1929 1731 1399 995 736 603 172 133 431 1300 198 1094 761 703 251 130 452 373 845 790 126 301 145 664 549 109 440 223
is_linear=0
shrinkage=0.05


Tree=5
num_leaves=31
num_cat=0
split_feature=7 7 18 3 3 3 3 3 7 18 7 18 3 7 3 7 18 3 12 7 18 7 7 15 12 14 3 3 13 15
split_gain=69.84 51.4476 100.062 67.7198 50.0838 62.9701 36.5373 35.7688 31.1964 42.7213 28.9395 29.042 28.3963 28.2829 28.2816 28.9161 34.3027 32.0717 36.9734 29.7625 39.2444 25.6977 25.0446 23.6264 21.6973 18.0017 16.4837 14.2352 13.788 16.6801
threshold=0.16279666666667938 0.48139000000000659 219.50000000000003 0.0035986022030647718 -0.0014066244302609187 0.00071767305269455569 0.0025815213390658481 -0.0018967285909154434 0.2602166666666601 157.50000000000003 0.26746333333332667 51.500000000000007 0.0025815213390658481 0.37658999999999881 0.0018509040097200978 1.0338366666666619 204.50000000000003 -0.0021468564247801099 -0.41647617806415232 0.66678999999998056 119.50000000000001 0.54327666666666807 0.63038666666666365 3.343052243809375e-06 0.058782859216235168 -0.00043598578048526762 0.0020191889009400039 0.00042008117681997711 0.017338997246050623 -0.00023454380134707573
decision_type=2 2 2 2 2 2 2 2 2 2 2 2 2 2 2 2 2 2 2 2 2 2 2 2 2 2 2 2 2 2
left_child=-1 2 3 4 25 10 7 -4 12 13 -6 -12 -7 -10 15 16 17 -3 -19 20 21 -20 -18 -17 -16 -2 -15 -23 29 -13
right_child=1 14 6 -5 5 8 -8 -9 9 -11 11 28 -14 26 24 23 22 18 19 -21 -22 27 -24 -25 -26 -27 -28 -29 -30 -31
leaf_value=-0.090275281703042679 -0.021709125654297775 0.053585244420409454 -0.019744338961996212 0.063358103311891512 0.068803581469259703 -0.089180397216215582 -0.031616854286225397 0.063273736446121484 -0.071815511735105073 0.020566078472900717 0.044202830227785449 0.0047623826018619317 -0.01774118763641953 -0.034193643054867814 -0.0057664340672305414 -0.086950061742010587 0.0030093358850404313 -0.062268410983578576 0.030261807814257021 0.048057110176962285 0.052980563989759255 -0.082303927390576348 -0.084458991403215458 0.0082918921832097758 0.061142702237952699 -0.088182741659177666 0.037019408372555476 -0.017145246419486393 0.010577644460658857 -0.063390064370361515
leaf_weight=20.976840779185295 13.739171296358107 60.96911059319973 15.890366852283476 22.40978367626667 18.588337749242783 41.004259765148163 17.264794781804085 70.713960111141205 40.418844804167747 40.37674468755722 26.455560490489006 14.573666736483572 21.051444441080093 25.489828020334244 15.70176190137863 13.255821362137796 21.346409291028976 15.679017856717108 13.561644598841665 51.664169117808342 22.042712017893791 17.604454070329666 13.271892279386519 12.798222422599791 53.063219800591469 39.36958809196949 11.928757101297377 16.001030191779137 25.038942828774452 23.38228839635849
leaf_count=84 56 264 65 97 82 165 71 312 163 167 114 61 86 104 66 54 89 65 56 225 96 73 54 52 232 158 50 66 103 95
internal_value=-0.000223117 0.00215402 -0.00848319 -0.0208404 -0.0263669 -0.0181477 0.0348008 0.0480414 -0.0362377 -0.0211675 0.0120365 0.000239957 -0.0649457 -0.0428161 0.0173699 0.00978092 0.0153866 0.023433 0.00997049 0.0193409 -0.0020954 -0.0278342 -0.0305241 -0.0401655 0.0458647 -0.0709861 -0.0114915 -0.0512791 -0.0182228 -0.0372221
internal_weight=815.633 794.656 467.696 363.827 341.417 288.309 103.869 86.6043 180.27 118.214 108.039 89.4505 62.0557 77.8374 326.959 258.194 232.14 197.522 136.553 120.874 69.2098 47.1671 34.6183 26.054 68.765 53.1088 37.4186 33.6055 62.9949 37.956
internal_count=3425 3341 1949 1501 1404 1190 448 377 735 484 455 373 251 317 1392 1094 988 845 581 516 291 195 143 106 298 214 154 139 259 156
is_linear=0
shrinkage=0.05


Tree=6
num_leaves=31
num_cat=0
split_feature=7 7 18 3 3 3 3 3 7 18 7 18 3 7 18 18 7 3 7 12 3 7 15 12 10 3 7 3 13 15
split_gain=63.3442 46.7662 91.0095 61.7198 45.1209 56.7629 34.1593 30.4713 28.0388 38.4744 26.8113 26.4276 26.0419 26.133 31.1438 29.7391 41.1466 25.5699 25.3531 24.3061 22.7341 22.4256 21.086 20.1908 18.9839 14.8836 13.8682 12.6588 12.3908 14.9138
threshold=0.16279666666667938 0.48139000000000659 219.50000000000003 0.0035986022030647718 -0.0014066244302609187 0.00071767305269455569 0.0030023003759544011 -0.0018967285909154434 0.2602166666666601 157.50000000000003 0.26746333333332667 51.500000000000007 0.0018509040097200978 1.0338366666666619 204.50000000000003 89.500000000000014 0.66678999999998056 0.0025815213390658481 0.37658999999999881 -0.42670036908547365 0.00058410980662439724 0.63038666666666365 3.343052243809375e-06 0.058782859216235168 36.137031183919639 0.0020191889009400039 0.57491000000001125 0.0015841452087837844 0.017338997246050623 -0.00023454380134707573
decision_type=2 2 2 2 2 2 2 2 2 2 2 2 2 2 2 2 2 2 2 2 2 2 2 2 2 2 2 2 2 2
left_child=-1 2 3 4 24 10 7 -4 17 18 -6 -12 13 14 15 16 26 -7 -10 -18 -17 -16 -15 -14 -2 -20 -3 -11 29 -13
right_child=1 12 6 -5 5 8 -8 -9 9 27 11 28 23 22 21 20 19 -19 25 -21 -22 -23 -24 -25 -26 -27 -28 -29 -30 -31
leaf_value=-0.086152600972963275 -0.016880271756693526 -0.00079373473480568401 -0.018703234426863707 0.061307682713839712 0.066844268262713794 -0.084554636661471852 -0.045361519782765841 0.057471557037828858 -0.067973707827710311 -0.012026702315925293 0.042497897360209938 0.0045286844494951432 -0.0054715418798142179 -0.081939780921469377 0.0028604833207052454 0.057551786862674717 -0.017087907881789193 -0.016824343094954713 -0.032354003178662147 0.052587635313406947 -0.013674520559461402 -0.079773983074257149 0.0078847795368978887 0.05917908019555726 -0.085094162557145456 0.035455928045104397 -0.05229716481708048 0.044470937287421006 0.010066356212507619 -0.05986150710570174
leaf_weight=20.883689194917679 13.767397269606588 26.057695671916008 15.934959992766379 22.011456727981567 18.186737358570099 41.082352042198181 12.110977560281752 74.535912528634071 40.563832521438599 17.706832200288773 26.148948833346367 14.559801951050757 15.72013086080551 13.360063448548319 21.334660470485687 67.384964242577553 17.265557020902634 21.08774234354496 25.589518010616302 45.508931487798691 13.43702946603298 13.34658634662628 12.78638646006584 52.107106313109398 39.356938093900681 11.834465339779852 26.224412098526955 22.529280364513397 24.996292233467102 23.518724888563156
leaf_count=84 56 108 65 97 82 165 49 334 163 73 114 61 66 54 89 298 72 86 104 201 58 54 52 232 158 50 108 94 103 95
internal_value=-0.000200883 0.0020711 -0.00808593 -0.0198393 -0.0250784 -0.0172634 0.033498 0.0440546 -0.0343977 -0.020103 0.0115133 0.000234997 0.0166407 0.00936021 0.0147325 0.022465 0.00613637 -0.0615809 -0.0405909 0.033424 0.0457101 -0.0289402 -0.0380129 0.0441952 -0.0674162 -0.0109107 -0.0266276 0.0196078 -0.0172859 -0.0352411
internal_weight=810.939 790.056 465.522 362.94 340.929 287.805 102.582 90.4709 180.394 118.224 107.411 89.2238 324.534 256.706 230.56 195.879 115.057 62.1701 77.9878 62.7745 80.822 34.6812 26.1464 67.8272 53.1243 37.424 52.2821 40.2361 63.0748 38.0785
internal_count=3425 3341 1949 1501 1404 1190 448 399 735 484 455 373 1392 1094 988 845 489 251 317 273 356 143 106 298 214 154 216 167 259 156
is_linear=0
shrinkage=0.05


Tree=7
num_leaves=31
num_cat=0
split_feature=7 7 3 11 3 7 3 3 7 11 7 11 3 3 12 6 7 12 12 12 7 7 3 8 12 15 3 6 10 3
split_gain=57.6642 42.5454 52.6732 33.0958 26.3203 34.7072 25.2411 24.0026 23.697 29.7223 23.3346 22.8567 26.7159 20.2276 39.6414 19.8009 19.056 18.8192 17.6645 17.6469 15.5542 12.704 12.3575 10.9927 9.42817 9.23282 8.416 16.1389 14.3232 10.289
threshold=0.16279666666667938 0.48139000000000659 -0.0018460748080180911 0.11062884398529606 0.00061342139427816411 0.41111333333335182 0.0026368418570592816 0.0018509040097200978 0.98183333333335376 -0.49512653833022563 0.19828999999998589 0.21163677595154698 -0.00084662760001667314 -0.0032630514452353472 -0.29074129854816472 0.3189999999999828 0.70895000000000452 0.058782859216235168 0.25179145375941164 -0.1825008035636578 0.5503466666666631 0.24233666666665768 0.0025316992006663339 0.00062822383271727786 0.046531754141724023 -0.00014462551899019346 -0.0010164272339298172 0.26000000000000234 38.046083927906473 -0.00031265179246921341
decision_type=2 2 2 2 2 2 2 2 2 2 2 2 2 2 2 2 2 2 2 2 2 2 2 2 2 2 2 2 2 2
left_child=-1 2 19 10 15 18 -7 8 11 -10 -4 13 -13 20 23 -5 -14 -9 21 -2 -3 -6 24 -15 26 -26 27 -12 -29 -28
right_child=1 7 3 4 5 6 -8 17 9 -11 22 12 16 14 -16 -17 -18 -19 -20 -21 -22 -23 -24 -25 25 -27 29 28 -30 -31
leaf_value=-0.08252026288625508 -0.024322264378944192 -0.0011036014940511792 0.046428974887051784 0.058606756162133525 -0.083099480294070549 -0.029966221309778263 0.061159356090794328 -0.0051921272455398631 -0.086291463463633311 0.012079192897349711 0.039606654365658869 -0.065489930554070194 -0.012532904301620821 -0.056915863230133049 0.032466853116929449 -0.020775338829929164 0.059486878086115726 0.057337593307915241 -0.011538560520943028 -0.083151666832561533 0.060384320488553495 -0.039726805880902681 0.048856774085094971 0.0017526317317410731 0.010960417601875232 -0.041089940154804133 0.038929455018692195 0.013837587349657602 -0.054075861500651169 0.0038862946492069952
leaf_weight=20.716819107532501 24.011897042393684 13.100384846329687 37.553524255752563 17.331451088190082 25.758813306689262 14.067748919129373 16.526678398251534 15.737352579832075 13.906002879142763 17.147404626011848 11.18030148744583 16.664221048355103 30.941267266869545 20.312747970223427 68.943413153290749 14.36805287003517 13.062232747673987 51.116865918040276 34.779582902789116 27.172783032059669 47.859517529606819 48.996235236525536 13.985051676630972 13.155056342482565 13.270760416984556 23.797802358865738 28.704775243997574 12.108381763100622 21.636865362524986 77.49758218228817
leaf_count=84 97 55 169 75 104 58 74 66 56 71 51 69 128 84 303 61 59 232 142 110 214 200 59 55 56 98 123 51 89 332
internal_value=-0.000181781 0.00199205 -0.00771898 -0.00176998 -0.0185177 -0.0278251 0.0192585 0.0159502 0.00896102 -0.0319721 0.0102338 0.0146346 -0.0115727 0.0243667 0.0107929 0.0226262 0.00884583 0.0426182 -0.0409762 -0.0555535 0.0471705 -0.054672 0.0035109 -0.0338553 0.000141211 -0.0224556 0.00568375 -0.0124577 -0.0297073 0.0133579
internal_weight=805.412 784.695 462.748 411.564 171.829 140.129 30.5944 321.946 255.092 31.0534 239.735 224.039 60.6677 163.371 102.411 31.6995 44.0035 66.8542 109.535 51.1847 60.9599 74.755 202.182 33.4678 188.196 37.0686 151.128 44.9255 33.7452 106.202
internal_count=3425 3341 1949 1742 714 578 132 1392 1094 127 1028 967 256 711 442 136 187 298 446 207 269 304 859 139 800 154 646 191 140 455
is_linear=0
shrinkage=0.05


Tree=8
num_leaves=31
num_cat=0
split_feature=7 7 3 11 7 3 7 3 7 6 3 11 11 3 12 3 7 12 12 12 3 7 8 3 10 7 13 3 3 7
split_gain=52.8974 37.8298 48.105 28.4944 23.2475 30.1539 23.0901 22.1483 21.5935 20.0398 19.1873 18.7565 17.8946 20.5606 18.1304 37.3325 18.083 17.5648 16.1822 15.1668 12.1399 10.5379 9.34053 9.21027 8.75829 8.3225 8.15795 10.9388 18.2139 13.515
threshold=0.16693666666666712 0.48139000000000659 -0.0018460748080180911 0.11062884398529606 0.41111333333335182 0.00061342139427816411 0.19584999999999964 0.0018509040097200978 1.0338366666666619 0.30200000000003235 0.0026368418570592816 -0.4603995572923622 0.21163677595154698 -0.00063807817632931599 -0.30412217245223205 -0.0034018892663435682 0.70895000000000452 0.058782859216235168 -0.12751509012144835 0.25179145375941164 0.0025316992006663339 0.24233666666665768 0.00064829751230917082 -0.0016372669222960081 36.137031183919639 0.5788899999999938 0.021418370720019741 -0.00092607986938416092 -0.00017947666018750639 0.24691666666665621
decision_type=2 2 2 2 2 2 2 2 2 2 2 2 2 2 2 2 2 2 2 2 2 2 2 2 2 2 2 2 2 2
left_child=-1 2 18 6 5 9 -4 8 12 -5 -6 -10 14 -14 15 25 -15 -9 -2 21 24 -7 -17 -16 -8 -3 27 -26 -29 -30
right_child=1 7 3 4 10 19 20 17 11 -11 -12 -13 13 16 23 22 -18 -19 -20 -21 -22 -23 -24 -25 26 -27 -28 28 29 -31
leaf_value=-0.073660937088381048 -0.027751078209897296 0.00071846896013526068 0.048400596671100096 0.06164321878194088 -0.015499815301796761 -0.077823140162459697 0.027652833947324779 -0.0049273283532522971 -0.078882751040521504 -0.023890027341532019 0.059312469038348851 0.0058739106273796859 -0.051190462377864732 -0.010867672800767347 0.0628669292557167 -0.052502383191232453 0.061240083116985401 0.055602771461067714 -0.084383279465224226 -0.010951334031240401 0.047919401163472097 -0.037653668942934378 0.00074843264473678462 0.027244046698410841 -0.045333968769655036 0.049424119065950678 0.01084055796495997 0.045414487968141438 -0.052721139078694169 -0.0023222684187375565
leaf_weight=23.75668203830719 28.462794721126556 12.166184082627295 33.344435274600983 14.249929293990137 18.201215326786041 24.458847597241402 25.098864048719406 15.753506600856779 12.445738837122919 13.18351326882839 16.197621271014214 13.726834341883658 19.965661078691483 29.317509725689888 25.905608385801315 22.687167033553123 12.360144004225729 50.102077782154083 22.653353959321976 34.811441749334335 14.305862575769423 49.106118395924568 12.927169084548948 60.568280667066574 20.34655936062336 31.426135212182999 58.83926559984684 15.029548287391661 17.903748169541359 51.751909166574478
leaf_count=98 115 51 153 63 76 99 108 66 50 55 74 56 83 121 118 93 57 232 92 142 61 200 54 268 86 143 253 65 74 219
internal_value=-0.000166113 0.00208012 -0.00713119 -0.00138696 -0.0169889 -0.0262887 0.00983604 0.015289 0.00857753 0.0205391 0.0197276 -0.0344301 0.0135291 -0.00946945 0.022086 0.00480382 0.010517 0.0411232 -0.052849 -0.0381423 0.00351008 -0.0510092 -0.0331736 0.0379159 0.000148099 0.0358309 -0.00406459 -0.0124145 -0.00450526 -0.0152764
internal_weight=801.054 777.297 457.945 406.829 170.209 135.81 236.62 319.352 253.496 27.4334 34.3988 26.1726 227.324 61.6433 165.681 79.2067 41.6777 65.8556 51.1161 108.376 203.276 73.565 35.6143 86.4739 188.97 43.5923 163.871 105.032 84.6852 69.6557
internal_count=3425 3327 1935 1728 709 559 1019 1392 1094 118 150 106 988 261 727 341 178 298 207 441 866 299 147 386 805 194 697 444 358 293
is_linear=0
shrinkage=0.05


Tree=9
num_leaves=31
num_cat=0
split_feature=6 3 3 6 4 16 3 6 2 6 12 3 12 6 2 3 3 12 6 4 12 11 3 12 6 8 0 4 5 15
split_gain=45.8763 33.207 32.8937 34.7883 27.1773 27.476 23.9212 15.9486 14.0278 12.4291 11.7539 34.5541 11.8468 11.4932 17.721 11.2302 11.036 14.4276 13.3821 10.4755 10.061 13.9339 14.3463 9.83411 13.1451 9.25556 9.02867 8.96961 8.64258 7.66401
threshold=0.46192999999998396 -0.0018460748080180911 0.00071767305269455569 0.24199999999999591 0.36426271932538506 0.00033902406280392395 0.0027947012413695764 0.15548999999999755 9.4967405938839469e-05 0.41050000000000192 -0.39401197533852805 -0.0032630514452353472 -0.79403742834822344 0.74138000000001525 -0.0011380788177082766 -0.00066988643974364294 -0.00089381526226093189 0.18206692725550913 0.38603000000000526 0.75660750938609855 0.26545875333002261 0.13247930818931766 0.0020497438207238037 0.1258120369069809 0.27345000000001402 0.00064829751230917082 -1.3308762272290496e-05 0.70525252290454621 -0.42320425818594698 0.00077182335538483759
decision_type=2 2 2 2 2 2 2 2 2 2 2 2 2 2 2 2 2 2 2 2 2 2 2 2 2 2 2 2 2 2
left_child=1 9 3 -3 -4 7 10 -6 19 -1 11 12 -2 14 -12 -15 18 -18 27 -9 21 22 -10 28 -25 -13 -26 -5 -7 -8
right_child=6 2 4 16 5 23 29 8 20 -11 13 25 -14 15 -16 -17 17 -19 -20 -21 -22 -23 -24 24 26 -27 -28 -29 -30 -31
leaf_value=-0.066863589597625617 0.04861965702428403 0.061554816378480072 -0.081478635637877106 -0.0016672807703373184 -0.068257650161483108 0.043471627786046185 0.064542131531885746 -0.02072119438111918 -0.051057732094165614 -0.0090149348828663604 0.040205216557484491 -0.070509508773985652 -0.0028607541085376945 0.00921021230774066 -0.0012322216644582455 0.053431492455268396 0.024392233256206233 -0.033791422413135111 0.027448995893220841 0.033312894843165672 -0.00031232602912992669 -0.056240234515918766 0.015193980512155016 -0.053896041913059162 -0.012601570224360007 -0.016681515453306418 0.041285677829897206 -0.054629828111017978 0.0051390633492292975 0.017689018011728643
leaf_weight=32.936151027679443 20.734567448496819 29.910076573491096 14.920849502086638 13.02660897374153 19.182249948382378 24.432335957884789 28.217958495020866 17.325702294707298 14.374433115124701 12.930653631687163 33.17807400226593 18.164414435625076 24.239519372582436 25.458952903747559 116.04504072666168 32.923382952809334 57.021915003657341 13.10269747674465 11.928311616182325 18.598202779889107 23.269885808229446 44.107396498322487 18.934749066829681 12.510845541954039 22.583745911717415 14.251658350229262 11.85257640480995 20.69340991973877 36.931144014000893 12.636770516633986
leaf_count=134 94 140 61 55 80 106 132 74 59 53 147 74 106 111 500 150 245 54 51 81 98 180 83 51 95 59 50 85 160 57
internal_value=-0.000151904 -0.0101378 -0.00577289 0.0134845 -0.0158275 -0.0121185 0.0142691 -0.0255654 -0.0195707 -0.050555 0.00913989 -0.00749112 0.0208734 0.0153395 0.00798092 0.0341478 0.00106551 0.0135207 -0.018068 0.00725285 -0.0291411 -0.0378064 -0.0133967 0.0072234 -0.0100013 -0.0468441 0.00594579 -0.0341695 0.0204015 0.05005
internal_weight=796.424 470.574 424.707 145.683 279.024 264.103 325.85 155.793 136.61 45.8668 284.996 77.3902 44.9741 207.605 149.223 58.3823 115.773 70.1246 45.6483 35.9239 100.686 77.4166 33.3092 108.311 46.9472 32.4161 34.4363 33.72 61.3635 40.8547
internal_count=3425 1995 1808 630 1178 1117 1430 655 575 187 1241 333 200 908 647 261 490 299 191 155 420 322 142 462 196 133 145 140 266 189
is_linear=0
shrinkage=0.05


Tree=10
num_leaves=31
num_cat=0
split_feature=7 6 3 10 3 3 12 7 3 7 3 3 7 15 7 7 12 7 3 14 6 12 17 6 3 12 12 5 3 4
split_gain=53.2012 35.4114 30.5564 26.5719 35.4826 46.3722 20.939 28.7097 23.6418 20.4435 19.1205 30.674 25.3492 18.0537 17.2727 27.9974 17.017 16.0076 15.4368 14.8652 17.0282 13.0902 11.3884 9.92485 9.83713 22.1843 10.5194 9.50648 9.37859 8.77408
threshold=0.16279666666667938 0.56538999999997952 0.0041145049400726601 63.193753833242816 -0.0018460748080180911 -0.003911007999576617 -0.44296123214797567 0.95338000000000056 -0.0021468564247801099 0.20016999999998389 0.0024365242872303352 0.00071767305269455569 0.24429000000001605 -0.00044358954265316658 0.39916000000000246 0.24691666666665621 -0.094374973586866126 0.30532333333333483 0.00052436530240429046 9.9797670684370149e-05 0.35398999999998754 0.20592622537984695 0.0011657624655829746 0.45600000000000596 0.0013414081230708049 0.40691536580979526 0.074244749175112298 -0.55992083311461605 -0.0075627490971504757 0.54969114903315741
decision_type=2 2 2 2 2 2 2 2 2 2 2 2 2 2 2 2 2 2 2 2 2 2 2 2 2 2 2 2 2 2
left_child=-1 2 3 4 5 -2 7 8 28 -6 11 12 -11 -14 15 -13 27 -12 -5 20 -17 -21 -20 -16 25 -8 -26 -15 -3 -18
right_child=1 6 -4 18 9 -7 24 -9 -10 10 17 14 13 16 23 19 29 -19 22 21 -22 -23 -24 -25 26 -27 -28 -29 -30 -31
leaf_value=-0.079929695140200402 0.029575768269517428 0.070712484935617825 0.066234941403864989 0.019711387093844006 0.037181225106545535 -0.059041092602142291 0.030954186498668396 -0.073297311255228065 -0.039257922333465423 0.068612098427294377 -0.0118520954160201 -0.052689979352205984 0.064266524520261478 0.0066981653350180583 -0.073419726440482447 0.048403288969922423 0.042358440622280898 0.052362611410580941 -0.053029325478580504 -0.043448419900612087 -0.018900547868374945 0.020086111402607777 -0.0012580453994245795 -0.021927727292755841 0.0040025942772753112 -0.024987405563905975 0.056719016312796113 -0.040533959717679743 0.015572219843276528 0.0031456742990147884
leaf_weight=20.260473474860191 20.571463853120804 11.790304005146021 14.750994116067885 11.589446902275084 41.537515491247177 52.281157523393631 85.710478156805038 12.593018949031828 15.854899823665617 17.006476193666458 14.576291695237158 28.86072239279747 11.314560145139692 15.910754382610319 20.744993507862091 27.310579687356949 19.158324584364891 29.040623113512993 53.706565022468567 21.234394446015358 14.328430876135824 13.113853454589842 13.241392835974692 17.048655554652214 12.090477198362349 22.341650500893593 43.549810409545898 32.240517795085907 22.291249915957454 55.857768192887306
leaf_count=85 87 57 70 50 191 214 384 51 65 81 60 120 50 67 85 119 83 129 220 87 61 53 56 72 53 93 206 134 98 239
internal_value=4.96872e-05 0.00214964 -0.0047485 -0.00672161 -0.00205855 -0.0340183 0.0187812 -0.00583115 0.0111825 0.00408024 9.34454e-06 -0.00457188 0.0110963 0.0038229 -0.0212118 -0.0107657 -0.00172965 0.0309028 -0.0335666 0.0051576 0.0252433 -0.0191915 -0.0427897 -0.0501918 0.0281829 0.0193873 0.0452639 -0.0249269 0.0346477 0.0131602
internal_weight=791.908 771.647 545.425 530.674 452.137 72.8526 226.222 62.5295 49.9365 379.284 337.747 294.13 151.488 134.482 142.642 104.848 123.167 43.6169 78.5374 75.9873 41.639 34.3482 66.948 37.7936 163.692 108.052 55.6403 48.1513 34.0816 75.0161
internal_count=3420 3335 2328 2258 1932 301 1007 271 220 1631 1440 1251 654 573 597 440 523 189 326 320 180 140 276 157 736 477 259 201 155 322
is_linear=0
shrinkage=0.05


Tree=11
num_leaves=31
num_cat=0
split_feature=6 18 3 3 16 11 18 3 18 3 3 6 18 12 18 6 6 3 12 11 6 12 3 6 15 17 3 18 4 3
split_gain=40.4715 40.3279 48.4742 42.1601 36.0866 20.4815 36.8403 19.7267 19.0202 18.593 41.3923 27.4819 23.8009 20.5946 26.2095 22.3877 17.0289 16.0354 18.8645 23.7506 14.9683 13.0674 26.2056 12.9949 12.6637 12.1248 10.7833 10.5932 10.4621 9.80375
threshold=0.56538999999997952 221.50000000000003 0.0036863214703516051 0.0025316992006663339 0.0010339695223094279 -0.37949997120188067 35.500000000000007 -0.0018967285909154434 209.50000000000003 -0.0014374943985654097 0.00078510331247552201 0.24199999999999591 151.50000000000003 0.24077032689027827 49.500000000000007 0.21800000000001776 0.19198000000001234 0.0024139151982074192 0.15420963024003134 0.01014136998861659 0.40300000000000868 0.10504136877769241 0.0024365242872303352 0.33799999999998825 -0.00030167447052048541 0.00035180648426060294 0.0027578591267266709 147.50000000000003 0.97261532328848233 -0.00059878416305907513
decision_type=2 2 2 2 2 2 2 2 2 2 2 2 2 2 2 2 2 2 2 2 2 2 2 2 2 2 2 2 2 2
left_child=1 2 9 4 7 6 -2 -3 -7 20 13 21 23 14 -11 -16 -5 18 19 -14 -1 22 -12 -13 -17 29 -25 -8 -27 -26
right_child=5 3 -4 16 -6 8 27 -9 -10 10 11 12 17 -15 15 24 -18 -19 -20 -21 -22 -23 -24 26 25 28 -28 -29 -30 -31
leaf_value=-0.067458484606618269 -0.067498678130125403 0.0015905461418722015 0.052293897176422334 -0.078628025221839426 -0.048352147994220607 0.035571227946315925 0.030537142135630798 0.0589439196934919 -0.014199174831149753 0.065373939736062481 -0.077154390731132741 -0.055981857587658945 0.012488207149345116 -0.040691825178926118 0.067074425729051854 0.036336359822205531 0.0030645789310328499 0.061785032279740207 0.0451919154912701 -0.079582266530080339 -0.017998893177496637 -0.071876756926230523 0.021182691107596727 -0.026844006861357208 -0.073343968625017048 0.020671444064803049 0.027392516002194313 -0.018768244673743877 -0.031695191720290186 -0.01311912769421214
leaf_weight=31.779066875576973 17.366859912872314 19.612754419445992 25.891795605421066 12.988065227866175 11.698077768087385 130.98861111700535 37.91927333176136 63.643707051873207 22.492349714040756 21.427303522825241 13.290107265114786 32.860832691192627 16.537001445889477 19.051876574754715 12.401163250207899 15.323010906577109 12.536385059356688 12.066471651196478 13.485564887523649 12.151283949613569 29.494867563247681 40.501882016658783 13.819606855511664 51.116387903690338 12.132066130638124 28.046676233410835 11.166509374976156 15.285004660487173 14.452754035592077 15.253371745347975
leaf_count=131 71 80 124 55 50 604 169 299 95 96 54 133 70 78 61 67 52 52 56 50 124 167 59 210 50 119 51 68 60 65
internal_value=5.46889e-05 -0.00710086 -0.0140871 0.0185441 0.0338791 0.0180266 -0.00426756 0.0454332 0.0282775 -0.0182151 -0.0138259 -0.0274441 -0.0154732 0.00757395 0.0152989 0.00430637 -0.0385045 0.0109597 -0.00358209 -0.0265094 -0.0436506 -0.0538931 -0.0270255 -0.0305422 -0.00482889 -0.0138548 -0.0171201 0.0163722 0.00286316 -0.0397994
internal_weight=786.781 562.729 442.25 120.479 94.9545 224.052 70.5711 83.2565 153.481 416.358 355.084 216.996 149.384 138.088 119.036 97.609 25.5245 54.2403 42.1739 28.6883 61.2739 67.6116 27.1097 95.1437 85.2079 69.8849 62.2829 53.2043 42.4994 27.3854
internal_count=3420 2413 1877 536 429 1007 308 379 699 1753 1498 902 622 596 518 422 107 228 176 120 255 280 113 394 361 294 261 237 179 115
is_linear=0
shrinkage=0.05


Tree=12
num_leaves=31
num_cat=0
split_feature=7 7 18 3 16 3 3 18 11 12 18 18 12 3 7 3 3 3 3 3 7 7 3 16 3 11 14 7 3 14
split_gain=46.7787 25.3469 47.2674 60.4058 31.3948 25.1381 22.7831 20.2648 38.4475 35.2042 19.9308 39.0444 44.1054 26.3272 26.0154 22.6619 18.1587 16.9577 34.0225 15.3483 18.5189 14.2951 31.8339 12.9957 11.5298 11.3534 22.3631 10.669 27.2932 39.3669
threshold=0.16279666666667938 0.56973333333334042 222.50000000000003 0.0034803039518607379 0.0010339695223094279 0.0030023003759544011 0.0013414081230708049 34.500000000000007 0.45594767134520003 -0.31777257181343249 151.50000000000003 75.500000000000014 0.40691536580979526 -0.0020419135148395076 0.30113333333333309 0.0011570227265686659 -0.0018967285909154434 -0.00059878416305907513 0.00082665662337291562 0.00069298000740635986 0.37849666666665677 0.24977666666666973 0.0024365242872303352 0.001047965593706939 -0.0020958746747479951 0.028668539608361247 0.00018962453689590433 0.38039999999999746 0.00074121999569480882 -6.1699223731253095e-05
decision_type=2 2 2 2 2 2 2 2 2 2 2 2 2 2 2 2 2 2 2 2 2 2 2 2 2 2 2 2 2 2
left_child=-1 2 3 10 5 16 7 9 24 -3 11 12 15 -12 17 25 -4 -15 -19 -16 -21 22 -20 -11 -9 -2 -27 28 29 -13
right_child=1 6 4 -5 -6 -7 -8 8 -10 23 13 27 -14 14 19 -17 -18 18 21 20 -22 -23 -24 -25 -26 26 -28 -29 -30 -31
leaf_value=-0.076152631898726078 0.055805604514547025 -0.088632459592962121 0.0023740241802222882 0.055923341904196504 -0.044842909347679767 -0.033289661664933655 0.043239375695947727 0.043000603615799056 -0.062240370919463162 -0.030925265277372389 -0.054064113247017147 -0.080054722844748474 -0.078549341597208167 -0.068783861837464835 0.068149633191763911 -0.031279576478472397 0.058448635533802487 0.06338617938886934 -0.083411451293216712 0.044969901635953602 -0.023650716033355151 0.015449174361249374 0.012349382538203836 0.032040864453044167 0.010514139526269561 -0.03890833978478813 0.04511930318244943 -0.027698295903913157 -0.082188836647958827 0.026927953630228499
leaf_weight=19.628697842359543 25.036911517381668 13.668507561087607 18.679400131106377 30.889998182654381 13.756933644413946 11.473057702183722 57.369323536753654 56.700692921876907 13.446590781211851 13.823382109403608 21.703775957226753 15.886507868766783 15.189951628446577 11.814283192157744 18.521946847438812 20.014382779598236 63.575626969337463 14.688224896788595 19.543504729866982 21.095982849597931 18.414438366889954 16.566892400383949 15.61108687520027 20.124473333358765 52.695267990231514 13.300752893090246 19.566606864333153 67.67550727725029 41.741204366087914 18.745186284184456
leaf_count=85 110 56 76 149 58 47 271 263 55 59 91 65 62 51 81 82 305 71 80 90 79 68 65 90 235 56 83 285 172 80
internal_value=5.89214e-05 0.00202384 -0.00393811 -0.0114138 0.0256912 0.0360438 0.0159846 0.00681178 0.0175451 -0.0208785 -0.0166782 -0.025843 -0.000608759 -0.00291835 0.00522847 0.0145855 0.0457146 -0.0135895 -0.00377038 0.0305938 0.0129882 -0.022842 -0.040887 0.0064014 0.0273521 0.0304385 0.011115 -0.0421537 -0.054963 -0.0221479
internal_weight=780.949 761.32 533.492 426.007 107.485 93.7281 227.828 170.459 122.843 47.6164 395.117 237.157 93.1086 157.96 136.256 77.9187 82.255 78.224 66.4097 58.0324 39.5104 51.7215 35.1546 33.9479 109.396 57.9043 32.8674 144.048 76.3729 34.6317
internal_count=3420 3335 2306 1820 486 428 1029 758 553 205 1671 995 393 676 585 331 381 335 284 250 169 213 145 149 498 249 139 602 317 145
is_linear=0
shrinkage=0.05


Tree=13
num_leaves=31
num_cat=0
split_feature=7 3 7 18 3 3 3 3 3 18 12 14 3 3 7 18 7 7 3 12 7 15 13 18 18 8 7 18 3 18
split_gain=43.2953 22.4674 23.8649 56.5652 31.4255 29.6555 24.8112 20.8752 19.5444 18.673 34.4002 27.5439 16.2766 38.5102 25.0702 20.716 23.2866 21.2416 29.7977 20.6373 18.3541 15.0797 19.9597 20.3034 14.8467 13.3679 13.2866 16.8059 12.5445 20.5746
threshold=0.16899666666667298 0.0041145049400726601 0.56973333333334042 216.50000000000003 -0.0018967285909154434 -0.0037162848883350624 0.0030772545744182085 0.0014363647359389548 0.0034803039518607379 34.500000000000007 -0.31777257181343249 0.00069937711003552783 -0.0014374943985654097 0.00078510331247552201 0.26746333333332667 152.50000000000003 0.30532333333333483 0.24977666666666973 0.0024139151982074192 0.11150633824084973 0.4603766666666616 -0.00041419343380277857 -0.097159401003101428 48.500000000000007 52.500000000000007 0.00057909363990001333 0.37849666666665677 182.50000000000003 -0.0025676338702199943 147.50000000000003
decision_type=2 2 2 2 2 2 2 2 2 2 2 2 2 2 2 2 2 2 2 2 2 2 2 2 2 2 2 2 2 2
left_child=-1 2 3 8 5 -5 -6 9 12 10 -4 28 20 14 -14 16 -15 18 -17 -18 -2 -16 -23 -24 -21 -12 27 -19 -11 -30
right_child=1 -3 7 4 6 -7 -8 -9 -10 11 25 -13 13 15 21 17 19 26 -20 24 -22 22 23 -25 -26 -27 -28 -29 29 -31
leaf_value=-0.0644380291616478 -0.05891335445952206 0.049831538050180986 -0.085662669397524732 0.036685932242110156 0.051332786518573384 -0.060672784648598245 -0.027538668105067228 0.045645733944931211 0.04034169905423729 0.042231901474964827 -0.032478008366128512 -0.057780210977348569 0.066756483413257475 -0.073750198018110058 0.051723758666140034 -0.077621630824681931 -0.054383797207023424 0.00011812076016535238 0.022835177293922575 -0.042613475628330802 0.0042817366456934566 -0.064293437198911604 0.042003879186279749 -0.011978821422913852 0.020920094513722783 0.031682189523627662 -0.022611406268673889 0.073865213475946725 0.023569520691838354 -0.04996746425759966
leaf_weight=25.170695319771767 41.092797741293907 23.994709387421608 13.977815613150595 14.069385319948198 74.652093932032585 17.613472983241081 11.508366197347639 43.308479726314545 15.674147039651869 53.074391156435013 13.085366085171698 11.159092828631399 16.213662832975388 36.032867223024368 12.701646178960798 19.336710855364803 32.471692964434624 17.396362975239757 11.939939886331556 14.021393060684202 15.948966071009634 12.856072321534155 23.704377204179764 65.680021122097969 26.71504108607769 21.388051107525826 16.473173841834068 13.896187871694563 47.167399927973747 11.914405331015585
leaf_count=111 172 119 58 58 360 71 47 209 75 251 56 46 82 151 58 80 133 73 50 57 68 53 107 274 113 96 70 59 211 52
internal_value=6.28667e-05 0.00223027 0.00065501 -0.00523573 0.0251407 -0.0174388 0.040798 0.0146235 -0.0143639 0.00680164 -0.0194989 0.0171352 -0.0166415 -0.0122483 0.00855234 -0.0267377 -0.0408453 -0.00724014 -0.039272 -0.0246496 -0.0412439 0.000342106 -0.00604119 0.00233717 -0.000948024 0.00732836 0.0137341 0.0328672 0.024589 0.00874009
internal_weight=774.239 749.068 725.073 509.998 117.843 31.6829 86.1605 215.075 392.155 171.767 48.4512 123.315 376.481 319.439 131.156 188.283 109.241 79.0424 31.2767 73.2081 57.0418 114.942 102.24 89.3844 40.7364 34.4734 47.7657 31.2926 112.156 59.0818
internal_count=3420 3309 3190 2211 536 129 407 979 1675 770 210 560 1600 1360 574 786 454 332 130 303 240 492 434 381 170 152 202 132 514 263
is_linear=0
shrinkage=0.05


Tree=14
num_leaves=31
num_cat=0
split_feature=7 7 18 3 16 3 3 18 11 12 18 18 12 3 7 3 3 3 3 3 3 16 7 3 11 18 18 7 13 7
split_gain=40.3765 20.8772 39.1545 51.7003 28.3936 24.1778 19.3194 16.793 31.9848 29.688 16.5859 33.3497 37.7723 22.4376 23.5393 19.522 15.9387 15.3401 25.7146 14.4351 16.7373 11.5874 11.1362 27.1946 10.6578 18.4352 10.3431 14.1678 10.0162 9.88867
threshold=0.16279666666667938 0.56973333333334042 222.50000000000003 0.0034803039518607379 0.0010339695223094279 0.0030295801525784621 0.0013414081230708049 34.500000000000007 0.45594767134520003 -0.31777257181343249 151.50000000000003 75.500000000000014 0.40691536580979526 -0.0020419135148395076 0.30113333333333309 0.0011570227265686659 -0.0018967285909154434 -0.00096241627124582822 0.00082665662337291562 0.00069298000740635986 0.0015841452087837844 0.001047965593706939 0.24977666666666973 0.0024365242872303352 0.028668539608361247 45.500000000000007 101.50000000000001 0.66169000000000266 0.23595014324546484 0.35555333333332634
decision_type=2 2 2 2 2 2 2 2 2 2 2 2 2 2 2 2 2 2 2 2 2 2 2 2 2 2 2 2 2 2
left_child=-1 2 3 10 5 16 7 9 26 -3 11 12 15 -12 17 24 -4 -15 -19 -16 -21 -11 23 -20 -2 -26 27 -9 -8 -13
right_child=1 6 4 -5 -6 -7 28 8 -10 21 13 29 -14 14 19 -17 -18 18 22 20 -22 -23 -24 -25 25 -27 -28 -29 -30 -31
leaf_value=-0.072291179606077699 0.053812218876118714 -0.082524741000844962 0.0030292209196765879 0.053215298854147303 -0.043103873677133649 -0.035457950385201151 0.053904335495860857 -0.038015333941451165 -0.056912992648366981 -0.029292522618203216 -0.050051588024315398 -0.054784368479552398 -0.0721734606494282 -0.069383048804031164 0.066177145323977768 -0.028447987662779495 0.055862462701844799 0.052621924917470066 -0.077309361640561722 -0.0238582287471155 0.041733679917731636 0.030272978823516646 0.012664179460740506 0.011728822848972833 0.042121876625742079 -0.034081976038029399 0.039167793574556034 0.02395719555510736 0.0071798987949952334 -0.027943883414185019
leaf_weight=18.807322725653648 24.528406098484993 13.256838291883467 18.617328211665154 29.710512384772301 13.765831440687178 11.023232668638228 39.296382740139961 12.428966656327246 13.341518282890318 13.862838849425314 21.434143900871277 57.380686730146408 15.216477945446966 10.44525972008705 18.120348185300827 20.03325729072094 61.203574180603027 15.318863913416861 19.088589861989021 17.674908965826035 21.625433087348938 19.863085106015205 16.4349295347929 15.571239843964575 18.935371071100235 13.663499772548674 59.219690129160881 35.74655194580555 16.197370782494545 85.372101426124573
leaf_count=85 110 56 76 149 58 45 195 52 55 59 91 245 62 45 81 82 307 77 80 74 95 90 68 65 83 56 280 166 76 357
internal_value=6.59055e-05 0.0018843 -0.0035602 -0.0103693 0.0238138 0.0339539 0.0146938 0.00623252 0.0161019 -0.01913 -0.0152028 -0.0235848 -0.000176337 -0.00254582 0.00503721 0.0140219 0.0435397 -0.0130574 -0.00419871 0.0292572 0.0122344 0.00578894 -0.0212343 -0.0373082 0.0289151 0.0101818 0.0251724 0.00796869 0.0402665 -0.0387326
internal_weight=767.185 748.377 525.164 420.554 104.61 90.8441 223.213 167.719 120.737 46.9828 390.844 235.13 92.377 155.714 134.28 77.1605 79.8209 76.8589 66.4136 57.4207 39.3003 33.7259 51.0948 34.6598 57.1273 32.5989 107.395 48.1755 55.4938 142.753
internal_count=3420 3335 2306 1820 486 428 1029 758 553 205 1671 995 393 676 585 331 383 335 290 250 169 149 213 145 249 139 498 218 271 602
is_linear=0
shrinkage=0.05


end of trees

feature_importances:
vwap_dev=131
atr_15=88
minutes_into_session=65
macd_signal=54
atr_5=26
macd=21
ema_slope=13
macd_hist=8
ema_9_21_spread=8
rsi_14=7
high_dist_5=7
rvol=6
ret_15=5
rv_5=5
low_dist_5=3
vol_z=2
ret_1=1

parameters:
[boosting: gbdt]
[objective: binary]
[metric: binary_logloss]
[tree_learner: serial]
[device_type: cpu]
[data_sample_strategy: bagging]
[data: ]
[valid: ]
[num_iterations: 1000]
[learning_rate: 0.05]
[num_leaves: 31]
[num_threads: 0]
[seed: 42]
[deterministic: 0]
[force_col_wise: 0]
[force_row_wise: 0]
[histogram_pool_size: -1]
[max_depth: -1]
[min_data_in_leaf: 50]
[min_sum_hessian_in_leaf: 0.001]
[bagging_fraction: 0.8]
[pos_bagging_fraction: 1]
[neg_bagging_fraction: 1]
[bagging_freq: 5]
[bagging_seed: 400]
[bagging_by_query: 0]
[feature_fraction: 0.8]
[feature_fraction_bynode: 1]
[feature_fraction_seed: 30056]
[extra_trees: 0]
[extra_seed: 12879]
[early_stopping_round: 0]
[early_stopping_min_delta: 0]
[first_metric_only: 0]
[max_delta_step: 0]
[lambda_l1: 0]
[lambda_l2: 0]
[linear_lambda: 0]
[min_gain_to_split: 0]
[drop_rate: 0.1]
[max_drop: 50]
[skip_drop: 0.5]
[xgboost_dart_mode: 0]
[uniform_drop: 0]
[drop_seed: 17869]
[top_rate: 0.2]
[other_rate: 0.1]
[min_data_per_group: 100]
[max_cat_threshold: 32]
[cat_l2: 10]
[cat_smooth: 10]
[max_cat_to_onehot: 4]
[top_k: 20]
[monotone_constraints: ]
[monotone_constraints_method: basic]
[monotone_penalty: 0]
[feature_contri: ]
[forcedsplits_filename: ]
[refit_decay_rate: 0.9]
[cegb_tradeoff: 1]
[cegb_penalty_split: 0]
[cegb_penalty_feature_lazy: ]
[cegb_penalty_feature_coupled: ]
[path_smooth: 0]
[interaction_constraints: ]
[verbosity: -1]
[saved_feature_importance_type: 0]
[use_quantized_grad: 0]
[num_grad_quant_bins: 4]
[quant_train_renew_leaf: 0]
[stochastic_rounding: 1]
[linear_tree: 0]
[max_bin: 255]
[max_bin_by_feature: ]
[min_data_in_bin: 3]
[bin_construct_sample_cnt: 200000]
[data_random_seed: 175]
[is_enable_sparse: 1]
[enable_bundle: 1]
[use_missing: 1]
[zero_as_missing: 0]
[feature_pre_filter: 1]
[pre_partition: 0]
[two_round: 0]
[header: 0]
[label_column: ]
[weight_column: ]
[group_column: ]
[ignore_column: ]
[categorical_feature: ]
[forcedbins_filename: ]
[precise_float_parser: 0]
[parser_config_file: ]
[objective_seed: 16083]
[num_class: 1]
[is_unbalance: 0]
[scale_pos_weight: 1]
[sigmoid: 1]
[boost_from_average: 1]
[reg_sqrt: 0]
[alpha: 0.9]
[fair_c: 1]
[poisson_max_delta_step: 0.7]
[tweedie_variance_power: 1.5]
[lambdarank_truncation_level: 30]
[lambdarank_norm: 1]
[label_gain: ]
[lambdarank_position_bias_regularization: 0]
[eval_at: ]
[multi_error_top_k: 1]
[auc_mu_weights: ]
[num_machines: 1]
[local_listen_port: 12400]
[time_out: 120]
[machine_list_filename: ]
[machines: ]
[gpu_platform_id: -1]
[gpu_device_id: -1]
[gpu_use_dp: 0]
[num_gpu: 1]

end of parameters

pandas_categorical:[]
