tree
version=v4
num_class=1
num_tree_per_iteration=1
label_index=0
max_feature_idx=18
objective=binary sigmoid:1
feature_names=ret_1 ret_5 ret_15 vwap_dev rvol vol_z atr_5 atr_15 rv_5 rv_annual rsi_14 macd macd_signal macd_hist ema_9_21_spread ema_slope high_dist_5 low_dist_5 minutes_into_session
feature_infos=[-0.015677687171702148:0.014967032077990439] [-0.015690910556436122:0.015563047875927216] [-0.016330477290430023:0.016776440101495593] [-0.015876507772837896:0.011555649325945815] [0.085897591586046582:16.421932949697943] [-2.2412863976600597:4.2477201019028978] [0.11600000000000818:5.6134799999999361] [0.14178666666666687:2.3150733333332938] [0:0.0072283513829064262] [0:2.2660622193327193] [0:92.774767560002246] [-2.9941801703616875:3.3715872000049103] [-2.4501411230505341:2.9327479907069276] [-1.3227458395538956:1.4162982293934174] [-0.0045251449473134682:0.0048278690298358112] [-0.0071149865152180247:0.0074600997333376107] [0:0.016609799372185013] [0:0.029208551223345092] [0:379]
tree_sizes=3428 3429

Tree=0
num_leaves=31
num_cat=0
split_feature=7 14 15 13 18 18 2 13 18 18 18 7 18 18 6 11 11 15 7 7 7 13 18 8 11 7 12 12 2 6
split_gain=58.2342 33.3591 21.1128 24.1093 21.9186 30.411 23.5886 17.1157 14.8735 28.981 19.4452 13.5547 22.869 26.6722 22.385 21.9884 27.1536 15.7096 11.9492 12.5692 11.8719 10.9275 10.8585 10.1906 13.148 19.7208 15.6779 12.3414 10.0584 10.2567
threshold=0.20430999999999436 -0.0012137716579954207 -1.8413706776077007e-05 0.26601041174214229 350.50000000000006 278.50000000000006 -0.0030290930294510905 -0.016698736841298103 315.50000000000006 297.50000000000006 180.50000000000003 0.40533333333332849 64.500000000000014 162.50000000000003 0.37397000000000852 0.21325961169765154 0.07571037626644285 0.00063391560933911972 0.82634333333332977 0.22628999999999452 0.75122333333335989 -0.0049636332683781195 100.50000000000001 0.00061408428873337476 0.45359540912983226 0.56044000000000183 -0.20004340421724542 0.46041274392428622 0.001553915076004331 0.46200000000002323
decision_type=2 2 2 2 2 2 2 2 2 2 2 2 2 2 2 2 2 2 2 2 2 2 2 2 2 2 2 2 2 2
left_child=8 22 4 11 5 6 20 -6 9 10 -1 12 -4 15 -13 16 -14 23 19 -8 -3 -15 -2 24 26 -26 -16 -25 29 -28
right_child=1 2 3 -5 7 -7 18 -9 -10 -11 -12 14 13 21 17 -17 -18 -19 -20 -21 -22 -23 -24 27 25 -27 28 -29 -30 -31
leaf_value=-0.084242549753603527 -0.0050210100958124892 -0.14513049681152934 -0.1708853723386223 -0.058775914161864819 -0.013406380524449396 -0.11031464028327335 -0.031462161482453711 -0.088251186837488324 -0.1691483810002237 -0.052173453082525162 -0.15697067970408485 -0.039497492574024587 -0.10039857194016953 -0.076750998482081126 -0.1086340872640212 -0.12165649586986163 -0.013406380524449396 -0.13170765079995625 -0.029503919228831818 -0.078523267174214789 -0.082356132302363633 -0.12165649586986163 -0.067451654798463434 -0.11971995621581101 -0.14894533986813843 -0.073513550499676575 -0.03142772301953374 -0.065980980815906129 -0.098800231795079907 -0.0717320779753257
leaf_weight=12.473066896200178 14.718218937516214 18.46013900637627 14.219296261668203 38.167584702372551 19.707445695996284 94.046924397349358 14.967680275440214 12.473066896200178 20.705291047692299 12.473066896200178 34.924587309360504 18.460139006376266 16.464448302984238 15.217141613364218 29.436437875032425 17.212832316756248 19.707445695996284 28.189131185412407 14.468757599592207 272.41178101301193 12.722528234124182 123.48336227238178 13.221450909972189 51.638496950268745 17.711754992604256 16.963370978832245 24.197749778628349 13.470912247896193 18.959061682224274 45.401963502168655
leaf_count=50 59 74 57 153 79 377 60 50 83 50 140 74 66 61 118 69 79 113 58 1092 51 495 53 207 71 68 97 54 76 182
internal_value=-0.0917341 -0.0884269 -0.0899813 -0.0969955 -0.0822088 -0.0852072 -0.078117 -0.042416 -0.132619 -0.119986 -0.137832 -0.100094 -0.1097 -0.105171 -0.0926002 -0.0751388 -0.0530028 -0.0965856 -0.07384 -0.0760722 -0.119519 -0.11673 -0.0345641 -0.0920394 -0.0849762 -0.112043 -0.0770219 -0.108602 -0.0665142 -0.0577195
internal_weight=1076.68 996.099 968.159 508.901 459.258 427.078 333.031 32.1805 80.576 59.8707 47.3977 470.734 206.305 192.085 264.429 53.3847 36.1719 245.969 301.848 287.379 31.1827 138.701 27.9397 217.78 152.67 34.6751 117.995 65.1094 88.5588 69.5997
internal_count=4316 3993 3881 2040 1841 1712 1335 129 323 240 190 1887 827 770 1060 214 145 986 1210 1152 125 556 112 873 612 139 473 261 355 279
is_linear=0
shrinkage=1


Tree=1
num_leaves=31
num_cat=0
split_feature=7 15 7 18 6 18 18 11 11 3 18 18 18 18 11 11 3 3 18 18 6 7 3 18 11 4 5 11 18 3
split_gain=52.6913 26.0284 20.793 20.5312 20.5311 16.3934 21.1576 18.2587 22.6551 14.6433 13.549 26.2136 17.6611 12.632 19.0924 13.813 25.3531 12.1995 11.6988 35.7266 20.8771 20.359 13.3918 23.6674 23.035 17.8416 12.8931 11.379 10.6133 10.6111
threshold=0.20430999999999436 -2.1530825790427862e-05 0.42199999999998383 12.500000000000002 0.40599999999998321 64.500000000000014 164.50000000000003 0.20325675825910142 0.07571037626644285 0.0024126610119255504 315.50000000000006 297.50000000000006 180.50000000000003 46.500000000000007 0.3692043392186975 -0.16221054923641984 -0.002963095338791659 9.4812664873112823e-05 278.50000000000006 343.50000000000006 0.42548999999997933 0.82634333333332977 -0.00048208135809421512 246.50000000000003 -0.18244653283437626 0.58126546184631067 -0.48349837024864356 0.13407156242470822 363.50000000000006 -5.4661344868328885e-05
decision_type=2 2 2 2 2 2 2 2 2 2 2 2 2 2 2 2 2 2 2 2 2 2 2 2 2 2 2 2 2 2
left_child=10 3 5 -2 -4 -3 7 8 -7 28 11 12 -1 14 17 -15 -17 -6 21 29 -21 22 23 25 -24 -5 -27 -18 -8 -20
right_child=1 2 4 18 13 6 9 -9 -10 -11 -12 -13 -14 15 -16 16 27 -19 19 20 -22 -23 24 -25 -26 26 -28 -29 -30 -31
leaf_value=0.0082242118144903557 0.072842160987098156 -0.062769303898827539 0.044090808642579582 0.052731558161023588 0.0069798659784957896 -0.0043955657035548296 -0.032567843033856618 -0.026136539371546103 0.06803529174041402 0.021459408928523278 -0.072803857557495189 0.038634362181497531 -0.061113891286744208 -0.030952728504209298 -0.009082100140108287 0.051441115492346215 0.018237680148196541 0.068919496935060123 -0.031888261013645336 0.058755351869417306 -0.0094380267731095646 0.06282193138020388 -0.045408591560783002 0.07195406894210403 0.0098789963849938989 -0.024604510777574612 0.01497593524891809 -0.015416791350077452 0.015616028814001096 0.010806109058484281
leaf_weight=12.477848678827284 13.741854563355444 16.642106831073761 30.460330292582512 26.20466311275959 12.716071501374243 21.948570787906647 113.61986753344536 20.429975420236588 21.246444031596184 17.19551032781601 20.602284461259842 12.491497397422789 34.785283803939819 42.129238486289978 29.937693268060684 21.706836491823196 33.684690222144127 21.208234786987305 62.808723092079163 29.208478152751923 18.227280914783478 21.484428182244301 22.708203047513962 20.472029119729996 110.58790519833565 25.202622279524803 112.04657517373562 98.740896791219711 12.706533163785933 18.942313313484192
leaf_count=50 55 67 122 105 51 88 456 82 85 69 83 50 140 169 120 87 135 85 252 117 73 86 91 82 443 101 449 396 51 76
internal_value=0.00110921 0.00425146 -0.0035699 0.0126045 0.00525223 -0.0150252 -0.0111895 0.0128104 0.0312312 -0.0218289 -0.0378383 -0.0257828 -0.0428081 0.00070425 0.02002 -0.00558096 0.00135394 0.0457023 0.0108353 -0.00196648 0.0325519 0.0157181 0.0125279 0.0212736 0.000460253 0.014926 0.00770791 -0.00685621 -0.0277213 -0.0219957
internal_weight=1076.36 996.008 514.373 481.635 290.584 223.789 207.147 63.625 43.195 143.522 80.3569 59.7546 47.2631 260.124 63.862 196.262 154.132 33.9243 467.893 129.187 47.4358 338.706 317.222 183.926 133.296 163.454 137.249 132.426 126.326 81.751
internal_count=4316 3993 2063 1930 1165 898 831 255 173 576 323 240 190 1043 256 787 618 136 1875 518 190 1357 1271 737 534 655 550 531 507 328
is_linear=0
shrinkage=0.05


end of trees

feature_importances:
minutes_into_session=19
atr_15=9
macd=9
vwap_dev=5
atr_5=4
macd_hist=3
ema_slope=3
ret_15=2
macd_signal=2
rvol=1
vol_z=1
rv_5=1
ema_9_21_spread=1

parameters:
[boosting: gbdt]
[objective: binary]
[metric: binary_logloss]
[tree_learner: serial]
[device_type: cpu]
[data_sample_strategy: bagging]
[data: ]
[valid: ]
[num_iterations: 1000]
[learning_rate: 0.05]
[num_leaves: 31]
[num_threads: 0]
[seed: 42]
[deterministic: 0]
[force_col_wise: 0]
[force_row_wise: 0]
[histogram_pool_size: -1]
[max_depth: -1]
[min_data_in_leaf: 50]
[min_sum_hessian_in_leaf: 0.001]
[bagging_fraction: 0.8]
[pos_bagging_fraction: 1]
[neg_bagging_fraction: 1]
[bagging_freq: 5]
[bagging_seed: 400]
[bagging_by_query: 0]
[feature_fraction: 0.8]
[feature_fraction_bynode: 1]
[feature_fraction_seed: 30056]
[extra_trees: 0]
[extra_seed: 12879]
[early_stopping_round: 0]
[early_stopping_min_delta: 0]
[first_metric_only: 0]
[max_delta_step: 0]
[lambda_l1: 0]
[lambda_l2: 0]
[linear_lambda: 0]
[min_gain_to_split: 0]
[drop_rate: 0.1]
[max_drop: 50]
[skip_drop: 0.5]
[xgboost_dart_mode: 0]
[uniform_drop: 0]
[drop_seed: 17869]
[top_rate: 0.2]
[other_rate: 0.1]
[min_data_per_group: 100]
[max_cat_threshold: 32]
[cat_l2: 10]
[cat_smooth: 10]
[max_cat_to_onehot: 4]
[top_k: 20]
[monotone_constraints: ]
[monotone_constraints_method: basic]
[monotone_penalty: 0]
[feature_contri: ]
[forcedsplits_filename: ]
[refit_decay_rate: 0.9]
[cegb_tradeoff: 1]
[cegb_penalty_split: 0]
[cegb_penalty_feature_lazy: ]
[cegb_penalty_feature_coupled: ]
[path_smooth: 0]
[interaction_constraints: ]
[verbosity: -1]
[saved_feature_importance_type: 0]
[use_quantized_grad: 0]
[num_grad_quant_bins: 4]
[quant_train_renew_leaf: 0]
[stochastic_rounding: 1]
[linear_tree: 0]
[max_bin: 255]
[max_bin_by_feature: ]
[min_data_in_bin: 3]
[bin_construct_sample_cnt: 200000]
[data_random_seed: 175]
[is_enable_sparse: 1]
[enable_bundle: 1]
[use_missing: 1]
[zero_as_missing: 0]
[feature_pre_filter: 1]
[pre_partition: 0]
[two_round: 0]
[header: 0]
[label_column: ]
[weight_column: ]
[group_column: ]
[ignore_column: ]
[categorical_feature: ]
[forcedbins_filename: ]
[precise_float_parser: 0]
[parser_config_file: ]
[objective_seed: 16083]
[num_class: 1]
[is_unbalance: 0]
[scale_pos_weight: 1]
[sigmoid: 1]
[boost_from_average: 1]
[reg_sqrt: 0]
[alpha: 0.9]
[fair_c: 1]
[poisson_max_delta_step: 0.7]
[tweedie_variance_power: 1.5]
[lambdarank_truncation_level: 30]
[lambdarank_norm: 1]
[label_gain: ]
[lambdarank_position_bias_regularization: 0]
[eval_at: ]
[multi_error_top_k: 1]
[auc_mu_weights: ]
[num_machines: 1]
[local_listen_port: 12400]
[time_out: 120]
[machine_list_filename: ]
[machines: ]
[gpu_platform_id: -1]
[gpu_device_id: -1]
[gpu_use_dp: 0]
[num_gpu: 1]

end of parameters

pandas_categorical:[]
