tree
version=v4
num_class=1
num_tree_per_iteration=1
label_index=0
max_feature_idx=18
objective=binary sigmoid:1
feature_names=ret_1 ret_5 ret_15 vwap_dev rvol vol_z atr_5 atr_15 rv_5 rv_annual rsi_14 macd macd_signal macd_hist ema_9_21_spread ema_slope high_dist_5 low_dist_5 minutes_into_session
feature_infos=[-0.015677687171702148:0.0097655982114690509] [-0.015690910556436122:0.013139667256442777] [-0.016330477290430023:0.013921463742473383] [-0.0079118014339674726:0.0060645637608415237] [0.10129423909246291:15.297327988996807] [-2.2805209086701552:4.2470239508918093] [0.074000000000000912:5.6134799999999361] [0.09132666666666106:2.3150733333332938] [0:0.0072283513829064254] [0:2.2660622193327189] [7.5813700558995976:90.005354300489273] [-2.9941801703616875:1.5715310164533776] [-2.4501411230506029:1.3807457908279961] [-1.3227458395538487:0.62701825053086135] [-0.0045251449473134682:0.0022560757757567008] [-0.0071149865152180247:0.003615073504743993] [0:0.016609799372185013] [0:0.029208551223345092] [0:269]
tree_sizes=3425 3437 3448 3444 3472 3425 3428 3441 3459 3452 3453 3454 3463 3429 3453 3448 3445 3440 3445 3460 3457 3465 3460 3463 3456 3451

Tree=0
num_leaves=31
num_cat=0
split_feature=7 6 11 18 11 11 18 11 13 18 12 11 7 18 11 14 18 7 1 18 7 18 7 12 18 18 12 7 11 12
split_gain=323.257 109.855 60.9232 64.4642 39.5523 27.8869 31.1869 25.3511 26.2193 20.5195 19.7144 19.6658 17.5214 30.7669 16.0197 36.1674 14.1677 16.0279 15.9885 13.392 12.2624 16.9665 12.1406 18.5443 12.1317 17.7002 25.2044 27.3154 22.1823 13.3416
threshold=0.17903333333334409 0.34600000000001507 0.12505732127243621 45.500000000000007 0.384435284466008 -0.86914106021237092 42.500000000000007 0.1411056257627479 0.1211424807590208 198.50000000000003 0.33387207418590475 -0.080367453340556935 0.59413333333333573 63.500000000000007 -0.26769574232343979 -0.00018475467365595719 174.50000000000003 0.25535000000001001 -0.00016204178455730964 235.50000000000003 0.25535000000001001 215.50000000000003 0.16350000000000289 0.10074753269977504 124.50000000000001 61.500000000000007 -0.060542301381530376 0.46610333333334214 0.060611414856225572 -0.26642657905640543
decision_type=2 2 2 2 2 2 2 2 2 2 2 2 2 2 2 2 2 2 2 2 2 2 2 2 2 2 2 2 2 2
left_child=22 2 9 -4 5 -3 7 8 -7 14 20 19 24 -14 -2 -16 17 -17 -19 -11 21 -5 -1 -24 25 -8 27 29 -28 -27
right_child=1 4 3 10 -6 6 12 -9 -10 11 -12 -13 13 -15 15 16 -18 18 -20 -21 -22 -23 23 -25 -26 26 28 -29 -30 -31
leaf_value=-0.18604552343310199 -0.14730634718123284 -0.14416248157037853 -0.021657525916656678 -0.18452747039545433 -0.031048141550981359 -0.0050863926834338324 -0.057487853271131359 -0.083250085360076359 -0.087179917373644236 -0.053776345258317246 -0.093365764061667758 -0.047844869835969465 -0.11123048929667967 -0.016388860872354929 -0.025285063159950105 -0.052779223702635845 -0.14730634718123284 -0.069495673312588768 -0.12887342709423488 -0.11713982226058701 -0.13102210577501092 -0.12263909392683751 -0.10419683147013158 -0.18425904883381333 -0.070404555165946986 -0.14809231358394639 -0.17366313832976482 -0.033220300879654482 -0.10061021956434273 -0.081905669144908405
leaf_weight=74.343346416950226 14.968459010124205 12.723190158605574 12.972664475440977 34.926404356956482 72.597026199102402 44.156954079866409 26.943226218223572 25.446380317211151 12.47371584177017 12.723190158605574 20.207419663667679 53.387503802776337 12.47371584177017 27.192700535058975 16.964253544807434 16.714779227972031 16.215830594301224 16.964253544807434 34.177981406450272 24.199008733034134 55.882246971130371 16.215830594301224 13.222138792276384 15.966356277465819 113.26133984327316 12.723190158605574 18.211625128984451 19.458996713161469 24.199008733034134 18.960048079490665
leaf_count=298 60 51 52 140 291 177 108 102 50 51 81 214 50 109 68 67 65 68 137 97 224 65 53 64 454 51 73 78 97 76
internal_value=-0.0922592 -0.0813375 -0.102403 -0.127835 -0.0647785 -0.0714286 -0.0688255 -0.0417957 -0.0231687 -0.08512 -0.138661 -0.0672485 -0.0769394 -0.0462133 -0.0990328 -0.0918812 -0.105319 -0.0952852 -0.109177 -0.0953051 -0.147213 -0.164904 -0.175317 -0.147992 -0.0821533 -0.0931967 -0.103481 -0.0798474 -0.13198 -0.108485
internal_weight=890.873 787.341 346.52 140.205 440.821 368.224 355.501 82.0771 56.6307 206.315 127.232 90.3097 273.424 39.6664 116.006 101.037 84.0728 67.857 51.1422 36.9222 107.024 51.1422 103.532 29.1885 233.757 120.496 93.5529 51.1422 42.4106 31.6832
internal_count=3571 3156 1389 562 1767 1476 1425 329 227 827 510 362 1096 159 465 405 337 272 205 148 429 205 415 117 937 483 375 205 170 127
is_linear=0
shrinkage=1


Tree=1
num_leaves=31
num_cat=0
split_feature=7 6 12 3 18 3 18 12 18 10 12 3 7 7 3 3 3 7 12 3 3 10 15 12 18 6 18 18 3 7
split_gain=293.308 99.0887 55.6845 108.937 64.6113 42.4524 41.3889 39.5731 51.0041 36.0768 31.1632 29.8801 31.3593 28.8218 23.1959 23.0913 24.5222 19.771 18.1987 17.7515 30.6788 17.3031 18.2379 17.1259 15.6371 14.9478 14.3155 12.2795 30.7686 14.2744
threshold=0.17903333333334409 0.34600000000001507 0.11754353873362346 -0.0018864228167238086 44.500000000000007 0.0026190573118820564 209.50000000000003 -0.67525851130133219 42.500000000000007 54.429788129536512 -0.12290684701194239 0.0035706199054662091 0.25535000000001001 0.66130333333333446 -2.4581477556230967e-05 -0.0042959445762383265 -0.002559026839008314 0.28946666666666193 -0.1648607427005824 0.002010032177278452 0.0010274454092456988 44.758963777500789 0.00063375473520577163 0.27356112755644457 49.500000000000007 0.41748999999999797 114.50000000000001 174.50000000000003 -0.0014259815197378981 0.44567666666667577
decision_type=2 2 2 2 2 2 2 2 2 2 2 2 2 2 2 2 2 2 2 2 2 2 2 2 2 2 2 2 2 2
left_child=-1 2 3 -2 -4 7 9 -3 21 14 -8 12 -6 15 18 -10 25 -16 -5 20 -14 -9 -23 27 -7 -17 -22 29 -29 -18
right_child=1 5 4 6 11 24 10 8 13 -11 -12 -13 19 -15 17 16 23 -19 -20 -21 26 22 -24 -25 -26 -27 -28 28 -30 -31
leaf_value=-0.079834515209752321 -0.049948722354233144 -0.043429489605927414 0.073799720275104549 0.016284486030817592 -0.085180881639561334 0.025481132677081009 -0.0030161287769868176 0.083596410443110128 0.057179768655373775 -0.035509245724242709 0.085669529455394411 0.016908431334109894 -0.064973897984950998 0.061045774893267103 -0.047409460816329192 -0.072766881387510488 -0.0085576217583727566 0.038503150557273623 0.095126557174586263 -0.065090440196083454 -0.01773455321246158 0.027781787426951355 0.086849190761868297 -0.031560941598865279 0.089400240196470748 -0.0087383739975345955 0.056023453001306914 -0.015731475303605257 0.084704731834244942 0.025731543439324208
leaf_weight=102.93809397518635 59.332287088036537 22.937828466296196 12.747227013111113 12.467790991067888 46.189461499452591 13.481956765055655 12.968406111001967 31.989273473620415 20.473968982696533 29.638216182589531 41.939549595117569 17.445740878582001 16.939060196280479 26.98285773396492 12.465475201606752 15.458404242992399 62.087457150220871 14.470124274492262 17.724100664258003 25.412227690219879 12.449199333786966 62.948647975921631 16.492132633924484 22.220390841364861 32.96161712706089 22.214276880025864 13.950253739953039 12.983903825283052 18.477093905210495 59.380226910114288
leaf_count=415 238 92 51 50 186 54 52 128 82 119 168 70 68 108 50 62 249 58 71 102 50 252 66 89 132 89 56 52 74 238
internal_value=-0.000464038 0.00991445 -0.0101104 0.0069304 -0.0337116 0.0256287 0.0307511 0.0203074 0.0242405 0.00925247 0.0647234 -0.0440637 -0.0533181 0.0121219 0.0324752 0.00646342 0.00158439 -0.00125618 0.0625686 -0.0319114 -0.0124563 0.0525472 0.0400443 0.00945577 0.0708454 -0.0350115 0.0212414 0.0154155 0.0432549 0.00820485
internal_weight=890.167 787.229 346.139 201.006 145.133 441.09 141.674 394.646 371.709 86.7657 54.908 132.386 114.94 260.279 57.1275 233.296 212.822 26.9356 30.1919 68.7507 43.3385 111.43 79.4408 175.149 46.4436 37.6727 26.3995 152.929 31.461 121.468
internal_count=3571 3156 1389 806 583 1767 568 1581 1489 348 220 532 462 1043 229 935 853 108 121 276 174 446 318 702 186 151 106 613 126 487
is_linear=0
shrinkage=0.05


Tree=2
num_leaves=31
num_cat=0
split_feature=6 6 3 11 18 3 12 18 3 6 3 3 10 6 12 14 18 11 6 10 15 18 18 3 18 3 13 3 16 3
split_gain=251.126 78.5358 46.8755 75.568 47.9619 38.2551 35.7497 46.034 25.2853 19.0366 18.2071 19.9622 19.9822 16.3245 25.4435 17.9119 16.0889 26.297 15.7747 15.6827 16.4746 14.9641 14.1033 12.3542 14.0607 16.1418 11.9035 11.5842 10.7997 10.2445
threshold=0.19199999999999592 0.34600000000001507 -0.0019663225579557831 0.075548791670030382 44.500000000000007 0.0026190573118820564 -0.67525851130133219 42.500000000000007 0.0035706199054662091 0.65213000000002252 -0.0042959445762383265 -0.002559026839008314 39.969933469704131 0.14674999999998592 0.12375419124113828 3.9235660309778575e-05 175.50000000000003 0.18878838641381893 0.41748999999999797 44.758963777500789 0.00063375473520577163 210.50000000000003 49.500000000000007 0.001733380886231035 198.50000000000003 0.00036647926677065771 0.020323227086922833 -0.0037591579102278032 0.00054909738098041087 0.0009419990855894613
decision_type=2 2 2 2 2 2 2 2 2 2 2 2 2 2 2 2 2 2 2 2 2 2 2 2 2 2 2 2 2 2
left_child=13 2 27 23 -5 6 -3 19 16 10 -9 18 -13 -1 15 -15 28 -18 -12 -8 -21 -14 -7 24 25 26 -4 -2 -6 -26
right_child=1 5 3 4 8 22 7 9 -10 -11 11 12 21 14 -16 -17 17 -19 -20 20 -22 -23 -24 -25 29 -27 -28 -29 -30 -31
leaf_value=-0.08486054663193604 -0.0082862748345565191 -0.041360750178916744 0.060321321544473006 0.070141310879060628 -0.059014043906131144 0.024190669127297587 0.079506308444592388 0.05259295218815923 0.029504412514745743 0.049355236627645634 -0.069472131821911601 0.041388686796600141 -0.0052245859505594613 -0.051017567585723081 -0.081866615755395639 0.012536246517222977 0.022057946725290586 -0.060970674284113208 -0.0038955308458487555 0.026380107146409267 0.082520922287216025 0.048985609761885054 0.084874366553553238 -0.0059909341991021201 0.030548286952142657 -0.023459239030715923 0.0034905380295341308 -0.063291673182215194 -0.0084121897153232698 0.083328151634813927
leaf_weight=53.826047539710999 12.418727099895476 22.882219463586807 24.717922925949097 12.741487041115759 70.112768441438675 13.490845814347265 31.953622326254845 19.747919395565987 15.209975555539129 29.475108116865158 15.383729398250578 38.453696995973587 120.22622907161713 26.94726836681366 34.212204143404961 18.836158096790314 22.902420073747635 16.340798810124397 22.707241669297218 62.977813720703125 16.489102900028229 14.237561941146849 32.982192188501358 17.926365688443184 15.215128436684607 13.943035736680029 14.689908832311628 41.75490166246891 12.410807624459265 23.23162542283535
leaf_count=219 50 92 99 51 283 54 128 79 61 118 62 154 482 109 139 76 92 66 91 252 66 57 132 72 61 56 59 168 50 93
internal_value=-0.000445996 0.0107483 -0.00837935 0.000453843 -0.0226472 0.0243507 0.0192966 0.0230312 -0.0312784 0.0115167 0.00668348 0.00238689 0.00960488 -0.0635711 -0.0492463 -0.0248703 -0.0388708 -0.012515 -0.0303798 0.0499241 0.0380291 0.000515406 0.0672583 0.0319752 0.0393893 0.0227775 0.0391367 -0.0506823 -0.051404 0.0624408
internal_weight=888.445 754.623 313.616 259.442 149.718 441.007 394.534 371.652 136.977 260.231 230.756 211.008 172.917 133.822 79.9956 45.7834 121.767 39.2432 38.091 111.421 79.4669 134.464 46.473 109.724 91.7976 53.3509 39.4078 54.1736 82.5236 38.4468
internal_count=3571 3028 1261 1043 603 1767 1581 1489 552 1043 925 846 693 543 324 185 491 158 153 446 318 539 186 440 368 214 158 218 333 154
is_linear=0
shrinkage=0.05


Tree=3
num_leaves=31
num_cat=0
split_feature=7 6 11 3 18 3 11 18 7 18 3 3 6 18 10 13 13 15 3 7 18 18 3 3 16 3 18 13 6 18
split_gain=247.497 79.8889 46.9644 81.5625 48.1117 34.6376 26.6921 40.2092 25.4462 18.4653 17.9398 23.1597 33.0614 22.7491 16.6046 15.6269 15.518 14.7281 13.9711 12.9058 15.475 12.8362 11.1227 19.6584 14.6283 14.5367 27.3808 21.6554 24.8352 15.9453
threshold=0.17903333333334409 0.34600000000001507 0.12505732127243621 -0.0018864228167238086 45.500000000000007 0.0026190573118820564 -0.81773258074895228 44.500000000000007 0.66130333333333446 209.50000000000003 -2.4581477556230967e-05 0.0024111621181764028 0.25800000000002687 135.50000000000003 44.285220920778833 0.020323227086922833 -0.034089436927110771 0.00043445504009531627 0.0035706199054662091 0.26072333333332842 207.50000000000003 49.500000000000007 -0.0042959445762383265 -0.002559026839008314 0.00077870795736652125 6.4313462974274768e-05 121.50000000000001 0.072974988739150745 0.53198000000001022 167.50000000000003
decision_type=2 2 2 2 2 2 2 2 2 2 2 2 2 2 2 2 2 2 2 2 2 2 2 2 2 2 2 2 2 2
left_child=-1 2 3 -2 -4 6 -3 14 22 10 15 12 -12 -14 -8 -5 -11 -16 19 20 -6 -7 24 -24 -9 27 -27 28 -25 -28
right_child=1 5 4 9 18 21 7 8 -10 16 11 -13 13 -15 17 -17 -18 -19 -20 -21 -22 -23 23 25 -26 26 29 -29 -30 -31
leaf_value=-0.074063771919389718 -0.04441154298862144 -0.046816763838336224 0.060280057614577109 0.065847892702723024 -0.082578704760690735 0.022973425877339804 0.075656419600999336 0.074727074520250278 0.057060484886460698 0.0091652059864998758 -0.08194064807843579 0.053800514681065316 -0.034594773410540965 0.055367353285243975 0.018442803194531218 3.7579731960747886e-05 0.066747201813808082 0.062363368036450456 0.004412151835118258 -0.031881063780069392 -0.017784730994370633 0.080886322337287986 -0.031423192026243094 0.05095483131069304 -0.0014381657949986335 -0.026263241654686832 0.073283935189783739 -0.023706094020819326 -0.023697907624937418 -0.0029161368691256982
leaf_weight=101.09182558953762 57.434781983494759 15.11070680618286 12.950353756546972 22.210055306553841 36.5837162733078 13.495241016149519 32.562252685427666 12.490588068962099 25.955740004777908 16.970351248979568 15.353156760334967 12.709429666399954 14.407045096158983 13.718709349632261 55.222043305635452 15.189459100365637 37.678143709897995 29.170400619506836 14.962188214063643 61.813069090247154 12.317885726690291 32.880100518465042 37.976864591240883 54.677669152617455 12.727845340967177 57.061882168054581 13.486494079232218 19.715986922383308 13.991630002856253 13.983837619423864
leaf_count=415 232 61 52 89 150 54 131 50 104 68 62 51 58 55 221 61 151 117 60 250 50 132 153 219 51 229 54 79 56 56
internal_value=-0.000428475 0.00905656 -0.0089878 0.00617307 -0.0314809 0.0231599 0.0183505 0.0209486 0.0100693 0.0257723 0.0122873 -0.00557257 -0.0229281 0.00928545 0.0453266 0.0391197 0.0488659 0.033624 -0.0409364 -0.0470649 -0.0662577 0.0640336 0.00490355 0.00115086 0.0362862 0.00830491 -0.006519 0.0224826 0.0357441 0.0344941
internal_weight=885.899 784.808 344.298 205.671 138.627 440.509 394.134 379.023 262.069 148.236 93.5879 56.1883 43.4789 28.1258 116.955 37.3995 54.6485 84.3924 125.677 110.715 48.9016 46.3753 236.113 210.894 25.2184 172.917 84.5322 88.3853 68.6693 27.4703
internal_count=3571 3156 1389 827 562 1767 1581 1520 1051 595 376 226 175 113 469 150 219 338 510 450 200 186 947 846 101 693 339 354 275 110
is_linear=0
shrinkage=0.05


Tree=4
num_leaves=31
num_cat=0
split_feature=7 7 3 12 7 3 12 3 13 14 3 3 7 15 8 3 7 12 5 7 12 16 3 3 5 3 8 14 3 13
split_gain=226.178 72.6245 52.5195 87.1084 51.0624 48.3225 30.6875 26.6982 18.2527 20.7391 14.562 15.6857 13.5685 13.2494 16.7541 12.8577 13.8796 18.7468 12.0952 11.0784 16.5403 11.0022 10.9199 18.2218 11.7488 10.1341 10.0977 9.39184 17.5423 8.88774
threshold=0.17903333333334409 0.43113000000001123 -0.0018864228167238086 0.060983499342763668 0.28578999999999727 -0.0042959445762383265 -0.67525851130133219 0.0034450253070215037 0.072974988739150745 -0.00023248606898469573 0.0021666149422368882 0.0014381464838398074 0.24924666666667392 9.6882301585221611e-05 0.00028789322876579814 0.0037731081359517016 0.59413333333333573 -0.13731543319919978 -0.40278489510113263 0.16350000000000289 0.10074753269977504 0.00026611241998481249 0.00077070466233849805 -0.0018094765104849375 -0.54709549280038439 -0.0020142338181878693 0.00024933927888082068 -0.00017588294887880236 -0.0029324180386096185 0.11567869013989446
decision_type=2 2 2 2 2 2 2 2 2 2 2 2 2 2 2 2 2 2 2 2 2 2 2 2 2 2 2 2 2 2
left_child=19 2 5 8 7 -2 -3 10 9 26 11 -5 -7 18 -15 16 17 25 -6 -1 -21 -11 23 -18 -25 -8 -4 28 -14 -19
right_child=1 6 3 4 13 12 15 -9 -10 21 -12 -13 27 14 -16 -17 22 29 -20 20 -22 -23 -24 24 -26 -27 -28 -29 -30 -31
leaf_value=-0.081798873168845598 0.035128921672510263 -0.025101650141326079 0.03934478006315302 -0.065644924717317588 0.054038855110464447 -0.0052813403865283482 0.018114709410402673 0.013802581646432697 -0.004794659116439468 0.031391697899679938 -0.085579441403301093 -0.016635200634891389 -0.082338729301237701 -0.02631310499861363 0.031973928427974994 0.072308659814501561 0.07519120232167717 0.00041714381930208784 0.0032618266243153921 -0.0033481015515962305 -0.080003176747206209 0.067665123191957707 0.069154256965271332 0.049136173354001889 -0.0050394504507552847 0.056077005089939305 -0.0056186388105176682 -0.080435561382354193 -0.0082530450798372641 0.043577263345185746
leaf_weight=71.441546872258186 19.13797926902771 25.262354955077171 21.959311336278915 30.960508942604065 23.094147056341171 12.347803458571432 30.090450465679169 18.676999777555466 28.354263097047806 33.80195277929306 23.642240971326828 34.538905054330826 14.998568207025526 38.543898299336433 18.126684546470642 18.85936450958252 17.891253173351288 82.711696907877922 23.828708380460739 12.996214330196382 15.347775638103483 54.787738516926765 31.331627026200294 15.934376046061514 26.905006378889084 42.283720150589943 28.945693150162697 34.548679381608963 17.099808603525162 13.93797644972801
leaf_count=298 77 102 88 127 93 50 121 75 114 136 97 141 61 156 73 76 72 332 96 53 64 220 126 64 108 170 116 140 69 56
internal_value=-0.000412302 0.00862688 -0.00355181 0.00488407 -0.0164673 -0.0361545 0.0276763 -0.0405538 0.0317769 0.0392106 -0.0519426 -0.0398013 -0.0534243 0.00860168 -0.00766938 0.032439 0.029559 0.0210509 0.0282529 -0.0713051 -0.0448555 0.0538248 0.0451797 0.032811 0.0151115 0.0402937 0.0137776 -0.0623438 -0.042871 0.00664132
internal_weight=882.387 782.602 477.394 379.261 211.412 98.1328 305.208 107.819 167.849 139.495 89.1417 65.4994 78.9949 103.593 56.6706 279.945 261.086 169.024 46.9229 99.7855 28.344 88.5897 92.0623 60.7306 42.8394 72.3742 50.905 66.6471 32.0984 96.6497
internal_count=3571 3156 1929 1532 858 397 1227 440 674 560 365 268 320 418 229 1125 1049 679 189 415 117 356 370 244 172 291 204 270 130 388
is_linear=0
shrinkage=0.05


Tree=5
num_leaves=31
num_cat=0
split_feature=7 7 12 3 18 11 7 3 18 12 7 18 14 3 7 3 5 11 3 13 18 18 3 3 13 13 13 6 18 15
split_gain=211.761 79.3275 54.6542 84.5457 50.682 31.4646 29.6654 20.624 25.2116 18.9028 17.6239 34.6189 17.5051 17.4695 18.4196 24.0236 23.0868 22.295 23.2671 14.9541 23.2606 14.5983 27.7892 25.068 20.2914 14.0494 13.9872 13.7701 12.9375 12.71
threshold=0.17132999999999285 0.34601333333333367 0.10074753269977504 -0.0017273127871683044 51.500000000000007 -0.86914106021237092 0.24221000000001522 0.0027496380415903544 40.500000000000007 0.33387207418590475 0.25535000000001001 172.50000000000003 -0.0002867672576739127 -0.0040118431756208583 0.6260466666666693 -0.002559026839008314 -0.53565846766437553 0.11020169498715406 0.0014047089395940015 0.024246487602893503 211.50000000000003 144.50000000000003 -0.0014562448603189296 0.00074665217846403716 0.072974988739150745 -0.034651309717112132 0.099619715197096753 0.41748999999999797 85.500000000000014 -0.00039032342413314319
decision_type=2 2 2 2 2 2 2 2 2 2 2 2 2 2 2 2 2 2 2 2 2 2 2 2 2 2 2 2 2 2
left_child=-1 2 3 6 -4 -3 -2 8 -7 10 -6 -12 -5 -10 15 27 -16 21 28 -14 -21 23 -23 24 25 29 -9 -15 -19 -17
right_child=1 5 4 12 9 7 -8 26 13 -11 11 -13 19 14 16 17 -18 18 -20 20 -22 22 -24 -25 -26 -27 -28 -29 -30 -31
leaf_value=-0.07370682025193169 0.02611568595864526 -0.051441162476928509 0.065006589336890533 -0.019966625478507697 -0.066328588829963439 0.041644929481100816 -0.057497027996788165 0.080992502215361376 0.047179661753387045 0.0071542009054749766 -0.053709838669078469 0.029022545742629441 0.051437052752539326 -0.072215796817546127 0.093497131772596886 0.052681340838605442 0.010826654972058888 -0.073540259323242041 0.029164084535804036 -0.019557789995441253 0.065543722912013699 -0.01723680580982416 0.071537732912162394 -0.033623168116333542 -0.02320281108700159 0.067761153727229226 0.020069653604785746 -0.0087488230602600376 -0.010183705815163851 -0.013849407099946077
leaf_weight=86.463941872119904 13.579783946275709 14.024806722998617 12.37730425596237 14.216273248195646 61.949129700660706 109.62604968249798 48.480113446712494 25.651527687907219 34.06339468061924 18.058033913373947 40.993101358413696 18.28441333770752 75.625026017427444 14.125217869877813 13.656371772289274 13.220775961875914 22.130416974425316 16.654864236712456 17.16516287624836 21.840964764356613 12.697500526905058 12.455388158559797 30.1639693826437 24.137153774499893 16.432846069335938 24.94972325861454 14.890104144811628 21.638651043176651 15.609569728374479 15.707513898611071
leaf_count=366 55 57 50 57 258 442 198 104 137 73 167 74 305 58 55 53 89 67 69 88 51 50 121 97 66 100 60 87 63 63
internal_value=0.00060202 0.00868988 -0.00966553 0.00846569 -0.0319544 0.0222905 -0.0392011 0.0246285 0.0211986 -0.0405707 -0.0476799 -0.0281907 0.0322493 0.0135253 0.00908274 0.00372242 0.042374 0.010921 -0.017867 0.0389876 0.0117284 0.0213026 0.0455936 0.0103413 0.0254339 0.0402682 0.0586168 -0.0338156 -0.0428883 0.0165564
internal_weight=880.869 794.405 338.102 186.44 151.662 456.304 62.0599 442.279 401.737 139.285 121.227 59.2775 124.38 292.111 258.048 222.261 35.7868 186.497 49.4296 110.163 34.5385 137.067 42.6194 94.448 70.3109 53.878 40.5416 35.7639 32.2644 28.9283
internal_count=3580 3214 1376 754 622 1838 253 1781 1617 572 499 241 501 1175 1038 894 144 749 199 444 139 550 171 379 282 216 164 145 130 116
is_linear=0
shrinkage=0.05


Tree=6
num_leaves=31
num_cat=0
split_feature=7 7 12 3 18 14 7 3 7 18 13 12 18 12 3 7 18 14 18 3 18 3 18 3 18 10 3 18 15 7
split_gain=194.497 71.8537 49.7198 76.8407 46.0485 26.5648 20.4117 19.3363 25.2595 17.6098 27.375 20.6772 17.5082 17.3231 17.1207 16.407 31.4799 16.3521 23.8549 15.1641 29.2023 13.3108 12.9909 12.9177 14.0407 12.5 12.4563 12.3474 11.2923 10.5744
threshold=0.17132999999999285 0.34601333333333367 0.10074753269977504 -0.0019663225579557831 51.500000000000007 -0.0011950510769534641 0.24348333333332831 0.0027496380415903544 0.55930000000000002 210.50000000000003 0.020323227086922833 -0.11444444650019465 90.500000000000014 0.33387207418590475 0.0014381464838398074 0.25535000000001001 172.50000000000003 -0.00012963069441163414 44.500000000000007 -0.0018864228167238086 157.50000000000003 -0.00023674752964963677 38.500000000000007 -0.0017273127871683044 10.500000000000002 62.286585465853641 0.0001856690553382188 146.50000000000003 -2.8012413796851817e-05 0.42480000000000478
decision_type=2 2 2 2 2 2 2 2 2 2 2 2 2 2 2 2 2 2 2 2 2 2 2 2 2 2 2 2 2 2
left_child=-1 2 3 6 -4 -3 -2 8 17 10 21 -11 14 15 23 -6 -17 18 -7 -19 22 -5 29 -10 -25 -9 -24 -23 -26 -21
right_child=1 5 4 9 13 7 -8 25 12 11 -12 -13 -14 -15 -16 16 -18 19 -20 20 -22 27 26 24 28 -27 -28 -29 -30 -31
leaf_value=-0.071353663257069141 0.012304110549696951 -0.043770020811653966 0.061971045663155533 0.067334768640916073 -0.063870015940167418 0.075997175971430103 -0.060659877001242694 0.078204750519679497 0.06793517327685987 -0.0029534805044395158 -0.026963502131539169 0.06878433725999554 0.093257422082947669 0.0067923941805267205 0.079571095314891718 -0.051413388909298169 0.027519820088678822 -0.036375467722518984 0.016802877213640006 0.058124126361472961 0.058879815909594541 -0.022378209289643514 0.020565866308284789 0.057522255796049963 0.028212291013736124 0.021022099759921562 -0.028018164912851969 0.039935272811441908 -0.022107745931906626 0.0031047462044083329
leaf_weight=84.889494925737381 12.612547785043715 15.188059881329535 12.335394278168677 19.5137909501791 61.137635037302971 19.849792197346687 39.934323370456696 25.065412148833275 13.003342941403387 13.457549244165419 27.514888763427734 39.607801973819733 14.116950780153273 18.068645939230919 16.296564996242523 40.69057035446167 18.317783176898956 22.40349180996418 119.3853664547205 12.429495275020598 23.361744448542595 13.14101931452751 17.642314702272415 13.568146809935568 19.583902984857552 15.446443811058996 52.311843350529671 20.12364336848259 25.886194482445724 29.364813446998596
leaf_count=366 51 62 50 79 258 81 165 102 53 54 111 160 57 73 66 167 74 91 481 50 94 53 71 55 79 63 211 81 104 118
internal_value=0.000570216 0.00828552 -0.00923325 0.00806353 -0.030592 0.0212427 -0.0431467 0.0234883 0.0201482 0.0282417 0.013471 0.0505914 0.0415531 -0.0388531 0.0332904 -0.0457177 -0.0269104 0.012758 0.0252418 0.00172283 0.00804015 0.0345506 -0.00258821 0.0228212 0.0128847 0.056402 -0.0157654 0.0153187 -0.000434981 0.0194673
internal_weight=876.249 791.359 336.456 185.906 150.55 454.904 52.5469 439.716 399.204 133.359 80.2933 53.0654 102.455 138.215 88.3382 120.146 59.0084 296.749 139.235 157.514 135.11 52.7785 111.748 72.0416 59.0382 40.5119 69.9542 33.2647 45.4701 41.7943
internal_count=3580 3214 1376 754 622 1838 216 1776 1611 538 324 214 414 572 357 499 241 1197 562 635 544 213 450 291 238 165 282 134 183 168
is_linear=0
shrinkage=0.05


Tree=7
num_leaves=31
num_cat=0
split_feature=7 7 12 3 7 11 15 7 3 3 7 11 3 11 10 3 3 7 10 3 3 3 11 3 17 10 11 3 7 7
split_gain=179.057 66.3186 46.7372 70.162 37.4135 26.3056 25.3183 25.1624 18.7904 17.2246 21.5756 16.0991 22.8671 15.9048 18.3682 15.4594 19.9442 13.5511 11.3991 11.2422 16.3689 10.8853 19.5439 10.5901 19.6089 17.2816 10.5811 9.5191 10.1189 17.3321
threshold=0.16967999999999397 0.34601333333333367 0.10074753269977504 -0.0017273127871683044 0.28578999999999727 -0.86914106021237092 0.00012973856226528027 0.24221000000001522 0.0035706199054662091 0.0027496380415903544 0.55930000000000002 -0.15657438764611695 -0.0018864228167238086 -0.1779886311459222 61.496116239453727 -0.0020656007647507197 -0.0040118431756208583 0.52399999999998204 63.222072557227634 0.0014381464838398074 -0.0019207228002436308 0.0001856690553382188 0.1478476844461625 0.0014381464838398074 0.0005241553974855061 57.751113698720616 -0.39921375664539477 3.4908248546572821e-05 0.29972333333333084 0.20683333333333473
decision_type=2 2 2 2 2 2 2 2 2 2 2 2 2 2 2 2 2 2 2 2 2 2 2 2 2 2 2 2 2 2
left_child=-1 2 3 7 8 -3 -6 -2 -4 10 11 15 -13 -5 27 16 26 21 -11 20 -12 22 -14 25 -25 -23 -7 -15 29 -29
right_child=1 5 4 13 6 9 -8 -9 -10 18 19 12 17 14 -16 -17 -18 -19 -20 -21 -22 23 -24 24 -26 -27 -28 28 -30 -31
leaf_value=-0.070666076638055825 0.023769284724871616 -0.047564503296715244 -0.055343452505363371 -0.013165357456258795 0.043043796647442553 0.0037877735788249944 -0.028838079449375262 -0.05329964330312259 0.008724328199549776 0.07349252515888037 0.071628207910574185 -0.044043974229163563 0.06081392075086868 0.070671368072512217 -0.020715491340598531 0.043890376334402209 -0.019321677093364881 -0.032194545091043227 0.017683633602475667 0.076543386770523913 0.019916915396493318 -0.033196848582556268 -0.013317000855136442 0.068264721767027692 -0.0026496196988394318 0.024951999238791739 0.065139531912305093 0.056036072934495078 0.074220504583003305 0.00026638024691033352
leaf_weight=80.159443512558937 13.617496028542517 13.864328041672705 88.4706811606884 18.900900542736053 23.849334269762039 12.444141402840616 25.1870938539505 47.651694640517235 13.144933089613913 25.778237104415894 19.812641873955727 22.802248388528824 27.304330408573151 24.852619379758835 12.356630176305769 61.762819930911064 31.320050001144409 17.147652521729469 14.184004440903662 16.636967092752457 67.241189777851105 30.940519645810127 13.184203729033468 15.853925183415411 25.312080159783363 21.765951722860336 16.146253749728203 25.359554573893547 13.079991221427916 30.914544194936752
leaf_count=353 55 57 375 76 97 50 103 198 53 106 81 93 110 101 50 250 127 69 58 68 272 125 53 64 102 88 65 103 53 125
internal_value=0.000541354 0.0077585 -0.00902786 0.00768746 -0.0297465 0.0202468 0.00612236 -0.0361705 -0.0470557 0.0223853 0.0192559 0.0123799 0.00263735 0.0291051 0.0366025 0.0263372 0.00824129 0.00966295 0.053684 0.0388832 0.0316859 0.015005 0.0366748 0.00565845 0.024661 -0.00918338 0.0384358 0.0441206 0.0346063 0.0253986
internal_weight=871.046 790.887 337.385 186.733 150.652 453.502 49.0364 61.2692 101.616 439.637 399.675 295.984 174.311 125.464 106.563 121.673 59.9104 151.509 39.9622 103.691 87.0538 134.361 40.4885 93.8725 41.166 52.7065 28.5904 94.2067 69.3541 56.2741
internal_count=3580 3227 1389 761 628 1838 200 253 428 1781 1617 1196 704 508 432 492 242 611 164 421 353 542 163 379 166 213 115 382 281 228
is_linear=0
shrinkage=0.05


Tree=8
num_leaves=31
num_cat=0
split_feature=7 7 12 3 7 11 15 7 3 3 7 11 3 11 13 3 3 13 3 4 3 13 15 3 13 17 11 4 11 8
split_gain=165.249 58.9383 41.2545 64.1686 33.6097 23.8736 22.8833 17.1352 17.0994 15.8068 19.671 15.8705 19.1647 15.3017 15.3869 13.4764 16.5309 12.6359 12.4586 15.5006 10.8708 10.3524 15.5918 15.2427 20.7153 10.1469 9.36282 9.22586 9.10194 6.88878
threshold=0.17132999999999285 0.34601333333333367 0.10074753269977504 -0.0019663225579557831 0.28578999999999727 -0.86914106021237092 0.00012973856226528027 0.24348333333332831 0.0035706199054662091 0.0027496380415903544 0.60477333333333283 -0.15657438764611695 -0.0018864228167238086 -0.21146001025380198 0.020323227086922833 -0.0020656007647507197 -0.0040118431756208583 0.099619715197096753 0.00077070466233849805 0.42421940506290484 -0.00017436073382793489 -0.089425385855483805 -0.00023016674585601968 0.0001856690553382188 0.067359773681031923 0.0015296456323789574 0.43918332380735597 1.0554640335553169 -0.39921375664539477 0.00021557085811951801
decision_type=2 2 2 2 2 2 2 2 2 2 2 2 2 2 2 2 2 2 2 2 2 2 2 2 2 2 2 2 2 2
left_child=-1 2 3 7 8 -3 -6 -2 -4 10 11 15 -13 -5 20 16 28 -11 19 -12 -15 22 -14 24 -23 -21 -25 -22 -7 -16
right_child=1 5 4 13 6 9 -8 -9 -10 17 18 12 21 14 29 -17 -18 -19 -20 25 27 23 -24 26 -26 -27 -28 -29 -30 -31
leaf_value=-0.067288714044017137 0.01069282627080035 -0.045544054340278611 -0.052931850265146185 -0.025811093224604884 0.040908191988618614 0.0055001318185440799 -0.027495134559272973 -0.056270587724893496 0.0082832910949141286 0.073220594026856128 -0.02187352226612144 -0.039121869126576475 0.019129109782404199 0.079259400910655475 -0.0093238300721991633 0.042059095380612227 -0.014784899592850238 0.014800307733836386 0.071515776824004229 0.055317197747218563 0.023526899708148911 0.075525754977187609 -0.0564990247058762 -0.0013546678345311722 0.00036223286762729503 0.0036247187322140857 0.041948272344469427 0.069512730848053789 0.06213467463379984 0.032118191703943304
leaf_weight=81.412564143538475 12.647549673914908 13.758127167820929 86.005885541439056 12.963682204484938 23.839823022484779 12.693992003798487 25.098716989159584 39.048523247241974 13.152383849024771 24.862018287181854 12.327719435095785 23.174869045615196 13.613698765635492 17.494563415646553 25.456078603863716 65.713348641991615 32.767000868916512 14.745462566614149 22.805633932352066 34.392160698771477 45.805732801556587 20.771268859505653 13.646577253937719 86.351155519485474 16.407989025115967 13.112934350967405 14.592229232192038 14.315508425235747 16.082269355654716 16.545146971940994
leaf_count=366 51 57 369 52 97 51 103 165 53 104 50 95 55 72 103 267 133 60 94 141 186 84 55 349 66 53 59 58 65 67
internal_value=0.000513782 0.00755284 -0.00842897 0.00736276 -0.0280786 0.0193096 0.00582673 -0.0398879 -0.0448123 0.0213465 0.018352 0.0126691 0.00346104 0.0257868 0.0313788 0.0263128 0.00949947 0.0514713 0.04007 0.0280842 0.0445706 0.00942812 -0.0187306 0.0149856 0.0423545 0.0410484 0.00490514 0.0344766 0.0371516 0.00700104
internal_weight=865.605 784.192 332.374 184.277 148.097 451.818 48.9385 51.6961 99.1583 438.06 398.453 315.814 188.558 132.581 119.617 127.257 61.5433 39.6075 82.6384 59.8328 77.6158 165.383 27.2603 138.123 37.1793 47.5051 100.943 60.1212 28.7763 42.0012
internal_count=3580 3214 1376 754 622 1838 200 216 422 1781 1617 1279 763 538 486 516 249 164 338 244 316 668 110 558 150 194 408 244 116 170
is_linear=0
shrinkage=0.05


Tree=9
num_leaves=31
num_cat=0
split_feature=6 6 3 12 11 3 1 11 3 1 3 3 3 6 3 2 5 15 3 6 4 13 5 13 11 10 3 10 5 3
split_gain=138.354 41.5142 26.8344 50.5243 22.6369 16.6261 15.5749 16.1638 14.9633 11.4871 11.0151 20.9427 17.6553 11.388 10.8269 10.8053 11.7235 10.826 8.23637 8.0948 12.6161 8.01316 16.0371 11.463 10.1318 10.1068 10.7638 9.01929 8.80237 7.9557
threshold=0.19199999999999592 0.35999999999997961 -0.0021006830051741032 0.091864255882142379 -0.86914106021237092 0.0027496380415903544 0.00011337614360140692 -0.21911102197867646 0.0036070332164794554 -0.00057952106351799582 0.002010032177278452 0.0034450253070215037 0.001548565840211026 0.26400000000002144 -0.0013860135364460568 -0.0020263731141913484 -0.48276872662380665 0.00063375473520577163 -0.0040118431756208583 0.23753000000001526 0.73599666199842995 -0.089425385855483805 0.052276260820813415 0.03515389235742785 0.384435284466008 55.352039507724292 -0.00097870409342178349 44.873157981396709 -0.36577128614758098 -0.0028131689324064255
decision_type=2 2 2 2 2 2 2 2 2 2 2 2 2 2 2 2 2 2 2 2 2 2 2 2 2 2 2 2 2 2
left_child=8 2 18 6 -3 15 7 -4 -1 -5 12 -12 13 -11 -8 16 -6 21 -2 20 -9 22 -17 -23 25 26 27 -25 -27 -20
right_child=1 4 3 9 5 -7 14 19 -10 10 11 -13 -14 -15 -16 17 -18 -19 29 -21 -22 23 -24 24 -26 28 -28 -29 -30 -31
leaf_value=-0.055732126083874622 0.00021688302688584673 -0.043640261666127375 -0.01342804999981438 0.027752693572962079 0.079760177159883955 0.054244618886544194 -0.035421555315554673 -0.011373681492765802 -0.004757808443291856 -0.056545712686104248 -0.059798466525920649 0.012600836853119355 0.025986067130583098 -0.010328976240946612 0.015759181723803771 -0.02614123372701431 0.025388001747644967 0.05013905668590736 -0.079495868166547079 0.060709483577106232 0.059928865487244735 0.027075958147165215 0.034592844009180987 -0.037351377998194525 0.046285046221083592 -0.049187108884168967 0.035577746664497055 0.013910145704262937 0.0013591492192122259 -0.032393734497284776
leaf_weight=105.56289398670197 12.116753265261648 13.64334452152252 12.916534215211867 12.345151782035826 13.512175917625425 36.000066325068474 13.46143853664398 12.209311321377756 16.670226231217384 19.893987223505974 38.044746696949005 13.544715970754622 22.905300438404083 40.388120278716087 44.464174702763557 32.805243566632271 37.228275120258331 20.298740312457085 12.790895894169802 43.043295100331306 12.612181201577185 117.8854773491621 16.254948794841766 14.348039805889128 12.85314306616783 16.39709784090519 26.047659084200859 21.347968354821205 18.143808573484421 29.969210967421535
leaf_count=475 50 57 52 51 56 151 55 50 73 85 161 55 95 167 181 133 152 84 55 176 52 480 66 58 52 66 106 87 73 126
internal_value=0.000488346 0.00865442 -0.00414744 0.00200104 0.0196475 0.0219012 0.023651 0.0378387 -0.0487802 -0.0184106 -0.022639 -0.0407902 -0.0113824 -0.0255812 0.0038652 0.0185469 0.0398673 0.0148968 -0.0361721 0.0475962 0.0248562 0.0123057 -0.00601842 0.0162655 0.00458864 -0.000977461 0.0111388 -0.00669447 -0.0226359 -0.0464835
internal_weight=859.705 737.472 340.706 285.829 396.766 383.123 138.707 80.7813 122.233 147.122 134.777 51.5895 83.1874 60.2821 57.9256 347.123 50.7405 296.382 54.8769 67.8648 24.8215 276.083 49.0602 227.023 109.138 96.2846 61.7437 35.696 34.5409 42.7601
internal_count=3580 3032 1411 1180 1621 1564 566 330 548 614 563 216 347 252 236 1413 208 1205 231 278 102 1121 199 922 442 390 251 145 139 181
is_linear=0
shrinkage=0.05


Tree=10
num_leaves=31
num_cat=0
split_feature=7 7 12 3 3 12 7 10 14 7 14 3 10 4 15 4 7 3 7 12 3 3 17 12 12 6 7 12 12 10
split_gain=153.541 52.0996 33.281 62.3627 23.5581 21.4303 19.4127 16.9707 20.6492 14.595 13.733 13.6979 12.6908 21.2036 20.0932 15.5261 18.961 10.6635 10.1275 16.3599 9.96469 17.0814 11.4188 10.7528 8.66508 14.0228 8.32876 9.84969 7.97494 7.17536
threshold=0.18147999999999534 0.38620666666666542 0.091864255882142379 -0.0018864228167238086 0.0027871390505918255 -0.76515048122784723 0.25535000000001001 61.702035965236043 -0.00025441580131141021 0.24348333333332831 -0.00023248606898469573 0.0033436656909392967 44.758963777500789 1.3420612661220297 0.00043445504009531627 0.32732419610472108 0.60477333333333283 -0.00041710785345676951 0.16350000000000289 0.1030704350375551 0.0020924902080357625 0.0013554775755905046 0.00029290377627713644 0.23118125513071078 -0.24627868542828618 0.49117999999998579 0.43700000000000433 0.10779011712206982 0.15696658040925401 62.530598043054454
decision_type=2 2 2 2 2 2 2 2 2 2 2 2 2 2 2 2 2 2 2 2 2 2 2 2 2 2 2 2 2 2
left_child=18 2 3 9 5 -3 11 8 17 -2 -11 28 13 -7 15 -14 24 -5 -1 -20 21 22 -8 -23 -17 26 27 -26 -4 -16
right_child=1 4 6 7 -6 12 20 -9 -10 10 -12 -13 14 -15 29 16 -18 -19 19 -21 -22 23 -24 -25 25 -27 -28 -29 -30 -31
leaf_value=-0.069670221363222137 0.017168799597716538 -0.039092053408959923 -0.032347832719595036 0.027813644628262937 0.057057407410159168 0.041803924688232831 0.014262967555698126 -0.028242020196019187 0.040623399949075253 -0.011799802633721886 -0.062723654434284043 0.0021916254151711349 -0.049861119458881054 -0.0093441304964360806 0.012305011303608426 0.032491443739271035 0.04996190852683538 -0.033917055677513144 -0.00012665806778831341 -0.073142867492421756 -0.034857032561825457 0.0028617327947279003 -0.037621453713056058 0.064474317301197986 -0.034438090339155847 -0.03436741616584655 0.022939818733213949 0.016774140898711102 -0.074831667679063033 0.058024014871954438
leaf_weight=65.482823044061661 12.382896140217779 16.171706780791283 18.528345808386803 12.359466612339022 41.305502817034721 105.43062222003937 16.821735143661499 13.3234965801239 110.41860114037991 21.712194785475731 33.926037475466728 12.067338630557058 12.368639841675757 25.083075895905495 12.515451386570929 18.223707616329193 23.180991321802139 16.120219171047211 16.114299893379215 14.642215162515638 27.104782268404961 15.568905964493753 28.691768795251846 12.989853054285048 19.846096903085709 29.097104832530022 38.127817720174789 17.818690240383148 27.355224207043648 27.306481599807739
leaf_count=309 50 67 81 50 175 434 69 54 452 92 145 49 50 102 51 74 95 65 68 68 113 64 118 53 81 117 154 72 124 113
internal_value=0.000970992 0.00845116 -0.00471155 0.0078765 0.0213719 0.0171015 -0.0221342 0.025662 0.0308326 -0.0319249 -0.0428512 -0.0452097 0.0198637 0.0319739 0.0119006 0.00393067 0.00847856 -0.00712749 -0.0585542 -0.0348874 -0.00891728 0.000574679 -0.018445 0.030886 0.000667669 -0.00486144 0.00646602 -0.0102103 -0.0576762 0.0436552
internal_weight=862.086 765.847 379.371 220.243 386.476 345.17 159.128 152.222 138.898 68.0211 55.6382 57.9509 328.999 130.514 198.485 158.663 146.294 28.4797 96.2393 30.7565 101.177 74.0723 45.5135 28.5588 123.113 104.89 75.7926 37.6648 45.8836 39.8219
internal_count=3609 3164 1579 908 1585 1410 671 621 567 287 237 254 1343 536 807 643 593 115 445 136 417 304 187 117 498 424 307 153 205 164
is_linear=0
shrinkage=0.05


Tree=11
num_leaves=31
num_cat=0
split_feature=6 6 3 18 12 3 18 15 3 12 18 3 12 6 12 14 14 3 3 3 6 6 10 18 3 12 11 15 3 6
split_gain=130.377 35.1875 25.2321 23.3278 31.4414 39.952 24.5878 23.4471 19.0122 17.7416 19.6743 12.9009 15.4706 12.7524 19.502 13.9585 12.4981 11.8141 20.1195 9.81885 11.7426 9.70586 9.49721 14.7914 15.202 9.16091 8.73 23.8465 14.7855 11.7701
threshold=0.19199999999999592 0.35999999999997961 0.0022746994814639549 44.500000000000007 0.10779011712206982 -0.0019663225579557831 207.50000000000003 5.7810886901821241e-05 0.0035706199054662091 -0.76515048122784723 42.500000000000007 1.0000000180025095e-35 -0.15316775618336306 0.14674999999998592 0.11754353873362346 3.9235660309778575e-05 -0.0001666873985871034 0.00105251844385054 0.0020924902080357625 -0.0040118431756208583 0.69000000000000916 0.29223000000002919 44.758963777500789 110.50000000000001 -0.0016524405419283503 -0.20893303639054758 0.17262953904366898 0.00043445504009531627 0.0004783730325475934 0.63311000000002216
decision_type=2 2 2 2 2 2 2 2 2 2 2 2 2 2 2 2 2 2 2 2 2 2 2 2 2 2 2 2 2 2
left_child=13 3 9 -2 5 -5 7 11 17 -3 26 12 -7 -1 15 -15 -8 -6 -19 -12 22 -9 23 25 -25 -21 29 28 -28 -11
right_child=1 2 -4 4 8 6 16 21 -10 10 19 -13 -14 14 -16 -17 -18 18 -20 20 -22 -23 -24 24 -26 -27 27 -29 -30 -31
leaf_value=-0.06752985149717973 0.051376431334375854 -0.037362085641298622 0.051142769791703374 -0.028885511504667317 -0.064014423930840156 0.0045235332058495906 0.0094122783500118663 -0.049948581780134199 0.027329065101170721 0.068437583267961372 0.034912963984966738 -0.002065282715813176 0.075657677407111296 -0.034962315862541726 -0.063496666649020914 0.025415614992008291 0.063805939201335579 -0.0016055484319439277 -0.054340782305940964 0.053889401092724304 0.040710486955369364 0.00055888828291949123 -0.0095633112250304853 -0.047314308702686853 0.023344516968499082 0.0086747135931781755 -0.031400936112250609 0.068004267532894985 0.034661883987661353 0.018048177224155217
leaf_weight=47.811715379357338 18.554765179753304 16.076908558607101 52.43789367377758 60.107190102338791 26.049697697162628 13.034400820732118 15.005172640085219 19.864178985357285 13.906735613942145 31.200014173984528 30.107481449842453 24.62460258603096 18.480819553136826 24.085501551628113 31.664487734436989 15.886181980371473 35.653012245893478 41.086621016263962 32.309300348162651 23.153873980045319 19.906279534101486 18.251292333006859 103.96395097672939 15.732527688145639 14.747914105653761 21.703510791063309 20.089202135801315 17.51663301885128 14.643038794398306 18.437277436256409
leaf_count=232 76 67 223 257 111 53 61 81 56 131 123 100 78 107 149 68 148 172 141 94 83 74 421 64 60 88 81 74 59 77
internal_value=0.000923978 0.00878123 0.0188142 -0.0031214 -0.00629753 0.00538586 0.0196009 0.00450196 -0.0274293 0.0139327 0.0164226 0.0250503 0.0462373 -0.0475323 -0.0341855 -0.010966 0.0476943 -0.0350869 -0.0248199 0.00829959 0.00427736 -0.0257635 0.000232512 0.0137505 -0.0131261 0.032013 0.0347049 0.0204395 -0.00354899 0.0497209
internal_weight=856.092 736.644 399.717 336.928 318.373 205.021 144.913 94.2553 113.352 347.279 331.202 56.1398 31.5152 119.448 71.6362 39.9717 50.6582 99.4456 73.3959 229.316 199.208 38.1155 179.302 75.3378 30.4804 44.8574 101.886 52.2489 34.7322 49.6373
internal_count=3609 3053 1645 1408 1332 852 595 386 480 1422 1355 231 131 556 324 175 209 424 313 933 810 155 727 306 124 182 422 214 140 208
is_linear=0
shrinkage=0.05


Tree=12
num_leaves=31
num_cat=0
split_feature=7 7 12 3 18 18 3 15 7 12 7 12 18 14 18 13 15 15 18 3 7 12 3 14 1 3 3 3 7 15
split_gain=133.422 47.4773 32.0267 47.1588 33.766 30.2889 20.4959 19.9271 19.3121 18.2893 18.6524 16.0668 16.2289 15.262 14.9338 14.5915 14.864 14.5713 12.8449 12.4483 12.7837 10.9952 14.9819 10.9483 10.3874 10.0023 15.8896 20.8756 20.7262 9.50824
threshold=0.17132999999999285 0.36043000000000053 0.11456886617819134 -0.0017273127871683044 48.500000000000007 208.50000000000003 0.002860291673497569 6.2139112243397867e-05 0.25535000000001001 0.33387207418590475 0.25201666666666073 -0.76515048122784723 42.500000000000007 -0.00029282237424096367 246.50000000000003 -0.11919233540668571 -0.00055325948825613025 9.9116788111475191e-06 173.50000000000003 -0.0040118431756208583 0.66130333333333446 -0.15316775618336306 3.4908248546572821e-05 0.00020629703709767506 -0.00034715480596075871 -0.002559026839008314 0.00040098563870813209 0.0014192352271522031 0.44786333333333161 0.00063375473520577163
decision_type=2 2 2 2 2 2 2 2 2 2 2 2 2 2 2 2 2 2 2 2 2 2 2 2 2 2 2 2 2 2
left_child=-1 2 3 8 -4 7 11 21 -2 10 -6 -3 15 -10 -7 16 -13 -17 23 24 25 -5 -23 -12 -14 -21 -27 -28 -29 -19
right_child=1 6 4 5 9 14 -8 -9 13 -11 18 12 19 -15 -16 17 -18 29 -20 20 -22 22 -24 -25 -26 26 27 28 -30 -31
leaf_value=-0.062423701787618815 0.017917514222570204 -0.033881224973091387 0.053847847302848799 -0.018480513019647701 -0.063491142499903799 0.075187936172453868 0.05321570333043607 -0.028211080525297617 -0.0012455706384751097 0.011187007610563845 -0.00056219213372793594 0.036833860766100845 0.014851581417742253 -0.062844161919643413 0.023466406332063629 0.072836360062503755 -0.040085381764657181 0.017242330909661981 0.016484814667238903 -0.024218198193449728 0.040551974269633306 0.068264610097498152 0.0085388670480274088 -0.055267558249177721 0.072246368337658615 0.020784726818979249 -0.037210739309640764 0.049048857702145211 -0.019633093293580334 0.0644564474210189
leaf_weight=75.805472165346146 16.121934354305267 16.220273420214653 12.283424764871596 13.302303791046141 49.857203781604767 29.184816688299179 38.199876770377159 31.826634973287582 14.107798755168913 19.754785627126694 13.929716631770132 12.939407020807268 18.567770674824715 35.008922263979912 26.746251881122589 27.464787885546684 12.204692348837851 44.130663648247719 15.947503238916395 30.89979974925518 24.019092500209808 18.045660302042961 25.110127061605453 26.631568148732185 13.699500411748884 92.746604233980179 36.990985751152039 21.376982748508453 22.594058930873871 14.061031132936476
leaf_count=372 66 68 51 54 232 121 166 130 61 81 58 55 76 152 110 116 50 180 66 127 101 77 102 114 56 377 150 87 92 61
internal_value=0.000882032 0.00708239 -0.00662365 0.00570895 -0.0252872 0.021666 0.0182713 0.00342749 -0.0295655 -0.0329945 -0.0412001 0.0148302 0.0169559 -0.0451512 0.0504547 0.0329877 -0.000501964 0.0428184 -0.021533 0.0101472 0.00604416 0.0212628 0.0335133 -0.0364804 0.0392193 0.00199326 0.00665584 -0.00952961 0.0137574 0.0286508
internal_weight=849.78 773.974 347.859 209.454 138.404 144.216 426.116 88.2847 65.2387 126.121 106.366 387.916 371.695 49.1167 55.9311 110.801 25.1441 85.6565 56.5088 260.895 228.628 56.4581 43.1558 40.5613 32.2673 204.608 173.709 80.962 43.971 58.1917
internal_count=3609 3237 1475 873 602 594 1762 363 279 551 470 1596 1528 213 231 462 105 357 238 1066 934 233 179 172 132 833 706 329 179 241
is_linear=0
shrinkage=0.05


Tree=13
num_leaves=31
num_cat=0
split_feature=7 7 12 3 18 14 18 15 14 3 12 7 18 3 18 7 14 10 14 13 4 3 3 4 18 7 18 7 3 18
split_gain=123.609 43.2211 33.4473 50.4789 37.988 24.002 20.2975 22.2082 20.3175 19.5268 18.9493 17.9176 23.6353 16.1282 14.6594 12.5651 12.2505 12.1521 17.2244 16.6261 18.1432 11.667 16.524 10.7009 9.20864 13.7309 12.6068 14.8898 8.18931 8.89366
threshold=0.17132999999999285 0.38620666666666542 0.091864255882142379 -0.0018864228167238086 45.500000000000007 -0.0013606027741024606 210.50000000000003 0.00015590367542395181 -0.0002867672576739127 0.00105251844385054 0.33387207418590475 0.25535000000001001 173.50000000000003 0.002860291673497569 246.50000000000003 0.24348333333332831 -0.00023248606898469573 44.758963777500789 0.00053556591504167232 0.035951111770211354 1.5141730251687804 0.00016116907786164209 0.0021127770728578128 0.36716931594715119 125.50000000000001 0.47144000000000313 49.500000000000007 0.60477333333333283 0.0004964332297542278 24.500000000000004
decision_type=2 2 2 2 2 2 2 2 2 2 2 2 2 2 2 2 2 2 2 2 2 2 2 2 2 2 2 2 2 2
left_child=-1 2 3 15 -4 -3 7 8 -5 -6 11 -11 -13 17 -8 -2 -17 19 23 20 -7 -10 -23 -19 26 -26 -25 -28 -20 -30
right_child=1 5 4 6 9 13 14 -9 21 10 -12 12 -14 -15 -16 16 -18 18 28 -21 -22 22 -24 24 25 -27 27 -29 29 -31
leaf_value=-0.060984207110653235 0.016615357384636053 -0.058436441642732796 0.056466580480468868 -0.026216609108012656 -0.06292804559584235 0.044176414962464036 0.074580786505067567 -0.030596404863931989 0.058746071628406463 -0.049100577385221361 0.027364539765723145 -0.031153694740839954 0.042860252846705242 0.052036078088569519 0.021749814251426761 -0.009858317021077076 -0.058481792827901773 -0.040594540136526788 0.0032318306321529123 -0.012374147838796777 -0.016176181407236347 -0.01267748219210596 0.061006723010100211 0.018286534563668844 0.0057435072475848182 0.067768636934624135 -0.030727996951791865 0.028172017093678704 0.080220382644230467 0.026042869234810286
leaf_weight=73.766978770494461 12.386999532580374 9.8147358596324903 14.100484907627104 16.336871594190598 33.647003680467606 98.479138389229774 26.611897379159927 25.085694655776024 30.197364240884781 50.680499956011772 18.076038151979446 32.550358295440674 16.132118329405785 37.143987640738487 25.918933913111687 21.461387902498245 32.678576394915581 13.535244375467299 12.262297749519346 20.532392248511314 14.255226030945776 19.90406334400177 12.317022457718847 44.177227705717087 27.115933761000633 13.299102947115896 45.807617470622063 14.012219086289404 14.3587713688612 16.03351017832756
leaf_count=372 50 42 59 66 147 412 112 102 128 235 74 138 66 164 107 92 145 55 51 85 58 81 50 180 111 54 186 58 62 67
internal_value=0.000841784 0.00677317 -0.00496986 0.00766645 -0.022021 0.01874 0.0231864 0.0103739 0.023424 -0.029346 -0.0197246 -0.028291 -0.00662738 0.0207816 0.0485138 -0.0288133 -0.0392072 0.0173044 0.00952944 0.0290079 0.0365448 0.0364165 0.0154895 0.00191564 0.00589997 0.0261537 -0.00197097 -0.0169312 0.0377229 0.0516389
internal_weight=842.68 768.913 388.085 222.899 165.187 380.827 156.372 103.841 78.7553 151.086 117.439 99.363 48.6825 371.013 52.5308 66.527 54.14 333.869 200.602 133.267 112.734 62.4185 32.2211 157.947 144.412 40.415 103.997 59.8198 42.6546 30.3923
internal_count=3609 3237 1652 933 719 1585 646 427 325 660 513 439 204 1543 219 287 237 1379 824 555 470 259 131 644 589 165 424 244 180 129
is_linear=0
shrinkage=0.05


Tree=14
num_leaves=31
num_cat=0
split_feature=7 7 11 3 7 3 18 3 7 10 12 2 12 18 3 7 13 13 15 15 3 7 3 18 1 3 10 8 18 15
split_gain=114.62 39.673 27.3683 36.5774 19.9469 17.4949 15.8253 18.9643 22.7613 18.4748 15.9037 15.3128 13.9077 13.9988 13.621 13.4123 13.2562 13.1067 13.9637 13.5769 11.0479 11.1676 10.125 17.3607 9.51374 8.90102 14.3766 13.7363 12.3203 8.7732
threshold=0.17132999999999285 0.36043000000000053 0.1307951121864335 -0.0018864228167238086 0.28578999999999727 0.002860291673497569 208.50000000000003 0.0025331863774026744 0.23224333333332656 55.947975080440933 -0.18296786780616095 0.00085994344896311869 -0.76515048122784723 42.500000000000007 0.0035706199054662091 0.24348333333332831 -0.031136952312077974 -0.11919233540668571 9.9116788111475191e-06 -0.00055325948825613025 -0.0040118431756208583 0.66130333333333446 -1.0000000180025095e-35 130.50000000000003 -0.00034715480596075871 -0.002559026839008314 51.395152145707762 0.00048753585941430625 125.50000000000001 0.00063375473520577163
decision_type=2 2 2 2 2 2 2 2 2 2 2 2 2 2 2 2 2 2 2 2 2 2 2 2 2 2 2 2 2 2
left_child=-1 2 3 15 14 12 7 8 -5 10 -10 -6 -3 17 -4 -2 -8 19 -19 -14 24 25 -12 -24 -15 -22 27 -27 -28 -20
right_child=1 5 4 6 11 -7 16 -9 9 -11 22 -13 13 20 -16 -17 -18 18 29 -21 21 -23 23 -25 -26 26 28 -29 -30 -31
leaf_value=-0.059630303775907258 0.015762960018859566 -0.031991871327246804 -0.051355420389682063 -0.059404343860296416 0.033903619535198756 0.049556562629611847 0.0066454255849591297 0.062809848982150848 -0.030197981922490954 -0.046166508814426105 0.054986476969357191 -0.022583978870981337 0.034859080341710626 0.013439687940375318 0.004941438695169071 -0.043112765099237213 0.055873191256201986 0.069748251688837942 0.015196239775278989 -0.038953740875031784 -0.023179915845663826 0.037875791753136545 -0.03090048350097126 0.052517642975178205 0.06864931373127181 0.026966349684911451 -0.026227389403886595 -0.024812880202669335 0.014986829764921078 0.061160737115297494
leaf_weight=71.721848830580711 12.403551295399664 16.042382836341858 60.890088513493538 14.982896223664282 19.607994347810745 37.050029516220093 21.863398715853691 12.405567035079001 12.853704288601866 12.996236696839331 24.592766493558877 30.910627216100693 12.727531164884569 18.476453602313999 13.046449482440947 43.944106101989746 36.515539139509201 26.869243830442429 43.843177765607834 12.202958583831785 30.780097648501396 23.672995656728745 12.788378909230248 12.175246819853781 13.507512822747229 81.395292475819588 46.6739292293787 15.200437203049658 29.653273656964302 13.602068543434141
leaf_count=372 50 68 288 64 81 166 92 51 52 54 106 130 55 76 53 197 154 116 180 50 127 101 53 50 56 333 190 62 121 61
internal_value=0.000803869 0.00647966 -0.00617546 0.00452374 -0.0248754 0.0167424 0.0166469 0.00483987 -0.00311628 0.0080679 0.0193616 -0.000659222 0.0135816 0.0155651 -0.0414216 -0.0301527 0.037437 0.0305787 0.0399961 -0.00127077 0.00924118 0.00537081 0.0322162 0.00978416 0.0367559 0.0015933 0.00600291 0.0188183 -0.0102156 0.0260799
internal_weight=835.396 763.674 341.977 217.521 124.455 421.697 161.174 102.795 90.3892 75.4063 62.4101 50.5186 384.647 368.605 73.9365 56.3477 58.3789 109.245 84.3145 24.9305 259.36 227.376 49.5564 24.9636 31.984 203.703 172.923 96.5957 76.3272 57.4452
internal_count=3609 3237 1475 923 552 1762 676 430 379 315 261 211 1596 1528 341 247 246 462 357 105 1066 934 209 103 132 833 706 395 311 241
is_linear=0
shrinkage=0.05


Tree=15
num_leaves=31
num_cat=0
split_feature=7 7 18 12 3 18 3 10 3 7 3 12 3 18 14 6 3 7 14 18 18 18 7 10 5 13 7 3 18 14
split_gain=99.4233 30.6798 23.9274 36.1731 40.134 31.8793 35.6709 46.5963 24.1674 22.518 32.1328 19.2471 19.8459 15.6075 14.9942 13.7852 18.3664 13.6049 12.7024 13.6152 24.4761 14.7681 12.5022 12.4538 12.3634 11.6342 11.0436 19.2659 13.2968 13.1288
threshold=0.16803333333332379 0.43113000000001123 44.500000000000007 0.12054186595115428 -0.0019207228002436308 212.50000000000003 0.0026190573118820564 52.521284984000069 -0.0042959445762383265 0.25201666666666073 0.0010274454092456988 -0.20029861523153017 -0.00023674752964963677 242.50000000000003 -2.6039618839081849e-05 0.33799999999999958 0.002010032177278452 0.25735333333333682 -0.0011950510769534641 169.50000000000003 121.50000000000001 210.50000000000003 0.30686666666667489 44.616146561831904 -0.54709549280038439 -0.0014790832160051363 0.59413333333333573 0.0030643764061250192 48.500000000000007 0.00028942263036108869
decision_type=2 2 2 2 2 2 2 2 2 2 2 2 2 2 2 2 2 2 2 2 2 2 2 2 2 2 2 2 2 2
left_child=-1 2 -2 4 8 6 7 11 -4 -5 -11 -6 -13 -7 -15 16 25 -10 -3 20 23 -21 -9 24 -20 -12 27 28 29 -25
right_child=1 18 3 9 5 13 -8 22 17 10 15 12 -14 14 -16 -17 -18 -19 19 21 -22 -23 -24 26 -26 -27 -28 -29 -30 -31
leaf_value=-0.060873835910068688 0.038656205419393012 -0.032820844779836378 0.024960398602548478 -0.05284023427145286 -0.023194625992207004 0.073939011787936867 0.077213891666379736 -0.074092447040062723 0.010739978737540398 -0.058950880379156925 0.057520570444565579 0.061608458152793304 0.0049383481811738359 0.0030934568752294944 0.068819336661635533 0.05448755194351939 -0.030416367834886021 -0.045798842084813052 0.066345584051128989 -0.052515859160827842 0.070242239352676802 0.021176185612895384 -0.02078541816895926 0.045099195033738201 0.021879487154498646 -0.0093957238886730604 0.025950898595423107 0.053082034533860747 -0.035052065756378432 -0.016589662808651148
leaf_weight=62.020434021949768 32.603158056735992 11.791867688298224 20.728514671325684 51.27722179889679 22.641138643026352 27.297168508172035 14.564200669527052 21.720979362726212 12.852860257029532 26.131488040089607 14.066370427608492 28.261871084570885 34.076990723609924 26.367981225252151 12.933728978037832 12.153474017977713 30.686474725604057 61.800897747278214 22.222259268164635 12.776411116123201 25.542270824313164 14.531073585152624 22.282481387257576 14.630923107266424 52.713149413466454 12.068345338106154 61.724686652421951 13.320565626025198 33.764172703027725 21.010210305452347
leaf_count=334 136 51 87 250 92 116 61 92 53 111 58 122 140 110 55 51 132 273 97 52 109 60 91 60 222 51 265 60 138 87
internal_value=2.29624e-05 0.00493726 -0.00271147 -0.00569594 0.0040957 0.0163045 0.00303975 -0.00533564 -0.0228028 -0.0261329 -0.0117334 0.0162897 0.0306302 0.0448954 0.0247231 0.00615526 -0.00418253 -0.0360648 0.017985 0.0201857 0.0239193 -0.0133023 -0.0470988 0.0185261 0.035066 0.0266203 0.00994583 -0.00199612 -0.012567 0.00873402
internal_weight=830.563 768.543 484.515 451.912 305.529 210.147 143.548 128.983 95.3823 146.383 95.1062 84.98 62.3389 66.5989 39.3017 68.9747 56.8212 74.6538 284.028 272.236 244.928 27.3075 44.0035 219.386 74.9354 26.1347 144.451 82.7259 69.4053 35.6411
internal_count=3616 3282 2081 1945 1292 879 598 537 413 653 403 354 262 281 165 292 241 326 1201 1150 1038 112 183 929 319 109 610 345 285 147
is_linear=0
shrinkage=0.05


Tree=16
num_leaves=31
num_cat=0
split_feature=7 7 11 3 18 3 18 10 11 3 7 18 7 3 11 7 18 3 3 8 10 14 3 15 4 13 5 10 7 14
split_gain=92.5647 27.9587 26.484 40.9546 25.9577 16.7202 18.1766 29.2398 16.3104 24.6828 30.8469 15.8148 11.4408 11.4147 10.5516 18.6916 14.4352 10.1951 16.1681 13.5985 12.5343 10.0928 9.69428 10.2989 9.4553 9.97603 13.6682 9.16775 8.58092 8.4721
threshold=0.16803333333332379 0.37026666666664981 0.11883275486763979 -0.0019207228002436308 44.500000000000007 0.002717932894902048 211.50000000000003 55.352039507724292 -0.22401649481707861 1.0000000180025095e-35 0.26560666666667893 242.50000000000003 0.25735333333333682 0.0030643764061250192 -0.86914106021237092 0.59413333333333573 76.500000000000014 -0.0042959445762383265 -0.002559026839008314 0.00028948141177689764 44.758963777500789 -0.00026116594045119413 0.00077070466233849805 -3.9085428295893003e-05 0.58982299966400908 -0.055842929366043563 -0.66817694364608204 64.378831568546715 0.53349666666666373 0.00049716623132804976
decision_type=2 2 2 2 2 2 2 2 2 2 2 2 2 2 2 2 2 2 2 2 2 2 2 2 2 2 2 2 2 2
left_child=-1 2 3 12 -4 6 7 8 -5 -10 -11 -8 -2 14 -3 17 22 -16 19 -19 -20 -14 23 -17 25 -22 -27 -15 -26 -6
right_child=1 13 4 5 29 -7 11 -9 9 10 -12 -13 21 27 15 16 -18 18 20 -21 24 -23 -24 -25 28 26 -28 -29 -30 -31
leaf_value=-0.059722331415103226 0.010190137892493487 -0.037350755271923185 0.049957726888400167 -0.037140494548988122 -0.033147228892702184 0.072866236724346931 0.067111686064436168 -0.054644927862715846 0.056661787523934914 -0.069888668887269731 0.028608389598547047 0.013493663626590758 -0.011765677591592992 0.065494832693737112 0.037212997489292646 0.032785409628312133 0.073932606065089931 -0.062841083874748654 0.026880402671339201 -0.00094177402825584193 -0.055658304357275735 -0.061504505710423721 0.050438632789543414 -0.014863111066061918 0.015767690622361961 -0.028312067745274741 0.036043292916433128 0.0079376237468171806 -0.025723227747432756 0.0081386855346470034
leaf_weight=60.104169234633446 12.868640929460524 10.728340163826941 11.420315951108931 13.129854440689085 115.08176705241203 12.732146471738814 23.61163318157196 19.427330195903778 30.760382533073425 11.969066441059111 23.665608212351799 32.936099737882614 16.036440938711163 18.390469878911976 24.729148507118225 23.527541190385818 17.508274599909782 15.446900531649588 66.141038402915001 20.847924396395683 12.662799149751661 28.01927907764912 21.708371803164482 21.893209829926491 82.983790546655655 21.727601096034046 13.30138047039509 11.090542197227476 14.663384348154066 13.929962441325186
leaf_count=334 53 47 49 53 526 53 103 82 134 52 98 139 71 86 103 101 76 65 280 86 52 131 97 91 342 89 55 50 60 58
internal_value=1.88903e-05 0.00472529 -0.00525342 0.00537469 -0.0222936 0.017779 0.0132686 0.00034579 0.0137796 0.0238492 -0.00447506 0.035882 -0.0312846 0.0139064 0.0115073 0.012975 0.0334998 0.00660014 0.00354483 -0.0272858 0.00883608 -0.0433994 0.0229543 0.00981839 0.00062444 -0.017624 -0.00387473 0.0438422 0.00953712 -0.0286894
internal_weight=823.043 762.939 365.589 225.156 140.432 168.232 155.5 98.9522 79.5249 66.3951 35.6347 56.5477 56.9244 397.351 367.87 357.141 84.6374 272.504 247.775 36.2948 211.48 44.0557 67.1291 45.4208 145.339 47.6918 35.029 29.481 97.6472 129.012
internal_count=3616 3282 1602 969 633 714 661 419 337 284 150 242 255 1680 1544 1497 365 1132 1029 151 878 202 289 192 598 196 144 136 402 584
is_linear=0
shrinkage=0.05


Tree=17
num_leaves=31
num_cat=0
split_feature=7 7 18 18 3 3 3 10 7 3 13 3 18 13 2 7 18 18 3 14 18 3 7 3 3 18 14 18 18 10
split_gain=86.2439 25.5441 32.221 24.2965 47.659 45.5522 24.5224 45.956 25.1951 20.8836 19.0019 17.7301 23.1688 17.3102 14.8779 13.7179 16.5769 12.1608 21.1164 12.1436 11.8955 11.5505 14.6623 10.7878 19.3861 10.1283 11.8652 9.37135 28.2916 18.0831
threshold=0.16803333333332379 0.47403666666665462 53.500000000000007 214.50000000000003 -0.0045014275135916671 0.0034791685190991161 -0.0021659688847249776 51.511294351134055 0.25201666666666073 0.0014381464838398074 -0.021438909310188586 -0.00023674752964963677 96.500000000000014 0.086038423768079728 -0.00011981314049991364 0.2876833333333404 106.50000000000001 138.50000000000003 0.00070220272461444632 -0.0011950510769534641 158.50000000000003 -0.0018094765104849375 0.27151666666666951 0.0019097725583055161 0.00105251844385054 158.50000000000003 0.00035085929286331657 172.50000000000003 112.50000000000001 43.533560546944955
decision_type=2 2 2 2 2 2 2 2 2 2 2 2 2 2 2 2 2 2 2 2 2 2 2 2 2 2 2 2 2 2
left_child=-1 2 13 4 -4 6 -6 11 -9 17 23 15 -13 -2 -14 -8 -17 18 -10 -3 -18 -12 -23 24 -5 26 -11 28 29 -21
right_child=1 19 3 10 5 -7 7 8 9 25 21 12 14 -15 -16 16 20 -19 -20 27 -22 22 -24 -25 -26 -27 -28 -29 -30 -31
leaf_value=-0.058634745812792904 0.042699808645561138 -0.030394958448743077 0.08146606504093501 -0.022738163539902472 -0.049319094493696036 0.062462602693637272 0.068697052014899118 -0.064338836749413444 0.027173613208645583 -0.033306045094721702 -0.0028668007673763023 -0.071352728009555805 -0.010184470744275659 -0.022777773879983684 0.05391943700315685 0.051713638877697345 -0.043264138418252295 -0.066560177722394087 -0.055781289686208324 0.04384579340488573 0.024789640016177415 0.023943385354097287 0.080667119293573619 -0.051292388467331446 0.053441114562847426 0.035893921574400724 0.028127221226683929 -0.017898516384234842 0.082152257727246034 0.0077239012844742012
leaf_weight=58.206328257918358 56.112608835101128 11.603988319635389 13.065493971109388 24.537983104586601 58.665877565741539 17.636361196637154 15.86207005381584 43.115338161587715 13.633322089910509 22.1642095297575 19.094386920332909 12.135644242167471 35.910373255610466 12.307848855853079 12.101583003997801 17.636788949370384 13.627786710858347 24.537129536271095 17.542581632733345 49.309430584311485 12.142685249447821 34.526443049311638 17.00237962603569 12.022785320878027 12.660176888108252 16.759172305464745 12.178368061780928 13.560126528143881 19.486687928438187 116.52286180853844
leaf_count=334 239 51 55 104 261 76 72 218 56 96 81 50 149 51 52 74 57 106 75 215 50 151 73 52 55 70 53 56 85 499
internal_value=1.58936e-05 0.00452283 -0.00117301 -0.0057616 -0.0122735 -0.0158168 -0.0200257 -0.0136454 -0.0320774 -0.0190553 0.0137297 0.00949639 -0.00962846 0.0309213 0.00597315 0.0289046 0.0143635 -0.040229 -0.0195048 0.0193245 -0.0111982 0.0303508 0.0426599 -0.0101187 0.00318901 0.0040291 -0.0115209 0.0222255 0.0251615 0.0184646
internal_weight=815.669 757.462 546.979 478.559 358.715 345.649 328.013 269.347 149.93 106.815 119.844 119.417 60.1476 68.4205 48.012 59.2693 43.4073 55.713 31.1759 210.483 25.7705 70.6232 51.5288 49.2209 37.1982 51.1017 34.3426 198.879 185.319 165.832
internal_count=3616 3282 2376 2086 1570 1515 1439 1178 674 456 516 504 251 290 201 253 181 237 131 906 107 305 224 211 159 219 149 855 799 714
is_linear=0
shrinkage=0.05


Tree=18
num_leaves=31
num_cat=0
split_feature=7 9 11 3 18 3 16 18 3 3 7 18 13 2 16 3 3 3 3 12 18 12 7 11 18 18 12 18 18 7
split_gain=80.4026 23.4021 24.4046 38.6418 23.2297 19.9972 20.0169 21.6832 23.1732 15.0082 14.109 17.1718 12.5856 12.011 11.571 11.452 9.61497 9.42497 8.68515 15.8439 15.2824 7.6839 10.7029 13.1954 16.3539 11.0942 10.7579 8.73227 19.6221 14.4208
threshold=0.16803333333332379 0.099467333383652726 0.11883275486763979 -0.0019207228002436308 37.500000000000007 0.0026532712522512321 0.00042043785277825081 208.50000000000003 0.0010064923356738868 -0.0042959445762383265 0.25535000000001001 106.50000000000001 0.020323227086922833 -0.00049438228525949801 0.00014614292846305309 0.0036469249589429977 0.0012820598450458008 -0.00031799495521251249 0.0014047089395940015 0.29573156389791927 175.50000000000003 -0.67525851130133219 0.59413333333333573 -0.02702481316600824 44.500000000000007 71.500000000000014 -0.0033442702130407303 57.500000000000007 113.50000000000001 0.44991333333332861
decision_type=2 2 2 2 2 2 2 2 2 2 2 2 2 2 2 2 2 2 2 2 2 2 2 2 2 2 2 2 2 2
left_child=-1 2 3 9 -4 6 7 8 12 -2 -11 -12 -5 17 -6 21 -9 -8 -16 20 -20 -3 23 24 -23 26 -24 29 -29 -25
right_child=1 15 4 5 14 -7 13 16 -10 10 11 -13 -14 -15 18 -17 -18 -19 19 -21 -22 22 25 27 -26 -27 -28 28 -30 -31
leaf_value=-0.057603822813621232 0.015760476461358964 -0.018384971892037267 0.035250203771822593 0.035075711814701871 -0.046915514358227148 0.068982399799532759 0.039575570082623107 -0.00012196006901363536 -0.057749558879518041 0.015776769769275348 0.0083498852637649314 -0.05887458794572456 -0.02222479973551493 0.05204133770797701 -0.03393851466377653 0.06024530259533889 0.051862227452145339 -0.0032318362416931972 -0.048207164140036278 0.027858653716936795 0.015536793197490326 0.074962004554268061 -0.0070640531582650632 0.054215515111176484 0.013986207650190869 0.065515227366472126 0.037590348544058155 -0.045508210660192949 0.012293190415307007 -0.010187667718172807
leaf_weight=56.333271980285645 20.262116238474846 18.053153410553932 18.107048749923706 17.775289386510849 42.075161948800087 17.405854061245918 22.235037267208099 16.134285464882851 24.824828758835793 12.011295691132544 12.193820059299467 42.992794275283813 20.792400434613228 36.803595468401909 40.516954004764557 13.541642025113104 19.824363201856613 30.490656360983849 24.430081069469452 23.887078836560249 15.286126315593718 12.764786154031752 21.853722453117371 14.318358168005942 79.371643081307411 17.999786883592606 35.233118206262589 28.796105042099953 29.957961738109589 22.119490846991539
leaf_count=334 86 77 78 77 198 75 97 69 108 49 53 199 86 160 183 64 87 128 118 102 67 59 93 59 331 81 157 120 129 92
internal_value=1.1424e-05 0.00432712 -0.00273925 0.00589223 -0.018171 0.0177004 0.0129746 -0.00247688 -0.0200694 -0.0219589 -0.0333324 -0.0440209 0.00418418 0.0301212 -0.0247874 0.0153361 0.0285374 0.0148205 -0.0158454 -0.00431968 -0.0236731 0.0131678 0.0153385 0.00894543 0.0224339 0.031288 0.020496 -0.00411011 -0.016036 0.0151197
internal_weight=808.392 752.059 458.049 293.746 164.302 206.286 188.88 99.3512 63.3925 87.46 67.1979 55.1866 38.5677 89.5293 146.195 294.01 35.9586 52.7257 104.12 63.6033 39.7162 280.468 262.415 187.328 92.1364 75.0866 57.0868 95.1919 58.7541 36.4378
internal_count=3616 3282 2020 1274 746 887 812 427 271 387 301 252 163 385 668 1262 156 225 470 287 185 1198 1121 790 390 331 250 400 249 151
is_linear=0
shrinkage=0.05


Tree=19
num_leaves=31
num_cat=0
split_feature=7 7 10 3 3 3 12 7 3 7 10 12 3 13 3 3 3 7 9 2 14 3 16 13 14 3 4 10 3 6
split_gain=75.004 21.5257 17.3635 26.5016 24.3481 28.8015 18.1948 27.0016 18.8748 13.9456 11.4353 10.7446 9.21743 8.72955 7.70956 8.57219 16.5758 7.57667 9.93658 21.0067 7.31586 16.2734 13.8874 9.12825 8.77459 6.04429 5.62733 5.26083 8.52908 9.02423
threshold=0.16803333333332379 0.47403666666665462 62.286585465853641 -0.0020142338181878693 -0.0042959445762383265 -0.0060273764492099419 0.12054186595115428 0.25201666666666073 0.0026190573118820564 0.37501333333333381 55.247970346016764 -0.67525851130133219 -0.0021006830051741032 -0.089425385855483805 0.0034791685190991161 0.0025937615433432892 0.0016651562817557167 0.258990000000002 0.099467333383652726 -0.00052218467256631696 -0.00022906440634544754 -0.00023674752964963677 0.00047036924664919493 -0.079197444452644358 -0.000109456313400062 0.0012820598450458008 1.2803514406839291 45.120959443962207 1.0000000180025095e-35 0.60404000000000913
decision_type=2 2 2 2 2 2 2 2 2 2 2 2 2 2 2 2 2 2 2 2 2 2 2 2 2 2 2 2 2 2
left_child=-1 2 3 4 5 -2 8 -8 10 14 20 -3 -13 -9 15 16 -4 -6 -19 -20 21 23 24 -5 -22 -26 27 -14 -29 -30
right_child=1 11 9 6 17 -7 7 13 -10 -11 -12 12 26 -15 -16 -17 -18 18 19 -21 22 -23 -24 -25 25 -27 -28 28 29 -31
leaf_value=-0.056623164416189989 -0.028515930810505147 -0.014401180320215784 -0.051703157374856937 0.061953896206965897 0.0064740993734898923 0.078285374075722947 -0.050802903459313355 -0.018162418422712399 0.071978726117679165 0.015504530036582538 -0.0098071445977013696 0.048733359895806475 0.039017022716297506 0.017453345795008967 0.0066506236727004175 -0.068269096327592815 0.0095556857778605342 -0.050947348630565575 0.030615256322913516 -0.061489564644689181 0.037025619197397608 -0.022243107009102092 0.047473208478600502 0.0098311494759907025 -0.019707717385044128 0.022779577291765458 -0.0084575498549253614 -0.010784166079700118 0.011300421583714483 0.04586425311866886
leaf_weight=54.490336909890175 12.698522433638574 23.023845195770264 26.79908013343811 13.10605803132057 11.36733330786228 12.552373543381689 26.365475609898567 24.158077865839005 15.174116954207419 20.913184866309166 40.030106797814369 27.142907455563545 30.484208196401596 59.774383738636971 11.621566399931906 16.771936222910881 18.782062605023384 47.136934071779251 13.409687802195551 11.499262943863867 20.690470203757286 27.769455224275589 49.022728830575943 23.392458602786064 22.463235288858414 13.343011826276777 18.835155725479126 24.015317484736443 55.845955312252045 28.533134639263153
leaf_count=334 54 98 125 55 47 54 138 102 66 88 173 119 136 259 48 82 86 221 56 50 89 115 215 99 96 58 81 100 241 131
internal_value=8.35403e-06 0.00414091 -0.00113194 0.00301754 -0.0184412 0.0245756 0.00997211 -0.00666331 0.0181273 -0.0205462 0.0142327 0.0178085 0.0218202 0.00720215 -0.030738 -0.0377067 -0.026461 -0.0314633 -0.037449 -0.0119051 0.0199005 0.00660153 0.0280005 0.0285476 0.0111038 -0.00387505 0.0171884 0.0206666 0.0155059 0.0229883
internal_weight=801.212 746.722 538.842 443.954 108.664 25.2509 335.29 110.298 224.992 94.8878 209.818 207.881 184.857 83.9325 73.9746 62.3531 45.5811 83.4132 72.0459 24.909 169.787 64.268 105.519 36.4985 56.4967 35.8062 157.714 138.879 108.394 84.3791
internal_count=3616 3282 2376 1947 482 108 1465 499 966 429 900 906 808 361 341 293 211 374 327 106 727 269 458 154 243 154 689 608 472 372
is_linear=0
shrinkage=0.05


Tree=20
num_leaves=31
num_cat=0
split_feature=7 7 18 3 18 3 2 12 11 12 7 3 10 11 13 2 3 13 12 18 3 6 2 3 3 1 8 11 7 18
split_gain=70.8214 25.7888 25.3668 16.1034 19.796 26.6982 23.3128 22.96 20.0621 17.384 15.8248 17.9098 20.4837 12.8794 11.3727 11.3707 10.8857 19.2784 14.4984 20.3431 19.07 13.8466 11.2821 11.0471 17.8568 10.4476 10.8326 8.88036 8.84921 8.20037
threshold=0.17132999999999285 0.34889666666667463 49.500000000000007 0.0035706199054662091 213.50000000000003 0.00084652187469140625 -0.00026818297875214053 0.14053571597022643 -0.083694878177936957 -0.29670931064596551 0.23224333333332656 -0.0010718390689017944 51.614200117735002 -0.95621698426799628 -0.032349138457835977 -0.0020263731141913484 0.0016269694980777852 -0.089425385855483805 -0.56363441722329199 49.500000000000007 0.00040098563870813209 0.50680999999999599 9.2938036948653227e-05 -0.0042959445762383265 -0.0019207228002436308 0.00043600595430737249 0.00033466091085726702 -0.13293909409043178 0.45721999999999535 148.50000000000003
decision_type=2 2 2 2 2 2 2 2 2 2 2 2 2 2 2 2 2 2 2 2 2 2 2 2 2 2 2 2 2 2
left_child=-1 2 -2 4 6 8 9 14 -6 -4 -8 -12 -13 -3 -7 -15 17 21 -19 22 23 -17 -20 -21 28 -18 -27 -11 -25 -26
right_child=1 13 3 -5 5 7 10 -9 -10 27 11 12 -14 15 -16 16 25 18 19 20 -22 -23 -24 24 29 26 -28 -29 -30 -31
leaf_value=-0.053765815984755438 0.061043942947822893 -0.043909245918084955 -0.054528730153263309 0.032400463698964675 -0.061318958507660129 0.0091347458684021814 -0.066038726302066669 -0.033744554860142863 0.01059200539203255 0.036972511254177588 -0.067163392654148724 0.046889864721141442 -0.024561669510173786 0.036436782936240635 0.067365537807404161 -0.053371541731537069 0.043520615888892708 -0.039271728793963304 0.06645652305753956 0.051151400948535868 -0.025569988109228437 0.0060436778195607013 0.022605432656327199 -0.030936905295479874 0.01629232464200267 -0.025096371481179588 0.02660192636735181 -0.0046983396631052193 0.017950008304272149 0.062275491101884219
leaf_weight=57.858729809522629 13.06346572935581 10.174324512481688 10.816380381584166 20.741562902927399 19.017287075519562 12.311676174402235 29.964999452233315 10.778493151068686 19.794282361865044 24.502612635493279 19.946937158703804 11.710030049085615 69.936858519911766 46.138862460851669 26.289236962795258 22.038648039102554 42.015931501984596 13.737525269389151 21.702781364321709 17.146461129188538 40.684673488140106 17.666511416435242 45.251196429133415 31.028943911194801 49.535921826958656 15.438058435916899 29.484430432319641 26.735278785228729 13.192406892776487 12.055171415209768
leaf_count=359 57 46 50 86 81 53 158 50 87 105 95 51 320 204 118 92 189 57 99 75 169 75 194 133 207 67 134 124 55 51
internal_value=-0.000483607 0.00366613 -0.00717334 -0.0101189 -0.0132484 0.00638703 -0.0221924 0.0307767 -0.0246437 0.00307003 -0.0341082 -0.0246904 -0.0143139 0.0116724 0.048793 0.0130282 0.0101168 0.00537837 0.0106294 0.0136022 0.00410294 -0.0269352 0.0368195 0.0139211 0.00788812 0.0255981 0.00883529 0.0152292 -0.0163526 0.0252926
internal_weight=800.76 742.901 315.609 302.546 281.804 88.191 193.613 49.3794 38.8116 62.0543 131.559 101.594 81.6469 427.292 38.6009 417.118 370.979 284.04 244.335 230.598 163.644 39.7052 66.954 122.959 105.812 86.9384 44.9225 51.2379 44.2214 61.5911
internal_count=3641 3282 1435 1378 1292 389 903 221 168 279 624 466 371 1847 171 1801 1597 1207 1040 983 690 167 293 521 446 390 201 229 188 258
is_linear=0
shrinkage=0.05


Tree=21
num_leaves=31
num_cat=0
split_feature=7 7 18 3 12 3 7 12 3 18 3 11 18 16 7 14 18 15 3 3 13 3 7 3 3 18 3 17 4 3
split_gain=66.4214 25.901 24.643 21.1487 18.7591 29.2671 20.7812 14.03 13.0205 23.3931 15.5966 11.7512 11.6244 11.2218 9.23666 9.48833 8.66665 9.90755 15.3651 9.80182 13.8376 12.2312 9.82586 18.0258 26.9651 16.8503 19.5069 11.1767 11.3982 10.6486
threshold=0.16083000000000239 0.34889666666667463 44.500000000000007 0.0035706199054662091 0.060983499342763668 -0.0019207228002436308 0.25535000000001001 -0.20029861523153017 0.0010274454092456988 108.50000000000001 0.002010032177278452 -0.95621698426799628 214.50000000000003 0.00037919574767630745 0.24348333333332831 -0.00029282237424096367 31.500000000000004 -4.647866198126404e-05 0.00033148032142523451 0.0024306568757669739 0.099619715197096753 -0.0041378036631763261 0.48342000000001623 -0.0021006830051741032 -0.00031799495521251249 78.500000000000014 0.0011900702432275827 0.0014278982381224273 0.65221047386108055 0.0016976925329619628
decision_type=2 2 2 2 2 2 2 2 2 2 2 2 2 2 2 2 2 2 2 2 2 2 2 2 2 2 2 2 2 2
left_child=-1 2 -2 4 5 14 12 -7 -8 -10 -11 -3 -6 -9 -4 -16 17 -13 -19 21 -21 -18 23 -23 -25 27 -27 28 -24 -26
right_child=1 11 3 -5 6 7 8 13 9 10 -12 16 -14 -15 15 -17 19 18 -20 20 -22 22 25 24 29 26 -28 -29 -30 -31
leaf_value=-0.060294076582744875 0.072174566792714778 -0.042294569189854345 0.005179734651642301 0.036974049780449839 -0.062715522958561046 -0.03627763951939942 -0.043663217886452693 0.0046618057703794787 -0.041596821993454741 0.054364500778712826 -0.010017314555331445 0.051693309230554485 -0.0090115327139525109 0.039566783400379932 -0.0085362688933680181 -0.062133600489601641 0.034693942704442031 -0.020777078311159186 0.032865776374018128 0.050031622043893026 -0.013813721379164513 -0.033540009655889567 -0.022817449360451696 0.035062139043183477 -0.024487507440823501 0.063852232174691714 -0.012828223148480332 -0.04196671450776663 0.03139385724207297 0.020733586142690552
leaf_weight=43.82927779853344 9.4018967151641828 10.038119345903395 11.933905363082884 22.295286491513252 43.478837952017784 12.670177236199377 21.778659403324127 53.168444827198982 20.343222171068192 20.53520156443119 17.358530059456825 26.895205453038216 13.115737438201903 40.61718662083149 12.067814558744425 26.151668921113018 31.756450936198235 19.894829228520393 40.572896927595139 29.264375388622284 11.953296050429342 42.700463265180588 16.002808421850204 44.582507610321045 57.064805671572685 26.614797338843346 12.048544913530348 13.863824605941771 24.602882698178291 16.865772947669029
leaf_count=290 42 46 48 94 244 52 98 236 89 86 78 125 65 182 57 133 138 84 178 142 53 184 68 190 237 116 50 58 108 70
internal_value=-0.000466238 0.00303173 -0.00759424 -0.00997124 -0.0135408 -0.00172907 -0.0270817 0.0131069 -0.0106809 0.00165336 0.0248722 0.0111607 -0.0502697 0.0197786 -0.03322 -0.0452102 0.0124547 0.0264461 0.0152164 0.00872035 0.0315162 0.00543624 0.00178326 -0.00568626 0.00434949 0.0147131 0.0399565 -0.00320515 0.010029 -0.0141712
internal_weight=793.467 749.638 324.917 315.515 293.219 156.609 136.61 106.456 80.0156 58.237 37.8937 424.722 56.5946 93.7856 50.1534 38.2195 414.683 87.3629 60.4677 327.321 41.2177 286.103 254.346 161.214 118.513 93.1329 38.6633 54.4695 40.6057 73.9306
internal_count=3641 3351 1504 1462 1368 708 660 470 351 253 164 1847 309 418 238 190 1801 387 262 1414 195 1219 1081 681 497 400 166 234 176 307
is_linear=0
shrinkage=0.05


Tree=22
num_leaves=31
num_cat=0
split_feature=7 7 18 3 12 3 7 12 2 18 18 11 16 2 5 12 3 3 18 7 8 7 14 3 4 18 3 2 4 7
split_gain=62.3329 23.5865 22.7176 19.1879 17.2516 26.9894 20.6751 12.8349 12.5437 18.0873 10.7587 10.7264 10.649 9.83024 10.6849 9.92791 11.7108 12.0731 17.3528 15.9555 8.74801 8.6137 9.04573 8.19523 8.18039 6.65337 10.9431 11.5938 10.3404 13.1828
threshold=0.16083000000000239 0.34889666666667463 44.500000000000007 0.0035706199054662091 0.058726560489538372 -0.0019207228002436308 0.25535000000001001 -0.20029861523153017 0.00085994344896311869 108.50000000000001 214.50000000000003 -0.95621698426799628 0.00046070778332836813 -0.0020263731141913484 -0.17895191032413357 -0.67525851130133219 -0.0042959445762383265 -0.0019207228002436308 203.50000000000003 0.47771333333333821 0.00023737832254008831 0.24348333333332831 -0.00029282237424096367 0.0016269694980777852 0.7989756865647798 31.500000000000004 0.0024306568757669739 0.0018284827667249817 0.42421940506290484 0.7043533333333396
decision_type=2 2 2 2 2 2 2 2 2 2 2 2 2 2 2 2 2 2 2 2 2 2 2 2 2 2 2 2 2 2
left_child=-1 2 -2 4 5 21 10 -7 9 -8 -6 -3 20 14 -13 -15 -17 19 25 -18 -9 -4 -23 -10 -14 -19 28 -28 -27 -30
right_child=1 11 3 -5 6 7 8 12 23 -11 -12 13 24 15 -16 16 17 18 -20 -21 -22 22 -24 -25 -26 26 27 -29 29 -31
leaf_value=-0.059581087335892208 0.070186856067489589 -0.04075033023370217 0.0049194386906840663 0.035131448090052426 -0.061722325643424773 -0.034420599162437261 -0.032588670336896323 -0.00384993609919136 -0.070418829231887484 0.028794912207317842 -0.010218531632048781 0.061206451399307207 0.011802462971534297 -0.039878637254108298 0.012323695410765542 0.050000124465975175 -0.028550768860947678 0.023236425575844578 0.070758985739860988 0.036953187786572965 0.040300269523233755 -0.008134813410610087 -0.060756864449205361 -0.01557346125316326 0.063561729599868624 -0.038263567514327829 0.048455518830805511 -0.0087313466462648464 -0.00051372763055947124 0.054915249970871043
leaf_weight=42.177930772304535 9.1901277154684049 9.9011201709508878 11.93700025975704 22.291457802057266 42.380789905786514 12.685622572898863 19.447461917996407 45.876631811261177 10.794836446642877 31.340729162096977 13.328405797481535 19.992808401584625 12.791693016886713 10.023554489016531 25.357530444860458 17.892267644405365 40.525920242071152 70.009222462773323 12.251478418707846 12.063744232058523 14.852042257785795 12.031157344579691 25.425536736845974 18.456695362925529 18.931653454899788 16.175525903701782 26.060603022575378 13.430240660905836 136.65026231110096 11.640634551644323
leaf_count=290 42 46 48 94 245 52 86 204 50 134 66 93 57 41 111 80 176 311 54 52 66 57 133 83 87 68 127 62 573 53
internal_value=-0.000451063 0.00290225 -0.00729464 -0.00957273 -0.0130057 -0.00158123 -0.0260109 0.0127412 -0.00973151 0.00529034 -0.0494001 0.0106775 0.0192124 0.0119132 0.0338738 0.00919749 0.0105766 0.00849463 0.0125404 -0.0135246 0.00694761 -0.0320673 -0.0438546 -0.0358133 0.042691 0.00993696 0.00537186 0.0290071 -0.00030332 0.00383737
internal_weight=785.915 743.737 321.762 312.572 290.28 154.531 135.749 105.138 80.0397 50.7882 55.7092 421.975 92.452 412.074 45.3503 366.723 356.7 338.808 286.218 52.5897 60.7287 49.3937 37.4567 29.2515 31.7233 273.966 203.957 39.4908 164.466 148.291
internal_count=3641 3351 1504 1462 1368 704 664 466 353 220 311 1847 414 1801 204 1597 1556 1476 1248 228 270 238 190 133 144 1194 883 189 694 626
is_linear=0
shrinkage=0.05


Tree=23
num_leaves=31
num_cat=0
split_feature=7 7 12 10 3 14 12 7 14 7 12 7 10 3 3 7 3 3 12 13 12 11 7 7 4 14 15 13 8 16
split_gain=58.5326 21.4691 15.6589 16.3658 17.9701 15.2183 14.5778 16.0052 10.0309 9.95195 9.60414 9.09659 7.99227 6.65239 9.10385 10.4225 14.7397 22.7469 7.84025 12.7295 9.87494 7.82659 14.1687 13.523 7.00953 6.57723 6.55933 6.40723 6.39431 6.19584
threshold=0.16083000000000239 0.34889666666667463 -0.3169586406009009 61.496116239453727 -0.0018864228167238086 -0.00025441580131141021 0.091864255882142379 0.29089333333333045 -0.0013606027741024606 0.25535000000001001 -0.12797989061233764 0.29972333333333084 71.932427891267409 0.0016269694980777852 -0.0040118431756208583 0.43895666666665728 -0.0021006830051741032 -0.0002628699098062961 0.11107038361536609 0.11833518028129959 -0.057599812338013652 0.19386273883139896 0.78409333333332831 0.63394333333334318 1.1030111525212172 0.00054840540374519284 8.593049589833425e-05 -0.046938967030478389 0.00030018797450139315 0.00080162185007714244
decision_type=2 2 2 2 2 2 2 2 2 2 2 2 2 2 2 2 2 2 2 2 2 2 2 2 2 2 2 2 2 2
left_child=-1 2 -2 4 5 -4 10 26 -3 -7 -6 -12 -5 14 29 16 28 -18 20 -20 -15 22 24 25 -17 -23 -8 -19 -16 -10
right_child=1 8 3 12 6 9 7 -9 13 -11 11 -13 -14 18 15 21 17 27 19 -21 -22 23 -24 -25 -26 -27 -28 -29 -30 -31
leaf_value=-0.058911886888762678 -0.074599414935920288 -0.042141829995265112 0.025943933163874385 -0.033924865070989067 -0.0067760900522245747 -0.0060649911744776368 -0.031580526214282471 0.026178406547941808 0.055408374724171351 -0.061352184241177381 0.018335282038590174 0.056141180281961092 0.0095667501048908293 0.03598355358814756 -0.061384668539495361 0.031540797146881669 0.033835830261035336 -0.045588095209606119 0.048944274981495131 -0.0095580208840360496 -0.019038446997588294 -0.04021512090045487 -0.028999332796874628 0.034496107936350044 0.0027989090624878097 0.0057932054488606215 0.010130654642714915 -0.0059483308239923127 -0.014917264140680434 0.012917772663911021
leaf_weight=40.565059959888458 8.3445615172386152 8.955059200525282 10.58868335187435 58.893480598926544 26.398858606815338 12.437216639518736 44.717087179422379 23.654073193669319 15.78832286596298 23.555227220058441 63.936988547444344 21.182430550456047 12.872056767344473 14.328482165932654 14.108343407511713 88.810061678290367 36.029884725809097 15.381329253315924 40.910656914114952 12.033286228775976 18.925277411937714 20.289660885930061 13.743085414171217 15.148693114519117 27.869663238525391 12.587046504020689 11.942461118102072 30.227659121155739 15.57844704389572 18.78958922624588
leaf_count=290 40 42 47 297 110 51 225 104 71 127 293 95 57 63 65 394 154 65 194 55 83 83 59 68 121 54 58 127 67 82
internal_value=-0.000436356 0.0027777 -0.00700905 -0.0051907 0.00111053 -0.0267465 0.00787486 -0.00836693 0.0102086 -0.0422477 0.0195719 0.0277435 -0.0261241 0.0113505 0.00806944 0.0051758 -0.0068298 0.0041413 0.0236968 0.0356477 0.0046696 0.0126655 0.0190197 -0.00459051 0.0246756 -0.0226006 -0.0227888 -0.0193166 -0.0370004 0.032319
internal_weight=778.593 738.028 318.523 310.179 238.413 46.5811 191.832 80.3136 419.505 35.9924 111.518 85.1194 71.7655 410.549 324.352 289.774 111.326 81.6389 86.1977 52.9439 33.2538 178.448 130.423 48.0254 116.68 32.8767 56.6595 45.609 29.6868 34.5779
internal_count=3641 3351 1504 1464 1110 225 885 387 1847 178 498 388 354 1805 1410 1257 478 346 395 249 146 779 574 205 515 137 283 192 132 153
is_linear=0
shrinkage=0.05


Tree=24
num_leaves=31
num_cat=0
split_feature=7 7 18 3 10 3 12 7 12 18 7 7 14 14 2 3 12 18 3 7 18 3 3 18 18 6 10 3 10 12
split_gain=54.9943 19.5224 20.4149 17.5106 16.5438 15.4521 17.057 15.1139 13.5049 11.07 10.5417 9.39114 9.6368 9.16091 7.55691 8.67148 10.3789 12.6602 16.5756 9.40649 26.6062 11.5846 21.8523 12.5934 11.8882 13.4349 8.70842 11.6187 8.52623 7.63771
threshold=0.16083000000000239 0.34889666666667463 44.500000000000007 0.0035706199054662091 61.496116239453727 -0.0018864228167238086 0.058726560489538372 0.25201666666666073 -0.12797989061233764 108.50000000000001 0.30332333333334044 0.24348333333332831 -0.00029282237424096367 -0.0013606027741024606 -0.0020263731141913484 0.0016269694980777852 -0.62932840918771527 39.500000000000007 -0.0041378036631763261 0.48567666666666209 80.500000000000014 0.00036647926677065771 -0.0021006830051741032 82.500000000000014 173.50000000000003 0.36840000000000833 43.533560546944955 0.00033148032142523451 53.940054391484843 0.071036756154312652
decision_type=2 2 2 2 2 2 2 2 2 2 2 2 2 2 2 2 2 2 2 2 2 2 2 2 2 2 2 2 2 2
left_child=-1 2 -2 4 5 11 8 -8 -7 -9 -10 -4 -13 -3 -15 16 -16 26 -19 21 -21 22 -20 -24 25 -25 -18 28 -28 -17
right_child=1 13 3 -5 -6 6 7 9 10 -11 -12 12 -14 14 15 29 17 18 19 20 -22 -23 23 24 -26 -27 27 -29 -30 -31
leaf_value=-0.058282431907584392 0.067940331440253257 -0.040645079504233753 0.0076718970591392339 0.033857028490676469 -0.036038687952969148 -0.01350415247104346 -0.045563689268036896 -0.030363207167652003 0.016912728863172081 0.018095667975899676 0.064919994229183653 -0.0052362848972659455 -0.058946811774223631 0.030233207644424942 -0.044941230931386605 0.0018977868294425102 0.067449083228879811 0.043900935567608497 -0.03312403967340307 -0.017176962050068335 0.050133898703259266 -0.03896345040134478 0.058282653555172294 0.019528282413444203 0.043197814383863033 -0.055313131516985081 0.024551652078559347 0.039300293486929608 -0.028637309900526087 0.033360413826708547
leaf_weight=38.992838725447655 8.8989465236663801 8.8239658772945386 12.403106376528738 22.23306530714035 58.029315009713173 29.047402992844582 28.318782538175583 18.761239945888519 53.074658304452896 31.695992141962051 14.575353890657423 12.110450491309164 26.90443941950798 44.762556999921799 10.349026799201964 29.557054474949837 10.031052634119986 19.084639668464661 36.533784493803978 35.146467447280884 25.212152004241943 32.089359655976295 13.862511754035948 11.936233609914781 11.818922549486159 12.049979791045187 13.742197230458261 29.84206435084343 16.679344654083252 55.525439918041229
leaf_count=290 42 42 50 94 300 121 160 84 245 137 67 58 146 205 43 129 53 87 162 148 110 135 59 50 51 50 59 130 70 264
internal_value=-0.000421812 0.00265574 -0.00671704 -0.00888003 -0.0122149 -0.00612178 0.000941505 -0.0163298 0.0150119 7.74663e-05 0.027256 -0.0302266 -0.0422747 0.00975876 0.0108483 0.00846088 0.00419124 0.00608832 -0.000390846 -0.00512242 0.0109392 -0.013318 -0.00377115 0.0178198 0.00215398 -0.0180699 0.0243138 0.0171338 -0.00461048 0.0224305
internal_weight=772.092 733.1 316.053 307.154 284.921 226.891 175.473 78.776 96.6974 50.4572 67.65 51.418 39.0149 417.047 408.223 363.46 278.378 268.029 197.734 178.649 60.3586 118.291 86.2014 49.6676 35.8051 23.9862 70.2947 60.2636 30.4215 85.0825
internal_count=3641 3351 1504 1462 1368 1068 814 381 433 221 312 254 204 1847 1805 1600 1207 1164 852 765 258 507 372 210 151 100 312 259 129 393
is_linear=0
shrinkage=0.05


Tree=25
num_leaves=31
num_cat=0
split_feature=7 3 18 10 3 2 14 13 4 2 3 3 7 18 18 3 12 13 3 2 3 7 3 7 18 18 7 18 15 18
split_gain=50.2137 15.1998 14.2919 14.9501 11.9778 17.6236 10.584 11.7936 18.6207 16.2595 10.4707 9.38672 9.53823 15.635 9.91036 17.3302 23.6256 18.3058 14.2385 13.974 13.0877 20.2863 14.8972 19.9569 33.6287 14.3546 12.6803 10.3198 9.38196 14.1721
threshold=0.17903333333334409 0.004264480729291557 44.500000000000007 61.702035965236043 0.001470317923051311 0.001610665093189412 -0.0011950510769534641 0.078447584047569838 0.36019194124878701 0.0027536759328292697 0.0023097263564806543 0.0033911638147298136 0.5722166666666606 59.500000000000007 215.50000000000003 -0.0019207228002436308 -0.25263465443363137 -0.034651309717112132 -0.0042959445762383265 -0.00043616584780348239 -0.0021659688847249776 0.45192000000001453 6.4313462974274768e-05 0.25201666666666073 115.50000000000001 63.500000000000007 0.24715999999999291 255.50000000000003 -7.8286339446620428e-06 132.50000000000003
decision_type=2 2 2 2 2 2 2 2 2 2 2 2 2 2 2 2 2 2 2 2 2 2 2 2 2 2 2 2 2 2
left_child=-1 2 6 11 -5 10 -2 8 -8 -9 -6 12 14 -14 18 16 -16 -17 -4 -18 21 -20 26 -24 25 -25 -22 -19 -28 -30
right_child=1 -3 3 4 5 -7 7 9 -10 -11 -12 -13 13 -15 15 17 19 27 20 -21 22 -23 23 24 -26 -27 28 -29 29 -31
leaf_value=-0.04546614169600191 -0.032414100186417438 0.061198198844512698 0.043239773051743986 -0.047283075401289829 -0.00010864943945686605 0.032797532274325213 -0.024096112150865698 -0.023404896537711342 0.043091544737005702 0.03873948574748555 -0.050958246411310928 0.040231057168976875 -0.02300007665942598 0.04188779627529985 0.045153012304423354 -0.008465769528043671 -0.079699724962741469 0.068185533554348393 -0.043738558618525346 -0.0058828505039798112 0.065750101460365931 0.025351475413003661 -0.054883597059525981 0.022476442060767148 0.025050003859229633 -0.038402168966256228 0.018212782738826615 0.012067315675883108 0.013103426289575665 -0.053419789659578554
leaf_weight=57.790310680866241 10.079284831881521 11.045911759138106 14.178910180926321 28.128584876656532 19.806529521942139 18.501519665122032 12.223508208990095 27.526280522346497 65.955190882086754 17.042065694928169 20.708323508501053 15.601886212825773 13.16369806230068 31.494605243206024 11.631686732172964 20.424431830644608 12.140455260872839 25.70643775165081 48.319622322916985 13.586135372519495 9.8841369152069074 13.619184270501135 23.848139569163322 11.675378978252409 52.984588623046875 56.73665888607502 57.837430611252785 12.024150982499121 18.760064080357552 13.966889768838881
leaf_count=401 47 54 64 135 93 81 54 118 305 81 103 76 56 148 50 90 55 122 239 60 47 57 127 50 229 243 256 53 80 62
internal_value=-0.000650535 0.00300442 0.00208291 -0.00138804 -0.0204328 -0.0076353 0.0168401 0.0208846 0.0325865 0.000357902 -0.0260994 0.00208706 0.00079888 0.0227611 -0.00155132 0.0125918 -0.0139811 0.0296621 -0.005749 -0.0407173 -0.00800692 -0.028547 -0.00282882 -0.0130676 -0.0048529 -0.0280125 0.011976 0.0503015 0.00610718 -0.0152867
internal_weight=766.392 708.602 697.556 564.729 87.145 59.0164 132.826 122.747 78.1787 44.5683 40.5149 477.584 461.983 44.6583 417.324 95.5133 37.3583 58.155 321.811 25.7266 307.632 61.9388 245.693 145.245 121.397 68.412 100.449 37.7306 90.5644 32.727
internal_count=3636 3235 3181 2576 412 277 605 558 359 199 196 2164 2088 204 1884 430 165 265 1454 115 1390 296 1094 649 522 293 445 175 398 142
is_linear=0
shrinkage=0.05


end of trees

feature_importances:
vwap_dev=201
atr_15=129
minutes_into_session=119
macd_signal=68
macd=39
macd_hist=36
rsi_14=35
ema_9_21_spread=34
atr_5=27
ema_slope=25
ret_15=15
rvol=14
vol_z=9
high_dist_5=9
rv_5=8
ret_5=6
low_dist_5=4
rv_annual=2

parameters:
[boosting: gbdt]
[objective: binary]
[metric: binary_logloss]
[tree_learner: serial]
[device_type: cpu]
[data_sample_strategy: bagging]
[data: ]
[valid: ]
[num_iterations: 1000]
[learning_rate: 0.05]
[num_leaves: 31]
[num_threads: 0]
[seed: 42]
[deterministic: 0]
[force_col_wise: 0]
[force_row_wise: 0]
[histogram_pool_size: -1]
[max_depth: -1]
[min_data_in_leaf: 50]
[min_sum_hessian_in_leaf: 0.001]
[bagging_fraction: 0.8]
[pos_bagging_fraction: 1]
[neg_bagging_fraction: 1]
[bagging_freq: 5]
[bagging_seed: 400]
[bagging_by_query: 0]
[feature_fraction: 0.8]
[feature_fraction_bynode: 1]
[feature_fraction_seed: 30056]
[extra_trees: 0]
[extra_seed: 12879]
[early_stopping_round: 0]
[early_stopping_min_delta: 0]
[first_metric_only: 0]
[max_delta_step: 0]
[lambda_l1: 0]
[lambda_l2: 0]
[linear_lambda: 0]
[min_gain_to_split: 0]
[drop_rate: 0.1]
[max_drop: 50]
[skip_drop: 0.5]
[xgboost_dart_mode: 0]
[uniform_drop: 0]
[drop_seed: 17869]
[top_rate: 0.2]
[other_rate: 0.1]
[min_data_per_group: 100]
[max_cat_threshold: 32]
[cat_l2: 10]
[cat_smooth: 10]
[max_cat_to_onehot: 4]
[top_k: 20]
[monotone_constraints: ]
[monotone_constraints_method: basic]
[monotone_penalty: 0]
[feature_contri: ]
[forcedsplits_filename: ]
[refit_decay_rate: 0.9]
[cegb_tradeoff: 1]
[cegb_penalty_split: 0]
[cegb_penalty_feature_lazy: ]
[cegb_penalty_feature_coupled: ]
[path_smooth: 0]
[interaction_constraints: ]
[verbosity: -1]
[saved_feature_importance_type: 0]
[use_quantized_grad: 0]
[num_grad_quant_bins: 4]
[quant_train_renew_leaf: 0]
[stochastic_rounding: 1]
[linear_tree: 0]
[max_bin: 255]
[max_bin_by_feature: ]
[min_data_in_bin: 3]
[bin_construct_sample_cnt: 200000]
[data_random_seed: 175]
[is_enable_sparse: 1]
[enable_bundle: 1]
[use_missing: 1]
[zero_as_missing: 0]
[feature_pre_filter: 1]
[pre_partition: 0]
[two_round: 0]
[header: 0]
[label_column: ]
[weight_column: ]
[group_column: ]
[ignore_column: ]
[categorical_feature: ]
[forcedbins_filename: ]
[precise_float_parser: 0]
[parser_config_file: ]
[objective_seed: 16083]
[num_class: 1]
[is_unbalance: 0]
[scale_pos_weight: 1]
[sigmoid: 1]
[boost_from_average: 1]
[reg_sqrt: 0]
[alpha: 0.9]
[fair_c: 1]
[poisson_max_delta_step: 0.7]
[tweedie_variance_power: 1.5]
[lambdarank_truncation_level: 30]
[lambdarank_norm: 1]
[label_gain: ]
[lambdarank_position_bias_regularization: 0]
[eval_at: ]
[multi_error_top_k: 1]
[auc_mu_weights: ]
[num_machines: 1]
[local_listen_port: 12400]
[time_out: 120]
[machine_list_filename: ]
[machines: ]
[gpu_platform_id: -1]
[gpu_device_id: -1]
[gpu_device_id_list: ]
[gpu_use_dp: 0]
[num_gpu: 1]

end of parameters

pandas_categorical:[]
