tree
version=v4
num_class=1
num_tree_per_iteration=1
label_index=0
max_feature_idx=18
objective=regression
feature_names=ret_1 ret_5 ret_15 vwap_dev rvol vol_z atr_5 atr_15 rv_5 rv_annual rsi_14 macd macd_signal macd_hist ema_9_21_spread ema_slope high_dist_5 low_dist_5 minutes_into_session
feature_infos=[-0.015677687171702148:0.0097655982114690509] [-0.015690910556436122:0.013139667256442777] [-0.016330477290430023:0.013921463742473383] [-0.0079118014339674726:0.0060645637608415237] [0.10129423909246291:15.297327988996807] [-2.2805209086701552:4.2470239508918093] [0.067159999999989853:5.6134799999999361] [0.077386666666666312:2.3150733333332938] [0:0.0072283513829064254] [0:2.2660622193327189] [7.5813700558995976:90.005354300489273] [-2.9941801703616875:1.5715310164533776] [-2.4501411230506029:1.3807457908279961] [-1.3227458395538487:0.62701825053086135] [-0.0045251449473134682:0.0022560757757567008] [-0.0071149865152180247:0.003615073504743993] [0:0.016609799372185013] [0:0.029208551223345092] [0:329]
tree_sizes=2972 3058 3072 3064 3079 3060 3061 3086 3076 3101 3092 3086 3079 3062 3072 3050 3056 3052

Tree=0
num_leaves=31
num_cat=0
split_feature=7 18 7 7 7 14 11 12 12 15 18 18 6 12 7 18 7 14 18 6 7 12 11 12 18 18 7 7 12 12
split_gain=0.00391553 0.00110669 0.000621409 0.000224059 0.000196765 0.000116859 0.000112586 7.21647e-05 7.14918e-05 7.07795e-05 6.71927e-05 7.10176e-05 5.75442e-05 5.53847e-05 5.25868e-05 4.94792e-05 4.93395e-05 4.79229e-05 4.4837e-05 3.78268e-05 3.70748e-05 5.40095e-05 3.0951e-05 3.07482e-05 6.16998e-05 6.97874e-05 9.78726e-05 4.84192e-05 3.6479e-05 2.78833e-05
threshold=0.2990099999999985 54.500000000000007 0.96559000000000128 0.16223000000001475 0.5007900000000064 0.00029248747221585503 0.040042921375345493 -0.08476413572047968 -0.15046215637771729 2.9664346809399337e-05 167.50000000000003 263.50000000000006 0.33520000000000899 0.22944504898643345 0.27927999999999814 26.500000000000004 0.67740333333333269 -5.8845175899353271e-06 122.50000000000001 0.52140000000001707 0.22219666666665797 -0.10626308576371982 0.73677568110963432 -0.026984900809127372 102.50000000000001 199.50000000000003 0.3609666666666575 0.40409666666665017 -0.30120285418825948 -0.034101528338726983
decision_type=2 2 2 2 2 2 2 2 2 2 2 2 2 2 2 2 2 2 2 2 2 2 2 2 2 2 2 2 2 2
left_child=3 2 5 -1 9 7 10 16 -6 23 29 -12 -11 -9 -8 22 -2 -10 -14 -19 -13 -22 -7 24 -3 26 -26 -25 -27 -5
right_child=1 4 -4 6 8 15 14 13 17 12 11 20 18 -15 -16 -17 -18 19 -20 -21 21 -23 -24 27 25 28 -28 -29 -30 -31
leaf_value=0.002756537814601796 0.0029085593644453804 0.0028325946482546699 0.0030929342883228147 0.0028749063993905193 0.0028678118991261278 0.0029010879282873794 0.0027768429843112335 0.0029941798553957998 0.0029470043804420772 0.002815581316072143 0.0027853155830645645 0.0028443193463569254 0.0028223559980897692 0.0029342469824915145 0.0028181832968410614 0.0028759041214034007 0.002964632646099038 0.0028673036328994753 0.0028627699464313571 0.0029163725024977699 0.002833510478992956 0.0027723202233747067 0.0029508855951383842 0.0028274917114478452 0.0029599300315404659 0.0028895160275350228 0.0028782070156891846 0.0028763963888030764 0.0028386063865031923 0.0028228739908398755
leaf_weight=476 151 83 60 52 164 83 567 89 66 182 242 114 98 68 89 124 53 66 229 97 81 65 50 123 52 54 124 86 101 51
leaf_count=476 151 83 60 52 164 83 567 89 66 182 242 114 98 68 89 124 53 66 229 97 81 65 50 123 52 54 124 86 101 51
internal_value=0.0028419 0.00288616 0.00293931 0.00278577 0.00286253 0.00292439 0.0027968 0.00294274 0.00289301 0.00285195 0.00281236 0.00280481 0.00283812 0.00296822 0.00278245 0.00289863 0.00292313 0.00291106 0.00285066 0.0028965 0.00282295 0.00280627 0.00291981 0.00286325 0.00287114 0.00288081 0.00290235 0.00284762 0.00285634 0.00284914
internal_weight=3940 2203 678 1737 1525 618 1261 361 393 1132 605 502 509 157 656 257 204 229 327 163 260 146 133 623 414 331 176 209 155 103
internal_count=3940 2203 678 1737 1525 618 1261 361 393 1132 605 502 509 157 656 257 204 229 327 163 260 146 133 623 414 331 176 209 155 103
is_linear=0
shrinkage=1


Tree=1
num_leaves=31
num_cat=0
split_feature=7 18 7 3 7 3 11 12 7 3 10 18 18 18 3 6 6 11 6 18 12 7 8 3 6 10 3 6 7 18
split_gain=0.00353377 0.000998929 0.000577806 0.000270612 0.000161415 0.000127845 8.5296e-05 9.2543e-05 8.23221e-05 8.02458e-05 7.12754e-05 6.02854e-05 5.49821e-05 5.13117e-05 7.73522e-05 4.95025e-05 4.74751e-05 4.51342e-05 4.05591e-05 4.03095e-05 6.9944e-05 0.000109299 4.27106e-05 3.75641e-05 3.40648e-05 3.07168e-05 3.28954e-05 2.94181e-05 2.91249e-05 2.84178e-05
threshold=0.2990099999999985 58.500000000000007 0.96559000000000128 0.001275697261097528 0.5007900000000064 0.0017808634930298261 0.26934678322447786 -0.067934190045344109 0.16366333333334074 -0.0016559989673983519 51.959551144943099 184.50000000000003 104.50000000000001 270.50000000000006 0.0005555620774470555 0.59799999999999065 0.60811999999999677 0.19301123585012195 0.33231000000000682 202.50000000000003 -0.023176857566928059 0.35406666666667291 0.00037514583692689081 -0.00022067971721851013 0.5112999999999831 56.450118723961118 0.0023105831797122964 0.69651000000000074 0.45057000000001612 302.50000000000006
decision_type=2 2 2 2 2 2 2 2 2 2 2 2 2 2 2 2 2 2 2 2 2 2 2 2 2 2 2 2 2 2
left_child=3 2 6 9 10 27 7 16 -5 11 12 -1 23 14 -11 28 -2 24 -12 20 21 -14 -21 -3 -9 26 -10 -6 -8 -13
right_child=1 4 -4 8 5 -7 15 17 25 13 18 29 19 -15 -16 -17 -18 -19 -20 22 -22 -23 -24 -25 -26 -27 -28 -29 -30 -31
leaf_value=5.4055309919931455e-07 5.5341363112180065e-05 -3.0699799563365107e-05 0.00023945995625884584 -8.2974960792908499e-05 2.2464741106781555e-05 9.9223296355494705e-05 6.858127797734008e-05 0.0001695687067549443 -3.1757150977935253e-05 5.4680017984494399e-06 -2.6530059284222935e-05 -7.4705334450949788e-05 0.00011478262100286816 1.2459331595390066e-05 -5.3528071346251748e-05 9.0584333677363923e-05 0.00010100429142687143 8.1729680565331361e-05 5.5376074206959006e-06 8.9372610562137654e-07 -5.1253988564948326e-06 3.3298932667199194e-05 4.8189348354926985e-05 2.3888148339560408e-05 0.00011409961306555724 -6.5407577034130851e-05 -6.5760584740174799e-05 6.3190512602367179e-05 2.7920869237823356e-05 -3.2411705457638288e-05
leaf_weight=50 152 80 60 462 213 92 68 50 198 105 156 126 54 145 118 73 91 50 268 197 68 173 63 52 62 364 111 56 125 58
leaf_count=50 152 80 60 462 213 92 68 50 198 105 156 126 54 145 118 73 91 50 268 197 68 173 63 52 62 364 111 56 125 58
internal_value=9.7743e-07 4.30243e-05 9.0802e-05 -5.23497e-05 1.92977e-05 4.8344e-05 7.75092e-05 9.19565e-05 -6.67226e-05 -2.52513e-05 9.85961e-06 -4.81441e-05 1.98088e-05 -1.06945e-05 -2.57497e-05 5.55124e-05 7.24415e-05 0.000121229 -6.26087e-06 2.67071e-05 3.93575e-05 5.26827e-05 1.23538e-05 -9.19546e-06 0.000138863 -5.55657e-05 -4.3972e-05 3.0943e-05 4.22468e-05 -6.13736e-05
internal_weight=3940 2203 731 1737 1472 361 671 405 1135 602 1111 234 687 368 223 266 243 162 424 555 295 227 260 132 112 673 309 269 193 184
internal_count=3940 2203 731 1737 1472 361 671 405 1135 602 1111 234 687 368 223 266 243 162 424 555 295 227 260 132 112 673 309 269 193 184
is_linear=0
shrinkage=0.05


Tree=2
num_leaves=31
num_cat=0
split_feature=6 18 3 14 6 14 14 12 18 18 3 6 8 3 10 11 18 12 8 6 17 18 3 18 10 14 12 18 6 11
split_gain=0.0030377 0.000848849 0.000317396 0.000239233 0.000125986 0.000125147 9.66879e-05 7.84033e-05 7.81425e-05 0.000110181 8.29389e-05 6.29677e-05 6.28852e-05 6.33485e-05 5.49307e-05 4.95918e-05 7.54313e-05 3.73581e-05 3.10034e-05 2.96945e-05 2.94467e-05 2.5759e-05 2.6491e-05 2.54529e-05 2.31897e-05 2.05473e-05 1.94748e-05 1.92744e-05 1.91936e-05 1.99755e-05
threshold=0.3079999999999814 58.500000000000007 0.0014491761859867162 -0.0011198617052282681 0.68645999999998841 0.0010687021808859726 0.00029248747221585503 -0.11210385954625841 180.50000000000003 250.50000000000003 -0.0012739266239226827 0.15099000000000162 0.00034657922941629533 -0.0023119576021459498 50.340860980833597 -0.044068867821977158 86.500000000000014 0.22944504898643345 0.00018007142212888051 0.60811999999999677 0.00077739664329572482 106.50000000000001 0.0025647979121817478 128.50000000000003 57.399267557879291 0.0007134454184480343 0.023180185086036729 271.50000000000006 0.33400000000000324 -0.053729297790027879
decision_type=2 2 2 2 2 2 2 2 2 2 2 2 2 2 2 2 2 2 2 2 2 2 2 2 2 2 2 2 2 2
left_child=2 3 8 -2 12 6 7 19 15 -10 -11 -4 18 -14 -15 -1 -17 -9 -3 -5 -8 -13 26 24 -16 -22 -23 -12 29 -20
right_child=1 4 11 5 -6 -7 20 17 9 10 27 21 13 14 23 16 -18 -19 28 -21 25 22 -24 -25 -26 -27 -28 -29 -30 -31
leaf_value=3.4989039558027637e-05 0.00019012173568346325 3.2490851264461674e-05 -7.9700663639358039e-05 5.2288866626002817e-05 7.8861194422296692e-05 0.00014566148097473492 6.6872964679431693e-05 0.00012985691803542323 -6.4662075035610346e-05 -4.4697340168308333e-05 -1.9986164076023138e-05 -2.1479632996488364e-05 3.0279403257802058e-06 6.1888573084314624e-05 2.7663714725869278e-05 3.8312182048684919e-05 -3.5059110118748082e-05 8.2024594942622849e-05 1.0626068371022014e-05 9.3639044791871129e-05 4.596308243962037e-05 -3.056011215513926e-05 -6.7820484765131802e-05 4.3603657021928178e-05 -1.5945891176569505e-05 4.9372596023721261e-06 -5.566463172704884e-05 1.5348075366456588e-05 7.0244414813520422e-06 -2.768326515291372e-05
leaf_weight=79 52 99 371 135 84 63 90 107 171 140 53 55 167 163 70 50 117 66 54 64 76 112 309 90 54 51 249 142 515 92
leaf_count=79 52 99 371 135 84 63 90 107 171 140 53 55 167 163 70 50 117 66 54 64 76 112 309 90 54 51 249 142 515 92
internal_value=9.28559e-07 4.21919e-05 -4.5783e-05 8.6913e-05 1.95091e-05 7.86817e-05 7.15174e-05 8.69898e-05 -2.07671e-05 -3.20053e-05 -1.53357e-05 -6.29472e-05 1.56858e-05 2.8664e-05 4.002e-05 2.34889e-06 -1.30917e-05 0.000111609 6.39622e-06 6.55874e-05 4.49934e-05 -5.4374e-05 -5.70743e-05 2.33631e-05 8.67243e-06 2.94881e-05 -4.7876e-05 5.74441e-06 2.48795e-06 -1.35141e-05
internal_weight=3940 2092 1848 704 1388 652 589 372 752 506 335 1096 1304 544 377 246 167 173 760 199 217 725 670 214 124 127 361 195 661 146
internal_count=3940 2092 1848 704 1388 652 589 372 752 506 335 1096 1304 544 377 246 167 173 760 199 217 725 670 214 124 127 361 195 661 146
is_linear=0
shrinkage=0.05


Tree=3
num_leaves=31
num_cat=0
split_feature=7 18 7 3 7 3 14 7 3 10 3 11 18 5 18 18 3 13 6 18 18 11 7 18 10 3 13 3 10 3
split_gain=0.00290227 0.000819113 0.000482417 0.000218384 0.00014704 9.72967e-05 8.96428e-05 6.79585e-05 6.77209e-05 6.46102e-05 4.81302e-05 7.00247e-05 4.80815e-05 4.56412e-05 4.31539e-05 4.2855e-05 6.60172e-05 3.91675e-05 3.80705e-05 3.78015e-05 3.76271e-05 3.39774e-05 4.13282e-05 3.12582e-05 3.02767e-05 2.92256e-05 2.88517e-05 2.8419e-05 2.64724e-05 2.73707e-05
threshold=0.2990099999999985 54.500000000000007 0.96559000000000128 0.001275697261097528 0.5007900000000064 0.0017808634930298261 0.00029248747221585503 0.16366333333334074 -0.0016559989673983519 51.959551144943099 -0.0019663225579557831 -0.38220317841711443 184.50000000000003 0.045235936745515883 26.500000000000004 270.50000000000006 0.0005555620774470555 -0.028584776903462162 0.33231000000000682 108.50000000000001 172.50000000000003 -0.092977673147061055 0.67740333333333269 215.50000000000003 63.726080839026565 -0.0044058531788272789 -0.0068939322067800282 0.00097038850497553554 56.450118723961118 0.0023105831797122964
decision_type=2 2 2 2 2 2 2 2 2 2 2 2 2 2 2 2 2 2 2 2 2 2 2 2 2 2 2 2 2 2
left_child=3 2 6 8 9 17 21 -5 12 10 19 -12 -1 26 27 16 -10 -6 -11 -3 -21 22 -2 -22 -16 -25 -13 -8 29 -9
right_child=1 4 -4 7 5 -7 14 28 15 18 11 13 -14 -15 24 -17 -18 -19 -20 20 23 -23 -24 25 -26 -27 -28 -29 -30 -31
leaf_value=-6.5436371187388432e-07 6.0423372780628564e-05 -3.1867190815708976e-05 0.00022007065286743454 -7.51239962742797e-05 5.7103781906143441e-05 8.8172142368281994e-05 4.997234702329934e-05 -2.8315514846510289e-05 5.3512810076686691e-06 -2.503294734339079e-05 8.6165111975324371e-05 -1.0933713591619535e-06 -5.594773544307036e-05 5.4029852673022027e-05 5.0570578020339253e-05 1.1430164941759421e-05 -4.9151087565960706e-05 1.8112515321035971e-05 5.6831987933283983e-06 3.9876978525070531e-05 -2.2080753122453952e-05 0.00010593547480580403 0.0001087290123544494 -3.6487016533261774e-06 9.9583730365051639e-07 4.670749426441035e-05 3.933941876429374e-05 9.7180526919609698e-05 -5.9357108329879919e-05 -5.9332397153297168e-05
leaf_weight=50 149 56 60 462 95 98 80 198 105 160 51 153 184 84 67 145 118 200 273 90 85 149 63 68 57 50 62 53 364 111
leaf_count=50 149 56 60 462 95 98 80 198 105 160 51 153 184 84 67 145 118 200 273 90 85 149 63 68 57 50 62 53 364 111
internal_value=8.8213e-07 3.89872e-05 8.47124e-05 -4.74458e-05 1.86583e-05 4.50082e-05 7.15708e-05 -6.03574e-05 -2.31024e-05 9.51033e-06 1.89119e-05 3.20134e-05 -4.41329e-05 2.27768e-05 4.90014e-05 -9.72981e-06 -2.34885e-05 3.0669e-05 -5.66688e-06 5.77296e-06 1.2967e-05 8.76382e-05 7.47784e-05 1.03645e-06 2.77822e-05 1.76887e-05 1.05663e-05 6.87846e-05 -5.02204e-05 -3.94575e-05
internal_weight=3940 2203 678 1737 1525 393 618 1135 602 1132 699 350 234 299 257 368 223 295 433 349 293 361 212 203 124 118 215 133 673 309
internal_count=3940 2203 678 1737 1525 393 618 1135 602 1132 699 350 234 299 257 368 223 295 433 349 293 361 212 203 124 118 215 133 673 309
is_linear=0
shrinkage=0.05


Tree=4
num_leaves=31
num_cat=0
split_feature=7 7 6 3 3 12 8 7 3 13 13 7 12 13 3 12 11 11 6 3 6 7 3 10 3 14 12 10 7 16
split_gain=0.0026193 0.000730143 0.000294617 0.000197091 9.72583e-05 9.65931e-05 8.22553e-05 6.13326e-05 6.11181e-05 4.54224e-05 4.35263e-05 6.49102e-05 4.24825e-05 4.14015e-05 4.09495e-05 3.59262e-05 3.55956e-05 3.47977e-05 3.29615e-05 5.79593e-05 3.59898e-05 3.20746e-05 2.77621e-05 2.38914e-05 2.47021e-05 2.21967e-05 2.17403e-05 3.01092e-05 2.59716e-05 2.13064e-05
threshold=0.2990099999999985 0.96559000000000128 0.56282999999999683 0.001275697261097528 -0.0022070072607708363 -0.37277308139237603 0.00024960097188135019 0.16366333333334074 -0.0016559989673983519 0.070668522092652911 -0.051044845336839235 0.76979333333332167 0.53490957931859284 0.16527565341530157 0.0018528468051708252 -0.08476413572047968 -0.18451125623863615 -0.0096740036715345906 0.41400000000002141 0.0015176756390988401 0.35847000000001122 0.57509666666666903 0.0005555620774470555 56.450118723961118 0.0023105831797122964 0.00050538294586147667 -0.40708975138939868 40.931622523257388 0.4213000000000004 0.0011686791034982397
decision_type=2 2 2 2 2 2 2 2 2 2 2 2 2 2 2 2 2 2 2 2 2 2 2 2 2 2 2 2 2 2
left_child=3 2 4 8 26 -6 14 -5 -1 12 15 13 18 16 -7 -4 -12 -10 19 20 -8 -18 -19 24 -9 -11 -2 -28 -29 -20
right_child=1 -3 10 7 5 6 9 23 17 25 11 -13 -14 -15 -16 -17 21 22 29 -21 -22 -23 -24 -25 -26 -27 27 28 -30 -31
leaf_value=-4.1926266175339241e-05 -1.8539099463634682e-05 0.00020906711373148333 6.3004428867506065e-05 -7.1367794172261289e-05 7.5365691977516202e-05 1.6108626375529975e-05 7.752993750868819e-05 -2.6899739600211696e-05 2.5973301029358933e-06 1.6177930485355319e-06 1.8521969381551502e-05 9.2592779361527907e-05 5.2256034404878725e-06 1.9607969045195341e-06 -2.069341843204349e-05 0.00010696358109845805 4.4778826718862148e-05 -8.440412649652235e-06 5.1018833204352632e-05 -2.3230982458551663e-06 2.8021167585248313e-05 9.841210910235533e-05 -5.3602127018310725e-05 -5.6389254080256385e-05 -5.6365778256624076e-05 3.4735454115862547e-05 2.8057365080483456e-05 -1.599016070667199e-05 2.2754128277332108e-05 8.3466801593075761e-05
leaf_weight=234 103 60 91 462 104 284 71 198 231 125 52 82 67 53 103 95 63 74 176 74 76 50 63 364 111 85 117 138 63 71
leaf_count=234 103 60 91 462 104 284 71 198 231 125 52 82 67 53 103 95 63 74 176 74 76 50 63 364 111 85 117 138 63 71
internal_value=8.38024e-07 3.70379e-05 3.22214e-05 -4.50735e-05 2.21811e-05 2.92509e-05 2.50142e-05 -5.73395e-05 -2.19473e-05 3.47284e-05 6.64533e-05 5.46711e-05 4.24634e-05 4.0407e-05 6.31377e-06 8.54567e-05 5.27564e-05 -9.24332e-06 4.77944e-05 3.37662e-05 5.19336e-05 6.85104e-05 -2.92082e-05 -4.77094e-05 -3.74846e-05 1.50226e-05 1.4253e-06 7.89176e-06 -3.84643e-06 6.0346e-05
internal_weight=3940 2203 2143 1737 1657 1236 1132 1135 602 745 486 300 535 218 387 186 165 368 468 221 147 113 137 673 309 210 421 318 201 247
internal_count=3940 2203 2143 1737 1657 1236 1132 1135 602 745 486 300 535 218 387 186 165 368 468 221 147 113 137 673 309 210 421 318 201 247
is_linear=0
shrinkage=0.05


Tree=5
num_leaves=31
num_cat=0
split_feature=7 7 18 3 7 3 3 11 3 18 4 3 4 13 7 12 7 7 7 1 3 18 18 18 18 7 3 18 18 3
split_gain=0.00232793 0.000712977 0.000421405 0.000157446 0.000127769 7.60855e-05 6.53261e-05 6.16813e-05 5.41669e-05 6.07376e-05 5.36265e-05 5.28441e-05 6.64413e-05 5.82723e-05 5.13047e-05 5.07868e-05 4.94648e-05 4.56669e-05 6.55925e-05 3.76959e-05 3.64022e-05 3.44406e-05 3.816e-05 3.38906e-05 5.43719e-05 3.15803e-05 3.07399e-05 2.51697e-05 2.40198e-05 2.38263e-05
threshold=0.29731333333334842 0.96559000000000128 54.500000000000007 0.001275697261097528 0.48969666666669137 0.0017598072411759719 0.0028057965772537367 -0.001336822667610704 -0.0015011257674450342 183.50000000000003 0.58482065183727172 -0.0019212075850789845 0.99316138570875589 -0.0075233688385512717 0.15734333333334313 0.0051676833387164622 0.44373333333334514 0.63495416666667204 0.44373333333334514 0.00032000640765206262 0.00097038850497553554 26.500000000000004 14.500000000000002 112.50000000000001 181.50000000000003 0.61277666666667685 0.00017523213483041635 245.50000000000003 304.50000000000006 0.0039794273060760419
decision_type=2 2 2 2 2 2 2 2 2 2 2 2 2 2 2 2 2 2 2 2 2 2 2 2 2 2 2 2 2 2
left_child=3 2 6 8 7 -6 10 11 9 -1 21 19 13 -13 -5 -10 20 18 -12 23 -9 22 25 -4 -25 -2 -20 -26 -11 -16
right_child=1 -3 4 14 5 -7 -8 16 15 28 17 12 -14 -15 29 -17 -18 -19 26 -21 -22 -23 -24 24 27 -27 -28 -29 -30 -31
leaf_value=9.3272088793412433e-06 7.53645489634504e-05 0.00020828056232156153 -2.354099466208696e-05 -6.8270631793028032e-05 2.5944800051172302e-05 7.4085117080972568e-05 1.7995339857666945e-05 9.375072520130231e-07 5.1069851093407839e-06 -6.2375871988479061e-05 0.00010287031240580952 -8.3502488427177969e-06 6.5146766641504148e-05 4.5200437245392217e-05 -4.3716718430015897e-05 -3.5214416609841337e-05 2.4150376539553841e-05 0.00011634264585968357 3.1429691531695087e-05 -2.5943856146434829e-05 -3.0372768886232583e-05 1.9817607437389031e-05 9.762031381291713e-05 5.3121204253817807e-05 -1.5798516136347956e-05 2.3806085136074577e-05 7.7834765323907479e-05 2.8935970801160465e-05 -2.2940752904787588e-05 -7.8530483050650771e-05
leaf_weight=50 54 57 53 415 315 111 70 174 217 150 102 115 99 91 676 122 98 76 86 85 199 64 54 82 82 66 61 51 52 53
leaf_count=50 54 57 53 415 315 111 70 174 217 150 102 115 99 91 676 122 98 76 86 85 199 64 54 82 82 66 61 51 52 53
internal_value=8.73818e-08 3.3704e-05 2.91561e-05 -4.34108e-05 1.5156e-05 3.84884e-05 6.35483e-05 6.35205e-06 -2.2455e-05 -4.00117e-05 6.92121e-05 1.62398e-05 3.14836e-05 1.53056e-05 -5.42368e-05 -9.40396e-06 -7.4614e-06 8.24175e-05 7.20628e-05 3.06882e-06 -1.57669e-05 5.11795e-05 6.27149e-05 1.22706e-05 2.10986e-05 4.70074e-05 5.06862e-05 1.35531e-06 -5.22243e-05 -4.62478e-05
internal_weight=3980 2245 2188 1735 1555 426 633 1129 591 252 563 658 305 206 1144 339 471 325 249 353 373 238 174 268 215 120 147 133 202 729
internal_count=3980 2245 2188 1735 1555 426 633 1129 591 252 563 658 305 206 1144 339 471 325 249 353 373 238 174 268 215 120 147 133 202 729
is_linear=0
shrinkage=0.05


Tree=6
num_leaves=31
num_cat=0
split_feature=7 7 18 3 7 3 14 18 12 10 3 18 7 12 4 3 18 7 3 18 3 12 18 13 3 3 4 7 10 12
split_gain=0.00210095 0.000643462 0.000380986 0.000142095 0.000100117 8.19745e-05 6.94891e-05 7.93114e-05 6.98927e-05 5.15149e-05 4.88857e-05 5.48157e-05 4.63025e-05 4.58351e-05 3.73602e-05 3.88691e-05 3.09467e-05 5.84191e-05 3.76022e-05 3.66285e-05 3.51103e-05 3.32238e-05 3.04027e-05 4.60069e-05 4.06407e-05 3.01449e-05 2.82939e-05 2.32943e-05 2.32632e-05 2.21742e-05
threshold=0.29731333333334842 0.96559000000000128 60.500000000000007 0.001275697261097528 0.48969666666669137 0.0018199619991195362 0.00029248747221585503 28.500000000000004 -0.067934190045344109 43.763200184970891 -0.0015011257674450342 183.50000000000003 0.15734333333334313 0.0051676833387164622 0.61014361369727743 0.00017523213483041635 124.50000000000001 0.39195333333333721 0.0022169781225722923 179.50000000000003 -0.0020982440470605061 -0.024866367792058131 102.50000000000001 -0.047174563979683941 -0.002394305690123067 0.00069301028040471906 0.44961697223619029 0.28319999999999185 60.589265568451445 -0.56363441722329199
decision_type=2 2 2 2 2 2 2 2 2 2 2 2 2 2 2 2 2 2 2 2 2 2 2 2 2 2 2 2 2 2
left_child=3 2 6 10 9 -6 8 26 29 22 11 -1 -5 -12 -10 -16 -11 18 20 -19 -18 -22 -4 -24 -25 -23 -8 -14 -9 -2
right_child=1 -3 4 12 5 -7 7 28 14 16 13 -13 27 -15 15 -17 17 19 -20 -21 21 25 23 24 -26 -27 -28 -29 -30 -31
leaf_value=8.8608486220493883e-06 8.095496875033986e-05 0.0001978665360431414 -1.0675753413703538e-05 -6.485709811824498e-05 2.1636899202681079e-05 7.4819288785912084e-05 4.0293095337577712e-05 3.7357670879390318e-05 5.9037260398326908e-05 -1.742113831366399e-05 4.8516351249787053e-06 -4.9613045664072798e-05 -4.6825276951536086e-05 -3.3453695558274958e-05 8.322649233551126e-05 0.00013995232821869272 -2.6179130743431656e-05 5.5884167542332596e-05 -4.739467596069657e-05 9.6512304343884824e-06 4.5659698252217464e-05 2.506035507751364e-05 8.6637994648780857e-06 2.2478140121853449e-05 7.415070314225529e-05 -2.8075714966949558e-05 8.3621722489942308e-05 -1.6292801471233059e-05 -4.6091000823413633e-06 4.565595327007393e-05
leaf_weight=50 58 57 66 415 278 98 69 54 50 231 217 202 660 122 63 58 87 69 52 113 53 51 170 82 71 56 83 69 85 191
leaf_count=50 58 57 66 415 278 98 69 54 50 231 217 202 660 122 63 58 87 69 52 113 53 51 170 82 71 56 83 69 85 191
internal_value=8.3013e-08 3.20188e-05 2.76983e-05 -4.12403e-05 1.32224e-05 3.54983e-05 5.77699e-05 3.8991e-05 7.07811e-05 5.61504e-06 -2.13322e-05 -3.80111e-05 -5.1525e-05 -8.93376e-06 9.5394e-05 0.000110417 -2.3792e-06 4.84468e-06 -8.75019e-06 2.71791e-05 -6.14503e-07 1.32863e-05 2.02472e-05 2.65658e-05 4.64569e-05 -2.74918e-06 6.39528e-05 -4.39354e-05 1.16945e-05 5.38782e-05
internal_weight=3980 2245 2188 1735 1477 376 711 291 420 1101 591 252 1144 339 171 121 712 481 299 182 247 160 389 323 153 107 152 729 139 249
internal_count=3980 2245 2188 1735 1477 376 711 291 420 1101 591 252 1144 339 171 121 712 481 299 182 247 160 389 323 153 107 152 729 139 249
is_linear=0
shrinkage=0.05


Tree=7
num_leaves=31
num_cat=0
split_feature=7 7 6 3 3 3 8 2 3 5 15 7 12 7 7 2 2 12 8 6 3 1 7 11 7 12 12 5 6 3
split_gain=0.00189611 0.000583769 0.000205734 0.000128241 6.83019e-05 8.6476e-05 5.51539e-05 6.14486e-05 4.41193e-05 4.33293e-05 4.66718e-05 4.1788e-05 4.13662e-05 3.66565e-05 3.43148e-05 3.20407e-05 2.95453e-05 4.30878e-05 2.76861e-05 2.13405e-05 2.13011e-05 2.00216e-05 1.79064e-05 1.77322e-05 1.75095e-05 1.73019e-05 1.84616e-05 1.93843e-05 1.69875e-05 1.91409e-05
threshold=0.29731333333334842 0.93143333333333289 0.56282999999999683 0.001275697261097528 -0.0022070072607708363 0.0024154397622233644 0.00024960097188135019 0.00041431685272330659 -0.0015011257674450342 -0.020734905646305101 0.00023379064941286834 0.15734333333334313 0.0051676833387164622 0.37632999999999212 0.44373333333334514 0.0011151045676439655 0.0031038385374072557 0.38486626412745822 0.00020191748702580439 0.34136999999998358 0.0039794273060760419 0.00032000640765206262 0.41646999999998496 -0.098558792542348769 0.28319999999999185 -0.39357275195314284 -0.15986968898406209 -0.91235633369476454 0.44200000000001871 0.00089947235680287209
decision_type=2 2 2 2 2 2 2 2 2 2 2 2 2 2 2 2 2 2 2 2 2 2 2 2 2 2 2 2 2 2
left_child=3 2 4 8 21 6 7 18 -1 25 13 -5 23 -11 -7 -9 17 -4 -6 -20 24 -2 -23 -10 -13 -8 -27 -28 29 -29
right_child=1 -3 16 11 5 14 9 15 12 10 -12 20 -14 -15 -16 -17 -18 -19 19 -21 -22 22 -24 -25 -26 26 27 28 -30 -31
leaf_value=-3.6110527851981659e-05 6.2944421183266878e-06 0.00016662671715182928 5.3022489351543975e-05 -6.1614244047950167e-05 4.7227954524916736e-05 -2.5230617415501843e-05 5.7283994010504102e-05 -3.940575563554435e-05 -8.7278002066059045e-06 0.0001032161553341991 1.6609006082223958e-05 -4.2058527011720067e-05 -3.1781011220580874e-05 5.2114690173224747e-05 1.4628934073596475e-05 8.8875637877870091e-06 1.9028962781074091e-05 0.0001015976514911297 -1.1301664003090432e-05 3.3375087845012207e-05 -7.2262693974376168e-05 -3.9640019324976427e-05 2.0570555748503573e-06 1.9926629483781637e-05 -1.5478161478076011e-05 4.0166533953988742e-06 5.3415684735862096e-05 3.1265814994122631e-05 3.9971868246303671e-05 -2.4030233157091285e-06
leaf_weight=252 326 76 374 415 112 109 50 62 116 56 53 607 122 94 107 77 52 52 52 55 53 52 51 101 69 77 76 87 113 82
leaf_count=252 326 76 374 415 112 109 50 62 116 56 53 607 122 94 107 77 52 52 52 55 53 52 51 101 69 77 76 87 113 82
internal_value=7.88624e-08 3.04179e-05 2.56453e-05 -3.91783e-05 1.74581e-05 2.33169e-05 2.92646e-05 1.33482e-05 -2.02656e-05 3.75467e-05 5.69417e-05 -4.89487e-05 -8.48708e-06 7.11926e-05 -5.48538e-06 -1.26533e-05 5.46088e-05 5.89519e-05 2.98515e-05 1.1663e-05 -4.17386e-05 2.22883e-07 -1.89939e-05 4.60905e-06 -3.93454e-05 2.94288e-05 2.62271e-05 3.10042e-05 2.49642e-05 1.49295e-05
internal_weight=3980 2245 2169 1735 1691 1262 1046 358 591 688 203 1144 339 150 216 139 478 426 219 107 729 429 103 217 676 485 435 358 282 169
internal_count=3980 2245 2169 1735 1691 1262 1046 358 591 688 203 1144 339 150 216 139 478 426 219 107 729 429 103 217 676 485 435 358 282 169
is_linear=0
shrinkage=0.05


Tree=8
num_leaves=31
num_cat=0
split_feature=7 7 6 3 3 3 12 8 12 4 3 7 13 7 12 2 7 3 7 13 6 13 15 12 3 7 8 2 2 1
split_gain=0.00171124 0.000531605 0.000207659 0.000115738 5.75191e-05 6.83323e-05 4.83744e-05 4.90387e-05 4.56243e-05 3.99287e-05 3.98177e-05 3.94231e-05 3.7714e-05 3.77137e-05 3.7333e-05 3.23658e-05 3.20971e-05 3.02423e-05 2.9819e-05 4.37186e-05 3.25236e-05 2.78729e-05 2.77264e-05 2.61311e-05 2.65512e-05 3.58457e-05 2.22399e-05 2.12449e-05 1.99625e-05 1.97679e-05
threshold=0.29731333333334842 0.96559000000000128 0.5330000000000269 0.001275697261097528 -0.0022070072607708363 0.0023649883921141751 -0.37277308139237603 0.00025467630980882395 0.51224536019666111 0.95616978722361767 -0.0015011257674450342 0.4460033333333438 0.045821671221237571 0.15734333333334313 0.0051676833387164622 0.00045503571660132641 0.44373333333334514 0.00010860296636727986 0.75628666666666888 -0.040319006439899586 0.78985000000001271 -0.11084962680765557 -0.00054370174549062112 -0.051348717498303123 0.00082773879618757893 0.41646999999998496 0.00018538205965971035 0.0011151045676439655 0.0021017919144890045 0.00032000640765206262
decision_type=2 2 2 2 2 2 2 2 2 2 2 2 2 2 2 2 2 2 2 2 2 2 2 2 2 2 2 2 2 2
left_child=3 2 4 10 29 6 -6 11 18 21 -1 15 17 -5 -12 26 -7 -11 19 22 -20 -9 -4 -23 -25 -26 -8 -17 -21 -2
right_child=1 -3 8 13 5 16 7 9 -10 12 14 -13 -14 -15 -16 27 -18 -19 20 28 -22 23 -24 24 25 -27 -28 -29 -30 -31
leaf_value=-3.4305001639632607e-05 5.8242767267654221e-06 0.00017964187335038379 3.7419300771661431e-05 -5.8533532412337704e-05 6.0895099072018024e-05 -2.2968545174758708e-05 3.8753473562956359e-05 -1.0842157269927647e-05 9.4306673256344068e-05 4.0191791447733558e-05 4.3786007409931686e-06 4.3421007027903287e-05 1.6104420585459313e-05 -3.9651673131815543e-05 -3.0191960136331456e-05 -4.3398967988231075e-05 1.6655928903732121e-05 8.9338449807281216e-05 4.3625700237726056e-05 3.4471455760564267e-05 9.5802326830250555e-05 7.3988575073746339e-06 7.9053851968428833e-05 5.67815363984726e-05 -7.7523623977632042e-06 4.8625001181790142e-05 1.4470681435341249e-07 -1.0772219325915195e-06 1.3469798401880933e-06 -1.9672698545036838e-05
leaf_weight=252 317 57 74 415 94 112 61 52 54 58 217 65 52 729 122 52 94 68 64 188 56 99 87 103 54 59 96 69 60 100
leaf_count=252 317 57 74 415 94 112 61 52 54 58 217 65 52 729 122 52 94 68 64 188 56 99 87 103 54 59 96 69 60 100
internal_value=7.49191e-08 2.8897e-05 2.49699e-05 -3.72194e-05 1.56863e-05 2.12942e-05 2.67864e-05 2.31758e-05 5.05278e-05 3.24973e-05 -1.92523e-05 8.36485e-06 5.19302e-05 -4.65013e-05 -8.06272e-06 1.6827e-07 -4.88747e-06 6.67154e-05 4.60589e-05 3.96288e-05 6.79748e-05 2.3072e-05 5.99175e-05 2.86706e-05 3.84201e-05 2.16836e-05 1.51456e-05 -1.92651e-05 2.64575e-05 -2.90106e-07
internal_weight=3980 2245 2188 1735 1605 1188 982 888 583 545 591 343 178 1144 339 278 206 126 529 409 120 367 161 315 216 113 157 121 248 417
internal_count=3980 2245 2188 1735 1605 1188 982 888 583 545 591 343 178 1144 339 278 206 126 529 409 120 367 161 315 216 113 157 121 248 417
is_linear=0
shrinkage=0.05


Tree=9
num_leaves=31
num_cat=0
split_feature=6 6 3 12 11 3 6 3 3 12 11 11 8 6 4 12 3 12 12 12 11 3 13 16 12 13 0 5 10 2
split_gain=0.00143112 0.000310709 0.000191791 0.000105345 9.90236e-05 8.40446e-05 7.76138e-05 7.50975e-05 5.1969e-05 4.20645e-05 6.67318e-05 3.12891e-05 2.38707e-05 2.31936e-05 2.97619e-05 2.41917e-05 2.41549e-05 2.25847e-05 2.52751e-05 2.76522e-05 2.05439e-05 2.09812e-05 2.03185e-05 1.95612e-05 1.78191e-05 1.74171e-05 1.63822e-05 1.54014e-05 1.53271e-05 1.88237e-05
threshold=0.33520000000000899 0.59799999999999065 0.0010077252103839337 0.47078016415476182 -0.93013067557285456 -0.0023119576021459498 0.21869999999998985 -0.0015011257674450342 0.0026650048700822561 -0.0075145490371957167 -0.079113457554569763 -0.092977673147061055 0.00030271610583588489 0.26499000000000034 0.64879848315182764 -0.020027241462585544 -0.00011144709618923863 -0.37277308139237603 -0.072269506219729926 0.0097531130868529301 0.044188046528290677 0.0018199619991195362 -0.013019641884630435 0.00023245928789296169 -0.082585081755582213 -0.11084962680765557 -0.00056990883232366219 -0.58820807976619427 39.296693194608899 0.0021017919144890045
decision_type=2 2 2 2 2 2 2 2 2 2 2 2 2 2 2 2 2 2 2 2 2 2 2 2 2 2 2 2 2 2
left_child=2 5 7 4 -3 -2 20 11 17 10 -8 -1 -10 15 -15 24 -16 -7 23 -20 21 22 -4 -19 -9 -21 -6 -27 -28 -30
right_child=1 3 6 -5 26 8 9 13 12 -11 -12 -13 -14 14 16 -17 -18 18 19 25 -22 -23 -24 -25 -26 27 28 -29 29 -31
leaf_value=-2.7214416970592468e-06 3.3792870201684853e-08 0.00012471412960076125 -4.1590612136854958e-05 0.00013087618556140008 7.2437368814257019e-05 5.4291930570928216e-05 -3.255235979373711e-05 -4.6868204202231336e-06 -2.3809472687559211e-05 -3.1356502490738536e-05 4.3194062520881376e-05 -3.4257141605613812e-05 1.6444928266017604e-05 -9.8720566384145069e-06 9.7750838249339737e-06 -2.5192573143916284e-05 5.5554909891618407e-05 -6.1207472219179827e-06 5.9462544559570269e-05 1.1619087382541693e-05 -5.4439870159146904e-05 -4.8187093545892845e-05 -5.7733530662391846e-07 2.5002641453339696e-05 3.3847956859972329e-05 5.0883037371615304e-05 1.9830996734526707e-05 2.8052881929154613e-05 5.8656156479344194e-05 2.5407255017445755e-05
leaf_weight=119 366 50 63 59 62 105 63 75 59 436 54 232 98 50 50 75 68 68 101 96 522 205 58 196 50 112 53 217 160 58
leaf_count=119 366 50 63 59 62 105 63 75 59 436 54 232 98 50 50 75 68 68 101 96 522 205 58 196 50 112 53 217 160 58
internal_value=7.11732e-08 3.20806e-05 -2.80125e-05 6.86836e-05 5.91031e-05 2.06712e-05 -3.87862e-05 -7.01972e-06 2.78511e-05 -2.42129e-05 2.40753e-06 -2.35656e-05 1.31748e-06 8.76176e-06 2.24577e-05 -2.74278e-06 3.61567e-05 3.25056e-05 2.96099e-05 3.59459e-05 -4.82897e-05 -3.84419e-05 -2.19314e-05 1.6986e-05 1.07271e-05 3.03572e-05 4.92515e-05 3.58248e-05 4.3947e-05 4.98101e-05
internal_weight=3980 1860 2120 442 383 1418 1401 719 1052 553 117 351 157 368 168 200 118 895 790 526 848 326 121 264 125 425 333 329 271 218
internal_count=3980 1860 2120 442 383 1418 1401 719 1052 553 117 351 157 368 168 200 118 895 790 526 848 326 121 264 125 425 333 329 271 218
is_linear=0
shrinkage=0.05


Tree=10
num_leaves=31
num_cat=0
split_feature=7 7 6 3 3 10 12 8 12 3 7 6 3 4 3 3 12 8 1 7 7 12 7 14 3 17 3 3 3 7
split_gain=0.00135865 0.000442509 0.000122887 0.000104954 5.11759e-05 8.31833e-05 4.64691e-05 4.64592e-05 4.50497e-05 4.09116e-05 3.93989e-05 3.8451e-05 2.56728e-05 2.69861e-05 3.62165e-05 2.88126e-05 2.47384e-05 3.33338e-05 2.24512e-05 2.10301e-05 2.03449e-05 1.97695e-05 2.11654e-05 3.22212e-05 1.79432e-05 1.76398e-05 1.68827e-05 1.67991e-05 2.14713e-05 3.85857e-05
threshold=0.29731333333334842 0.93143333333333289 0.59799999999999065 0.0010077252103839337 -0.0019212075850789845 53.940054391484843 -0.37277308139237603 0.00024242367699899798 0.3718209739876242 -0.0013220228091117866 0.16366333333334074 0.41400000000002141 0.0019994660983133224 0.58777286990366717 -7.61994060826527e-05 0.00079476516691622673 0.036395178453611982 0.00020694013036861106 -0.00037393913285665986 0.64257999999999826 0.27390666666666452 -0.38348936626650149 0.39195333333333721 -3.5253037730430545e-05 0.0017356180712859413 0.0012340777667054815 0.0019230215860696668 0.0028329237695391887 0.0005555620774470555 0.41244999999999749
decision_type=2 2 2 2 2 2 2 2 2 2 2 2 2 2 2 2 2 2 2 2 2 2 2 2 2 2 2 2 2 2
left_child=3 2 4 9 21 6 -6 -7 19 -1 -5 12 13 -8 -15 -16 17 24 -13 25 26 -2 23 -23 -12 -4 -18 28 -9 -30
right_child=1 -3 8 10 5 7 11 27 -10 -11 16 18 -14 14 15 -17 20 -19 -20 -21 -22 22 -24 -25 -26 -27 -28 -29 29 -31
leaf_value=-2.8273492642367891e-05 -1.2962049733269939e-05 0.00014810951083489554 4.18793983343464e-05 -5.2661479622658676e-05 6.2357213309873074e-05 -1.3337771653869425e-05 -6.9502607902904853e-06 3.7265070550658387e-06 8.8865244835464549e-05 -2.6484049176145024e-07 5.7884172910187199e-06 5.6350698287133127e-05 -1.6028104492195197e-05 5.1999576830966699e-07 7.3705082684227818e-05 2.5738367138357306e-05 -5.8061019145194834e-05 -5.162381448220306e-05 2.6282106025943088e-05 5.2151486018093124e-05 -1.8086391793820605e-05 1.2533892952411159e-05 1.9683590495158986e-05 -3.3320328434009027e-05 -2.9137557085050503e-05 5.11589236246714e-06 -3.7482158450896865e-05 -2.5237533329025932e-06 6.7712551681021359e-06 4.6239628299776981e-05
leaf_weight=269 146 71 73 479 116 178 60 117 57 253 95 131 53 63 56 71 150 60 118 167 88 103 201 61 60 59 297 91 107 147
leaf_count=269 146 71 73 479 116 178 60 117 57 253 95 131 53 63 56 71 150 60 118 167 88 103 201 61 60 59 297 91 107 147
internal_value=-4.65986e-07 2.52732e-05 2.12634e-05 -3.34815e-05 1.60056e-05 2.12476e-05 3.35896e-05 8.36557e-06 4.81282e-05 -1.46984e-05 -4.14594e-05 2.75442e-05 1.55814e-05 2.22826e-05 3.1514e-05 4.6889e-05 -3.4305e-05 -1.99804e-05 4.21013e-05 4.03623e-05 -4.00616e-05 2.58785e-06 8.80782e-06 -4.52164e-06 -7.73131e-06 2.54472e-05 -4.43878e-05 1.67275e-05 2.14495e-05 2.96132e-05
internal_weight=3997 2246 2175 1751 1819 1308 668 640 356 522 1229 552 303 250 190 127 750 215 249 299 535 511 365 164 155 132 447 462 371 254
internal_count=3997 2246 2175 1751 1819 1308 668 640 356 522 1229 552 303 250 190 127 750 215 249 299 535 511 365 164 155 132 447 462 371 254
is_linear=0
shrinkage=0.05


Tree=11
num_leaves=31
num_cat=0
split_feature=18 6 14 14 3 18 14 12 18 11 3 8 5 18 18 12 3 3 11 6 6 18 6 12 4 1 5 15 18 3
split_gain=0.00120672 0.000492951 0.000116417 0.000125066 8.84472e-05 6.72483e-05 6.1983e-05 6.48703e-05 5.81221e-05 7.13557e-05 5.49963e-05 4.13144e-05 3.34547e-05 2.89961e-05 3.82559e-05 3.62807e-05 2.92018e-05 2.78786e-05 4.06281e-05 2.7378e-05 2.62697e-05 2.50058e-05 2.49276e-05 2.54219e-05 2.19171e-05 2.18547e-05 2.08196e-05 1.63689e-05 2.04557e-05 1.55361e-05
threshold=64.500000000000014 0.30000000000001142 0.0010687021808859726 0.00029248747221585503 0.0016221349183555382 272.50000000000006 -0.0011198617052282681 -0.067934190045344109 174.50000000000003 -0.046735523659549465 0.00010860296636727986 0.00034141448922884744 -0.57609009975009007 114.50000000000001 199.50000000000003 -0.024866367792058131 0.00062952473154988589 -0.0023119576021459498 0.017563978211967427 0.34370000000001261 0.34136999999998358 249.50000000000003 0.17300000000003593 0.13458525588564244 1.0048915549990771 -0.00013303887454768623 -0.66953635423050184 0.00026281078032197597 38.500000000000007 -0.0019663225579557831
decision_type=2 2 2 2 2 2 2 2 2 2 2 2 2 2 2 2 2 2 2 2 2 2 2 2 2 2 2 2 2 2
left_child=2 4 3 6 5 8 -1 -8 9 -2 -7 13 -9 -3 15 20 29 -13 24 -17 -15 22 -6 -24 26 -14 -19 28 -5 -16
right_child=1 11 -4 27 21 10 7 12 -10 -11 -12 17 25 14 16 19 -18 18 -20 -21 -22 -23 23 -25 -26 -27 -28 -29 -30 -31
leaf_value=0.00011236558531986941 3.4123253033502617e-05 -1.608745702539393e-05 0.00011962182981381288 5.2469760186364271e-05 -4.7241523819379478e-05 -1.7710652924506577e-05 3.9885315606893601e-05 0.00010764248282667363 -4.2638528744946848e-05 -2.8728498952844163e-05 2.947027805757465e-05 2.1801147612898083e-06 8.2310751759664803e-05 6.2473999722262205e-05 -7.8272572360359708e-06 -3.0319965584317736e-05 -3.2990790899702922e-05 5.3090888770839234e-05 8.5809197972891093e-06 1.6122294607612275e-05 2.0261459606497603e-05 -5.324926426139966e-05 -1.2073388986566224e-05 -3.8686745883529923e-05 6.0594268410972698e-05 3.9704683324628236e-05 1.2248754137544894e-05 9.254667950133465e-06 1.1459367987382311e-05 2.0749653260281777e-05
leaf_weight=57 66 202 62 68 291 150 244 66 327 143 105 198 68 53 130 51 80 50 196 84 121 324 153 217 81 54 83 143 55 75
leaf_count=57 66 202 62 68 291 150 244 66 327 143 105 198 68 53 130 51 80 50 196 84 121 324 153 217 81 54 83 143 55 75
internal_value=-4.42687e-07 -1.43679e-05 5.37584e-05 4.83498e-05 -3.18713e-05 -1.94198e-05 6.33588e-05 5.68926e-05 -2.94754e-05 -8.88058e-06 1.71679e-06 7.77302e-06 7.89659e-05 2.76965e-07 5.84197e-06 1.80282e-05 -7.37047e-06 1.75869e-05 2.50273e-05 -1.42256e-06 3.31193e-05 -4.18704e-05 -3.62928e-05 -2.76818e-05 4.00903e-05 6.34523e-05 2.76029e-05 2.0758e-05 3.41318e-05 2.62771e-06
internal_weight=3997 3180 817 755 1776 791 489 432 536 209 255 1404 188 796 594 309 285 608 410 135 174 985 661 370 214 122 133 266 123 205
internal_count=3997 3180 817 755 1776 791 489 432 536 209 255 1404 188 796 594 309 285 608 410 135 174 985 661 370 214 122 133 266 123 205
is_linear=0
shrinkage=0.05


Tree=12
num_leaves=31
num_cat=0
split_feature=7 18 7 3 7 3 18 12 18 7 13 18 3 7 13 15 13 7 8 12 3 13 12 3 7 11 1 12 8 18
split_gain=0.00111322 0.000416851 0.000222441 8.54112e-05 6.76513e-05 5.67223e-05 4.57625e-05 5.27247e-05 6.698e-05 8.57868e-05 4.05052e-05 3.85784e-05 5.02459e-05 3.28418e-05 3.19646e-05 3.18168e-05 3.43595e-05 2.82134e-05 2.79299e-05 3.45341e-05 7.52386e-05 7.51196e-05 5.77081e-05 2.77203e-05 3.50772e-05 3.82454e-05 2.57692e-05 2.18092e-05 3.10074e-05 2.17262e-05
threshold=0.29731333333334842 54.500000000000007 0.93143333333333289 0.00097038850497553554 0.48969666666669137 0.0017808634930298261 114.50000000000001 -0.026984900809127372 205.50000000000003 0.35700666666667386 0.20761772016217392 160.50000000000003 -0.0013220228091117866 0.16366333333334074 -0.035301514049183476 0.00013897016727171255 -0.040319006439899586 0.38765666666665016 0.00075375252529189104 0.25819804250609885 0.00097038850497553554 0.019504274966100483 -0.13667480815874819 -0.00074413633474025565 0.42535666666668331 -0.21379200231416459 -0.00016111602682050694 0.036395178453611982 0.00020694013036861106 269.50000000000006
decision_type=2 2 2 2 2 2 2 2 2 2 2 2 2 2 2 2 2 2 2 2 2 2 2 2 2 2 2 2 2 2
left_child=3 2 10 11 6 -6 14 8 9 -8 18 -1 -13 -5 -3 16 -11 -9 19 22 26 -22 -2 24 25 -10 -21 28 29 -15
right_child=1 4 -4 13 5 -7 7 17 23 15 -12 12 -14 27 -16 -17 -18 -19 -20 20 21 -23 -24 -25 -26 -27 -28 -29 -30 -31
leaf_value=1.1363474089782851e-05 4.5555226665040219e-05 9.751242712235054e-06 0.00014080220527197841 -4.767982342764109e-05 1.5533533904048951e-05 5.8194609985049266e-05 8.7315905391498685e-05 -1.9624011802548807e-05 5.4776478865343441e-05 5.8978256457124541e-06 6.6944607639879133e-06 -3.6111204169608731e-05 8.3884999941188027e-08 -2.0440260175523786e-05 -2.5253930248038726e-05 -1.4024645493990131e-05 5.3146554985990713e-05 9.3109144318616125e-06 1.7494178261805591e-05 3.6431481930776499e-05 0.00011289569892516524 2.8652824046069079e-05 9.1764073087598105e-05 -2.8449926198983589e-05 -2.4746561164647577e-05 -3.9245771090050275e-06 -1.2357640079537337e-05 -3.6382630094215476e-05 -4.7657028194554453e-05 1.77630896117383e-05
leaf_weight=122 153 95 69 479 330 102 62 189 56 71 59 227 166 98 208 51 84 152 58 50 51 55 121 66 50 55 59 537 62 60
leaf_count=122 153 95 69 479 330 102 62 189 56 71 59 227 166 98 208 51 84 152 58 50 51 55 121 66 50 55 59 537 62 60
internal_value=-4.20552e-07 2.28781e-05 5.57399e-05 -3.03056e-05 8.75861e-06 2.56063e-05 2.36863e-06 8.40229e-06 1.88242e-05 3.57514e-05 4.60546e-05 -1.3198e-05 -2.08227e-05 -3.74338e-05 -1.42787e-05 2.0232e-05 3.15036e-05 -6.72633e-06 5.03e-05 5.41911e-05 3.9191e-05 6.91848e-05 6.59613e-05 -1.16032e-06 1.00267e-05 2.56904e-05 1.00227e-05 -3.09506e-05 -1.76913e-05 -5.93266e-06
internal_weight=3997 2246 675 1751 1571 432 1139 836 495 268 606 515 393 1236 303 206 155 341 547 489 215 106 274 227 161 111 109 757 220 158
internal_count=3997 2246 675 1751 1571 432 1139 836 495 268 606 515 393 1236 303 206 155 341 547 489 215 106 274 227 161 111 109 757 220 158
is_linear=0
shrinkage=0.05


Tree=13
num_leaves=31
num_cat=0
split_feature=7 18 7 3 8 3 10 2 3 3 7 18 3 15 8 7 18 13 18 18 13 18 18 12 12 8 18 7 18 7
split_gain=0.00100468 0.000376208 0.000200753 7.70836e-05 6.23421e-05 4.22738e-05 4.2022e-05 4.18665e-05 5.05826e-05 3.83437e-05 4.00684e-05 3.4817e-05 4.53469e-05 3.40386e-05 3.17936e-05 2.96397e-05 2.37614e-05 2.3732e-05 2.32955e-05 2.58173e-05 2.60741e-05 2.1651e-05 2.09975e-05 2.01455e-05 1.96828e-05 2.79842e-05 1.96079e-05 1.90861e-05 1.85205e-05 1.76091e-05
threshold=0.29731333333334842 54.500000000000007 0.93143333333333289 0.00097038850497553554 0.00031754931879531505 -0.0023119576021459498 47.910817823513405 0.00064543485660317767 0.0005555620774470555 0.001941395267078534 0.50334333333334691 160.50000000000003 -0.0013220228091117866 3.363539659595461e-05 0.00015789921990854266 0.16366333333334074 130.50000000000003 -0.030880734859710563 32.500000000000007 14.500000000000002 0.0943990973550385 72.500000000000014 299.50000000000006 -0.020027241462585544 0.036395178453611982 0.00020694013036861106 269.50000000000006 0.49264000000000585 204.50000000000003 0.27390666666666452
decision_type=2 2 2 2 2 2 2 2 2 2 2 2 2 2 2 2 2 2 2 2 2 2 2 2 2 2 2 2 2 2
left_child=3 2 7 11 13 -6 17 8 -2 16 -11 23 22 14 -3 -5 21 27 19 -9 -21 -8 -13 -1 25 26 -17 -7 -16 -26
right_child=1 4 -4 15 5 6 9 18 -10 10 -12 12 -14 -15 28 24 -18 -19 -20 20 -22 -23 -24 -25 29 -27 -28 -29 -30 -31
leaf_value=3.285284011472608e-05 4.6664342601365103e-05 4.0519738179752428e-05 0.00013376209803475606 -4.5295832609581831e-05 3.4213425980515198e-07 1.3372258179705527e-05 1.1885459172901848e-05 1.5163187047594851e-05 9.7803223622376827e-05 1.4145866093095709e-05 6.9748908855318516e-05 -4.4881394193916827e-05 7.9690890600771584e-08 -1.2273149841921552e-05 1.0154402201671891e-05 -1.9418247228138487e-05 2.069607236118524e-05 6.8375502521308482e-05 6.5358271205143331e-06 7.3377707711669621e-05 2.7743414967391865e-05 -3.1734063753846743e-05 -1.2439565493632227e-05 -7.9201878785776607e-06 -3.8571885600348203e-05 -4.5274177494819366e-05 1.6874934750982602e-05 5.1865980839788654e-05 -1.4557542614387453e-05 -1.4111613814872148e-05
leaf_weight=56 268 65 69 479 227 67 50 74 59 81 54 153 166 381 244 98 96 68 79 68 58 66 74 66 449 62 60 62 110 88
leaf_count=56 268 65 69 479 227 67 50 74 59 81 54 153 166 381 244 98 96 68 79 68 58 66 74 66 449 62 60 62 110 88
internal_value=-3.99525e-07 2.17342e-05 5.29529e-05 -2.87904e-05 8.32068e-06 1.84666e-05 2.60295e-05 4.37519e-05 5.58912e-05 1.55588e-05 3.63871e-05 -1.25381e-05 -1.97816e-05 -1.45743e-06 8.37739e-06 -3.55621e-05 2.29551e-06 4.44729e-05 2.9524e-05 3.86044e-05 5.23714e-05 -1.29325e-05 -3.43056e-05 1.07953e-05 -2.9403e-05 -1.68068e-05 -5.63603e-06 3.18731e-05 2.47555e-06 -3.45635e-05
internal_weight=3997 2246 675 1751 1571 771 544 606 327 347 135 515 393 800 419 1236 212 197 279 200 126 116 227 122 757 220 158 129 354 537
internal_count=3997 2246 675 1751 1571 771 544 606 327 347 135 515 393 800 419 1236 212 197 279 200 126 116 227 122 757 220 158 129 354 537
is_linear=0
shrinkage=0.05


Tree=14
num_leaves=31
num_cat=0
split_feature=7 18 7 3 8 3 11 2 3 18 3 10 8 7 7 18 18 18 13 18 3 13 4 3 18 10 18 3 18 3
split_gain=0.000906722 0.000339527 0.000181179 6.95679e-05 5.62638e-05 3.81521e-05 4.77912e-05 3.77846e-05 4.56508e-05 3.15769e-05 3.99018e-05 3.1146e-05 2.9252e-05 2.67499e-05 2.14678e-05 2.13796e-05 2.12548e-05 2.29251e-05 2.54531e-05 2.10242e-05 2.37373e-05 4.15593e-05 2.08374e-05 2.15478e-05 1.96909e-05 1.87896e-05 1.87593e-05 1.75249e-05 4.77683e-05 2.39449e-05
threshold=0.29731333333334842 54.500000000000007 0.93143333333333289 0.00097038850497553554 0.00031754931879531505 -0.0023119576021459498 -0.37294391945118827 0.00064543485660317767 0.0005555620774470555 148.50000000000003 -0.0015558014467057753 53.005937011281496 0.00015789921990854266 0.16366333333334074 0.43788333333333945 112.50000000000001 196.50000000000003 114.50000000000001 -0.073267510473206052 32.500000000000007 0.00097038850497553554 0.12034450097901454 0.92663878003419231 0.0012924853924697816 302.50000000000006 56.450118723961118 72.500000000000014 0.0023431380322523256 268.50000000000006 0.0017598072411759719
decision_type=2 2 2 2 2 2 2 2 2 2 2 2 2 2 2 2 2 2 2 2 2 2 2 2 2 2 2 2 2 2
left_child=3 2 7 9 11 -6 -7 8 -2 15 24 12 -3 -5 -13 -1 17 -14 -19 20 -9 -22 26 -24 -11 27 -8 28 29 -15
right_child=1 4 -4 13 5 6 22 19 -10 10 -12 14 16 25 -16 -17 -18 18 -20 -21 21 -23 23 -25 -26 -27 -28 -29 -30 -31
leaf_value=-1.0151554420636054e-05 4.4331125659338268e-05 3.5520575111579974e-05 0.00012707399238960521 -4.3031041238344623e-05 3.2502726565282086e-07 6.8476299109728901e-05 3.4623239058780255e-05 1.8564790788284309e-05 9.2913063399156282e-05 -4.2994156261556783e-05 -2.0033172309104435e-06 -1.9378156472117953e-05 -6.6011119791898545e-06 -3.4810584833763273e-05 1.5770063859795652e-05 3.5410303093368174e-05 -1.370230100768358e-05 -5.6551105808466672e-06 3.8418412661581227e-05 6.2090355822074213e-06 8.542723963710517e-05 2.2488699269834561e-05 1.4906199570953943e-05 4.8809161904096581e-05 -9.6840086905378108e-06 -3.5676090134804279e-05 4.7597190532228678e-06 -3.6454030375970043e-05 3.112528020756145e-05 1.4120958819976703e-06
leaf_weight=51 268 74 69 479 227 56 68 95 59 150 199 264 116 143 52 52 149 50 95 79 51 54 89 99 63 385 232 112 50 67
leaf_count=51 268 74 69 479 227 56 68 95 59 150 199 264 116 143 52 52 149 50 95 79 51 54 89 99 63 385 232 112 50 67
internal_value=-3.79549e-07 2.06475e-05 5.03053e-05 -2.73508e-05 7.90465e-06 1.75433e-05 2.47281e-05 4.15643e-05 5.30967e-05 -1.19112e-05 -1.81016e-05 -1.38456e-06 6.58708e-06 -3.3784e-05 -1.35943e-05 1.28505e-05 1.36493e-06 9.96653e-06 2.32206e-05 2.80478e-05 3.66742e-05 5.30588e-05 1.97078e-05 3.27594e-05 -3.31419e-05 -2.79329e-05 1.15288e-05 -1.99191e-05 -1.27963e-05 -2.32538e-05
internal_weight=3997 2246 675 1751 1571 771 544 606 327 515 412 800 484 1236 316 103 410 261 145 279 200 105 488 188 213 757 300 372 260 210
internal_count=3997 2246 675 1751 1571 771 544 606 327 515 412 800 484 1236 316 103 410 261 145 279 200 105 488 188 213 757 300 372 260 210
is_linear=0
shrinkage=0.05


Tree=15
num_leaves=31
num_cat=0
split_feature=18 7 7 14 12 3 13 18 18 12 3 4 3 7 18 6 6 3 7 18 10 3 7 18 12 14 3 17 18 7
split_gain=0.0009037 0.000386184 0.000210517 6.12127e-05 9.11587e-05 5.54795e-05 4.67499e-05 4.02873e-05 3.95663e-05 4.52153e-05 3.57679e-05 3.126e-05 3.12319e-05 3.11665e-05 3.99682e-05 2.96485e-05 2.85658e-05 2.30768e-05 2.99801e-05 6.52265e-05 5.73111e-05 2.159e-05 1.9824e-05 1.9269e-05 1.71547e-05 2.02961e-05 1.63939e-05 1.63262e-05 2.04928e-05 1.29157e-05
threshold=64.500000000000014 0.30509333333334326 0.96559000000000128 0.00030171398863445284 -0.067934190045344109 0.0014234135653071335 -0.10582939610236732 268.50000000000006 169.50000000000003 0.0026703317700580115 4.0787890205657738e-05 0.93972894980260724 0.00052899832391339874 0.39343999999999829 128.50000000000003 0.59799999999999065 0.66399999999997605 -0.003213836210742246 0.47131666666666666 171.50000000000003 44.208031862733314 0.0016453585816844057 0.27927999999999814 174.50000000000003 -0.45912404437135118 -0.00029041402576242341 0.0012353813600536319 0.00061159904599361787 22.500000000000004 0.43594333333334517
decision_type=2 2 2 2 2 2 2 2 2 2 2 2 2 2 2 2 2 2 2 2 2 2 2 2 2 2 2 2 2 2
left_child=2 5 3 4 16 7 -6 8 9 -2 -9 13 -8 -3 21 27 24 -13 19 -19 -21 -15 -7 -16 -1 -26 -20 -5 -29 -25
right_child=1 11 -4 15 6 22 12 10 -10 -11 -12 17 -14 14 23 -17 -18 18 26 20 -22 -23 -24 29 25 -27 -28 28 -30 -31
leaf_value=4.2119790198004723e-06 2.0144572971573472e-05 -9.5304195710598719e-06 0.00013923721969055398 3.0215916733194559e-05 4.621984390147256e-05 -3.6303355068412201e-05 7.4963286108482657e-05 -1.4679761528484774e-05 -3.7541090584209125e-05 -3.3732216926485613e-05 2.3370894249515896e-05 -1.3960245897528588e-06 0.00012677604080146501 -1.2182712016185958e-05 4.1689302030552729e-05 4.8574486698237674e-05 6.0630756376797642e-05 -7.4683704757411327e-06 2.6401155601114858e-05 7.5641684547843422e-05 9.7722523034822945e-06 2.0695516199773567e-05 -1.2619206702381525e-05 3.1848657084177329e-05 5.3163549246699614e-05 1.2711581313708034e-05 6.2544912429599462e-05 2.5797250762277856e-05 -1.4272212222120009e-05 2.022683792084845e-06
leaf_weight=73 81 350 58 85 70 991 66 170 263 75 97 127 52 196 96 81 70 159 67 61 72 67 97 58 68 57 59 54 78 97
leaf_count=73 81 350 58 85 70 991 66 170 263 75 97 127 52 196 96 81 70 159 67 61 72 67 97 58 68 57 59 54 78 97
internal_value=3.61715e-07 -1.16494e-05 4.74447e-05 4.03837e-05 5.19005e-05 -2.71707e-05 7.85921e-05 -1.60351e-05 -2.57077e-05 -5.75773e-06 -8.56115e-07 7.89265e-06 9.7796e-05 1.9777e-06 9.81398e-06 2.27608e-05 3.31765e-05 1.72697e-05 2.29409e-05 1.41448e-05 3.9983e-05 -3.80689e-06 -3.41918e-05 2.4086e-05 2.34705e-05 3.47175e-05 4.33256e-05 1.31252e-05 2.11984e-06 1.31834e-05
internal_weight=3995 3183 812 754 456 1774 188 686 419 156 267 1409 118 864 514 298 268 545 418 292 133 263 1088 251 198 125 126 217 132 155
internal_count=3995 3183 812 754 456 1774 188 686 419 156 267 1409 118 864 514 298 268 545 418 292 133 263 1088 251 198 125 126 217 132 155
is_linear=0
shrinkage=0.05


Tree=16
num_leaves=31
num_cat=0
split_feature=18 7 7 14 7 3 8 3 18 18 11 3 4 7 18 18 10 16 18 3 3 7 18 10 7 18 7 3 3 18
split_gain=0.000815589 0.000348531 0.000189992 5.52444e-05 7.8579e-05 5.00702e-05 3.6618e-05 4.15869e-05 3.63593e-05 3.57499e-05 3.50533e-05 3.22805e-05 2.82122e-05 2.81323e-05 3.66872e-05 2.73209e-05 3.54663e-05 2.56268e-05 2.19828e-05 2.17407e-05 2.08268e-05 2.7057e-05 5.88803e-05 5.10802e-05 1.9497e-05 1.80112e-05 1.78912e-05 1.75935e-05 1.60583e-05 1.68892e-05
threshold=64.500000000000014 0.30509333333334326 0.96559000000000128 0.00030171398863445284 0.37632999999999212 0.0014234135653071335 0.00033147128206687757 0.00052899832391339874 268.50000000000006 165.50000000000003 -0.046735523659549465 4.0787890205657738e-05 0.93972894980260724 0.39195333333333721 128.50000000000003 28.500000000000004 65.372766572764277 0.00098156318066771318 32.500000000000007 0.0011320935850179024 -0.003213836210742246 0.47131666666666666 170.50000000000003 44.208031862733314 0.63495416666667204 174.50000000000003 0.27927999999999814 0.0016453585816844057 -0.0034084972337640744 240.50000000000003
decision_type=2 2 2 2 2 2 2 2 2 2 2 2 2 2 2 2 2 2 2 2 2 2 2 2 2 2 2 2 2 2
left_child=2 5 3 4 -1 8 18 17 9 10 -2 -10 13 -3 27 19 -17 -8 -6 -5 -14 22 -22 -24 -19 -16 -7 -15 -27 -30
right_child=1 12 -4 15 6 26 7 -9 11 -11 -12 -13 20 14 25 16 -18 24 -20 -21 21 -23 23 -25 -26 28 -28 -29 29 -31
leaf_value=0.00010114569745455233 2.8768308053865138e-05 -9.3217934570207842e-06 0.00013227535799097527 2.1577563576659401e-05 4.1959435105127345e-05 -3.4488187326774419e-05 2.3342261175256045e-05 8.9708509615527216e-05 -1.3945773385795321e-05 -3.5385084615356064e-05 -2.2169179981574417e-05 2.2202349605931981e-05 -1.3262231657174957e-06 -1.1493418588222274e-05 3.932221944624972e-05 2.4179336242961351e-05 -2.7416630127488901e-05 3.9482622609040251e-05 -2.2881076702674365e-06 6.058428573631883e-05 -7.3824572404630534e-06 4.1159332779840505e-05 7.1023409644464753e-05 9.3062288545310107e-06 8.0509849744974456e-05 -1.0967607354092146e-05 -1.1988246622178813e-05 1.7844509969016645e-05 3.6652069159324383e-06 4.3217052003661973e-05
leaf_weight=63 51 340 58 93 50 991 106 55 170 268 100 97 127 197 99 96 51 67 64 58 157 126 62 73 51 51 97 69 55 53
leaf_count=63 51 340 58 93 50 991 106 55 170 268 100 97 127 197 99 96 51 67 64 58 157 126 62 73 51 51 97 69 55 53
internal_value=3.4363e-07 -1.10669e-05 4.50725e-05 3.83645e-05 4.93055e-05 -2.58121e-05 4.09952e-05 5.07512e-05 -1.52334e-05 -2.44223e-05 -4.96513e-06 -8.13309e-07 7.49802e-06 1.87882e-06 9.14639e-06 2.16227e-05 6.27869e-06 4.11858e-05 1.71187e-05 3.65603e-05 1.64062e-05 2.17939e-05 1.34375e-05 3.76504e-05 5.72147e-05 2.258e-05 -3.24822e-05 -3.8832e-06 1.21556e-05 2.30749e-05
internal_weight=3995 3183 812 754 456 1774 393 279 686 419 151 267 1409 864 524 298 147 224 114 151 545 418 292 135 118 258 1088 266 159 108
internal_count=3995 3183 812 754 456 1774 393 279 686 419 151 267 1409 864 524 298 147 224 114 151 545 418 292 135 118 258 1088 266 159 108
is_linear=0
shrinkage=0.05


Tree=17
num_leaves=31
num_cat=0
split_feature=18 7 7 14 7 3 18 9 3 3 18 3 6 4 7 18 7 18 3 7 18 10 6 7 18 15 14 18 3 18
split_gain=0.000736069 0.000314549 0.000171467 4.98581e-05 7.09176e-05 4.51884e-05 3.30823e-05 3.30477e-05 3.75322e-05 3.0121e-05 2.99223e-05 3.04956e-05 2.6339e-05 2.54615e-05 2.54536e-05 3.2498e-05 2.02111e-05 1.98395e-05 1.87962e-05 2.4419e-05 5.3212e-05 4.67477e-05 1.85444e-05 1.61705e-05 1.57259e-05 1.53101e-05 1.51486e-05 1.63754e-05 1.2916e-05 1.22758e-05
threshold=64.500000000000014 0.30509333333334326 0.96559000000000128 0.00030171398863445284 0.37632999999999212 0.0014234135653071335 272.50000000000006 0.10391505743091156 0.00052899832391339874 0.00015195181889052421 165.50000000000003 -7.61994060826527e-05 0.59799999999999065 0.93972894980260724 0.39343999999999829 128.50000000000003 0.61277666666667685 32.500000000000007 -0.003213836210742246 0.47131666666666666 171.50000000000003 44.208031862733314 0.52140000000001707 0.28319999999999185 174.50000000000003 6.6568016901191754e-05 0.0007134454184480343 46.500000000000007 0.00057839153744758886 240.50000000000003
decision_type=2 2 2 2 2 2 2 2 2 2 2 2 2 2 2 2 2 2 2 2 2 2 2 2 2 2 2 2 2 2
left_child=2 5 3 4 -1 6 10 17 16 -8 11 -2 26 14 -3 22 -9 -6 -15 20 -20 -22 -16 -7 -17 -21 27 -5 -24 -12
right_child=1 13 -4 12 7 23 9 8 -10 -11 29 -13 -14 18 15 24 -18 -19 19 25 21 -23 28 -25 -26 -27 -28 -29 -30 -31
leaf_value=9.6088412263068483e-05 1.3277319587122413e-05 -8.615167451807794e-06 0.00012566159168335585 3.2881407697507379e-05 3.9861463115812514e-05 -3.2552070394945755e-05 -1.2015268938195684e-05 2.611968473527071e-05 8.5223084395031701e-05 2.5140781589931224e-05 -4.1361222081066792e-05 -3.2775609774250635e-05 4.4871938707855307e-05 -1.2599120624130822e-06 -1.43249906312025e-05 3.7638726263367067e-05 5.6468928793170414e-05 -2.1737021469903086e-06 -6.7557331120488537e-06 2.425053863676922e-05 6.8308430165982788e-05 8.818327989956742e-06 -4.3844387305482628e-06 -8.9234598083119369e-06 1.1886585397655102e-05 5.9556279453352308e-05 -8.0955989955434816e-06 -1.6012695943522381e-06 3.0528620405115922e-05 -2.0524088580396706e-05
leaf_weight=63 92 350 58 95 50 1010 167 128 55 81 161 59 81 127 157 96 96 64 159 73 61 72 54 78 155 53 68 54 52 126
leaf_count=63 92 350 58 95 50 1010 167 128 55 81 161 59 81 127 157 96 96 64 159 73 61 72 54 78 155 53 68 54 52 126
internal_value=3.26448e-07 -1.05136e-05 4.28188e-05 3.64463e-05 4.68402e-05 -2.45215e-05 -1.44717e-05 3.89455e-05 4.82136e-05 1.20377e-07 -2.27339e-05 -4.71687e-06 2.05416e-05 7.12312e-06 1.78488e-06 8.86662e-06 3.91265e-05 1.62628e-05 1.55859e-05 2.07042e-05 1.27657e-05 3.61033e-05 -3.41557e-06 -3.08581e-05 2.1736e-05 3.91014e-05 1.14597e-05 2.03843e-05 1.27427e-05 -3.22132e-05
internal_weight=3995 3183 812 754 456 1774 686 393 279 248 438 151 298 1409 864 514 224 114 545 418 292 133 263 1088 251 126 217 149 106 287
internal_count=3995 3183 812 754 456 1774 686 393 279 248 438 151 298 1409 864 514 224 114 545 418 292 133 263 1088 251 126 217 149 106 287
is_linear=0
shrinkage=0.05


end of trees

feature_importances:
vwap_dev=111
atr_15=98
minutes_into_session=96
macd_signal=52
atr_5=35
macd=21
macd_hist=21
rv_5=20
rsi_14=20
ema_9_21_spread=18
rvol=12
ret_15=9
ema_slope=7
ret_5=6
vol_z=6
high_dist_5=3
low_dist_5=3
ret_1=1
rv_annual=1

parameters:
[boosting: gbdt]
[objective: regression]
[metric: l1]
[tree_learner: serial]
[device_type: cpu]
[data_sample_strategy: bagging]
[data: ]
[valid: ]
[num_iterations: 1000]
[learning_rate: 0.05]
[num_leaves: 31]
[num_threads: 0]
[seed: 42]
[deterministic: 0]
[force_col_wise: 0]
[force_row_wise: 0]
[histogram_pool_size: -1]
[max_depth: -1]
[min_data_in_leaf: 50]
[min_sum_hessian_in_leaf: 0.001]
[bagging_fraction: 0.8]
[pos_bagging_fraction: 1]
[neg_bagging_fraction: 1]
[bagging_freq: 5]
[bagging_seed: 400]
[bagging_by_query: 0]
[feature_fraction: 0.8]
[feature_fraction_bynode: 1]
[feature_fraction_seed: 30056]
[extra_trees: 0]
[extra_seed: 12879]
[early_stopping_round: 0]
[early_stopping_min_delta: 0]
[first_metric_only: 0]
[max_delta_step: 0]
[lambda_l1: 0]
[lambda_l2: 0]
[linear_lambda: 0]
[min_gain_to_split: 0]
[drop_rate: 0.1]
[max_drop: 50]
[skip_drop: 0.5]
[xgboost_dart_mode: 0]
[uniform_drop: 0]
[drop_seed: 17869]
[top_rate: 0.2]
[other_rate: 0.1]
[min_data_per_group: 100]
[max_cat_threshold: 32]
[cat_l2: 10]
[cat_smooth: 10]
[max_cat_to_onehot: 4]
[top_k: 20]
[monotone_constraints: ]
[monotone_constraints_method: basic]
[monotone_penalty: 0]
[feature_contri: ]
[forcedsplits_filename: ]
[refit_decay_rate: 0.9]
[cegb_tradeoff: 1]
[cegb_penalty_split: 0]
[cegb_penalty_feature_lazy: ]
[cegb_penalty_feature_coupled: ]
[path_smooth: 0]
[interaction_constraints: ]
[verbosity: -1]
[saved_feature_importance_type: 0]
[use_quantized_grad: 0]
[num_grad_quant_bins: 4]
[quant_train_renew_leaf: 0]
[stochastic_rounding: 1]
[linear_tree: 0]
[max_bin: 255]
[max_bin_by_feature: ]
[min_data_in_bin: 3]
[bin_construct_sample_cnt: 200000]
[data_random_seed: 175]
[is_enable_sparse: 1]
[enable_bundle: 1]
[use_missing: 1]
[zero_as_missing: 0]
[feature_pre_filter: 1]
[pre_partition: 0]
[two_round: 0]
[header: 0]
[label_column: ]
[weight_column: ]
[group_column: ]
[ignore_column: ]
[categorical_feature: ]
[forcedbins_filename: ]
[precise_float_parser: 0]
[parser_config_file: ]
[objective_seed: 16083]
[num_class: 1]
[is_unbalance: 0]
[scale_pos_weight: 1]
[sigmoid: 1]
[boost_from_average: 1]
[reg_sqrt: 0]
[alpha: 0.9]
[fair_c: 1]
[poisson_max_delta_step: 0.7]
[tweedie_variance_power: 1.5]
[lambdarank_truncation_level: 30]
[lambdarank_norm: 1]
[label_gain: ]
[lambdarank_position_bias_regularization: 0]
[eval_at: ]
[multi_error_top_k: 1]
[auc_mu_weights: ]
[num_machines: 1]
[local_listen_port: 12400]
[time_out: 120]
[machine_list_filename: ]
[machines: ]
[gpu_platform_id: -1]
[gpu_device_id: -1]
[gpu_device_id_list: ]
[gpu_use_dp: 0]
[num_gpu: 1]

end of parameters

pandas_categorical:[]
