tree
version=v4
num_class=1
num_tree_per_iteration=1
label_index=0
max_feature_idx=18
objective=binary sigmoid:1
feature_names=ret_1 ret_5 ret_15 vwap_dev rvol vol_z atr_5 atr_15 rv_5 rv_annual rsi_14 macd macd_signal macd_hist ema_9_21_spread ema_slope high_dist_5 low_dist_5 minutes_into_session
feature_infos=[-0.013809888794761083:0.011495683930943024] [-0.01389056974195535:0.012002424732269201] [-0.013584398117014174:0.012287086106460343] [-0.016089178409600478:0.011658592794884915] [0.00099745516440753767:18.032295829118006] [-3.3513761747302238:4.2478508786531899] [0.0085000000000263753:6.4259999999999762] [0.024866666666654661:4.315333333333319] [0:0.0062435004021488402] [0:1.9573149710396804] [4.7227281948501201:96.024153170354921] [-2.5994213108928079:2.3984160620785815] [-2.0181840411186718:2.1056890584233074] [-1.1891240190130559:1.0649377772226214] [-0.0040669442623725216:0.0034476127534571665] [-0.0065234020383296842:0.0056165231996427867] [0:0.014044177802018092] [0:0.020463399630920531] [0:390]
tree_sizes=3479 3477 3508 3482 3501 3477 3487

Tree=0
num_leaves=31
num_cat=0
split_feature=2 7 11 18 18 18 18 12 7 18 13 7 6 7 12 11 7 11 11 18 11 11 17 12 13 18 6 14 7 1
split_gain=39.6569 24.3382 31.63 24.5073 43.348 19.5943 21.9075 33.0915 22.6725 29.632 22.2964 22.4121 21.7642 20.7282 18.4596 20.5886 16.7043 15.5912 15.5832 21.4323 18.8342 24.8489 15.1848 15.143 28.3826 25.4364 16.7772 16.4245 14.5965 15.7262
threshold=4.0343729450165185e-05 0.43099666666666586 0.21172844915417957 162.50000000000003 362.50000000000006 62.500000000000007 345.50000000000006 -0.21794927806952635 0.19391666666667412 283.50000000000006 -0.065158062586080437 0.30264000000001196 0.30998999999999349 0.094653333333326387 -0.52623292690474566 -0.24856542097541021 0.20657333333333178 0.065398318084135112 -0.94515932881165543 126.50000000000001 -0.18617174102030273 -0.45364337362462942 0.00021582248663352214 0.0060160154466167614 0.0019813690887077223 68.500000000000014 0.096000000000037763 8.5658169045543404e-05 0.078753333333334785 0.0001076288687971161
decision_type=2 2 2 2 2 2 2 2 2 2 2 2 2 2 2 2 2 2 2 2 2 2 2 2 2 2 2 2 2 2
left_child=5 2 3 23 16 -1 8 14 -7 18 11 -9 13 -12 -8 -16 -5 28 -10 20 21 -20 -19 26 25 -25 -2 -26 29 -6
right_child=1 -3 -4 4 17 6 7 10 9 -11 12 -13 -14 -15 15 -17 -18 22 19 -21 -22 -23 -24 24 27 -27 -28 -29 -30 -31
leaf_value=-0.045372625154050758 -0.022084105662426308 -0.053118271540892256 -0.087630622089047885 -0.13467993874023559 -0.054618683692867681 -0.10006212125223443 -0.073107925444962973 -0.110379807680558 -0.003677634865543046 -0.085861331748250364 -0.037042260929037035 -0.042276730697822909 -0.0099525680917532458 -0.066384997753701394 0.010165565046279558 -0.057086574718794462 -0.088495040255981955 -0.099725946114733843 -0.054074804050844978 -0.048730853521332773 -0.053710252739730048 -0.128959730897869 -0.060130672426622227 -0.085618573564719552 -0.00049710498519925372 -0.0092526716934451872 -0.075879892577379635 -0.04385358580555903 -0.040220905596637019 -0.11913640622781074
leaf_weight=541.03909993171692 16.485955953598022 322.22550272941589 184.09317481517792 23.979572296142578 30.224252581596375 41.464677095413208 12.739147782325743 33.221699118614197 14.487658262252806 96.168076395988464 99.165522933006287 18.983828067779541 30.224252581596375 153.11956059932709 44.961698055267334 15.237019896507261 106.65913927555084 41.214889883995056 18.234466433525085 234.55019152164459 43.213187575340271 28.22595489025116 58.699994683265686 67.942121505737305 25.478295564651489 12.988934993743895 119.89786148071289 153.11956059932709 100.16467177867889 13.73829662799835
leaf_count=2166 66 1290 737 96 121 166 51 133 58 385 397 76 121 613 180 61 427 165 73 939 173 113 235 272 102 52 480 613 401 55
internal_value=-0.058601 -0.0650001 -0.0690105 -0.0645622 -0.0737281 -0.052867 -0.0574538 -0.0489452 -0.0647353 -0.061367 -0.0555952 -0.0856151 -0.0500478 -0.0548513 -0.018428 -0.00685676 -0.0969726 -0.061285 -0.0544125 -0.0566795 -0.0774702 -0.0995694 -0.0764637 -0.0558879 -0.0487992 -0.0733623 -0.0693771 -0.0376685 -0.0507625 -0.0747805
internal_weight=2701.95 1276.91 954.687 770.594 374.681 1425.04 883.997 407.653 476.344 434.88 334.715 52.2055 282.509 252.285 72.9379 60.1987 130.639 244.042 338.711 324.224 89.6736 46.4604 99.9149 395.913 259.529 80.9311 136.384 178.598 144.127 43.9625
internal_count=10817 5112 3822 3085 1500 5705 3539 1632 1907 1741 1340 209 1131 1010 292 241 523 977 1356 1298 359 186 400 1585 1039 324 546 715 577 176
is_linear=0
shrinkage=1


Tree=1
num_leaves=31
num_cat=0
split_feature=3 15 11 4 7 17 12 3 3 18 18 18 18 7 17 7 8 10 4 18 3 7 18 18 18 12 18 3 18 2
split_gain=42.5422 28.3176 21.6773 19.5432 18.0933 18.0833 21.3524 17.7825 15.2358 31.111 22.5942 22.1666 16.177 15.3959 13.1587 13.4147 16.2293 13.1698 12.1158 11.8981 13.815 10.7692 19.2138 29.9852 18.5835 15.0596 34.7739 11.9806 14.5721 11.0876
threshold=0.00070228277197809661 6.3021518220574016e-05 0.79962325959542124 0.34341936479598328 1.0338366666666619 0.00038063648307073977 0.59868067472685138 0.0057600017820028764 -0.0032489051948348968 162.50000000000003 234.50000000000003 202.50000000000003 140.50000000000003 0.46783333333333993 0.00080879539379119861 0.44631999999999539 0.00029133058562665195 51.352067182917686 0.028178430485091034 60.500000000000007 -0.0011077280060650789 0.37633333333332836 284.50000000000006 340.50000000000006 248.50000000000003 -0.23744253604653345 316.50000000000006 -0.0011515738187006586 104.50000000000001 -0.00010731197703239824
decision_type=2 2 2 2 2 2 2 2 2 2 2 2 2 2 2 2 2 2 2 2 2 2 2 2 2 2 2 2 2 2
left_child=1 3 5 18 21 -2 7 14 11 12 -11 -3 19 -12 -7 16 -16 -17 -1 20 -10 25 24 -24 -23 26 27 28 -5 -27
right_child=2 8 -4 4 -6 6 -8 -9 9 10 13 -13 -14 -15 15 17 -18 -19 -20 -21 -22 22 23 -25 -26 29 -28 -29 -30 -31
leaf_value=0.056186924922071252 -0.017768902918687959 -0.04963841224059827 0.032270985904244334 0.011099714465372806 0.063269346249829495 0.0055346473197135796 -0.049870237490166724 0.036819003556138388 0.041096524881862967 -0.072627503911558575 -0.025873306019075483 0.021793073688221472 0.05435696818082885 0.021209581207134898 -0.0057871051951094953 -0.046308994337380727 -0.050791228315563812 0.0064920086535990218 0.016418098660865348 -0.028799793703015737 -0.0015945968707103565 0.014694097266877286 -0.039615051603144033 0.017952474792822703 0.068226703837813873 0.0082200347439214186 0.032578629716455677 -0.081033929672066476 -0.054281835795467817 -0.0064343875346983192
leaf_weight=20.484969526529312 437.22130893170834 12.492032095789908 30.476527750492096 14.242206484079359 12.994402483105658 192.2726283967495 23.230169296264648 29.471728220582008 20.980494767427444 22.968025580048561 122.32461275160313 83.170234426856041 13.490743055939673 20.234979853034019 39.693261504173279 13.736428663134573 40.443680003285408 84.191205218434334 294.25422360002995 35.211113527417183 195.83293707668781 222.06158956885338 41.676695764064789 49.469294831156731 17.488513886928558 349.18766355514526 20.984184414148331 15.238389164209364 21.219445213675499 204.76407910883427
leaf_count=82 1751 50 122 57 52 770 93 118 84 92 490 333 54 81 159 55 162 337 1178 141 784 889 167 198 70 1398 84 61 85 820
internal_value=-0.000223941 0.00417674 -0.00917004 0.00818132 0.0046664 -0.0106382 -0.00326839 -0.000560674 -0.00558611 -0.00959228 -0.0266051 0.0124652 0.00101385 -0.0191903 -0.00353538 -0.0133291 -0.0284999 -0.000914452 0.0190065 -0.00184157 0.00253652 0.00387012 0.0111681 -0.0083704 0.0186023 1.25739e-05 -0.021552 -0.043956 -0.0280231 0.00280314
internal_weight=2701.51 1810.77 890.737 1284.07 969.326 860.26 423.039 399.809 526.705 431.043 165.528 95.6623 265.515 142.56 370.337 178.065 80.1369 97.9276 314.739 252.025 216.813 956.332 330.696 91.146 239.55 625.636 71.6842 50.7 35.4617 553.952
internal_count=10817 7250 3567 5141 3881 3445 1694 1601 2109 1726 663 383 1063 571 1483 713 321 392 1260 1009 868 3829 1324 365 959 2505 287 203 142 2218
is_linear=0
shrinkage=0.05


Tree=2
num_leaves=31
num_cat=0
split_feature=3 13 11 14 17 12 3 18 18 6 16 18 18 18 18 2 11 10 11 2 13 13 10 3 13 14 3 6 14 12
split_gain=38.4067 26.4018 19.5613 17.608 16.3361 19.3144 16.0383 14.7456 19.5909 28.5599 22.5506 14.3087 25.6106 29.3139 26.4074 30.0334 20.2115 16.0503 23.6199 16.982 16.5465 15.7925 15.7147 14.4838 14.2309 24.2096 15.1675 22.421 15.5997 13.9263
threshold=0.00070228277197809661 0.039684470429858017 0.79962325959542124 -0.00052312953549330172 0.00038063648307073977 0.59868067472685138 0.0057600017820028764 379.50000000000006 60.500000000000007 0.32100000000001505 0.0007121600887538183 170.50000000000003 339.50000000000006 291.50000000000006 222.50000000000003 -0.00078946645359823087 0.065398318084135112 42.640874871092699 -0.031068480756118785 -0.0013157983202592425 -0.27438015968617463 -0.016562224378395222 48.643773126311366 -0.0002176359512147913 -0.10354884087114338 -0.00036518925783856363 -0.0011515738187006586 0.23002000000001319 -8.2593362915830458e-05 -0.049005640907260985
decision_type=2 2 2 2 2 2 2 2 2 2 2 2 2 2 2 2 2 2 2 2 2 2 2 2 2 2 2 2 2 2
left_child=1 11 4 -3 -2 6 -6 8 10 -10 -5 17 13 14 15 -13 24 20 19 -19 -1 -18 23 -15 -14 -26 29 28 -28 -27
right_child=2 3 -4 7 5 -7 -8 -9 9 -11 -12 12 16 22 -16 -17 21 18 -20 -21 -22 -23 -24 -25 25 26 27 -29 -30 -31
leaf_value=0.050149385608264797 -0.016891698864506154 0.037509344771009048 0.030637760232202139 -0.0091091039378567822 -0.0033598143005789147 -0.047476116285935024 0.034951987558460483 0.0086508144533988945 -0.065050305886167878 -0.01519882296748116 0.047977385912400451 0.0088551302731947196 -0.021105710643189404 -0.0363201328141107 0.020340575040747898 -0.055134694966749824 0.015744675338785076 -0.012997641186410419 0.010704698948184391 0.043277940143388621 0.00038583933383344604 -0.031633459004383982 -0.083726273372926943 0.020892051490918981 0.05778628776186924 0.0069022181283760007 -0.043579186875780489 0.055808627433028071 0.0016876555141394139 0.03567899281978449
leaf_weight=17.745895519852638 436.93750651180744 20.987113565206528 30.495529770851135 119.13819256424904 370.24928733706474 23.182660490274429 29.493059694766998 87.159795746207237 36.878770485520363 130.03035625815392 20.238078579306602 40.22633558511734 25.970406115055084 57.080821990966797 86.897318139672279 33.697320222854614 27.964434251189232 15.243658572435377 298.28899963200092 111.18497297167778 284.53106202185154 47.404667273163795 13.704681843519209 13.721556961536406 33.231141895055771 78.193033501505852 24.980435609817505 15.241503372788427 79.93421533703804 90.938590243458748
leaf_count=71 1751 84 122 477 1483 93 118 349 148 521 81 161 104 229 348 135 112 61 1194 445 1139 190 55 55 133 313 100 61 320 364
internal_value=-0.000213203 0.00396782 -0.00871565 -0.00711416 -0.0101113 -0.00310634 -0.000533163 -0.00949447 -0.0146581 -0.0262136 -0.000819882 0.00725732 0.00198149 -0.0108756 0.00165314 -0.020314 0.00942315 0.0121136 0.0183812 0.0364927 0.00330733 -0.0140546 -0.0347184 -0.0252324 0.0145008 0.0173679 0.012725 -0.000858202 -0.00909049 0.0223749
internal_weight=2700.97 1810.61 890.358 414.432 859.863 422.925 399.742 393.445 306.285 166.909 139.376 1396.18 669.186 245.328 160.821 73.9237 423.858 726.995 424.718 126.429 302.277 75.3691 84.5071 70.8024 348.489 322.519 289.288 120.156 104.915 169.132
internal_count=10817 7250 3567 1660 3445 1694 1601 1576 1227 669 558 5590 2680 983 644 296 1697 2910 1700 506 1210 302 339 284 1395 1291 1158 481 420 677
is_linear=0
shrinkage=0.05


Tree=3
num_leaves=31
num_cat=0
split_feature=3 2 10 11 3 3 6 2 11 5 1 2 15 11 10 18 18 7 6 3 10 13 7 7 11 6 6 9 3 7
split_gain=34.9617 24.2307 25.3693 16.7546 16.12 20.3472 16.1027 16.0138 14.9689 13.1139 12.8421 12.5499 19.2967 12.1577 12.8484 11.6509 17.4133 21.1592 17.6677 27.351 14.5682 22.18 11.2409 18.626 32.2911 19.0452 18.1885 17.1124 14.1919 13.4379
threshold=0.00096253094821086439 2.0145112916036826e-05 43.978004846873709 0.79962325959542124 -0.0012963753795096542 -0.00366331964100121 0.8917900000000033 -0.0014637103714190134 0.60170538078068614 -0.13573721229074606 -4.1026202190541643e-05 0.0010903804247751616 4.1158677107522308e-05 0.19248304604815306 67.974175605017507 389.50000000000006 338.50000000000006 0.17039999999999511 0.39001000000002933 -0.00073549384831374362 33.172890974983169 -0.026462557494088348 0.19391666666667412 0.11476000000000493 -0.0042706846781470622 0.088010000000008415 0.16302999999999204 0.065826497883445509 0.001755718714878649 0.76510000000000311
decision_type=2 2 2 2 2 2 2 2 2 2 2 2 2 2 2 2 2 2 2 2 2 2 2 2 2 2 2 2 2 2
left_child=1 2 4 22 5 7 8 -1 11 10 -7 13 -13 14 -3 16 17 -6 -19 -20 -17 -22 23 24 28 -26 -24 -28 -2 -29
right_child=3 6 -4 -5 15 9 -8 -9 -10 -11 -12 12 -14 -15 -16 20 -18 18 19 -21 21 -23 26 -25 25 -27 27 29 -30 -31
leaf_value=0.0079548609228216518 0.07569200437505047 -0.0014183121904899679 0.017575789025233764 0.027806257413137428 0.011609913135655908 0.040108639439931891 0.040549840305274504 -0.024987356675419917 0.044328910397486987 0.0067345085220894474 -0.00031370068303912145 0.023180705738987471 -0.027203049093053905 -0.024636921438355233 0.04588559973608286 -0.07376800728035085 0.046880805804313627 -0.029606270013308573 0.04793600418878808 -0.026967152537714947 -0.055467947181440914 0.035229963767557326 -0.056084753873678263 -0.030264831510415837 -0.043123092320524754 0.015482257507530598 0.011387971135936628 -0.013858430775057782 0.0092526166304963686 0.017177631072367364
leaf_weight=94.834301844239235 14.229869201779364 568.78656396269798 434.3995228856802 29.248929098248482 103.71089054644108 85.919633120298386 20.486782774329185 60.380652859807014 15.486104503273962 113.8566997051239 25.474246740341187 22.727414399385452 115.99500420689583 55.884179636836052 14.726427257061003 13.469574838876722 16.728832021355629 101.84398165345192 22.235692143440247 26.969525456428528 13.473355412483214 13.489568695425989 17.706881046295166 152.58938243985176 40.908665835857391 20.968360647559166 124.74467934668064 300.85846768319607 18.470792263746262 39.45025809109211
leaf_count=380 57 2279 1739 117 415 344 82 242 62 456 102 91 465 224 59 54 67 408 89 108 54 54 71 612 164 84 500 1206 74 158
internal_value=-0.000203052 0.00335532 0.00810397 -0.00930025 0.0021614 0.00906925 -0.00321728 -0.00486009 -0.00434712 0.0186676 0.0308646 -0.00531587 -0.0189485 -0.00235816 -0.000224478 -0.00626444 -0.00253523 -0.00578013 -0.0177202 0.00688136 -0.0313047 -0.0100917 -0.0107871 -0.0194588 -0.00202458 -0.0232634 -0.00634738 -0.00445363 0.0381641 -0.0102606
internal_weight=2700.06 1940.88 1126.79 759.176 692.387 380.466 814.092 155.215 793.606 225.251 111.394 778.12 138.722 639.397 583.513 311.921 271.489 254.76 151.049 49.2052 40.4325 26.9629 729.927 247.167 94.5777 61.877 482.76 465.053 32.7007 340.309
internal_count=10817 7774 4512 3043 2773 1524 3262 622 3180 902 446 3118 556 2562 2338 1249 1087 1020 605 197 162 108 2926 991 379 248 1935 1864 131 1364
is_linear=0
shrinkage=0.05


Tree=4
num_leaves=31
num_cat=0
split_feature=3 13 7 4 7 8 4 6 16 6 5 13 15 13 12 14 14 3 11 13 5 13 3 4 14 0 14 14 3 7
split_gain=31.5717 22.4732 17.6035 16.7454 15.7139 16.8312 15.8349 14.2157 12.4112 12.3809 22.8044 17.5882 12.3686 11.7207 11.2056 13.0777 11.1409 10.3468 9.81469 9.80683 13.0061 10.7941 12.2513 9.67645 14.7393 14.5451 10.2463 9.56443 16.6324 16.8354
threshold=0.00096253094821086439 0.039684470429858017 0.40465666666666877 0.12651276940479464 0.39858333333332524 0.00031006896944213728 0.76795031356251353 0.17295999999997777 7.5219160758408619e-05 0.56248000000000509 0.79301543100036054 -0.1172405717753653 0.00018906843716826052 0.061151321096740388 -0.52623292690474566 -0.00060895460693336163 -0.00019350633084531344 -0.0072782812602192179 -0.15772513625682902 0.0098150682267479621 -0.52996234196535597 -0.05677682342718094 0.0020185180458250763 0.8648753457229218 0.00053551084849500158 0.00053700662810973754 0.00099508437414618672 -0.00023473963229837076 -0.0012211730847314025 0.30264000000001196
decision_type=2 2 2 2 2 2 2 2 2 2 2 2 2 2 2 2 2 2 2 2 2 2 2 2 2 2 2 2 2 2
left_child=1 3 7 8 5 6 16 -3 -1 11 17 -5 14 -9 -13 -16 -2 -11 -6 21 -21 22 -18 26 25 -25 -20 28 29 -17
right_child=4 2 -4 9 18 -7 -8 13 -10 10 -12 12 -14 -15 15 27 19 -19 23 20 -22 -23 -24 24 -26 -27 -28 -29 -30 -31
leaf_value=-0.00090413409868671756 0.028489427315199645 0.0025484106426636038 0.0054018351195819951 -0.023071700596760315 -0.036019518323371039 -0.036179037649820042 0.0015074016225039295 -0.039415232552660467 0.031025724142933961 -0.013589218971076792 -0.011451207815816898 -0.040586863104492943 -0.033153683509585044 -0.013111241572655169 0.045666840538531248 0.027390326775957891 -0.030849475398943269 0.034109267838661354 -0.011883270457012284 0.013614384340152689 -0.023476840509947378 -0.033723511220751963 0.030273306287826953 0.048414432105744899 -0.0041893881883979722 -0.013230604917300232 0.026426489800765542 0.0070252210557872055 -0.021542575182909047 -0.008404124824864731
leaf_weight=42.467378526926041 12.47179529070854 81.387139707803726 179.99667014181614 63.385874807834625 15.957011848688124 71.73822908103466 177.76630622148514 66.032786920666695 107.40583018958569 12.740617036819456 49.456178650259972 13.459834933280943 21.952673763036728 118.0773663520813 19.715252384543419 55.944433197379112 17.179351091384888 105.64108948409557 98.054832547903061 42.138915508985519 53.821071341633797 131.30318886041641 15.68153892457485 40.93857829272747 47.907180860638618 12.487682804465292 21.233160331845284 835.29855944216251 88.018191397190094 79.575479611754417
leaf_count=170 50 326 721 254 64 288 713 265 430 51 198 54 88 474 79 224 69 423 393 169 216 527 63 164 192 50 85 3345 353 319
internal_value=-0.000193351 0.0031878 -0.00666927 0.00612498 -0.00884169 -0.0136856 -0.0101026 -0.014853 0.0219782 0.0043587 0.0170633 0.00254759 0.00400535 -0.0225454 0.00475236 0.00531817 -0.0176737 0.0289758 0.00184818 -0.019887 -0.00718897 -0.0273095 -0.00168108 0.00458705 0.0159483 0.0340057 -0.00506417 0.00456689 -0.00461919 0.0063723
internal_weight=2699.23 1940.56 445.494 1495.06 758.679 522.1 450.362 265.497 149.873 1345.19 167.838 1177.35 1113.96 184.11 1092.01 1078.55 272.596 118.382 236.578 260.124 95.96 164.164 32.8609 220.621 101.333 53.4263 119.288 1058.84 223.538 135.52
internal_count=10817 7774 1786 5988 3043 2095 1807 1065 600 5388 672 4716 4462 739 4374 4320 1094 474 948 1044 385 659 132 884 406 214 478 4241 896 543
is_linear=0
shrinkage=0.05


Tree=5
num_leaves=31
num_cat=0
split_feature=2 6 7 12 3 18 18 3 6 11 3 7 18 4 18 11 12 18 18 7 7 18 14 3 3 14 7 3 18 18
split_gain=26.3103 17.7987 16.1525 21.7689 15.4536 22.2821 33.591 22.6733 16.295 15.9177 14.6788 23.6305 18.08 24.2026 17.186 28.9836 17.3837 16.5333 27.1748 23.9798 29.99 15.8526 21.3056 22.6547 14.7349 14.6225 14.3169 13.7207 18.4766 19.6118
threshold=3.3471032087950554e-05 0.12303999999998043 0.43099666666666586 0.21758730053848377 -0.003576254581648087 162.50000000000003 362.50000000000006 0.0019011398627755396 0.25999999999997958 0.18428627871560369 -0.0012211730847314025 0.38138333333332264 52.500000000000007 1.3584308272759922 236.50000000000003 -0.20601681231266863 -0.099290395135632134 366.50000000000006 286.50000000000006 0.30264000000001196 0.35982333333333077 150.50000000000003 -0.00025031641846650927 -0.00044291866435835153 0.0023763558563672329 0.00019059650245140849 0.30579000000000561 0.0008729769321026581 230.50000000000003 200.50000000000003
decision_type=2 2 2 2 2 2 2 2 2 2 2 2 2 2 2 2 2 2 2 2 2 2 2 2 2 2 2 2 2 2
left_child=1 -1 3 4 8 7 27 9 -2 25 12 14 13 -3 15 -12 -16 18 19 -14 -21 22 23 -13 -24 -6 -18 -7 29 -29
right_child=2 10 -4 -5 5 6 -8 -9 -10 -11 11 21 17 -15 16 -17 26 -19 -20 20 -22 -23 24 -25 -26 -27 -28 28 -30 -31
leaf_value=0.015877739583402189 0.046371583549201983 0.043295763468430774 0.0050276327752814326 -0.026279684525599162 -0.0023695901250757705 -0.049612288160999565 -0.0039982892039912375 0.040852134630384673 -0.015145657874120824 -0.028945030965250237 -0.045262160821340082 0.015757586352894742 0.05207809048152931 -0.0087224020646276684 -0.0025211343053888717 0.0038974633338865958 -0.045777686334529152 0.019196267907557775 -0.02505752058545915 -0.045421773921869794 0.010711868956628488 0.033116417197795449 0.03334030613555708 -0.051144945741534081 -0.025550430788243546 0.028144257938245289 0.011139429956113861 -0.024038092100670493 -0.047885519838565808 0.057645395767226354
leaf_weight=304.93302698433399 28.724457785487175 71.718360811471939 319.53926135599613 138.60410405695438 290.02927158772945 75.678870692849159 227.44245518743992 33.394628971815109 17.216698035597801 48.28040674328804 34.130971521139145 22.218420624732971 26.482745200395584 32.491532847285271 60.557787045836449 246.70795248448849 74.676036521792412 120.87205369770527 92.902282938361168 28.901704758405685 134.64103037118912 60.610288962721825 50.207844704389572 29.39321494102478 13.471703961491583 45.408449068665504 12.966953620314596 17.913802236318592 26.115822106599808 12.459122627973555
leaf_count=1221 115 287 1280 557 1162 305 912 134 69 194 137 89 106 130 243 988 300 484 373 116 539 243 201 118 54 182 52 72 105 50
internal_value=0.000483172 0.00517538 -0.00471122 -0.00794855 -0.00486008 -0.00652672 -0.0156474 0.00133657 0.0233177 -0.00210243 0.00224309 -0.00301898 0.00850919 0.0270771 -0.00934653 -0.00207701 -0.0231222 0.00371732 -0.00289558 0.00793926 0.000791783 0.0124145 0.00153118 -0.0223439 0.0208817 0.00176109 -0.0373567 -0.0356939 -0.0170472 0.00946887
internal_weight=2698.69 1417.88 1280.81 961.268 822.664 776.723 359.61 417.113 45.9412 383.718 1112.95 604.941 508.01 104.21 429.04 280.839 148.201 403.8 282.928 190.025 163.543 175.901 115.291 51.6116 63.6795 335.438 87.643 132.168 56.4887 30.3729
internal_count=10818 5681 5137 3857 3300 3116 1444 1672 184 1538 4460 2425 2035 417 1720 1125 595 1618 1134 761 655 705 462 207 255 1344 352 532 227 122
is_linear=0
shrinkage=0.05


Tree=6
num_leaves=31
num_cat=0
split_feature=2 4 18 7 12 3 18 18 3 10 14 14 2 3 4 18 18 14 13 12 12 7 3 7 12 10 12 3 14 7
split_gain=23.7582 15.9979 17.4977 14.5912 19.6972 13.9508 20.148 30.4897 20.4294 13.95 23.9291 21.741 21.15 19.3282 28.0587 13.7086 12.7925 14.9102 16.3796 25.8864 16.8267 13.366 12.5003 17.3808 20.1426 13.42 12.2512 13.2345 14.9862 13.3925
threshold=3.3471032087950554e-05 0.028178430485091034 62.500000000000007 0.43099666666666586 0.21758730053848377 -0.003576254581648087 162.50000000000003 362.50000000000006 0.0019011398627755396 43.350601551713673 -1.2310526076016385e-05 4.3357557034950276e-05 -0.0013157983202592425 -0.001171090694282729 1.3584308272759922 1.0000000180025095e-35 134.50000000000003 0.0002966587339076142 0.0019813690887077223 0.0060160154466167614 0.056373856871208265 0.21096999999997859 0.0008729769321026581 0.22752666666666529 -0.0096853885045091199 56.592895276812946 -0.21794927806952635 -0.00046384129986394205 -0.0001881683051434431 0.11476000000000493
decision_type=2 2 2 2 2 2 2 2 2 2 2 2 2 2 2 2 2 2 2 2 2 2 2 2 2 2 2 2 2 2
left_child=1 -1 9 4 5 -2 8 22 16 13 12 -12 -11 14 -3 -16 17 18 20 -20 -7 -22 25 -24 -25 -8 -15 29 -29 -28
right_child=3 2 -4 -5 -6 6 7 -9 -10 10 11 -13 -14 26 15 -17 -18 -19 19 -21 21 -23 23 24 -26 -27 27 28 -30 -31
leaf_value=0.042715727153848401 0.022151154603845851 0.037951829502354928 -0.0002831378785626175 0.0047757386548294761 -0.025012726169094796 0.015117816775909208 -0.032535906887650401 -0.0037989980105787692 0.038746329472108793 -0.027822017340025092 -0.023620729184924871 0.02084518781885332 0.037719160336614668 -0.040930509053131343 0.010483783487887838 -0.054268055215730054 0.040783594067748653 -0.037259032142182617 -0.013311883642174069 0.018428535133516638 -0.052835564194796417 0.004447806758158486 -0.063229036487185558 -0.046445972585235001 0.026007905852077004 -0.077408200966249327 -0.022223105157901234 -0.052342882653533207 -0.0027423584208059837 0.030318870304684595
leaf_weight=27.452625259757042 45.941433012485504 70.657970488071442 852.37631578743458 319.57265622913837 138.34998688101768 21.727087691426277 50.449058502912521 227.40610110759735 33.447580173611641 13.47820110619068 48.220156461000443 63.940776005387306 141.89167939126492 23.363192990422249 18.743384018540382 14.495227232575415 16.7124382853508 30.772888988256454 111.75526066124439 151.07583971321583 37.636066794395447 13.960560381412504 14.582133904099463 14.910055220127104 26.896699622273445 24.879557535052299 16.748947694897652 20.216243550181389 61.72554412484169 43.958988219499588
leaf_count=110 184 283 3419 1280 557 87 204 912 134 54 193 256 568 94 75 58 67 124 448 605 151 56 59 60 108 101 67 81 247 176
internal_value=0.000458658 0.0049183 0.0041717 -0.00447895 -0.00755811 -0.00462089 -0.00620544 -0.0148868 0.00126944 0.011237 0.0193283 0.00172843 0.0320335 0.00321711 0.0201303 -0.0177542 -0.00199798 -0.00394655 -0.000896996 0.00493257 -0.0217933 -0.0373363 -0.0340295 -0.0162266 0.000167791 -0.0473563 -0.00736777 -0.00187085 -0.0149795 0.0158229
internal_weight=2697.34 1417.27 1389.82 1280.08 960.503 822.153 776.211 359.124 417.088 537.44 267.531 112.161 155.37 269.909 103.897 33.2386 383.64 366.928 336.155 262.831 73.3237 51.5966 131.718 56.3889 41.8068 75.3286 166.013 142.65 81.9418 60.7079
internal_count=10818 5681 5571 5137 3857 3300 3116 1444 1672 2152 1071 449 622 1081 416 133 1538 1471 1347 1053 294 207 532 227 168 305 665 571 328 243
is_linear=0
shrinkage=0.05


end of trees

feature_importances:
minutes_into_session=39
vwap_dev=29
atr_15=26
macd=17
macd_signal=15
ema_9_21_spread=15
macd_hist=13
atr_5=12
ret_15=10
rvol=8
rsi_14=8
low_dist_5=4
vol_z=3
ema_slope=3
ret_5=2
rv_5=2
high_dist_5=2
ret_1=1
rv_annual=1

parameters:
[boosting: gbdt]
[objective: binary]
[metric: binary_logloss]
[tree_learner: serial]
[device_type: cpu]
[data_sample_strategy: bagging]
[data: ]
[valid: ]
[num_iterations: 1000]
[learning_rate: 0.05]
[num_leaves: 31]
[num_threads: 0]
[seed: 42]
[deterministic: 0]
[force_col_wise: 0]
[force_row_wise: 0]
[histogram_pool_size: -1]
[max_depth: -1]
[min_data_in_leaf: 50]
[min_sum_hessian_in_leaf: 0.001]
[bagging_fraction: 0.8]
[pos_bagging_fraction: 1]
[neg_bagging_fraction: 1]
[bagging_freq: 5]
[bagging_seed: 400]
[bagging_by_query: 0]
[feature_fraction: 0.8]
[feature_fraction_bynode: 1]
[feature_fraction_seed: 30056]
[extra_trees: 0]
[extra_seed: 12879]
[early_stopping_round: 0]
[early_stopping_min_delta: 0]
[first_metric_only: 0]
[max_delta_step: 0]
[lambda_l1: 0]
[lambda_l2: 0]
[linear_lambda: 0]
[min_gain_to_split: 0]
[drop_rate: 0.1]
[max_drop: 50]
[skip_drop: 0.5]
[xgboost_dart_mode: 0]
[uniform_drop: 0]
[drop_seed: 17869]
[top_rate: 0.2]
[other_rate: 0.1]
[min_data_per_group: 100]
[max_cat_threshold: 32]
[cat_l2: 10]
[cat_smooth: 10]
[max_cat_to_onehot: 4]
[top_k: 20]
[monotone_constraints: ]
[monotone_constraints_method: basic]
[monotone_penalty: 0]
[feature_contri: ]
[forcedsplits_filename: ]
[refit_decay_rate: 0.9]
[cegb_tradeoff: 1]
[cegb_penalty_split: 0]
[cegb_penalty_feature_lazy: ]
[cegb_penalty_feature_coupled: ]
[path_smooth: 0]
[interaction_constraints: ]
[verbosity: -1]
[saved_feature_importance_type: 0]
[use_quantized_grad: 0]
[num_grad_quant_bins: 4]
[quant_train_renew_leaf: 0]
[stochastic_rounding: 1]
[linear_tree: 0]
[max_bin: 255]
[max_bin_by_feature: ]
[min_data_in_bin: 3]
[bin_construct_sample_cnt: 200000]
[data_random_seed: 175]
[is_enable_sparse: 1]
[enable_bundle: 1]
[use_missing: 1]
[zero_as_missing: 0]
[feature_pre_filter: 1]
[pre_partition: 0]
[two_round: 0]
[header: 0]
[label_column: ]
[weight_column: ]
[group_column: ]
[ignore_column: ]
[categorical_feature: ]
[forcedbins_filename: ]
[precise_float_parser: 0]
[parser_config_file: ]
[objective_seed: 16083]
[num_class: 1]
[is_unbalance: 0]
[scale_pos_weight: 1]
[sigmoid: 1]
[boost_from_average: 1]
[reg_sqrt: 0]
[alpha: 0.9]
[fair_c: 1]
[poisson_max_delta_step: 0.7]
[tweedie_variance_power: 1.5]
[lambdarank_truncation_level: 30]
[lambdarank_norm: 1]
[label_gain: ]
[lambdarank_position_bias_regularization: 0]
[eval_at: ]
[multi_error_top_k: 1]
[auc_mu_weights: ]
[num_machines: 1]
[local_listen_port: 12400]
[time_out: 120]
[machine_list_filename: ]
[machines: ]
[gpu_platform_id: -1]
[gpu_device_id: -1]
[gpu_use_dp: 0]
[num_gpu: 1]

end of parameters

pandas_categorical:[]
