tree
version=v4
num_class=1
num_tree_per_iteration=1
label_index=0
max_feature_idx=18
objective=binary sigmoid:1
feature_names=ret_1 ret_5 ret_15 vwap_dev rvol vol_z atr_5 atr_15 rv_5 rv_annual rsi_14 macd macd_signal macd_hist ema_9_21_spread ema_slope high_dist_5 low_dist_5 minutes_into_session
feature_infos=[-0.015677687171702148:0.014967032077990439] [-0.015690910556436122:0.015563047875927216] [-0.016330477290430023:0.016776440101495593] [-0.015876507772837896:0.0097694233743588783] [0.085897591586046582:16.421932949697943] [-2.2412863976600597:4.2477201019028978] [0.125:5.6134799999999361] [0.16165333333334123:2.3150733333332938] [0:0.0072283513829064262] [0:2.2660622193327193] [0:92.774767560002246] [-2.9941801703616875:3.3715872000049103] [-2.4501411230505341:2.9327479907069276] [-1.3227458395538956:1.4162982293934174] [-0.0045251449473134682:0.0048278690298358112] [-0.0071149865152180247:0.0074600997333376107] [0:0.016609799372185013] [0:0.029208551223345092] [0:269]
tree_sizes=3422 3404 3442 3420 3439 3434 3432

Tree=0
num_leaves=31
num_cat=0
split_feature=7 18 7 18 7 18 12 7 11 13 11 18 2 7 18 18 8 18 7 18 18 11 14 12 2 15 6 13 18 13
split_gain=683.717 61.2495 70.7431 43.0768 55.9356 47.0516 39.9994 39.7045 32.9909 46.5462 27.4074 21.9531 15.7443 32.9112 15.5728 22.0039 14.3697 12.994 12.931 12.5683 12.2964 18.9375 11.8332 29.5518 10.5498 8.69188 8.34069 7.53825 5.65938 5.07122
threshold=0.43792666666666574 127.50000000000001 0.39956333333332178 159.50000000000003 0.56140333333333203 61.500000000000007 0.10849332810938238 0.298103333333332 -0.15722345969999194 -0.081804697873846519 0.30821848105858868 73.500000000000014 0.00047804411744545311 0.60203000000000595 80.500000000000014 57.500000000000007 0.00080613998248716616 201.50000000000003 0.37308333333332566 79.500000000000014 136.50000000000003 0.049010667604477483 0.00018494598853249566 0.057579375670676114 -0.0031346498258342788 -6.6510446833922812e-06 0.66801000000003807 -0.079879912726805488 41.500000000000007 -0.0050215400569170584
decision_type=2 2 2 2 2 2 2 2 2 2 2 2 2 2 2 2 2 2 2 2 2 2 2 2 2 2 2 2 2 2
left_child=1 7 18 4 6 10 19 -1 -9 -10 28 -7 -5 -14 15 -8 26 -4 27 -2 21 24 23 -11 -13 -21 -12 -3 -6 -20
right_child=3 2 17 12 5 11 14 8 9 22 16 20 13 -15 -16 -17 -18 -19 29 25 -22 -23 -24 -25 -26 -27 -28 -29 -30 -31
leaf_value=0.056182113610558998 -0.013479442959194367 -0.052264166582055738 -0.033192533626723739 0.078901248193687795 0.089227007960618249 -0.03413520472932139 -0.056972344209201067 0.018763758684169681 0.010699862218301187 -0.1020234629997291 0.02724655886255083 0.031864241646992586 -0.013701422299484196 0.078699348708574299 -0.07360955715059779 0.03180434245993026 -0.009513913727576111 0.031164740970959569 -0.074486764982181694 0.065866488071245483 0.064489946550913793 0.060298125314234521 -0.10562282318016042 -0.0042474807532121165 -0.018743524457495969 0.012181368778309581 0.076309438447244526 -0.091080291100337454 0.059215131985609168 -0.032409549978664499
leaf_weight=12.499788403511046 13.249775707721708 13.499771475791929 16.749716460704807 63.998916625976562 50.749140918254852 18.999678373336792 14.749750316143038 19.749665677547455 20.249657213687897 17.249707996845249 19.249674141407013 15.749733388423918 16.999712228775024 22.249623358249664 18.999678373336792 13.249775707721708 14.749750316143034 14.749750316143034 13.499771475791933 18.999678373336792 16.249724924564362 17.249707996845245 22.749614894390106 13.999763011932371 29.749496400356293 12.499788403511049 15.749733388423918 170.24711805582047 22.749614894390106 15.249741852283476
leaf_count=50 53 54 67 256 203 76 59 79 81 69 77 63 68 89 76 53 59 59 54 76 65 69 91 56 119 50 63 681 91 61
internal_value=-0.00772115 -0.059175 -0.072984 0.0356052 0.0263669 0.0399784 -0.00645655 -0.0275376 -0.0386706 -0.0539477 0.0605392 0.0141202 0.0636108 0.0386786 -0.0386706 -0.0149619 0.0318802 -0.00305698 -0.0833497 0.0273772 0.0257259 0.0156874 -0.0781905 -0.0582198 -0.00122545 0.0445629 0.0493249 -0.0882285 0.0799376 -0.0521675
internal_weight=766.737 350.494 243.996 416.243 312.995 221.246 91.7484 106.498 93.9984 74.2487 123.248 97.9983 103.248 39.2493 46.9992 27.9995 49.7492 31.4995 212.496 44.7492 78.9987 62.7489 53.9991 31.2495 45.4992 31.4995 34.9994 183.747 73.4988 28.7495
internal_count=3067 1402 976 1665 1252 885 367 426 376 297 493 392 413 157 188 112 199 126 850 179 316 251 216 125 182 126 140 735 294 115
is_linear=0
shrinkage=1


Tree=1
num_leaves=31
num_cat=0
split_feature=7 18 7 3 7 12 7 11 2 7 3 12 3 4 18 3 18 10 10 7 3 7 6 17 10 12 12 11 12 18
split_gain=617.838 55.4086 64.0383 39.3201 44.3633 43.3841 35.8704 29.8216 23.4001 23.698 22.7786 20.3666 30.6032 17.648 17.3458 34.0912 40.1903 19.9716 17.4391 16.4449 15.0769 13.1784 13.0196 10.9715 13.3088 10.7799 9.59569 8.06914 7.77419 6.99956
threshold=0.43792666666666574 127.50000000000001 0.39956333333332178 0.00048690911272728069 0.52248999999999357 0.099405888099045575 0.298103333333332 -0.15722345969999194 0.0020741721521049254 0.78409333333332831 -0.00023533365041894486 0.057579375670676114 0.0012785675630564619 0.40430591538542482 136.50000000000003 -0.002093846279384675 51.500000000000007 48.50509640762872 44.12794521528366 0.5539333333333275 0.0030660552929493048 0.37308333333332566 0.68947999999999199 0.0009917131088173685 50.022520054154221 0.18585878414532206 0.047790315810590879 0.39693565841571404 0.42405810554357909 63.500000000000007
decision_type=2 2 2 2 2 2 2 2 2 2 2 2 2 2 2 2 2 2 2 2 2 2 2 2 2 2 2 2 2 2
left_child=1 6 13 14 5 -5 -1 -8 9 23 -4 -9 25 -3 15 16 -2 -16 22 -17 -7 -15 -18 24 -6 -13 -19 29 -10 -21
right_child=3 2 10 4 8 20 7 11 28 -11 -12 12 -14 21 17 19 18 26 -20 27 -22 -23 -24 -25 -26 -27 -28 -29 -30 -31
leaf_value=0.061239931033100485 0.078858500230137574 -0.017185757620974414 0.039407514564445717 0.052964215119296755 -0.010624797530166756 -0.0081570751693400851 0.025646374871428346 -0.082640324515821428 0.088730278171228361 0.07340885785594764 -0.047511381306673879 -0.021621805797531889 -0.076334848394066165 -0.080525343301995844 0.085972361515191206 0.019738562337353216 -0.026204466997753053 0.010388260617859033 -0.059103441130887481 0.090685831127666372 -0.075144052572879094 -0.043356453206997832 0.040969014752321745 -0.018985506241839169 0.05887712101139591 0.036725102098938547 0.06632696883950559 0.034983003366795738 0.04559619078453353 0.056654612975757405
leaf_weight=12.490141391754149 16.975485622882843 13.973574653267859 18.995102092623714 15.488665863871573 12.743817016482355 14.241812407970427 19.748261287808418 22.946070671081543 23.220863297581673 16.975704804062843 12.496704548597334 18.233863741159439 18.97129300236702 170.41407531499863 66.407015398144722 18.737847656011581 13.495507121086122 15.986122667789461 13.497067540884016 43.183619067072868 20.477571830153465 27.727830946445465 15.496378749608992 24.486602395772934 14.989592745900152 13.989986062049864 14.730773031711577 12.495923876762388 18.988014295697212 23.24189530313015
leaf_count=50 68 56 76 62 51 57 79 92 93 68 50 73 76 683 266 75 54 64 54 173 82 111 62 98 60 56 59 50 76 93
internal_value=0.000483977 -0.0484695 -0.0616162 0.0416831 0.0223992 -0.0166227 -0.0183639 -0.0289536 0.0399857 0.0220884 0.00491601 -0.0434968 -0.0259524 -0.071494 0.0539409 0.0436731 0.0138262 0.070552 -0.012156 0.0618467 -0.0476661 -0.075324 0.00970026 0.00540507 0.0269402 0.00370951 0.0372146 0.0718442 0.0693261 0.0787785
internal_weight=765.847 349.987 243.607 415.86 161.613 50.2081 106.38 93.8895 111.405 69.1957 31.4918 74.1412 51.1951 212.115 254.248 157.124 59.4644 97.1239 42.489 97.6593 34.7194 198.142 28.9919 52.22 27.7334 32.2238 30.7169 78.9214 42.2089 66.4255
internal_count=3067 1402 976 1665 647 201 426 376 446 277 126 297 205 850 1018 629 238 389 170 391 139 794 116 209 111 129 123 316 169 266
is_linear=0
shrinkage=0.05


Tree=2
num_leaves=31
num_cat=0
split_feature=6 18 3 16 11 3 13 6 6 6 8 12 13 2 12 13 6 18 18 13 3 3 12 11 18 2 3 3 12 14
split_gain=492.336 61.1639 41.3906 33.76 25.581 41.5646 25.6965 23.3811 21.8898 19.5435 19.4664 17.9177 17.0427 15.5954 15.2873 15.743 11.4803 11.4614 22.9784 12.1067 13.536 9.92458 11.1438 9.67016 8.44598 10.5188 8.34913 15.8254 25.9894 7.34573
threshold=0.40755000000001479 127.50000000000001 -0.0024253659241840536 0.00026807278541303041 -0.15722345969999194 -0.0004311838972719904 -0.079879912726805488 0.70649000000000806 0.27999999999998415 0.38500000000000234 0.00041233803333782056 -0.1707703768993192 -0.099362373933247081 0.00076068465764433945 -0.36706420610878382 0.099369510669610792 0.58825000000000516 151.50000000000003 53.500000000000007 0.11161537195697012 0.00018087602779305644 0.0020346382634658633 0.057579375670676114 0.46599508593823208 132.50000000000003 -0.00063071995613561682 0.0015472745346811472 0.00062946550351531316 0.092148817577338865 0.00076557340866556663
decision_type=2 2 2 2 2 2 2 2 2 2 2 2 2 2 2 2 2 2 2 2 2 2 2 2 2 2 2 2 2 2
left_child=1 4 -3 14 -1 -6 -7 10 -8 11 24 -4 16 -14 -2 21 -12 18 23 20 -20 22 -16 -9 25 -5 27 -13 -29 -15
right_child=3 2 9 7 5 6 8 17 -10 -11 12 26 13 29 15 -17 -18 -19 19 -21 -22 -23 -24 -25 -26 -27 -28 28 -30 -31
leaf_value=0.050631303721864251 0.047732848671605474 0.016911187018027265 -0.015823936932625318 0.011860078426941511 -0.090096501753847966 0.057647443587782468 0.036657771898024043 0.084682289051329351 -0.037814965964465444 -0.014721306775411792 -0.048131381429631082 -0.078684021241490723 0.045159774614943547 -0.015197222562641895 -0.041153301472965184 0.02702586939655709 0.01391856712196494 0.08929232490483785 0.062517855635821865 -0.015199108680331178 -0.0012580558973530921 -0.062014281261472931 0.025680771298634782 0.035876077050289473 0.064775169497281668 0.055338928723431352 -0.087810107923117234 -0.072579975599123089 0.013501980189192306 0.031925742741345443
leaf_weight=13.742858916521071 16.682854175567627 16.422192171216011 14.19864611327648 25.457849279046059 18.120129689574242 13.238561660051344 12.96002523601055 43.71164633333683 41.344085782766342 17.445436477661133 13.460255950689318 76.998799011111259 58.794225320219994 21.45116001367569 12.477169632911684 22.181589350104332 16.706460073590279 24.864213302731514 24.956459447741508 12.723816245794294 12.480672270059584 12.719417512416838 12.470944330096243 13.217961460351942 44.551641389727592 30.669083774089813 69.304573312401772 22.354871302843094 14.426889061927794 13.458902165293692
leaf_count=55 67 66 57 102 73 53 52 176 166 70 54 310 236 86 50 89 67 100 100 51 50 51 50 53 179 123 279 90 58 54
internal_value=0.00046065 -0.0454918 -0.0595961 0.0355383 -0.0126946 -0.0228539 -0.00481429 0.0420067 -0.0200416 -0.0654473 0.0321909 -0.0699329 0.0189188 0.0294418 0.00540687 -0.00639144 -0.0137678 0.0587105 0.05161 0.0269359 0.0412564 -0.0260702 -0.0077446 0.0733504 0.0485204 0.035618 -0.0741291 -0.0657959 -0.0388161 0.00297013
internal_weight=763.593 330.557 231.151 433.036 99.4057 85.6628 67.5427 356.504 54.3041 214.729 224.55 197.284 123.871 93.7043 76.532 59.8491 30.1667 131.955 107.091 50.1609 37.4371 37.6675 24.9481 56.9296 100.679 56.1269 183.085 113.781 36.7818 34.9101
internal_count=3067 1329 930 1738 399 344 271 1431 218 864 901 794 497 376 307 240 121 530 430 201 150 151 100 229 404 225 737 458 148 140
is_linear=0
shrinkage=0.05


Tree=3
num_leaves=31
num_cat=0
split_feature=7 13 7 3 18 7 18 18 7 15 11 18 3 18 18 18 18 14 3 10 18 2 7 18 13 3 3 10 10 3
split_gain=516.245 47.7539 43.8439 36.7089 34.9974 41.9836 39.6695 30.3434 46.9257 23.6269 22.3112 20.2385 18.416 18.2824 16.3915 21.7766 27.4455 15.6976 13.904 25.0045 20.3387 13.3708 27.3912 9.75735 9.73819 8.08714 14.4251 19.1138 9.31402 10.4017
threshold=0.43792666666666574 -0.15284536060737297 0.37168333333332465 0.0010257275052220018 159.50000000000003 0.56816999999998652 61.500000000000007 127.50000000000001 0.298103333333332 0.00021492102835629637 0.59153604750133593 62.500000000000007 0.0020346382634658633 76.500000000000014 211.50000000000003 145.50000000000003 92.500000000000014 5.5791447680764762e-05 -0.002093846279384675 43.290636059964321 98.500000000000014 0.00047804411744545311 0.60203000000000595 93.500000000000014 0.087724788758400035 0.0014801099755718144 0.00062946550351531316 48.02991368899999 45.168130551066959 -0.0012103704745776735
decision_type=2 2 2 2 2 2 2 2 2 2 2 2 2 2 2 2 2 2 2 2 2 2 2 2 2 2 2 2 2 2
left_child=1 -1 7 14 5 9 10 8 -3 11 -7 -2 23 -8 15 16 -4 -10 19 -15 -20 -6 -23 -13 -11 26 28 -28 29 -9
right_child=4 2 3 -5 21 6 13 25 17 24 -12 12 -14 18 -16 -17 -18 -19 20 -21 -22 22 -24 -25 -26 -27 27 -29 -30 -31
leaf_value=0.042088175051693606 -0.028449092238841192 0.05784249903562122 -0.034986409091803783 -0.064667130297508646 0.077718528435982204 0.071981731384676881 -0.021860120005938941 -0.0309795941377633 -0.024076609296521907 -0.056593669364787519 0.019489383243202638 0.026883859836489138 -0.014789150488735936 0.039686615661347423 0.043763556012178698 -0.056993550508323831 0.055696385115781649 -0.08735074157011935 0.0055705022183348829 -0.049235978499396781 0.078031213647256237 -0.0072268464837018757 0.077299945387080723 0.081079071531641636 0.000465269742421167 -0.084881812201423323 -0.067391037065086354 0.011693839107091 -0.087462077257296655 -0.083997394766646083
leaf_weight=15.219130799174307 16.225715592503548 12.443994969129561 16.673959419131279 32.561156645417213 63.344261482357979 95.716425776481628 22.224560663104057 21.001112952828407 21.05314826965332 18.681448876857761 25.672142818570137 15.477818831801413 12.691590458154677 20.902296647429466 16.206234872341156 18.711123108863831 16.701031714677811 18.341967716813087 15.96121148765087 12.714356392621992 24.624295815825462 16.973518416285515 22.015977740287781 17.921797096729279 12.468660101294516 61.762911304831505 17.764550894498829 13.405505552887915 48.805705800652504 16.535203978419304
leaf_count=61 65 50 67 131 256 387 89 85 85 75 103 62 51 84 65 75 67 74 64 51 99 68 89 72 50 251 72 54 198 67
internal_value=0.000437733 -0.0445174 -0.0484878 -0.0209808 0.0381728 0.0298336 0.0418623 -0.0604914 -0.0267999 0.00180204 0.0608803 0.0195754 0.0364818 0.0179212 -0.000151492 -0.0138154 0.0103918 -0.0535364 0.0298362 0.00605467 0.0495343 0.0635391 0.0405024 0.0559643 -0.0337543 -0.0702336 -0.0625347 -0.0333785 -0.0730602 -0.0543346
internal_weight=760.803 347.187 331.968 100.854 413.616 311.282 217.815 231.114 51.8391 93.467 121.389 62.3169 46.0912 96.4267 68.2923 52.0861 33.375 39.3951 74.2022 33.6167 40.5855 102.334 38.9895 33.3996 31.1501 179.275 117.512 31.1701 86.342 37.5363
internal_count=3067 1402 1341 405 1665 1252 877 936 209 375 490 250 185 387 274 209 134 159 298 135 163 413 157 134 125 727 476 126 350 152
is_linear=0
shrinkage=0.05


Tree=4
num_leaves=31
num_cat=0
split_feature=7 13 7 3 3 13 13 3 3 7 3 7 11 10 4 7 7 3 3 7 13 14 6 12 10 15 6 16 12 3
split_gain=468.836 43.4584 42.9757 34.4277 30.9069 48.5328 21.1419 20.8758 23.2743 19.3714 18.4541 24.3767 15.9944 14.3545 13.3657 11.2661 9.912 9.42573 20.1233 9.79998 9.60381 9.01027 13.2769 7.76782 7.13744 7.10303 6.91405 6.57711 6.28865 9.05099
threshold=0.43792666666666574 -0.16759090909145427 0.37168333333332465 0.0010257275052220018 0.00048690911272728069 0.16173147762270851 0.12416930953683632 -0.00099052418617379709 -0.004504634788400577 0.82500333333334019 0.0027990983018208429 0.52248999999999357 -0.20878230063800626 59.451121402316808 0.37397428902232355 0.88783333333333314 0.7144900000000084 -0.0024864439401937944 -0.0042872489162634796 0.53949000000001213 -0.16370778942610933 -0.00041207254321212836 0.38500000000000234 0.13751396757946976 45.887965179064992 -0.00045862924018830181 0.51260000000000916 0.00029999968182790388 -0.039505778870081824 0.0020346382634658633
decision_type=2 2 2 2 2 2 2 2 2 2 2 2 2 2 2 2 2 2 2 2 2 2 2 2 2 2 2 2 2 2
left_child=1 -1 12 21 6 9 15 8 -8 10 13 -12 -3 16 -14 17 24 18 25 -20 -19 -4 -23 -5 -6 -2 -26 -22 -16 -30
right_child=4 2 3 23 5 -7 7 -9 -10 -11 11 -13 14 -15 28 -17 -18 20 19 -21 27 22 -24 -25 26 -27 -28 -29 29 -31
leaf_value=0.048179746227331108 0.040559563161523815 -0.0033630140769414108 -0.033528748143318785 -0.038975509492579691 0.0052729182551247986 0.072057579657255053 0.046554724441214092 0.067465168898868264 -0.040465508460726461 0.057753234616238748 -0.063745695431726798 0.023635218969273005 -0.010771079704038023 -0.024676868154300619 -0.07635917042268936 0.085759098248814697 -0.012076773525534686 0.030821721985799067 0.042832574290763911 -0.013313458829296885 0.038048697962823917 -0.01847479014528999 0.031464021758286484 -0.087592600080850444 0.024630483706493549 0.081881231151394937 0.073219329899612787 0.074335139965312921 -0.050409343400976636 -0.08040471378734497
leaf_weight=12.702923998236654 22.712499797344208 12.624324351549147 14.947108551859854 18.069919392466545 12.682971954345701 34.282112598419189 12.832533314824103 14.106876492500303 19.150945678353313 15.276315420866011 22.320565089583397 12.424117639660833 12.363049730658529 20.179227635264397 70.787973180413246 24.954173699021339 13.907460376620291 22.713553979992867 12.327035352587698 21.032167449593544 15.358105346560476 23.104314133524895 31.394847124814987 15.066402480006216 13.936007007956507 19.184115290641785 15.425525054335592 66.81877975165844 100.27726717293262 33.568255662918091
leaf_count=51 92 51 60 73 51 139 52 57 77 62 90 50 50 81 290 102 56 92 50 85 62 93 126 61 56 78 62 271 409 138
internal_value=0.000417185 -0.0425827 -0.0460533 -0.0191474 0.0364474 0.0193039 0.0473969 0.0167971 -0.00555092 0.00496796 -0.00230471 -0.0324997 -0.0580735 0.0114757 -0.0612564 0.0542733 0.0245142 0.0499118 0.0364094 0.00743386 0.0595994 0.00086114 0.010293 -0.0610807 0.0366177 0.0594804 0.0501574 0.0675535 -0.0643065 -0.0579321
internal_weight=756.531 344.906 332.203 102.583 411.625 160.434 251.191 46.0904 31.9835 126.152 110.876 34.7447 229.621 76.1312 216.997 205.1 55.952 180.146 75.2558 33.3592 104.89 69.4463 54.4992 33.1363 42.0445 41.8966 29.3615 82.1769 204.633 133.846
internal_count=3067 1402 1351 413 1665 647 1018 186 129 508 446 140 938 306 887 832 225 730 305 135 425 279 219 134 169 170 118 333 837 547
is_linear=0
shrinkage=0.05


Tree=5
num_leaves=31
num_cat=0
split_feature=7 3 7 18 18 7 15 18 18 3 11 18 3 11 3 7 12 13 4 4 1 7 13 13 3 12 3 6 3 3
split_gain=418.113 50.1787 51.8857 50.1621 34.7667 45.3773 32.4043 31.7742 27.6044 23.0675 22.7876 20.1821 24.2396 23.5752 19.4432 17.4216 22.4066 20.3767 23.8951 15.0054 10.6078 10.5953 10.5263 8.64721 7.10256 6.72759 4.97442 5.15846 4.08567 3.91605
threshold=0.41860666666666102 0.0023553263712944457 0.52248999999999357 127.50000000000001 165.50000000000003 0.56816999999998652 0.00024227014169986297 67.500000000000014 64.500000000000014 -0.0026716467248170121 0.59153604750133593 103.50000000000001 -0.002093846279384675 -0.47698825193214128 0.0035030138121252608 0.30133666666667225 -0.18434980934444709 -0.017259150168028394 1.155426408044361 0.38726628529803603 -0.00088091217345853668 0.37308333333332566 0.019971505783211555 -0.087865823779115171 0.00035962751285574561 -0.0099321220740679218 -0.0048661977272094845 0.57540999999999953 -0.0011132716472069589 -0.0019685883283938944
decision_type=2 2 2 2 2 2 2 2 2 2 2 2 2 2 2 2 2 2 2 2 2 2 2 2 2 2 2 2 2 2
left_child=3 4 22 15 5 6 7 -2 10 -5 29 20 13 -13 -4 -1 -17 18 23 -11 -10 -21 -3 -18 28 -23 -6 -28 -9 -7
right_child=1 2 14 9 26 8 -8 24 11 19 -12 12 -14 -15 -16 16 17 -19 -20 21 -22 25 -24 -25 -26 -27 27 -29 -30 -31
leaf_value=0.040642747809205078 -0.033287860130155979 -0.081483989922613964 -0.0054026907181158957 0.0092274136186479439 0.085223218222592795 0.048725923077578503 -0.056234265235572879 0.038430973961880222 0.027416139214718457 -0.0085638049454154087 0.013044498742672703 0.05868814229661376 0.083912003640964516 -0.038057607365402403 0.064709512992271678 0.037526272709194015 0.043620258891689516 -0.068205525336866205 -0.068714257299120021 -0.070072845383133672 -0.026880561368040779 -0.055227405560858971 -0.02506939765364425 -0.012961604126313073 0.015984150565615127 -0.010541199184812994 0.068417042134957723 0.039253975038292949 0.078678410343731256 0.076602354466211206
leaf_weight=12.933277830481527 20.953875795006752 16.275857046246529 18.561385437846184 12.388864040374754 23.734267815947533 15.347936034202574 20.148505225777626 12.427564486861227 14.913105860352514 12.824713394045828 20.605572372674942 12.784646883606912 20.856983318924904 12.408877953886984 21.161934390664101 13.172747060656546 13.410744592547411 26.101372182369232 12.397921562194822 159.244802698493 22.668964505195618 26.252780795097351 16.807065114378929 13.600401237607008 15.660688370466231 12.40151724219322 45.220959097146988 22.812789812684059 12.800363168120386 70.323096916079521
leaf_count=52 84 66 75 50 98 63 81 50 60 52 83 52 85 50 86 53 54 107 50 660 91 106 68 55 63 50 184 93 52 289
internal_value=-0.00035807 0.0313177 -0.0065718 -0.0442868 0.0389031 0.0299218 -0.00116486 0.016777 0.0433431 -0.0570781 0.0602536 0.0218541 0.0440431 0.0110368 0.0319484 -0.0131364 -0.0219761 -0.0339408 -0.0112466 -0.0609763 -0.00533485 -0.0643729 -0.0528238 0.0151307 0.0424333 -0.0408907 0.065514 0.0586382 0.0588521 0.0716083
internal_weight=751.204 436.474 72.8062 314.729 363.668 271.9 81.991 61.8425 189.909 223.113 106.277 83.6326 46.0505 25.1935 39.7233 91.6165 78.6832 65.5104 39.4091 210.724 37.5821 197.899 33.0829 27.0111 40.8886 38.6543 91.768 68.0337 25.2279 85.671
internal_count=3062 1773 295 1289 1478 1103 330 249 773 918 435 338 187 102 161 371 319 266 159 868 151 816 134 109 165 156 375 277 102 352
is_linear=0
shrinkage=0.05


Tree=6
num_leaves=31
num_cat=0
split_feature=7 18 3 7 18 7 15 18 18 3 18 3 14 3 10 10 12 3 18 3 4 7 13 1 3 12 3 3 10 10
split_gain=380.643 46.1389 45.6881 47.1017 31.9203 41.4226 29.3131 28.7793 25.4243 21.2375 18.409 22.3129 18.2607 17.7487 16.5318 16.3841 20.6486 20.0961 15.6018 24.7617 13.9062 10.0842 9.71165 9.57986 6.50357 6.13343 4.76983 4.72657 8.5757 4.34741
threshold=0.41860666666666102 127.50000000000001 0.0023553263712944457 0.52248999999999357 165.50000000000003 0.56816999999998652 0.00024227014169986297 67.500000000000014 64.500000000000014 -0.0026716467248170121 103.50000000000001 -0.002093846279384675 -0.00048922107212062856 0.0035030138121252608 63.978559399029216 61.84321542866693 -0.18434980934444709 -0.0004311838972719904 46.500000000000007 0.0010257275052220018 0.38726628529803603 0.37308333333332566 0.019971505783211555 -0.00088091217345853668 0.00035962751285574561 -0.0099321220740679218 -0.0048661977272094845 -0.0013612510128754322 49.717557196181758 55.903688438117584
decision_type=2 2 2 2 2 2 2 2 2 2 2 2 2 2 2 2 2 2 2 2 2 2 2 2 2 2 2 2 2 2
left_child=1 15 4 22 5 6 7 -2 14 -3 23 12 -12 -5 -7 16 -1 -18 -19 -20 -11 29 -4 -10 -9 -23 -6 28 -28 -22
right_child=2 9 3 13 26 8 -8 24 10 20 11 -13 -14 -15 -16 -17 17 18 19 -21 21 25 -24 -25 -26 -27 27 -29 -30 -31
leaf_value=0.035694830629479188 -0.03163352676542059 0.0087619956278674263 -0.07822107001982942 -0.0051307181314514004 0.082350737784738781 0.066925805484174594 -0.053527805446081822 0.056278890127631313 0.026094706343281746 -0.0081434488456136097 0.052680323190833669 0.08074703433995245 -0.032618335616772805 0.06197479134126959 0.014585236933107142 0.038230335803268387 -0.073038575684859289 -0.060739584773881229 0.04759335279575487 -0.042100013947595834 -0.062220534935095821 -0.052730119874941521 -0.023865724230451607 -0.025530626203420316 0.015197695742494419 -0.010020379841642214 0.062065120158659406 0.073040053533011309 0.014349643521583834 -0.080556791421273199
leaf_weight=13.156573250889776 20.947333797812462 12.394438669085501 16.111119613051414 18.567868605256081 23.343813315033913 86.947342097759247 20.109767094254494 25.06713105738163 14.885587096214293 12.812686800956724 12.697121337056162 20.597226276993752 12.403911381959913 20.995120093226433 18.25352019071579 13.530415102839468 21.117076367139816 12.482195302844046 16.395082250237468 14.500420913100241 111.49460887908936 26.12449112534523 16.772872418165207 22.674040570855141 15.647874876856802 12.393987238407133 27.5960393846035 25.640558183193207 14.294050872325895 45.524952620267868
leaf_count=53 84 50 66 75 98 361 81 102 60 52 52 85 50 86 74 55 87 51 66 59 468 106 68 91 63 50 114 105 58 192
internal_value=-0.000343019 -0.0424647 0.0299622 -0.00627527 0.0372323 0.0286117 -0.00110683 0.0159891 0.0415065 -0.0548238 0.020863 0.0421779 0.0105292 0.0304806 0.0578441 -0.0125442 -0.0213914 -0.0330367 -0.0135631 0.00549688 -0.0586064 -0.061913 -0.0504965 -0.00507054 0.0404903 -0.0389875 0.0628673 0.0561323 0.0457833 -0.0675368
internal_weight=745.479 311.927 433.552 72.447 361.105 270.231 81.7721 61.6623 188.459 220.745 83.2579 45.6983 25.101 39.563 105.201 91.1818 77.6513 64.4948 43.3777 30.8955 208.351 195.538 32.884 37.5596 40.715 38.5185 90.8745 67.5306 41.8901 157.02
internal_count=3062 1289 1773 295 1478 1103 330 249 773 918 338 187 102 161 435 371 316 263 176 125 868 816 134 151 165 156 375 277 172 660
is_linear=0
shrinkage=0.05


end of trees

feature_importances:
vwap_dev=42
minutes_into_session=39
atr_15=34
macd_signal=17
macd_hist=17
rsi_14=12
macd=11
atr_5=10
ret_15=6
rvol=5
ema_9_21_spread=5
ema_slope=5
ret_5=2
rv_5=2
high_dist_5=2
low_dist_5=1

parameters:
[boosting: gbdt]
[objective: binary]
[metric: binary_logloss]
[tree_learner: serial]
[device_type: cpu]
[data_sample_strategy: bagging]
[data: ]
[valid: ]
[num_iterations: 1000]
[learning_rate: 0.05]
[num_leaves: 31]
[num_threads: 0]
[seed: 42]
[deterministic: 0]
[force_col_wise: 0]
[force_row_wise: 0]
[histogram_pool_size: -1]
[max_depth: -1]
[min_data_in_leaf: 50]
[min_sum_hessian_in_leaf: 0.001]
[bagging_fraction: 0.8]
[pos_bagging_fraction: 1]
[neg_bagging_fraction: 1]
[bagging_freq: 5]
[bagging_seed: 400]
[bagging_by_query: 0]
[feature_fraction: 0.8]
[feature_fraction_bynode: 1]
[feature_fraction_seed: 30056]
[extra_trees: 0]
[extra_seed: 12879]
[early_stopping_round: 0]
[early_stopping_min_delta: 0]
[first_metric_only: 0]
[max_delta_step: 0]
[lambda_l1: 0]
[lambda_l2: 0]
[linear_lambda: 0]
[min_gain_to_split: 0]
[drop_rate: 0.1]
[max_drop: 50]
[skip_drop: 0.5]
[xgboost_dart_mode: 0]
[uniform_drop: 0]
[drop_seed: 17869]
[top_rate: 0.2]
[other_rate: 0.1]
[min_data_per_group: 100]
[max_cat_threshold: 32]
[cat_l2: 10]
[cat_smooth: 10]
[max_cat_to_onehot: 4]
[top_k: 20]
[monotone_constraints: ]
[monotone_constraints_method: basic]
[monotone_penalty: 0]
[feature_contri: ]
[forcedsplits_filename: ]
[refit_decay_rate: 0.9]
[cegb_tradeoff: 1]
[cegb_penalty_split: 0]
[cegb_penalty_feature_lazy: ]
[cegb_penalty_feature_coupled: ]
[path_smooth: 0]
[interaction_constraints: ]
[verbosity: -1]
[saved_feature_importance_type: 0]
[use_quantized_grad: 0]
[num_grad_quant_bins: 4]
[quant_train_renew_leaf: 0]
[stochastic_rounding: 1]
[linear_tree: 0]
[max_bin: 255]
[max_bin_by_feature: ]
[min_data_in_bin: 3]
[bin_construct_sample_cnt: 200000]
[data_random_seed: 175]
[is_enable_sparse: 1]
[enable_bundle: 1]
[use_missing: 1]
[zero_as_missing: 0]
[feature_pre_filter: 1]
[pre_partition: 0]
[two_round: 0]
[header: 0]
[label_column: ]
[weight_column: ]
[group_column: ]
[ignore_column: ]
[categorical_feature: ]
[forcedbins_filename: ]
[precise_float_parser: 0]
[parser_config_file: ]
[objective_seed: 16083]
[num_class: 1]
[is_unbalance: 0]
[scale_pos_weight: 1]
[sigmoid: 1]
[boost_from_average: 1]
[reg_sqrt: 0]
[alpha: 0.9]
[fair_c: 1]
[poisson_max_delta_step: 0.7]
[tweedie_variance_power: 1.5]
[lambdarank_truncation_level: 30]
[lambdarank_norm: 1]
[label_gain: ]
[lambdarank_position_bias_regularization: 0]
[eval_at: ]
[multi_error_top_k: 1]
[auc_mu_weights: ]
[num_machines: 1]
[local_listen_port: 12400]
[time_out: 120]
[machine_list_filename: ]
[machines: ]
[gpu_platform_id: -1]
[gpu_device_id: -1]
[gpu_use_dp: 0]
[num_gpu: 1]

end of parameters

pandas_categorical:[]
