tree
version=v4
num_class=1
num_tree_per_iteration=1
label_index=0
max_feature_idx=18
objective=binary sigmoid:1
feature_names=ret_1 ret_5 ret_15 vwap_dev rvol vol_z atr_5 atr_15 rv_5 rv_annual rsi_14 macd macd_signal macd_hist ema_9_21_spread ema_slope high_dist_5 low_dist_5 minutes_into_session
feature_infos=[-0.015677687171702148:0.0097655982114690509] [-0.015690910556436122:0.013139667256442777] [-0.016330477290430023:0.013921463742473383] [-0.0079118014339674726:0.0060645637608415237] [0.10129423909246291:15.297327988996807] [-2.2805209086701552:4.2470239508918093] [0.074000000000000912:5.6134799999999361] [0.09132666666666106:2.3150733333332938] [0:0.0072283513829064254] [0:2.2660622193327189] [7.5813700558995976:90.005354300489273] [-2.9941801703616875:1.5715310164533776] [-2.4501411230506029:1.3807457908279961] [-1.3227458395538487:0.62701825053086135] [-0.0045251449473134682:0.0022560757757567008] [-0.0071149865152180247:0.003615073504743993] [0:0.016609799372185013] [0:0.029208551223345092] [0:269]
tree_sizes=3421 3426 3435 3425 3445 3420 3417 3443 3463 3454 3445 3445

Tree=0
num_leaves=31
num_cat=0
split_feature=7 7 12 18 18 12 18 7 12 18 7 12 12 11 18 18 12 14 18 18 11 7 18 15 18 17 17 8 7 7
split_gain=301.849 110.301 69.5255 88.2961 58.4278 44.1467 32.8409 27.7168 26.0005 40.0205 27.4349 17.0279 15.3085 22.5918 26.0119 15.7206 18.0336 15.2059 13.8032 20.2684 16.4103 32.2162 45.7043 29.4737 13.3961 11.8644 11.5648 11.2078 10.8807 10.6406
threshold=0.16807666666666141 0.43125000000000385 0.092635011527828007 39.500000000000007 150.50000000000003 -0.6915346031141193 69.500000000000014 0.26461666666665457 0.33192037227988852 172.50000000000003 0.25446999999999592 0.17080800997636753 -0.26674766378714682 -0.076700461583868659 219.50000000000003 242.50000000000003 -0.12560633208007882 9.4143311861969432e-05 189.50000000000003 123.50000000000001 -0.22736369788611907 0.6260466666666693 65.500000000000014 0.0001632506373057119 139.50000000000003 0.00024320236760104949 0.0013330198769711725 0.00051701381909836409 0.30022333333334178 0.47039666666667784
decision_type=2 2 2 2 2 2 2 2 2 2 2 2 2 2 2 2 2 2 2 2 2 2 2 2 2 2 2 2 2 2
left_child=-1 2 4 -4 6 -3 -2 -8 9 17 11 -11 -6 15 -15 -14 -17 -5 19 20 26 22 27 -24 -10 -9 29 -22 -19 -7
right_child=1 5 3 8 12 18 7 25 24 10 -12 -13 13 14 -16 16 -18 28 -20 -21 21 -23 23 -25 -26 -27 -28 -29 -30 -31
leaf_value=-0.19015039169365178 -0.046301808861482864 -0.1297562762521578 -0.015619509609490684 -0.12700045894891432 -0.026299874614640908 -0.071309984279202515 -0.065215554975724621 -0.10832777038318742 -0.063513317825442867 -0.10160560249952574 -0.06456850576655318 -0.18269093361862615 -0.075421361603812104 -0.086185694962789966 -0.027412786598370847 -0.16518821300814526 -0.084473187382952578 -0.19382902855256851 -0.10009545040718343 -0.017129759770025246 -0.048969412359676501 -0.039967903186015855 -0.17971031666447257 -0.085630392051414123 -0.13368331590927973 -0.15673917242254043 -0.082845868317928534 -0.096450255701529555 -0.153731886790376 -0.020732077775890465
leaf_weight=81.551949933171272 13.21790014207363 24.191251203417778 15.71184356510639 17.956392645835876 18.205786988139153 13.467294484376906 13.21790014207363 16.958815276622772 14.963660538196565 12.469717115163805 18.953970015048981 13.467294484376906 37.159757003188133 37.159757003188133 38.157334372401237 13.966083168983461 13.716688826680182 44.142798587679863 19.203364357352257 29.428532391786575 43.145221218466759 53.619783595204353 17.7069983035326 15.71184356510639 12.469717115163801 49.878868460655212 13.966083168983458 17.457603961229324 27.433377653360367 45.639164641499519
leaf_count=327 53 97 63 72 73 54 53 68 60 50 76 54 149 149 153 56 55 177 77 118 173 215 71 63 50 200 56 70 110 183
internal_value=-0.0989635 -0.0886743 -0.104828 -0.128784 -0.0879233 -0.0650549 -0.119317 -0.131372 -0.139769 -0.148822 -0.110293 -0.143708 -0.0694332 -0.0750359 -0.05641 -0.0966706 -0.125194 -0.16814 -0.0592437 -0.0561075 -0.0613046 -0.0708961 -0.0885341 -0.135479 -0.0954088 -0.144456 -0.0419252 -0.062647 -0.178461 -0.0322562
internal_weight=804.297 722.745 429.208 177.569 251.639 293.537 93.2735 80.0556 161.857 134.424 44.891 25.937 158.365 140.16 75.3171 64.8425 27.6828 89.5326 269.346 250.143 220.714 147.641 94.0217 33.4188 27.4334 66.8377 73.0725 60.6028 71.5762 59.1065
internal_count=3225 2898 1721 712 1009 1177 374 321 649 539 180 104 635 562 302 260 111 359 1080 1003 885 592 377 134 110 268 293 243 287 237
is_linear=0
shrinkage=1


Tree=1
num_leaves=31
num_cat=0
split_feature=7 7 12 3 18 18 3 12 3 18 6 3 18 7 3 7 3 11 18 18 7 4 3 18 3 3 5 7 7 6
split_gain=274.118 99.4483 62.9017 115.844 79.7684 70.0637 56.3489 39.7923 38.7055 36.6041 48.9105 32.7646 27.8614 27.8681 17.1099 23.3042 31.9503 39.2736 33.5584 16.4146 16.2234 16.1497 16.0286 15.8495 13.741 16.3617 12.5947 11.8753 12.6121 11.3298
threshold=0.16807666666666141 0.43125000000000385 0.092635011527828007 -0.0019063969012477137 38.500000000000007 145.50000000000003 -0.004087759987576294 -0.6915346031141193 0.00059471124502146085 82.500000000000014 0.33188000000000112 0.0035734314214627941 214.50000000000003 0.25993333333333346 0.0028699685034060062 0.59305000000000152 0.00091480967958928864 0.24026028479238451 39.500000000000007 57.500000000000007 0.29740000000001227 0.54098145849040058 0.0011230637690618729 152.50000000000003 0.0007840103026426718 -0.0017832865579418241 -0.54980667211798084 0.25446999999999592 0.36562333333332625 0.31996999999998937
decision_type=2 2 2 2 2 2 2 2 2 2 2 2 2 2 2 2 2 2 2 2 2 2 2 2 2 2 2 2 2 2
left_child=-1 2 3 6 -4 8 -2 -3 9 -5 -11 12 13 -6 15 16 17 18 -9 -18 21 -7 -15 29 25 -17 -27 -8 -29 -24
right_child=1 7 4 5 11 20 27 14 -10 10 -12 -13 -14 22 -16 24 19 -19 -20 -21 -22 -23 23 -25 -26 26 -28 28 -30 -31
leaf_value=-0.08763874395609178 0.035708101131643785 -0.02972853045228159 0.083544678256367466 0.09147125201606443 -0.085731367673957434 -0.0049573812820337413 -0.017353537764098179 0.096113321860538184 -0.063212671093206954 0.055456285851642896 -0.075850173942644886 0.023471670757796395 0.011811141063172279 -0.064924117602167056 0.071015810959132827 0.079762669805505518 0.029159091098132209 -0.048310843532385406 0.028347987414064042 -0.0377419027218154 0.083615735985902467 0.055978546342126234 -0.057631627558540489 0.029578847660928432 0.083341464517455929 0.05840681013175622 0.0024069544954254929 -0.095506462767919104 -0.045774538853884286 0.00079541871052389536
leaf_weight=81.015467897057533 19.705848142504692 24.148212596774101 14.499115854501722 12.481143757700918 46.88707660138607 13.719471618533133 12.488227501511572 24.735641911625862 21.151987567543983 13.954859077930452 14.420873343944548 18.668755114078522 17.702732175588608 31.344061613082886 32.965747594833374 18.242818757891655 13.484432265162466 12.477755784988402 69.887815073132515 28.646651864051819 40.193342253565788 52.411160498857498 22.368869125843048 12.45663285255432 26.23111255466938 15.991473257541655 26.980797067284584 26.681113705039024 24.413258835673332 13.189727768301962
leaf_count=327 79 97 58 50 189 55 50 99 85 56 58 75 71 126 132 73 54 50 280 115 161 210 90 50 105 64 108 107 98 53
internal_value=-0.000426404 0.00935249 -0.00600304 0.0100649 -0.02883 0.0339288 -0.0381659 0.0317612 -0.00831089 0.0201123 -0.0112752 -0.0388494 -0.0469319 -0.055169 0.0372679 0.0325674 0.0205573 0.0350677 0.0460626 -0.0163296 0.0585633 0.0433368 -0.0371122 -0.0189567 0.0530633 0.0400889 0.0232464 -0.0610613 -0.0717442 -0.0359593
internal_weight=803.546 722.531 428.738 251.621 177.117 168.333 83.2884 293.792 62.0089 40.8569 28.3757 162.618 143.949 126.246 269.644 236.678 149.232 107.101 94.6235 42.1311 106.324 66.1306 79.3593 48.0152 87.4462 61.2151 42.9723 63.5826 51.0944 35.5586
internal_count=3225 2898 1721 1009 712 675 334 1177 249 164 114 654 579 508 1080 948 598 429 379 169 426 265 319 193 350 245 172 255 205 143
is_linear=0
shrinkage=0.05


Tree=2
num_leaves=31
num_cat=0
split_feature=6 6 3 12 3 18 12 18 18 14 3 6 12 10 15 6 3 14 18 14 18 3 3 10 6 12 18 13 3 18
split_gain=214.089 71.762 41.3459 41.0098 84.5181 40.4869 35.5845 47.3581 31.6492 41.021 31.4383 21.428 23.8267 19.6832 18.3596 18.2914 20.9826 18.1858 17.013 15.963 14.7302 14.5744 14.0296 24.4058 14.2688 10.6839 11.2502 10.2154 9.51315 9.05328
threshold=0.19394999999998394 0.3475699999999734 0.0025747723356499483 0.11133808719955862 -0.0019063969012477137 46.500000000000007 -0.6915346031141193 42.500000000000007 207.50000000000003 1.6203753799063178e-05 0.0035734314214627941 0.14798999999997026 0.12440841985311847 44.837328843225642 0.00058183571950987123 0.64694000000000651 -0.0042553675098840988 -0.00022989413614039599 218.50000000000003 3.8824029812096083e-05 49.500000000000007 0.00048904969055671909 -0.0025554250894842157 44.704813484081363 0.41599999999999687 -0.13310301380898276 222.50000000000003 -0.045206119681051544 1.0000000180025095e-35 171.50000000000003
decision_type=2 2 2 2 2 2 2 2 2 2 2 2 2 2 2 2 2 2 2 2 2 2 2 2 2 2 2 2 2 2
left_child=11 3 6 4 25 -5 -3 13 9 21 29 -1 19 -8 28 16 -9 -10 22 -13 -4 -6 24 -24 -18 -2 -27 -17 -15 -7
right_child=1 2 20 5 8 10 7 15 17 -11 -12 12 -14 14 -16 27 18 -19 -20 -21 -22 -23 23 -25 -26 26 -28 -29 -30 -31
leaf_value=-0.084499658219094081 -0.013791900096125857 -0.044045654573619905 0.024326123798268588 0.052559665480872146 0.076712490764502747 -0.064868568287011583 0.083024225417635822 0.052644065464243918 0.011656812394223049 -0.035110527762071075 0.025153459407141327 -0.046736174386803567 -0.079731276211330179 -0.012869636417019223 0.081702769284030807 0.01911098960662878 -0.075203863845975508 0.081869635228686122 0.047489078170907362 0.014044639300596132 0.085828045904281516 0.012585745459006049 0.026443901901179609 -0.016770475422258825 -0.0084847966481065209 -0.08864815655731538 -0.02802496293576684 0.077907550204842052 0.034242273020003121 -0.028814358108418692
leaf_weight=53.752249777317047 14.694529905915259 21.612279430031776 13.731316223740576 12.462092936038969 17.722411826252937 60.978289112448692 31.72069139778614 20.23232813179493 12.733434185385702 29.56670668721199 14.459532499313353 24.449585065245628 26.806718990206718 14.482519343495367 16.742147073149681 15.976834893226625 13.182299360632895 33.445646330714226 16.469949632883072 19.353134244680405 33.458438336849213 17.719153195619583 56.562097668647766 77.354159832000732 20.437944144010544 19.805241480469704 12.47216612100601 13.740851998329161 41.192872688174248 24.369839623570442
leaf_count=219 59 87 55 50 71 247 127 81 51 119 58 99 109 58 67 64 53 134 66 78 134 71 227 311 82 80 50 55 165 98
internal_value=-0.000411607 0.01066 0.0239279 -0.0093034 0.00710142 -0.0324136 0.018155 0.0221311 0.0308583 0.00837488 -0.0430234 -0.060712 -0.0426035 0.0501796 0.0357929 0.00964619 0.00431328 0.0625091 -0.0010009 -0.0198817 0.0679322 0.0446521 -0.00576779 0.00148194 -0.0346449 -0.0491335 -0.065223 0.0462973 0.0219873 -0.0545738
internal_weight=801.687 677.326 406.897 270.429 158.159 112.27 359.707 338.095 111.187 65.0083 99.8077 124.362 70.6094 104.138 72.4175 233.956 204.239 46.1791 184.006 43.8027 47.1898 35.4416 167.537 133.916 33.6202 46.9719 32.2774 29.7177 55.6754 85.3481
internal_count=3225 2720 1632 1088 635 453 1443 1356 446 261 403 505 286 417 290 939 820 185 739 177 189 142 673 538 135 189 130 119 223 345
is_linear=0
shrinkage=0.05


Tree=3
num_leaves=31
num_cat=0
split_feature=7 7 11 3 18 18 3 3 18 6 11 7 3 18 7 13 3 7 3 11 18 18 3 18 3 3 7 7 13 11
split_gain=233.15 81.4085 48.1869 90.7907 67.0592 62.4502 49.0026 42.5643 40.4784 42.0886 33.9472 24.5906 22.4053 22.49 21.6974 21.2146 16.1705 22.1036 21.7276 33.3564 24.5201 22.4169 14.6542 17.7265 12.4098 17.2655 11.9587 11.0877 10.4456 10.1085
threshold=0.16807666666666141 0.43125000000000385 0.118813787845113 -0.0019063969012477137 145.50000000000003 39.500000000000007 -0.0036378257169344401 0.00048904969055671909 82.500000000000014 0.30788000000001153 -0.82585889449421745 0.29740000000001227 0.0035734314214627941 215.50000000000003 0.25446999999999592 -0.033789753602644766 0.0027818060853839932 0.63926000000000927 0.00091480967958928864 0.24026028479238451 44.500000000000007 30.500000000000004 0.0011230637690618729 154.50000000000003 0.00033616303181869107 -0.0016271285403222265 0.25274333333333449 0.31959666666667019 0.1206960595487107 -0.17227989368842597
decision_type=2 2 2 2 2 2 2 2 2 2 2 2 2 2 2 2 2 2 2 2 2 2 2 2 2 2 2 2 2 2
left_child=-1 2 3 6 7 -4 -2 8 -5 -10 -3 15 13 14 -7 -6 17 18 19 20 -12 -20 -16 27 25 -19 -8 -24 -18 -28
right_child=1 10 5 4 11 12 26 -9 9 -11 16 -13 -14 -15 22 -17 28 24 21 -21 -22 -23 23 -25 -26 -27 29 -29 -30 -31
leaf_value=-0.081728362332388005 0.027931643700661153 -0.044101108404780619 0.063291759758811836 0.091543828832540572 -0.0054314991845343776 -0.08470245800441617 -0.01498052843111298 -0.057118565351692546 0.052692529086968656 -0.073389159540500057 0.074814300651829119 0.081808692635793198 0.01654259846221752 0.017450737058888655 -0.06821408221221352 0.051620100756001645 0.084707919051280667 0.077049625355923856 0.046774299605706303 -0.042834769668338352 0.023563893257109295 -0.031527191230568199 -0.061499567194599619 0.030003756857477273 0.078681033349937229 0.010419151077495985 -0.038094650793304159 -0.0059042027167617306 0.028471579695650302 -0.08605411883210895
leaf_weight=79.366766884922981 22.205820873379707 15.128490567207335 16.952768266201019 13.722356647253035 23.911223024129868 35.99463652074337 12.464589938521383 29.653253734111786 12.475454419851305 14.100399449467657 32.889483794569969 40.447654351592064 16.440569251775742 12.702889099717138 25.619563415646553 51.152563810348511 22.687446236610413 15.452921509742735 12.491900086402891 14.205207869410513 80.364183947443962 34.071366041898727 22.097082450985909 12.444548010826109 26.923794895410538 26.217268466949463 16.607092708349228 15.094335302710531 12.982478260993956 32.465420499444008
leaf_count=327 89 61 68 55 96 148 50 120 50 57 132 162 66 51 104 205 91 62 50 57 322 137 90 50 108 105 67 61 52 132
internal_value=-0.000396541 0.00856921 -0.00537531 0.00747266 0.0269843 -0.027357 -0.0357392 -0.011651 0.021806 -0.0142029 0.0288411 0.0503811 -0.038303 -0.0455775 -0.0527743 0.0334466 0.0328065 0.028185 0.0187099 0.0293885 0.0384473 -0.0105206 -0.0375031 -0.0216516 0.0522232 0.0351283 -0.058715 -0.0389359 0.0642401 -0.0698237
internal_weight=799.334 719.967 426.552 269.206 185.463 157.346 83.7429 69.9515 40.2982 26.5759 293.415 115.511 140.394 123.953 111.25 75.0638 278.286 242.616 174.022 127.459 113.254 46.5633 75.2555 49.636 68.594 41.6702 61.5371 37.1914 35.6699 49.0725
internal_count=3225 2898 1721 1083 745 638 338 282 162 107 1177 463 570 504 453 301 1116 973 698 511 454 187 305 201 275 167 249 151 143 199
is_linear=0
shrinkage=0.05


Tree=4
num_leaves=31
num_cat=0
split_feature=7 7 12 3 3 7 11 3 15 3 7 3 11 3 10 7 16 11 11 3 3 3 7 12 4 11 13 12 7 3
split_gain=213.611 73.6463 47.9597 88.3916 43.8892 37.8284 30.714 25.8737 20.7637 14.7084 20.0352 19.6343 30.1481 17.0271 15.8039 15.0417 14.4056 11.6211 16.6254 11.5228 11.4116 21.9623 10.8142 9.95617 9.82552 9.78519 9.59778 9.50274 8.74198 7.95474
threshold=0.16807666666666141 0.43125000000000385 0.092635011527828007 -0.0019063969012477137 -0.0036378257169344401 0.28496333333332213 -0.82585889449421745 0.0035734314214627941 0.00014339515014871743 0.0027818060853839932 0.63926000000000927 0.00091480967958928864 0.24026028479238451 -0.0018654440207282244 59.006863394461469 0.53168000000000581 0.00055732632055204413 -0.15951724654246388 -0.28745931627946669 0.0021389505924866718 1.0000000180025095e-35 -0.0016271285403222265 0.25446999999999592 -0.20522951733873343 1.0112720410386189 0.019922770364985357 0.099915797838803139 -0.0036461409921147623 0.5154000000000073 0.0014046622131119451
decision_type=2 2 2 2 2 2 2 2 2 2 2 2 2 2 2 2 2 2 2 2 2 2 2 2 2 2 2 2 2 2
left_child=-1 2 3 4 -2 7 -3 19 17 10 11 12 13 28 -13 -15 -7 18 -5 29 21 -12 -6 -24 -19 -10 -11 -22 -8 -4
right_child=1 6 5 8 22 16 9 -9 25 26 20 14 -14 15 -16 -17 -18 24 -20 -21 27 -23 23 -25 -26 -27 -28 -29 -30 -31
leaf_value=-0.078884512679130589 0.026524905923226795 -0.042050471717099691 -0.069013389663653377 0.062504833222305836 -0.014243383637195853 -0.01330773651793505 0.00091265010114770912 0.010386920712426159 0.02956033822305314 0.08249551185848833 0.073529345773727398 -0.040031004303459801 -0.040795396985608558 0.069818771655853193 0.018305827640743635 0.018932212364872237 0.033730385849484595 0.040459913112149637 -0.0041607591587168175 -0.081963645702001361 0.036312713537826162 -0.0070967580664583795 -0.03693355033279333 -0.084201041928599965 0.079318005430458582 -0.019595175786908767 0.029453012229894989 0.090597429715911879 0.049695348194825066 -0.026577647564445174
leaf_weight=78.147176802158356 22.214068457484245 15.07429365813732 17.907745018601418 14.155683249235151 12.454451262950895 57.14088049530983 34.95356822013855 16.444875732064247 16.596700251102448 21.315101996064186 15.384696468710898 22.562753707170486 14.17042066156864 44.053267002105713 23.915275737643242 21.663588866591454 22.760237023234367 61.212497130036354 27.559806630015373 31.527058839797974 12.950718715786932 18.728246495127678 17.767080962657925 29.870177373290066 22.156210467219353 25.96097956597805 14.216354981064795 21.355908513069153 12.456546142697333 28.809990048408508
leaf_count=327 89 61 74 57 50 232 140 66 67 86 62 91 57 177 96 87 92 246 111 130 52 75 72 123 89 105 57 86 50 118
internal_value=-0.000384199 0.00816765 -0.00513722 0.00890824 -0.033527 -0.025245 0.0274587 -0.0466243 0.0297423 0.0312315 0.0268242 0.0178006 0.027956 0.0365679 -0.0100138 0.053044 9.13103e-05 0.0400064 0.0184615 -0.0586064 0.0497428 0.029265 -0.0557264 -0.0665719 0.0507869 -0.000425443 0.0612729 0.070105 0.0137298 -0.042844
internal_weight=795.486 717.339 424.538 249.948 82.3058 174.591 292.801 94.6897 167.642 277.726 242.195 173.775 127.297 113.127 46.478 65.7169 79.9011 125.084 41.7155 78.2448 68.4196 34.1129 60.0917 47.6373 83.3687 42.5577 35.5315 34.3066 47.4101 46.7177
internal_count=3225 2898 1721 1009 334 712 1177 388 675 1116 973 698 511 454 187 264 324 503 168 322 275 137 245 195 335 172 143 138 190 192
is_linear=0
shrinkage=0.05


Tree=5
num_leaves=31
num_cat=0
split_feature=7 7 12 3 18 11 18 3 3 7 6 3 18 7 7 4 7 3 7 11 3 18 18 12 3 3 3 12 18 3
split_gain=200.033 70.08 56.8537 83.0847 63.3553 38.3439 34.4389 34.1974 31.7948 26.9922 25.754 23.2772 26.3782 19.2799 16.7567 14.3565 12.0193 10.7049 17.2107 19.6256 27.945 25.9265 15.3017 16.017 11.3089 10.1332 22.4223 11.4213 9.72178 18.6498
threshold=0.16807666666666141 0.43125000000000385 0.092635011527828007 -0.0017007973048165166 37.500000000000007 -0.82585889449421745 145.50000000000003 0.00066188002395426522 -0.004087759987576294 0.24325999999999795 0.33188000000000112 0.0031624428811752566 217.50000000000003 0.25993333333333346 0.30392000000000136 0.5551569603780423 0.36080999999999602 0.0029076697985625233 0.60477333333333283 0.22526444924409364 0.00083313575492619224 44.500000000000007 77.500000000000014 -0.058682445261019435 0.0013388048850992802 0.0011020929593464443 0.0020199896035647271 0.26375860539128687 125.50000000000001 -0.0029474659812239626
decision_type=2 2 2 2 2 2 2 2 2 2 2 2 2 2 2 2 2 2 2 2 2 2 2 2 2 2 2 2 2 2
left_child=-1 2 3 8 -4 -3 7 10 -2 -10 -5 12 13 -6 15 -8 -11 18 19 20 21 -7 23 -20 -21 -15 27 -27 29 -23
right_child=1 5 4 6 11 17 14 -9 9 16 -12 -13 -14 25 -16 -17 -18 -19 22 24 -22 28 -24 -25 -26 26 -28 -29 -30 -31
leaf_value=-0.075727062702985251 0.029566086307904246 -0.044579456344775004 0.077529667354208728 0.079648312435442514 -0.075768541605356773 0.082250920038636072 -0.01274256115342344 -0.053093815305601422 0.021047169379102278 -0.07625473008988197 -0.0041682575956247161 0.0090583026612168979 0.025877615419115547 -0.057325159411180104 0.076832523135638681 0.046380359890810699 -0.031676405687671369 0.060026999705247733 0.0054102824365520061 -0.03593925987060112 -0.024011461810731969 -0.039079539991344399 0.089706225702208722 0.055959472933723255 0.020806440177876778 -0.021144767822751168 -0.055586405602864535 0.046681621747402632 0.045654352292628798 0.031801477967645646
leaf_weight=77.915101751685143 20.224830478429794 17.248002454638481 13.648881539702414 15.159871593117712 45.395122438669205 26.36598727107048 12.731675788760183 18.975274920463562 14.178414687514303 32.578430742025375 23.175571739673615 25.696085795760155 12.690381273627279 30.767412424087524 37.458947345614433 53.056595057249069 28.217297583818436 30.861469581723213 25.621792152523994 21.810532450675964 20.785047590732574 13.71372504532337 16.856209486722946 40.349270865321159 14.695991113781927 12.502739354968073 23.537589102983475 12.325267940759657 31.201539248228073 28.704710975289345
leaf_count=332 81 70 55 61 191 107 51 77 57 135 94 104 51 126 151 213 115 125 103 88 84 55 68 163 59 51 96 50 125 115
internal_value=0.000378078 0.00860772 -0.00412422 0.0109413 -0.025947 0.0277056 0.0328853 0.00180397 -0.0260685 -0.0410764 0.0289773 -0.0346162 -0.0427949 -0.0497931 0.0501381 0.0349386 -0.0555645 0.0323068 0.0287438 0.0190293 0.02874 0.039706 0.0471904 0.0363272 -0.0130958 -0.0348922 -0.0206216 0.012526 0.0244691 0.0088859
internal_weight=798.45 720.535 432.32 255.757 176.563 288.214 160.558 57.3107 95.199 74.9741 38.3354 162.915 137.219 124.528 103.247 65.7883 60.7957 270.966 240.105 157.278 120.771 99.986 82.8273 65.9711 36.5065 79.133 48.3656 24.828 73.62 42.4184
internal_count=3253 2921 1759 1035 724 1162 647 232 388 307 155 669 565 514 415 264 250 1092 967 633 486 402 334 266 147 323 197 101 295 170
is_linear=0
shrinkage=0.05


Tree=6
num_leaves=31
num_cat=0
split_feature=7 7 12 3 18 18 3 12 3 7 7 7 3 18 3 18 7 4 7 4 18 18 10 7 3 18 12 5 3 3
split_gain=184.149 62.4719 51.2553 77.683 60.3595 41.144 41.4674 31.7591 26.3765 25.1006 18.3697 18.3264 21.2433 21.7714 18.8103 16.9366 12.7023 13.4471 10.9799 10.2455 11.3599 17.7151 14.9787 16.5805 22.9509 18.5508 13.7997 11.8231 9.7245 9.7242
threshold=0.17066999999999935 0.42961666666666748 0.10131797303167528 -0.0017007973048165166 37.500000000000007 145.50000000000003 0.00066188002395426522 -0.6915346031141193 -0.004087759987576294 0.24325999999999795 0.33919999999999018 0.28496333333332213 0.0013557748355484251 102.50000000000001 0.0035734314214627941 177.50000000000003 0.30392000000000136 0.5505722420544662 0.36080999999999602 1.3483996444560071 122.50000000000001 171.50000000000003 44.704813484081363 0.63926000000000927 0.0029076697985625233 50.500000000000007 -0.077917085758919716 -0.54980667211798084 0.00041683577108171324 0.00021627782448334064
decision_type=2 2 2 2 2 2 2 2 2 2 2 2 2 2 2 2 2 2 2 2 2 2 2 2 2 2 2 2 2 2
left_child=-1 2 3 8 -4 6 10 -3 -2 -10 -5 14 -13 -14 15 -6 17 -7 -11 20 22 -22 27 24 25 28 -27 -9 -24 -25
right_child=1 7 4 5 11 16 -8 19 9 18 -12 12 13 -15 -16 -17 -18 -19 -20 -21 21 -23 23 29 -26 26 -28 -29 -30 -31
leaf_value=-0.071803437778037701 0.025528704241492853 -0.032020898918866135 0.077526342032542647 0.069662472550543766 -0.076134013892307659 -0.010393647282842805 -0.057631702424658454 0.077615821487418024 0.019974787136526492 -0.073580661131983013 -0.0008856241837755859 -0.045292142273689898 -0.031375672221492144 0.048700103731120617 0.0056115439752921605 -0.025731069336240864 0.072700326125269471 0.047056796308901402 -0.030736524356956493 0.0055037409897799178 0.086315101587115681 0.019815839069677058 -0.015024182682185701 0.016842692561530752 0.06257768554509037 0.0080918441580578697 -0.058402223870290995 0.033261284380632326 0.039171717615715501 0.064536728152281814
leaf_weight=79.547175258398056 19.465128257870674 21.629337266087532 13.046225711703299 16.039517790079117 49.384353667497635 12.479681640863417 21.717998757958412 23.319717690348625 14.192249387502669 32.620049387216568 21.725444450974464 29.45780585706234 15.45543436706066 18.830135256052017 13.210398182272909 25.157254680991173 37.669747978448868 55.406106293201447 27.612077206373215 34.460427507758141 23.982421100139618 17.195959955453873 13.06836625933647 18.418643161654472 15.002955332398413 12.703097671270369 20.226638317108154 42.236109495162964 22.575568065047264 25.460377186536789
leaf_count=345 78 88 53 65 211 50 89 95 57 137 88 121 63 76 53 103 153 223 113 139 97 69 53 74 61 51 82 171 91 104
internal_value=0.000356746 0.00839898 -0.00384821 0.0100186 -0.0256695 0.0306752 -0.00258113 0.0262656 -0.0262915 -0.0398447 0.0290775 -0.0345563 -0.0141521 0.0126031 -0.049378 -0.0591234 0.049416 0.0364955 -0.0539397 0.0309583 0.0347039 0.0585452 0.0296174 0.0196279 0.00656096 -0.00569471 -0.0327512 0.0490392 0.0193015 0.0445167
internal_weight=793.296 713.749 423.47 258.928 164.542 165.038 59.483 290.28 93.8895 74.4244 37.765 151.495 63.7434 34.2856 87.752 74.5416 105.556 67.8858 60.2321 268.65 234.19 41.1784 193.011 127.456 83.5766 68.5737 32.9297 65.5558 35.6439 43.879
internal_count=3253 2908 1733 1053 680 668 242 1175 385 307 153 627 260 139 367 314 426 273 250 1087 948 166 782 516 338 277 133 266 144 178
is_linear=0
shrinkage=0.05


Tree=7
num_leaves=31
num_cat=0
split_feature=7 7 12 3 7 11 3 7 3 3 10 12 5 15 3 11 2 3 7 12 12 3 5 3 7 8 7 12 15 3
split_gain=169.979 57.6508 47.1924 68.951 35.951 32.9868 24.8171 23.9892 21.5887 15.3845 19.6007 14.0784 12.1392 11.7599 13.9088 11.0478 9.51384 11.3911 12.1522 16.9873 14.1684 13.0118 10.1486 9.46598 8.60593 7.43875 7.08171 12.3985 6.73111 6.34295
threshold=0.16807666666666141 0.43125000000000385 0.092635011527828007 -0.0015653342079179225 0.28496333333332213 -0.82585889449421745 -0.004087759987576294 0.25620666666665487 0.0035734314214627941 0.0024939394912924938 55.258533326952779 -0.12560633208007882 -0.42969280711476548 0.00012694892611819777 0.0011230637690618729 -0.18122871373003588 -0.0028596461125498514 0.0027480182433207664 0.63926000000000927 -0.22912018245434082 -0.53794991367616374 0.00021627782448334064 -0.54980667211798084 6.5579147594813626e-05 0.47239333333332451 0.00025350265949477738 0.20766666666665592 0.018854178603106894 0.00046179294883574867 0.0021389505924866718
decision_type=2 2 2 2 2 2 2 2 2 2 2 2 2 2 2 2 2 2 2 2 2 2 2 2 2 2 2 2 2 2
left_child=-1 2 3 6 8 -3 -2 -8 29 10 11 12 -5 14 -6 -9 -7 18 19 20 -18 22 -20 -13 -22 -21 -25 -28 -19 -4
right_child=1 5 4 9 13 16 7 15 -10 -11 -12 23 -14 -15 -16 -17 17 28 21 25 24 -23 -24 26 -26 -27 27 -29 -30 -31
leaf_value=-0.071394316786373577 0.026792749338697852 -0.042104447393081335 -0.043076155014593998 -0.025956642759604649 -0.0057783005825998322 0.061948000141219643 0.014609152570838372 -0.02265686010910075 0.011948887963873106 0.074997016138364569 -0.0084190982839748487 0.080404653135530857 0.034484201695561482 -0.01665117944495853 0.056610169113912846 -0.067054113636833099 -0.012131626448015159 0.0716568300094928 0.056015760208625864 0.033262725413390898 0.021922942476703892 0.07127705328570369 -0.0026015351712962266 0.071101659874596074 0.06316476379144377 -0.0040428513533932895 0.046423802614230097 -0.014025958338411956 0.025407681603703269 -0.071712416515193167
leaf_weight=74.751309216022491 20.193047046661377 17.099359020590782 46.653594136238098 14.108610779047011 20.144327029585838 20.858725011348724 18.39496722817421 22.23028177022934 14.212404504418371 17.501686036586761 32.910411566495895 17.645162507891655 20.204095870256424 43.675418764352798 16.052138209342957 37.903377681970596 12.686783224344252 20.591531068086624 12.588179275393488 16.067319929599762 21.03913839161396 23.295974522829056 17.861181020736694 12.349973186850546 31.719750851392746 79.381678104400635 27.463409751653671 12.273074239492415 12.731279373168944 33.026603311300278
leaf_count=332 81 70 198 57 83 85 74 91 57 71 134 72 82 179 65 161 51 85 51 65 85 96 72 50 129 321 112 50 52 142
internal_value=0.000336379 0.0078581 -0.003778 0.00999374 -0.0238437 0.0252334 -0.0226443 -0.0353567 -0.0448199 0.0308545 0.0252135 0.0358518 0.00963229 0.000814643 0.0218893 -0.0506413 0.0295166 0.0267885 0.0225659 0.0156899 0.0353102 0.0431505 0.0216317 0.0487537 0.0467184 0.00223695 0.0380313 0.0277532 0.0539869 -0.0549456
internal_weight=787.615 712.863 426.943 253.178 173.764 285.921 98.7217 78.5286 93.8926 154.456 136.955 104.044 34.3127 79.8719 36.1965 60.1337 268.822 247.963 214.64 160.895 65.4457 53.7453 30.4494 69.7316 52.7589 95.449 52.0865 39.7365 33.3228 79.6802
internal_count=3253 2921 1759 1035 724 1162 407 326 397 628 557 423 139 327 148 252 1092 1007 870 651 265 219 123 284 214 386 212 162 137 340
is_linear=0
shrinkage=0.05


Tree=8
num_leaves=31
num_cat=0
split_feature=7 7 12 3 7 11 3 3 7 17 15 3 8 4 2 3 4 13 12 3 15 3 4 3 16 3 11 3 3 3
split_gain=156.943 52.2787 42.8816 62.7553 33.0155 29.918 27.2259 19.8953 19.6839 18.4167 10.6228 11.5758 10.0331 8.94912 10.0718 10.3694 10.1485 13.4964 8.63444 11.0873 7.83189 13.8602 8.48167 11.1035 6.41675 6.60574 6.1377 6.51962 6.02203 6.33659
threshold=0.16807666666666141 0.43125000000000385 0.092635011527828007 -0.0018654440207282244 0.28496333333332213 -0.82585889449421745 -0.004087759987576294 0.0035734314214627941 0.24081666666666784 0.00051092784725277987 0.00011396801787100232 0.0011230637690618729 0.00032189564084521342 1.3483996444560071 -0.0018237260173100121 0.0019455924438531553 0.91165733936509485 -0.090515989272275124 -0.12560633208007882 -0.00022144073512742919 0.00060300198718721287 0.00087996584345946104 0.42421940506290484 -0.0019326283898467233 0.00014739776275645154 0.0016971079938078748 0.040324248423587512 0.0014046622131119451 0.0021389505924866718 0.001225413248542933
decision_type=2 2 2 2 2 2 2 2 2 2 2 2 2 2 2 2 2 2 2 2 2 2 2 2 2 2 2 2 2 2
left_child=-1 2 3 6 7 -3 -2 28 -8 18 11 -6 -10 14 -7 16 17 -16 19 -5 21 22 -19 -24 -12 -26 27 -11 29 -4
right_child=1 5 4 9 10 13 8 -9 12 26 24 -13 -14 -15 15 -17 -18 20 -20 -21 -22 -23 23 -25 25 -27 -28 -29 -30 -31
leaf_value=-0.06948670386651816 0.025486726808924661 -0.040242694477936325 -0.071103005436773878 0.04875106225644546 -0.0045726254432585994 0.057386729007418716 0.015514787847096574 0.011347491821451859 -0.067912553310544577 0.0028954675259559425 -0.041960614891752193 0.053063385276921039 -0.019372307720204766 0.0041362032061197434 -0.025834726508102115 0.048623806811009557 0.046222506982850194 -0.0072729409316728893 0.048603653705989333 -0.016923755831409548 0.056585833744383932 -0.023820466090518817 0.0036833197403368699 0.04955240535490462 -0.023323253431609126 0.024224528761758943 -0.015415073056323274 0.044887112096256288 -0.069447799434212712 -0.029816142882398838
leaf_weight=73.007529303431511 20.167065069079399 16.998485773801804 12.889415636658667 12.580585837364199 19.405868858098984 32.681436106562614 12.472819060087202 14.217220157384871 38.023078739643097 26.68251559138298 15.087723806500433 15.808420389890669 14.785212263464926 33.851472526788712 17.510571956634521 44.945669069886208 32.527699574828148 15.516746148467062 78.137986108660698 13.137146309018133 13.862838894128798 17.469814330339432 19.800582200288773 39.538683474063873 16.191880837082866 13.308638989925383 21.803057357668877 14.142981901764868 32.413924381136894 33.310175627470016
leaf_count=332 81 70 56 51 80 134 50 57 163 109 62 64 62 137 71 186 132 63 319 53 57 71 80 161 67 54 89 58 142 142
internal_value=0.000317716 0.00750292 -0.00361314 0.00954072 -0.0228092 0.0240798 -0.0252921 -0.0430827 -0.040979 0.0274187 0.000774042 0.0213014 -0.0543223 0.0281641 0.0316422 0.0274599 0.0213711 0.0148363 0.0403327 0.015203 0.021543 0.0162812 0.0256401 0.0342466 -0.0154377 -0.00187291 0.00600366 0.0174424 -0.0529264 -0.0413349
internal_weight=782.277 709.27 424.566 251.932 172.633 284.704 85.4482 92.8307 65.2811 166.484 79.8025 35.2143 52.8083 267.706 233.854 201.173 156.227 123.699 103.856 25.7177 106.189 92.3258 74.856 59.3393 44.5882 29.5005 62.6286 40.8255 78.6135 46.1996
internal_count=3253 2921 1759 1035 724 1162 356 397 275 679 327 144 225 1092 955 821 635 503 423 104 432 375 304 241 183 121 256 167 340 198
is_linear=0
shrinkage=0.05


Tree=9
num_leaves=31
num_cat=0
split_feature=6 6 12 3 11 3 16 2 6 3 12 6 4 16 12 13 3 10 15 13 3 3 10 13 15 6 4 13 12 2
split_gain=118.603 42.3234 25.8135 52.4453 23.8122 17.7852 14.2825 14.1163 13.8534 17.8257 11.8821 11.633 11.1157 9.43341 12.9063 9.41222 10.2023 8.30688 7.35565 7.17026 7.08983 12.1719 11.4672 10.3585 9.01442 8.47309 8.24704 7.24554 10.1296 8.55103
threshold=0.19099999999999687 0.35982999999997684 0.10864288791441599 -0.001827237498177452 -0.82585889449421745 0.0027480182433207664 0.00035021336142323942 -0.0020107777843162973 0.14798999999997026 0.0034867424060328537 0.062523229795922494 0.24640000000001697 1.2541473029235275 0.00018953881167337817 0.33192037227988852 -0.032656456323304169 0.0012820598450458008 69.90156615297586 1.2936446114664159e-05 0.099915797838803139 -0.004087759987576294 -0.0025554250894842157 44.077567795749708 -0.057296021462275762 -0.00039032342413314319 0.46634999999999999 0.59096892426204783 -0.051505007674503743 0.30855699500342576 0.00065026112074972897
decision_type=2 2 2 2 2 2 2 2 2 2 2 2 2 2 2 2 2 2 2 2 2 2 2 2 2 2 2 2 2 2
left_child=8 2 3 -2 -3 7 18 12 -1 10 -10 -4 -6 -13 -15 16 -8 20 -5 -7 -9 25 23 24 -23 -22 27 -24 29 -29
right_child=1 4 11 6 5 19 15 17 9 -11 -12 13 -14 14 -16 -17 -18 -19 -20 -21 21 22 26 -25 -26 -27 -28 28 -30 -31
leaf_value=-0.067778533865367072 -0.033289260551735068 -0.038484358915437833 -0.050154223887095499 0.036176424297573777 0.061546359304581147 0.072365931889385268 0.048630198771536737 0.040551860289605841 -0.017347827453641659 0.023686895186333514 -0.065908340756676703 -0.039503642098270009 0.011135082869844633 -0.017218163481288771 0.03492702974910062 0.063060109965926633 -0.010724823092305007 0.054392538146970565 -0.0027773054676134834 0.025847612637051372 -0.041220272774507509 0.039417307483874182 -0.041927006960766997 0.055724839699314958 -0.019551818537146257 0.012471246045672704 0.015623555430425928 0.015636939612540278 0.037812193440688951 -0.040252079522698353
leaf_weight=48.040451362729073 56.430813327431679 16.889185458421707 30.899279519915581 16.839095935225487 30.71027036011219 23.009001970291138 16.737004488706592 20.29497829079628 22.27274751663208 11.656964823603628 28.997004926204681 26.581968277692795 16.981760695576668 46.624557137489319 15.917301535606383 29.028258100152016 12.758627459406851 12.208822935819624 43.233628258109093 12.943790525197981 18.31513045728207 13.726173147559168 12.543023288249968 27.163589924573898 12.277704164385794 12.271238967776297 100.66957421600819 12.256712019443514 13.072069510817526 15.497378855943678
leaf_count=224 239 70 135 69 127 97 69 82 96 50 130 111 69 195 65 119 52 50 178 53 76 56 51 112 50 50 411 50 54 63
internal_value=0.000298336 0.00827368 -0.00585825 0.0063886 0.0195177 0.0222854 0.0252682 0.0185167 -0.0475593 -0.0321233 -0.0448125 -0.0237176 0.0435964 -0.014552 -0.00394688 0.0428477 0.0229556 0.0140916 0.00814189 0.0556183 0.0121851 0.0097641 0.0141103 0.0341315 0.0115751 -0.0196793 0.00719991 -0.00868951 0.00152205 -0.0155705
internal_weight=776.848 665.881 295.051 175.027 370.83 353.941 118.597 317.988 110.967 62.9267 51.2698 120.023 47.692 89.1238 62.5419 58.5239 29.4956 270.296 60.0727 35.9528 258.088 237.793 207.206 53.1675 26.0039 30.5864 154.039 53.3692 40.8262 27.7541
internal_count=3253 2753 1232 726 1521 1451 487 1301 500 276 226 506 196 371 260 240 121 1105 247 150 1055 973 847 218 106 126 629 218 167 113
is_linear=0
shrinkage=0.05


Tree=10
num_leaves=31
num_cat=0
split_feature=7 7 12 3 3 7 12 12 7 12 3 14 7 10 4 3 3 17 4 15 12 12 3 3 8 5 4 15 8 5
split_gain=144.486 52.3866 43.4719 67.3321 26.9981 26.3978 22.8125 22.425 17.5605 14.6214 14.588 15.6982 13.464 22.6525 14.1854 14.051 17.1564 11.1952 10.0035 9.46931 8.92652 8.50898 8.33519 17.5158 9.01034 8.26478 7.75894 6.84561 6.52228 6.4233
threshold=0.17066999999999935 0.38765666666665016 0.10864288791441599 -0.0015653342079179225 0.0027818060853839932 0.25274333333333449 0.33192037227988852 -0.77092496847074987 0.25446999999999592 -0.20807312326299549 -0.00025116538156247901 -0.00024897472958693812 0.63926000000000927 51.420804532717732 1.3483996444560071 -6.5088631072316146e-05 -0.0016271285403222265 0.00048089144949194903 0.81546378453302648 0.00043330760676352226 0.032422883459679773 -0.058682445261019435 -0.0018654440207282244 -0.004087759987576294 0.00033968276667830391 -0.52304939203690692 0.58755568236850864 -4.0663823993758445e-05 0.00044283954883115364 -0.69447212634833955
decision_type=2 2 2 2 2 2 2 2 2 2 2 2 2 2 2 2 2 2 2 2 2 2 2 2 2 2 2 2 2 2
left_child=-1 2 3 5 7 -2 8 -3 -4 -7 27 -12 13 14 22 16 -14 18 25 26 -19 -17 23 -9 -25 -13 -15 -5 -24 -10
right_child=1 4 6 10 -6 9 -8 12 29 -11 11 17 15 19 -16 21 -18 20 -20 -21 -22 -23 28 24 -26 -27 -28 -29 -30 -31
leaf_value=-0.065613343884181732 0.020633216803818747 -0.043637832874832305 -0.061067170784428353 0.084825682311540307 0.059020136373513381 -0.010490644914592876 0.014009905100484391 0.051586081506548011 0.010502941974310759 -0.068770965963809952 -0.03066393601943598 0.040900253543984195 0.052636841968194896 -0.036070235986233164 -0.010700233253329861 0.027624194848080926 -0.02167614647578385 0.026809574431179248 0.065884056660245757 0.024085633659752328 -0.022062418322794937 0.07957426210390639 0.051654324529547171 -0.03244644296819222 0.022182795406840063 -0.0093997097476904365 -0.0016929403633974987 0.033933745197554592 0.015994560631946188 -0.028912027404120091
leaf_weight=74.294501438736916 17.355634912848473 14.944769307970999 47.334115818142891 14.406843453645708 41.546677902340889 15.543687015771864 26.002889826893806 21.477528169751167 13.021132782101629 34.98187068104744 13.312987163662909 24.673764154314991 15.246773466467859 27.018355593085289 22.722154468297958 12.212880432605742 15.830963462591169 21.919516190886497 23.702330097556114 19.754483535885811 16.284882962703705 22.228121668100357 54.953894793987274 16.462294772267345 13.939046412706373 12.206646621227266 41.816676750779152 12.206183314323424 16.725461363792419 50.135751783847809
leaf_count=352 70 62 212 60 175 64 107 87 54 153 54 101 64 110 92 50 64 90 98 80 67 94 227 68 57 50 170 50 69 210
internal_value=0.000684428 0.00772126 -0.00622955 0.00823713 0.0211329 -0.0325672 -0.028126 0.0161411 -0.0380423 -0.0508416 0.0282053 0.0203048 0.0191152 0.0135243 0.0256083 0.0391574 0.0147819 0.0271736 0.0405401 -0.00642912 0.00597756 0.0611526 0.0322854 0.0170205 -0.00739888 0.024252 -0.0151863 0.0614839 0.0433336 -0.0207858
internal_weight=774.263 699.968 343.088 206.594 356.88 67.8812 136.494 315.333 110.491 50.5256 138.713 112.1 300.389 234.87 146.28 65.5187 31.0777 98.7871 60.5827 88.5895 38.2044 34.441 123.558 51.8789 30.4013 36.8804 68.835 26.613 71.6794 63.1569
internal_count=3261 2909 1440 857 1469 287 583 1294 476 217 570 460 1232 960 600 272 128 406 249 360 157 144 508 212 125 151 280 110 296 264
is_linear=0
shrinkage=0.05


Tree=11
num_leaves=31
num_cat=0
split_feature=6 6 3 18 12 3 18 15 3 3 12 18 14 6 12 10 3 14 6 6 18 11 6 18 3 3 11 14 16 18
split_gain=110.403 35.8293 27.1789 22.5812 38.5439 40.1427 27.4627 29.5623 24.0002 22.3957 19.205 22.204 16.2429 14.7517 17.3487 11.301 19.3407 10.1286 10.032 9.49215 12.2607 22.2062 16.2096 13.3778 10.1964 40.4417 10.4405 10.6786 10.3385 7.56637
threshold=0.19394999999998394 0.35982999999997684 0.0026650048700822561 44.500000000000007 0.10864288791441599 -0.0018654440207282244 207.50000000000003 5.9230084141104207e-05 0.00048904969055671909 0.0035734314214627941 -0.77092496847074987 42.500000000000007 -0.00016678751247374972 0.14798999999997026 0.11810069086588509 46.235962178682932 0.00030617502344868218 3.8824029812096083e-05 0.64694000000000651 0.68429999999999624 125.50000000000001 -0.23523499126781641 0.43100000000002869 65.500000000000014 -0.0036378257169344401 -0.0017832865579418241 0.10790782550623136 -0.00016678751247374972 0.00088178079626617808 142.50000000000003
decision_type=2 2 2 2 2 2 2 2 2 2 2 2 2 2 2 2 2 2 2 2 2 2 2 2 2 2 2 2 2 2
left_child=13 3 10 -2 5 -5 7 8 -7 -6 -3 15 -8 -1 17 18 -17 -15 -12 20 21 22 -13 -23 28 -26 27 -27 -22 -9
right_child=1 2 -4 4 9 6 12 29 -10 -11 11 19 -14 14 -16 16 -18 -19 -20 -21 24 23 -24 -25 25 26 -28 -29 -30 -31
leaf_value=-0.066944278804158472 0.053146158248179753 -0.041767719733544241 0.056118583250269055 -0.03030076575628611 -0.04200166560341783 0.069486493381916301 0.0078582367455412513 -0.058672051417391097 -0.0064966998795156303 0.02629565781831928 0.080162346711599844 -0.027769063198299856 0.071025909117270983 -0.031621529591939486 -0.062032882598611061 -0.013832052985571337 0.044482393634315956 0.019790304705022452 0.025668822454616713 0.038774434380028054 0.077572397234636783 0.0089208588295795546 0.038574428009752984 -0.042179339408041285 -0.052019193287600768 0.018886388496628652 -0.0023906902023871604 0.079042129143179318 0.012736715367846978 -0.006719798104454046
leaf_weight=46.527090236544609 15.879019901156424 14.835999131202696 42.954487204551697 51.938722491264343 87.372264057397842 19.713699832558632 14.678460121154783 16.447348684072498 21.979442074894905 13.914799541234968 21.553538531064987 12.965718761086462 33.18399903178215 21.736994251608849 25.505974099040031 22.289552435278893 39.268144398927689 17.129022538661957 13.887651577591894 21.806391775608063 12.290363699197771 18.224886760115623 31.75885882973671 43.090975686907768 19.773172721266747 13.854932472109795 13.310051336884497 15.779550984501839 12.303637519478796 12.212118625640867
leaf_count=229 65 62 183 224 377 83 60 68 90 56 92 53 138 97 120 91 163 73 58 91 50 74 130 176 82 57 54 65 50 50
internal_value=0.000652173 0.00843838 0.0187264 -0.00480825 -0.00819853 0.00633819 0.0224358 0.00255825 0.0294303 -0.032619 0.0138145 0.0164561 0.0516536 -0.0454945 -0.029991 0.0363168 0.0233672 -0.00896332 0.058809 0.00750243 0.00397555 -0.00744936 0.0193414 -0.0269909 0.0178512 0.00715132 0.0343955 0.0509177 0.0451371 -0.0365346
internal_weight=768.167 657.268 369.948 287.32 271.441 170.154 118.215 70.3526 41.6931 101.287 326.993 312.157 47.8625 110.899 64.372 96.9989 61.5577 38.866 35.4412 215.159 193.352 106.04 44.7246 61.3159 87.3117 62.7177 42.9445 29.6345 24.594 28.6595
internal_count=3261 2742 1531 1211 1146 713 489 291 173 433 1348 1286 198 519 290 404 254 170 150 882 791 433 183 250 358 258 176 122 100 118
is_linear=0
shrinkage=0.05


end of trees

feature_importances:
vwap_dev=94
atr_15=59
minutes_into_session=50
macd_signal=41
macd=21
atr_5=20
rvol=13
ema_slope=12
rsi_14=9
macd_hist=9
ema_9_21_spread=8
vol_z=6
rv_5=5
high_dist_5=5
ret_15=4
low_dist_5=4

parameters:
[boosting: gbdt]
[objective: binary]
[metric: binary_logloss]
[tree_learner: serial]
[device_type: cpu]
[data_sample_strategy: bagging]
[data: ]
[valid: ]
[num_iterations: 1000]
[learning_rate: 0.05]
[num_leaves: 31]
[num_threads: 0]
[seed: 42]
[deterministic: 0]
[force_col_wise: 0]
[force_row_wise: 0]
[histogram_pool_size: -1]
[max_depth: -1]
[min_data_in_leaf: 50]
[min_sum_hessian_in_leaf: 0.001]
[bagging_fraction: 0.8]
[pos_bagging_fraction: 1]
[neg_bagging_fraction: 1]
[bagging_freq: 5]
[bagging_seed: 400]
[bagging_by_query: 0]
[feature_fraction: 0.8]
[feature_fraction_bynode: 1]
[feature_fraction_seed: 30056]
[extra_trees: 0]
[extra_seed: 12879]
[early_stopping_round: 0]
[early_stopping_min_delta: 0]
[first_metric_only: 0]
[max_delta_step: 0]
[lambda_l1: 0]
[lambda_l2: 0]
[linear_lambda: 0]
[min_gain_to_split: 0]
[drop_rate: 0.1]
[max_drop: 50]
[skip_drop: 0.5]
[xgboost_dart_mode: 0]
[uniform_drop: 0]
[drop_seed: 17869]
[top_rate: 0.2]
[other_rate: 0.1]
[min_data_per_group: 100]
[max_cat_threshold: 32]
[cat_l2: 10]
[cat_smooth: 10]
[max_cat_to_onehot: 4]
[top_k: 20]
[monotone_constraints: ]
[monotone_constraints_method: basic]
[monotone_penalty: 0]
[feature_contri: ]
[forcedsplits_filename: ]
[refit_decay_rate: 0.9]
[cegb_tradeoff: 1]
[cegb_penalty_split: 0]
[cegb_penalty_feature_lazy: ]
[cegb_penalty_feature_coupled: ]
[path_smooth: 0]
[interaction_constraints: ]
[verbosity: -1]
[saved_feature_importance_type: 0]
[use_quantized_grad: 0]
[num_grad_quant_bins: 4]
[quant_train_renew_leaf: 0]
[stochastic_rounding: 1]
[linear_tree: 0]
[max_bin: 255]
[max_bin_by_feature: ]
[min_data_in_bin: 3]
[bin_construct_sample_cnt: 200000]
[data_random_seed: 175]
[is_enable_sparse: 1]
[enable_bundle: 1]
[use_missing: 1]
[zero_as_missing: 0]
[feature_pre_filter: 1]
[pre_partition: 0]
[two_round: 0]
[header: 0]
[label_column: ]
[weight_column: ]
[group_column: ]
[ignore_column: ]
[categorical_feature: ]
[forcedbins_filename: ]
[precise_float_parser: 0]
[parser_config_file: ]
[objective_seed: 16083]
[num_class: 1]
[is_unbalance: 0]
[scale_pos_weight: 1]
[sigmoid: 1]
[boost_from_average: 1]
[reg_sqrt: 0]
[alpha: 0.9]
[fair_c: 1]
[poisson_max_delta_step: 0.7]
[tweedie_variance_power: 1.5]
[lambdarank_truncation_level: 30]
[lambdarank_norm: 1]
[label_gain: ]
[lambdarank_position_bias_regularization: 0]
[eval_at: ]
[multi_error_top_k: 1]
[auc_mu_weights: ]
[num_machines: 1]
[local_listen_port: 12400]
[time_out: 120]
[machine_list_filename: ]
[machines: ]
[gpu_platform_id: -1]
[gpu_device_id: -1]
[gpu_device_id_list: ]
[gpu_use_dp: 0]
[num_gpu: 1]

end of parameters

pandas_categorical:[]
