tree
version=v4
num_class=1
num_tree_per_iteration=1
label_index=0
max_feature_idx=18
objective=regression
feature_names=ret_1 ret_5 ret_15 vwap_dev rvol vol_z atr_5 atr_15 rv_5 rv_annual rsi_14 macd macd_signal macd_hist ema_9_21_spread ema_slope high_dist_5 low_dist_5 minutes_into_session
feature_infos=[-0.015677687171702148:0.014967032077990439] [-0.015690910556436122:0.015563047875927216] [-0.016330477290430023:0.016776440101495593] [-0.015876507772837896:0.0097694233743588783] [0.085897591586046582:16.421932949697943] [-2.2805209086729388:4.2477201019028978] [0.11600000000000818:5.6134799999999361] [0.14178666666666687:2.3150733333332938] [0:0.0072283513829064262] [0:2.2660622193327193] [0:92.774767560002246] [-2.9941801703616875:3.3715872000049103] [-2.4501411230505341:2.9327479907069276] [-1.3227458395538956:1.4162982293934174] [-0.0045251449473134682:0.0048278690298358112] [-0.0071149865152180247:0.0074600997333376107] [0:0.016609799372185013] [0:0.029208551223345092] [0:329]
tree_sizes=2956 3061 3063 3071 3091 3079 3081 3090 3077 3109 3102 3092 3078 3077 3062 3091 3070 3089 3082 3090 3061 3060 3093 3085 3076 3077 3101 3073 3098 3094 3088 3109 3098 3079 3103 3067 3069 3085 3068 3069 3090 3117 3096 3107 3103 3059 3058 3098 3090 3068 3076 3056 3073 3078 3078 3094 3116 3098 3110

Tree=0
num_leaves=31
num_cat=0
split_feature=7 12 7 7 13 11 18 6 7 18 18 18 18 18 18 14 18 14 12 7 8 18 11 7 11 7 13 12 6 18
split_gain=0.00752373 0.00138653 0.000628793 0.000385781 0.000519053 0.000262641 0.000244425 0.000392523 0.00021373 0.000201972 0.000232228 0.000156877 0.000156303 0.000144164 0.000132458 0.000155849 0.000128085 0.000107043 0.000101117 9.99288e-05 8.35762e-05 8.21656e-05 7.35282e-05 6.81731e-05 5.78968e-05 5.60458e-05 4.87613e-05 4.84959e-05 6.02377e-05 4.19404e-05
threshold=0.48373999999999651 -0.37076088949804037 0.29426666666665452 0.63523333333333398 -0.13461390911724239 0.27267373221485519 187.50000000000003 0.6080000000000042 0.37168333333332465 272.50000000000006 112.50000000000001 183.50000000000003 44.500000000000007 68.500000000000014 100.50000000000001 -0.00069345353070607058 155.50000000000003 -0.00039864360575177568 -0.1761898066546371 0.78297666666666921 0.00035874187270995957 48.500000000000007 0.10132358637912377 0.70852333333333128 -0.76268035259857914 0.4230466666666568 0.059213175617606993 0.71265678621131323 1.0878600000000007 186.50000000000003
decision_type=2 2 2 2 2 2 2 2 2 2 2 2 2 2 2 2 2 2 2 2 2 2 2 2 2 2 2 2 2 2
left_child=2 6 18 4 -3 17 7 -2 -7 10 12 -12 27 -10 15 -9 -6 29 -1 23 -18 -19 -22 -14 -16 -23 -20 28 -5 -4
right_child=1 3 5 9 16 8 -8 14 13 -11 11 -13 19 -15 24 -17 20 21 26 -21 22 25 -24 -25 -26 -27 -28 -29 -30 -31
leaf_value=0.0038724345102229794 0.0039211264177578678 0.0040632377656710014 0.0038619590292721059 0.0039427622775566034 0.0038903158778863492 0.0038384646982927207 0.0041407624379713303 0.0040618792295606448 0.0040203035639936897 0.0040813401243941566 0.0038747422387799407 0.0039740742370573765 0.0040161376358271786 0.0039144285265086225 0.0040664527662238525 0.0041696499501444068 0.0039850436715706756 0.0038936532613841816 0.0038058063611102954 0.0039753756632975737 0.003879983162345745 0.0038384021002772824 0.0039503234524275802 0.0040864306937191744 0.0039914755993477437 0.0038697637366551497 0.0038557091077324546 0.0040096567592829979 0.004004902361462153 0.0039079751057937038
leaf_weight=67 52 64 82 156 290 57 88 86 51 50 79 80 68 87 52 55 72 97 835 62 66 669 85 70 51 181 52 59 52 125
leaf_count=67 52 64 82 156 290 57 88 86 51 50 79 80 68 87 52 55 72 97 835 62 66 669 85 70 51 181 52 59 52 125
internal_value=0.00390253 0.00398448 0.00384427 0.003959 0.00392897 0.00386624 0.0040676 0.00404585 0.00391991 0.00398464 0.00397691 0.00392472 0.00399468 0.00395356 0.00407243 0.00410392 0.00391222 0.00385718 0.00381321 0.0040281 0.00394072 0.00385006 0.00391958 0.00405179 0.00402933 0.00384508 0.00380873 0.00396965 0.0039583 0.00388975
internal_weight=3940 1637 2303 1253 577 1349 384 296 195 676 626 159 467 138 244 141 513 1154 954 200 223 947 151 138 103 850 887 267 208 207
internal_count=3940 1637 2303 1253 577 1349 384 296 195 676 626 159 467 138 244 141 513 1154 954 200 223 947 151 138 103 850 887 267 208 207
is_linear=0
shrinkage=1


Tree=1
num_leaves=31
num_cat=0
split_feature=7 3 7 11 7 3 18 15 5 2 18 6 18 10 18 18 18 2 3 18 7 3 3 18 6 18 11 8 18 11
split_gain=0.00679017 0.00162468 0.000567485 0.00054043 0.000329845 0.00027048 0.000207266 0.000199486 0.000191862 0.00019034 0.000172557 0.000189537 0.000173089 0.000155325 0.00015341 0.000231165 0.000171131 0.000151118 0.000148482 0.000145588 0.00012716 0.000109424 0.000205462 0.000141922 7.90092e-05 6.14134e-05 5.75612e-05 5.6314e-05 5.02298e-05 6.22616e-05
threshold=0.48373999999999651 -0.0069474503751155671 0.29426666666665452 -0.29940929683755252 0.67932999999999699 0.0042106252817604856 46.500000000000007 -0.00014361908440585489 -0.43891043027950344 0.00084539451669707344 205.50000000000003 0.67881999999998477 84.500000000000014 37.301941946322351 264.50000000000006 108.50000000000001 44.500000000000007 -0.0010595450787724834 0.0018396164628997349 72.500000000000014 0.7774099999999825 -0.0014152346463315627 -0.00065962594472867317 262.50000000000006 0.56014000000001274 155.50000000000003 0.10132358637912377 0.00031688957916960891 30.500000000000004 0.043407712933174032
decision_type=2 2 2 2 2 2 2 2 2 2 2 2 2 2 2 2 2 2 2 2 2 2 2 2 2 2 2 2 2 2
left_child=2 -2 18 8 7 6 9 19 17 -4 11 -10 -13 -8 15 16 -6 -3 21 -5 -18 -1 23 -23 -21 28 -27 -15 -9 -30
right_child=1 3 5 4 14 -7 13 25 10 -11 -12 12 -14 27 -16 -17 20 -19 -20 24 -22 22 -24 -25 -26 26 -28 -29 29 -31
leaf_value=-0.00010760983138278525 0.00027682733999267605 0.0001157922152287938 -2.3577726037010987e-05 0.00014250398494814541 6.0766850016919374e-05 8.0147770626354047e-05 -4.6356850608043314e-06 3.9879237774584909e-05 -1.8694077929467313e-05 9.6945898054400458e-05 0.00016481208433271439 0.00015549617523678624 3.1971472917747344e-05 -6.3618448786092517e-05 0.00016107077179756244 3.9866720105517465e-06 0.00017171137171938361 0.0002152639127182608 -0.00011333951486340807 8.1630132767713804e-05 7.7250438629389043e-05 4.2753772660707119e-05 -7.9824271163321926e-05 -5.7258604517787031e-05 -2.0884430780605383e-07 -8.8313343872332406e-06 5.0339184531186759e-05 -3.8920310932001026e-05 2.7022904482265631e-05 -3.0566090249547783e-05
leaf_weight=155 97 84 95 51 221 50 194 50 50 50 55 61 53 574 51 104 82 70 302 60 63 69 355 73 58 61 126 386 64 176
leaf_count=155 97 84 95 51 221 50 194 50 50 50 55 61 53 574 51 104 82 70 302 60 63 69 355 73 58 61 126 386 64 176
internal_value=4.98406e-07 7.83531e-05 -5.48416e-05 6.58518e-05 4.91063e-05 -3.39694e-05 -3.83619e-05 2.52341e-05 0.000118243 1.79821e-05 8.81722e-05 6.24698e-05 9.8068e-05 -4.54416e-05 7.8706e-05 6.97685e-05 8.84606e-05 0.000161007 -8.43559e-05 7.19136e-05 0.00013067 -7.0931e-05 -5.94919e-05 -8.66104e-06 4.14042e-05 8.69564e-06 3.10376e-05 -5.36877e-05 -5.71105e-06 -1.5209e-05
internal_weight=3940 1637 2303 1540 1167 1349 1299 646 373 145 219 164 114 1154 521 470 366 154 954 169 145 652 497 142 118 477 187 960 290 240
internal_count=3940 1637 2303 1540 1167 1349 1299 646 373 145 219 164 114 1154 521 470 366 154 954 169 145 652 497 142 118 477 187 960 290 240
is_linear=0
shrinkage=0.05


Tree=2
num_leaves=31
num_cat=0
split_feature=6 3 6 11 14 3 18 18 12 3 6 18 10 3 8 2 18 18 6 3 10 18 6 2 3 3 18 18 12 3
split_gain=0.00577827 0.00146403 0.000602829 0.000424198 0.000266528 0.000316785 0.00026119 0.000323021 0.000339163 0.000239202 0.000211626 0.000219212 0.000197578 0.000151128 0.000137353 0.000123165 0.000114142 0.00010503 8.9692e-05 8.5167e-05 8.03969e-05 0.000111531 8.87538e-05 8.00289e-05 7.51835e-05 0.000110906 0.00011962 0.00015783 6.73823e-05 5.43386e-05
threshold=0.47898999999998754 -0.0069474503751155671 0.33199999999998231 -0.29940929683755252 -0.00055859941306140237 -0.0024361582985787983 297.50000000000006 108.50000000000001 0.75305013239948093 0.0044768006665496162 0.58432000000001383 92.500000000000014 56.61444686794713 0.001729806551146091 0.00078006634249407612 0.0021632781730559496 179.50000000000003 60.500000000000007 0.58800000000001107 0.0022404248968039523 36.838291462776311 185.50000000000003 0.44580999999998322 -0.0014035666642772668 -0.0014152346463315627 -0.00069369938282746665 213.50000000000003 265.50000000000006 0.34022528416299963 -0.00177736824954173
decision_type=2 2 2 2 2 2 2 2 2 2 2 2 2 2 2 2 2 2 2 2 2 2 2 2 2 2 2 2 2 2
left_child=2 -2 13 4 10 -6 7 8 12 15 -3 -12 14 17 23 20 -9 -1 -14 28 21 -4 -22 -5 -19 26 -26 -28 29 -18
right_child=1 3 9 6 5 -7 -8 16 -10 -11 11 -13 18 -15 -16 -17 19 24 -20 -21 22 -23 -24 -25 25 -27 27 -29 -30 -31
leaf_value=9.7906673736360966e-06 0.00026298596952158539 -8.6522873621456361e-06 -4.9477880472267958e-05 0.00011644426390643383 0.00026364668063671651 9.0741951562786551e-05 0.00015730511565255025 -2.3251522595883629e-05 0.00018387910228436039 8.426980862257587e-05 0.0001442769941717457 4.1171014406583093e-05 -2.4210551280795035e-05 -9.7785879122713171e-05 0.00013771667569184692 3.9443645825733917e-05 -1.012231568893185e-06 -9.137892502733135e-05 3.9861195246027364e-05 -2.2073257861923898e-05 -4.511367989773471e-05 3.4604472855381589e-05 -8.1159858161620782e-07 4.6019622469086029e-05 -8.7631751062872351e-05 -6.9195325975023034e-05 7.2605177760124207e-05 -4.238865124079894e-05 9.1112376440864392e-05 6.6279784499784003e-05
leaf_weight=50 97 52 66 51 52 54 51 176 54 51 131 85 79 395 76 66 75 202 177 60 670 98 136 193 50 461 50 74 58 50
leaf_count=50 97 52 66 51 52 54 51 176 54 51 131 85 79 395 76 66 75 202 177 60 670 98 136 193 50 461 50 74 58 50
internal_value=4.73486e-07 7.48293e-05 -4.88355e-05 6.24473e-05 0.000108448 0.000175563 4.6807e-05 4.14348e-05 6.40622e-05 -2.14442e-05 8.19026e-05 0.000103703 5.28294e-05 -7.20605e-05 7.90216e-05 -2.66482e-05 7.41271e-06 -6.06044e-05 2.00891e-05 2.96222e-05 -3.11452e-05 7.66453e-07 -3.76384e-05 6.07395e-05 -6.48096e-05 -5.63577e-05 -2.23453e-05 3.97983e-06 4.65715e-05 2.59046e-05
internal_weight=3940 1571 2369 1474 374 106 1100 1049 630 1087 268 216 576 1282 320 1036 419 887 256 243 970 164 806 244 837 635 174 124 183 125
internal_count=3940 1571 2369 1474 374 106 1100 1049 630 1087 268 216 576 1282 320 1036 419 887 256 243 970 164 806 244 837 635 174 124 183 125
is_linear=0
shrinkage=0.05


Tree=3
num_leaves=31
num_cat=0
split_feature=7 3 7 11 7 13 3 18 2 3 18 7 18 18 18 18 18 3 13 7 10 3 3 18 18 18 15 16 3 13
split_gain=0.00557716 0.00131896 0.000469091 0.000442678 0.000276347 0.00026983 0.000224051 0.000180439 0.000220375 0.000177381 0.000543867 0.000422617 0.000414154 0.000157951 0.000136822 0.000188019 0.000156007 0.000123301 0.000121346 0.000121109 0.000120578 6.54422e-05 0.000210918 0.000121016 5.95971e-05 5.41414e-05 6.08188e-05 4.65511e-05 4.62335e-05 4.14791e-05
threshold=0.48373999999999651 -0.0069474503751155671 0.29426666666665452 -0.29940929683755252 0.67932999999999699 -0.15200998990890965 0.0042106252817604856 58.500000000000007 0.0010442341070624475 -0.0038292222342532598 150.50000000000003 0.60080333333333646 86.500000000000014 50.500000000000007 264.50000000000006 108.50000000000001 42.500000000000007 0.0026674782036237277 0.00094404548953873357 0.7774099999999825 37.301941946322351 -0.0014152346463315627 -0.00062752227314593441 262.50000000000006 182.50000000000003 134.50000000000003 0.00039143070909686278 0.00081026835337287962 -0.0010680898966561423 -0.070153767793098121
decision_type=2 2 2 2 2 2 2 2 2 2 2 2 2 2 2 2 2 2 2 2 2 2 2 2 2 2 2 2 2 2
left_child=2 -2 17 9 5 -5 7 8 29 11 12 -3 13 -11 15 16 -6 21 24 -18 27 -1 23 -23 -7 -20 -27 -9 -17 -4
right_child=1 3 6 4 14 18 -8 20 -10 10 -12 -13 -14 -15 -16 28 19 -19 25 -21 -22 22 -24 -25 -26 26 -28 -29 -30 -31
leaf_value=-9.7893440735436258e-05 0.00024983667280673792 -5.21759941287147e-05 -4.9043600373691555e-05 0.00013430580100975932 5.2277206202259824e-05 2.0018947845207914e-05 7.3134645859681771e-05 3.5693787402124146e-05 9.9918238634927548e-05 0.0001014599166046537 0.00027920222358079628 0.00013339848227788734 -1.4939476672376867e-05 0.00021345608100818938 0.00014946684941784114 3.7253081319039878e-05 0.00015731174073947446 -0.00011782798033221441 -2.5301349420071667e-05 6.7873693587355754e-05 -4.9998102540593846e-05 3.9506715188179157e-05 -7.6928245635445231e-05 -5.2542374976690411e-05 6.8355316860934997e-05 -2.0766031410300546e-05 4.5769724374031876e-05 -2.1015429237341147e-05 -2.9421703024686746e-05 3.7767492588686881e-06
leaf_weight=155 97 51 71 50 212 173 50 50 50 85 50 77 60 50 51 52 87 152 183 67 919 69 504 74 101 62 77 131 52 78
leaf_count=155 97 51 71 50 212 173 50 50 50 85 50 77 60 50 51 52 87 152 183 67 919 69 504 74 101 62 77 131 52 78
internal_value=4.49811e-07 7.10086e-05 -4.97042e-05 5.97447e-05 4.45892e-05 2.27385e-05 -3.07275e-05 -3.47253e-05 9.08745e-06 0.000107162 0.000132084 5.94587e-05 9.43617e-05 0.00014294 7.16823e-05 6.32418e-05 8.00995e-05 -7.65381e-05 1.33788e-05 0.0001184 -4.26514e-05 -6.87126e-05 -6.17218e-05 -8.12708e-06 3.78364e-05 -7.43283e-06 1.60919e-05 -5.3499e-06 3.91569e-06 -2.13927e-05
internal_weight=3940 1637 2303 1540 1167 646 1349 1299 199 373 245 128 195 135 521 470 366 954 596 154 1100 802 647 143 274 322 139 181 104 149
internal_count=3940 1637 2303 1540 1167 646 1349 1299 199 373 245 128 195 135 521 470 366 954 596 154 1100 802 647 143 274 322 139 181 104 149
is_linear=0
shrinkage=0.05


Tree=4
num_leaves=31
num_cat=0
split_feature=7 3 7 11 7 13 3 3 3 7 3 12 13 10 3 13 13 3 3 8 12 8 14 7 12 10 15 11 8 12
split_gain=0.00503339 0.00119036 0.000423355 0.000399517 0.000249403 0.000243521 0.000202206 0.000161066 0.000546105 0.000404514 0.000121742 0.000116065 0.000142543 0.000113878 0.000112446 0.000111422 8.83854e-05 8.31341e-05 0.000150823 7.37525e-05 8.20586e-05 6.55254e-05 6.19435e-05 5.7619e-05 5.17075e-05 4.9854e-05 4.69846e-05 4.65935e-05 4.64921e-05 4.08872e-05
threshold=0.48373999999999651 -0.0069474503751155671 0.29426666666665452 -0.29940929683755252 0.67932999999999699 -0.15200998990890965 0.0042106252817604856 -0.0037601287236614165 -0.0021411665822356585 0.58589666666666373 0.0039392677388926482 0.25661391507698389 -0.080331911389222424 37.301941946322351 0.0018396164628997349 -0.026601813201903756 -0.11124618941962786 -0.0014152346463315627 -0.00062752227314593441 0.00041623234261032026 0.25234212684563867 0.00075828640028488298 8.6910438003957681e-05 0.39266000000001977 -0.015617722584049464 58.442125590952301 0.00012540016369499976 -0.17134146822843374 0.00031841277703534981 0.011404955316795662
decision_type=2 2 2 2 2 2 2 2 2 2 2 2 2 2 2 2 2 2 2 2 2 2 2 2 2 2 2 2 2 2
left_child=2 -2 14 7 5 -5 11 9 -9 -3 19 13 -13 -4 17 29 -10 -1 24 -6 22 25 27 -14 -19 -22 -20 -21 -15 -7
right_child=1 3 6 4 10 15 -8 8 16 -11 -12 12 23 28 -16 -17 -18 18 26 20 21 -23 -24 -25 -26 -27 -28 -29 -30 -31
leaf_value=-9.2998769645008349e-05 0.00023734484002301375 -5.290126201882731e-05 -4.6873897154389065e-06 0.00012759051383909537 2.7088251764115952e-05 7.5636722834815378e-05 6.9477912236834533e-05 0.00023295803949622496 0.00011881249299496256 0.0001260212705730452 -1.549098423936357e-06 -5.7870865639341017e-05 -4.7395109377248445e-06 -5.5620710199284743e-05 -9.793372995809237e-05 -3.0021920453621604e-06 4.2595292393343703e-05 1.4324882886774171e-05 -7.6122545551238584e-05 5.6398410506867198e-05 5.3233419550686514e-05 0.00014222448566058264 3.5161532233819209e-05 6.5748729431778998e-05 -4.872555920155719e-05 0.00012033736390731065 -2.4665571002585169e-05 0.00012333227901684463 -3.2697727603584325e-05 2.7501465478002195e-05
leaf_weight=155 97 51 199 50 65 64 50 80 63 83 56 61 50 550 302 390 96 93 302 52 62 81 103 69 50 50 52 52 370 142
leaf_count=155 97 51 199 50 65 64 50 80 63 83 56 61 50 550 302 390 96 93 302 52 62 81 103 69 50 50 52 52 370 142
internal_value=4.27321e-07 6.74582e-05 -4.7219e-05 5.67575e-05 4.23597e-05 2.16016e-05 -2.91912e-05 0.000101804 0.000126406 5.79239e-05 6.80982e-05 -3.29891e-05 4.27536e-06 -3.89833e-05 -7.27112e-05 1.27099e-05 7.27946e-05 -6.10284e-05 -5.10577e-05 7.64858e-05 8.45129e-05 0.000107966 6.26456e-05 3.61318e-05 -7.72073e-06 8.31905e-05 -6.85639e-05 8.98653e-05 -4.64017e-05 4.24561e-05
internal_weight=3940 1637 2303 1540 1167 646 1349 373 239 134 521 1299 180 1119 954 596 159 652 497 465 400 193 207 119 143 112 354 104 920 206
internal_count=3940 1637 2303 1540 1167 646 1349 373 239 134 521 1299 180 1119 954 596 159 652 497 465 400 193 207 119 143 112 354 104 920 206
is_linear=0
shrinkage=0.05


Tree=5
num_leaves=31
num_cat=0
split_feature=7 3 7 7 13 18 18 18 3 18 18 2 3 13 3 17 18 12 3 12 18 3 2 12 18 12 3 3 2 3
split_gain=0.00455589 0.00088921 0.000357553 0.000304934 0.000404386 0.000416109 0.000423234 0.000271137 0.000397425 0.000349924 0.000181005 0.000186052 0.000160056 0.000135378 0.000128289 9.63598e-05 9.36438e-05 7.68794e-05 0.000112723 7.38737e-05 7.14535e-05 6.75081e-05 6.65329e-05 6.0722e-05 5.05433e-05 0.000158539 0.000119311 4.50031e-05 4.03807e-05 4.02744e-05
threshold=0.48373999999999651 -0.0069474503751155671 0.29426666666665452 0.64016333333333941 -0.18372553598532224 185.50000000000003 237.50000000000003 110.50000000000001 -0.0028589730135384758 283.50000000000006 56.500000000000007 0.0011937363254586055 0.0037365767859335783 0.20523042114610318 0.002460491428097939 0.00070658200201004619 213.50000000000003 -0.40964620737086688 0.0014547464798652925 0.11284792582098248 160.50000000000003 0.0021340607559674333 -1.0000000180025095e-35 -0.28046024792374441 214.50000000000003 -0.024216697015795225 -0.0013129794890461069 0.00057882648000166347 0.0056850320683815578 2.7578060975322416e-05
decision_type=2 2 2 2 2 2 2 2 2 2 2 2 2 2 2 2 2 2 2 2 2 2 2 2 2 2 2 2 2 2
left_child=2 -2 14 4 -3 23 -7 8 -5 16 11 -4 20 17 15 29 -9 -10 22 -8 -12 24 -19 -6 25 26 -22 -26 -15 -1
right_child=1 3 10 7 5 6 19 9 13 -11 12 -13 -14 28 -16 -17 -18 18 -20 -21 21 -23 -24 -25 27 -27 -28 -29 -30 -31
leaf_value=-4.9799541796640242e-05 0.00021450863966899133 0.00016369722660663615 -1.1457879769396742e-05 0.0001870728794187926 -6.1214471980974852e-05 0.00015974209474879073 -2.2211689321617695e-05 -2.9489070514025176e-05 0.00014329252936194875 0.00014957475564369817 -5.2807562228815924e-05 9.9673800586435192e-05 5.3106053559531582e-05 2.6015289833699524e-06 -0.00010511297444019751 8.4244559676495993e-06 4.0071753878470775e-05 8.4404492044883259e-05 0.00011899238657497336 5.1380761767718409e-05 -2.8410255472408606e-05 -7.0581652936555118e-05 2.9134516894327588e-05 -3.2873972934627175e-06 -2.2948691462289927e-05 -6.0581361246174008e-05 7.0287284677234205e-05 -6.5522278141543218e-05 6.2036761593452528e-05 -7.3073558461272123e-05
leaf_weight=338 94 53 144 96 52 88 60 109 58 50 484 51 50 65 177 51 87 121 125 79 50 79 99 348 277 72 79 80 51 413
leaf_count=338 94 53 144 96 52 88 60 109 58 50 484 51 50 65 177 51 87 121 125 79 50 79 99 348 277 72 79 80 51 413
internal_value=1.1457e-06 6.52117e-05 -4.35229e-05 5.61047e-05 3.10772e-05 1.98669e-05 7.39369e-05 7.5871e-05 9.36167e-05 3.15068e-05 -2.69944e-05 1.76073e-05 -3.44217e-05 7.633e-05 -6.65853e-05 -5.80823e-05 1.38742e-06 9.00305e-05 8.10763e-05 1.96142e-05 -3.83257e-05 -2.73221e-05 5.9533e-05 -1.08179e-05 -2.11976e-05 -1.14266e-06 3.20324e-05 -3.2489e-05 2.87325e-05 -6.25987e-05
internal_weight=3980 1635 2345 1541 680 627 227 861 615 246 1366 195 1171 519 979 802 196 403 345 139 1121 637 220 400 558 201 129 357 116 751
internal_count=3980 1635 2345 1541 680 627 227 861 615 246 1366 195 1171 519 979 802 196 403 345 139 1121 637 220 400 558 201 129 357 116 751
is_linear=0
shrinkage=0.05


Tree=6
num_leaves=31
num_cat=0
split_feature=7 3 7 7 13 18 3 14 18 3 18 18 2 3 3 3 18 18 13 12 3 10 18 12 3 12 17 17 7 3
split_gain=0.0041117 0.000802512 0.000323133 0.000277075 0.000339531 0.000325037 0.000358763 0.0010183 0.000208432 0.000331019 0.000303362 0.000178379 0.000162984 0.000144927 0.000135705 0.000245954 0.000179614 0.000241964 0.000118169 9.21473e-05 0.000104683 7.70296e-05 7.04479e-05 6.01997e-05 5.57465e-05 5.24709e-05 4.09849e-05 4.01044e-05 3.82435e-05 3.74322e-05
threshold=0.48373999999999651 -0.0069474503751155671 0.28449999999999137 0.66103333333334169 -0.16370778942610933 182.50000000000003 -0.0036696727588787234 -1.6014951908796788e-05 110.50000000000001 -0.0028589730135384758 275.50000000000006 56.500000000000007 0.0011937363254586055 0.0037365767859335783 2.7578060975322416e-05 -0.0012892821204159796 214.50000000000003 265.50000000000006 0.20523042114610318 -0.40964620737086688 0.0018975711829927204 36.513137541473363 213.50000000000003 -0.30149367809353966 0.003398443269649293 -0.063251463193284355 0.00048795530325742279 0.00038701363829189743 0.62915666666668069 0.0016672559674379705
decision_type=2 2 2 2 2 2 2 2 2 2 2 2 2 2 2 2 2 2 2 2 2 2 2 2 2 2 2 2 2 2
left_child=2 -2 14 4 -3 23 -7 -8 9 -5 22 12 26 21 15 -1 -17 -18 19 -11 -21 27 -10 -6 25 -16 -4 -13 29 -25
right_child=1 3 11 8 5 6 7 -9 10 18 -12 13 -14 -15 24 16 17 -19 -20 20 -22 -23 -24 28 -26 -27 -28 -29 -30 -31
leaf_value=-7.9006134646888429e-05 0.00020378320732271143 0.00013591386888687601 1.8668141087075946e-05 0.00017516946496625872 -5.8022299741423923e-05 -3.0887108417355982e-05 0.00029465658061963041 2.8272704431145488e-05 -2.820556578974586e-05 0.00014611826419985103 0.00013634229020818516 -2.161929618468452e-05 9.469011092019797e-05 4.8988640500123011e-05 -0.00010290667495795368 -7.1829873475508075e-05 0.00012324213091051208 -2.7458332283059832e-05 2.8396657140230832e-05 5.8858956025049224e-05 0.00012360904617440504 -4.2536056887765576e-05 3.774593646401469e-05 -2.0741510186164674e-05 -0.00011750114478295807 -6.4110307447379155e-05 -3.4559196394698842e-05 3.0961838070652451e-05 4.1096369295701157e-05 1.3747456449087568e-05
leaf_weight=182 94 70 69 94 50 69 50 127 98 55 53 132 51 51 113 50 50 57 115 235 85 1001 69 183 82 381 76 50 50 138
leaf_count=182 94 70 69 94 50 69 50 127 98 55 53 132 51 51 113 50 50 57 115 235 85 1001 69 183 82 381 76 50 50 138
internal_value=1.08842e-06 6.19512e-05 -4.13468e-05 5.32995e-05 3.11552e-05 2.0161e-05 6.58222e-05 0.000103522 7.35984e-05 8.92238e-05 3.21203e-05 -2.65e-05 1.78102e-05 -3.35379e-05 -6.45499e-05 -3.94502e-05 6.40438e-06 4.29624e-05 7.27362e-05 8.63337e-05 7.60582e-05 -3.70957e-05 -9.56143e-07 -6.51982e-06 -7.93222e-05 -7.29848e-05 -9.23033e-06 -7.17393e-06 4.21216e-07 -5.91448e-06
internal_weight=3980 1635 2345 1541 737 667 246 177 804 584 220 1430 196 1234 915 339 157 107 490 375 320 1183 167 421 576 494 145 182 371 321
internal_count=3980 1635 2345 1541 737 667 246 177 804 584 220 1430 196 1234 915 339 157 107 490 375 320 1183 167 421 576 494 145 182 371 321
is_linear=0
shrinkage=0.05


Tree=7
num_leaves=31
num_cat=0
split_feature=7 3 7 7 15 3 2 3 12 3 3 17 8 8 3 3 14 10 12 3 10 8 15 10 3 3 3 3 7 12
split_gain=0.0037108 0.000724267 0.000292086 0.00025006 0.000240253 0.000264825 0.00018537 0.000175367 0.000156931 0.000137976 0.000107947 8.30671e-05 7.7046e-05 7.1251e-05 6.38863e-05 0.000150744 5.98816e-05 5.47671e-05 6.27514e-05 5.61344e-05 4.63165e-05 4.49382e-05 5.31254e-05 4.42661e-05 3.77256e-05 3.59804e-05 7.83587e-05 9.96831e-05 0.000134026 3.84187e-05
threshold=0.48373999999999651 -0.0069474503751155671 0.29426666666665452 0.66103333333334169 -0.00014361908440585489 -0.0038292222342532598 -0.0017950111087475238 -0.0048358079626754039 0.6213382152449366 0.0035083950055213899 0.002460491428097939 0.00070658200201004619 0.0004422669273749182 0.00041623234261032026 -0.0030792414036546019 -0.00087304519789774672 0.00091452675462566581 36.513137541473363 0.25234212684563867 0.001272925661931906 60.284771485553833 0.00086918678708722296 1.7630261488599256e-05 36.838291462776311 -0.0021411665822356585 -0.0017062090123631066 -0.00059191836139407383 -0.0012892821204159796 0.23245333333333448 -0.063251463193284355
decision_type=2 2 2 2 2 2 2 2 2 2 2 2 2 2 2 2 2 2 2 2 2 2 2 2 2 2 2 2 2 2
left_child=2 -2 10 4 5 -3 -7 -5 17 13 11 25 -8 -9 -6 -16 20 -4 -19 -20 21 23 -23 -15 -25 -1 27 -27 -29 -28
right_child=1 3 8 7 14 6 12 9 -10 -11 -12 -13 -14 16 15 -17 -18 18 19 -21 -22 22 -24 24 -26 26 29 28 -30 -31
leaf_value=-8.7151855439194205e-05 0.00019359404644266298 -1.1895451044297325e-05 -2.8485895592510996e-06 0.00016059960094571581 -4.2567991339689436e-05 0.0001766511324763486 0.00010158668551529514 3.0740119477023226e-05 6.1714580335640626e-05 -1.4225642600699572e-06 -9.5465305707490445e-05 9.4253618597434199e-06 2.0541697328250545e-05 2.5815304674178413e-05 9.7255711328216425e-05 4.9870010047513128e-06 0.00011979052055410224 -3.6922557108408583e-05 3.251186279717681e-05 -2.619502935652344e-05 2.7589032564450193e-05 0.00012801948511654017 6.6108269567753127e-05 0.00010652704866588201 6.3480295169441537e-05 -6.3630295568145804e-05 -8.5212125336019622e-05 6.3719976214297974e-05 -4.6382645217109115e-05 -5.4198890496997158e-05
leaf_weight=85 94 71 190 50 53 57 69 95 51 73 177 51 51 56 50 386 73 951 65 109 54 77 63 69 194 100 148 52 59 307
leaf_count=85 94 71 190 50 53 57 69 95 51 73 177 51 51 56 50 386 73 951 65 109 54 77 63 69 194 100 148 52 59 307
internal_value=1.034e-06 5.88536e-05 -3.92795e-05 5.06345e-05 2.95974e-05 6.96841e-05 0.000102408 6.99185e-05 -2.43405e-05 6.39052e-05 -6.01238e-05 -5.2324e-05 6.71426e-05 7.0908e-05 9.26721e-06 1.55683e-05 7.74199e-05 -2.7678e-05 -3.18714e-05 -4.26429e-06 7.13905e-05 7.65436e-05 0.000100159 6.61793e-05 7.47739e-05 -5.65173e-05 -5.26075e-05 -2.74226e-05 5.19696e-06 -6.42867e-05
internal_weight=3980 1635 2345 1541 737 248 177 804 1366 754 979 802 120 681 489 436 586 1315 1125 174 513 459 140 319 263 751 666 211 111 455
internal_count=3980 1635 2345 1541 737 248 177 804 1366 754 979 802 120 681 489 436 586 1315 1125 174 513 459 140 319 263 751 666 211 111 455
is_linear=0
shrinkage=0.05


Tree=8
num_leaves=31
num_cat=0
split_feature=7 3 7 7 13 3 12 3 3 3 3 11 17 13 8 3 10 7 3 12 12 3 3 7 3 12 2 4 12 3
split_gain=0.003349 0.000653651 0.00026431 0.00022568 0.000284492 0.000158269 0.000144041 0.000124523 0.000114058 0.0002057 0.00011058 0.000402456 9.5861e-05 8.08834e-05 6.4304e-05 5.19096e-05 5.42138e-05 5.04229e-05 6.82629e-05 0.000172243 0.000101039 4.81413e-05 4.69528e-05 4.66502e-05 4.38966e-05 4.38641e-05 4.27588e-05 3.4199e-05 3.3982e-05 8.90528e-05
threshold=0.48373999999999651 -0.0069474503751155671 0.28449999999999137 0.66103333333334169 -0.16370778942610933 -0.0048358079626754039 0.6213382152449366 0.0035083950055213899 2.7578060975322416e-05 -0.0012892821204159796 -0.0036696727588787234 -0.29940929683755252 0.00041773627913812265 -0.026601813201903756 0.00041623234261032026 0.003398443269649293 36.513137541473363 0.94975333333332335 -0.0021411665822356585 -0.37076088949804037 -0.07787600398736863 0.0018975711829927204 0.0035083950055213899 0.58208000000002291 -0.0013129794890461069 -0.063251463193284355 -0.00026580372881829234 0.77056644241896233 0.23891698629922806 0.001272925661931906
decision_type=2 2 2 2 2 2 2 2 2 2 2 2 2 2 2 2 2 2 2 2 2 2 2 2 2 2 2 2 2 2
left_child=2 -2 8 4 -3 -5 15 14 9 -1 -6 -12 -11 23 -7 16 -4 18 19 -16 -20 26 25 27 -19 -10 -22 -13 -18 -30
right_child=1 3 6 5 10 7 -8 -9 22 12 11 13 -14 -15 17 -17 28 24 20 -21 21 -23 -24 -25 -26 -27 -28 -29 29 -31
leaf_value=-7.146417036502888e-05 0.00018391434535628155 0.00012401011133956024 -4.6967596889434795e-06 0.00015256962102284889 -2.8262983033123929e-05 2.920311386428933e-05 5.8628851833168939e-05 -1.3514355188120024e-06 -9.3584486123403539e-05 -2.006258693535673e-05 0.00015808969496301529 -4.115937438547331e-06 6.3799157429457413e-05 -1.0104573545246622e-06 0.00016594106243351587 2.1113630241921381e-05 -3.6665789516549565e-05 6.5187795458768961e-05 1.783252322975157e-05 3.7856849159206314e-05 9.7724998820922335e-05 0.00010808388064330371 -0.00010791447391220106 7.6321521135200711e-05 0.00012551024500154247 -5.8154597664051603e-05 4.2191821554615268e-05 5.1790503691033032e-05 3.0542690159823646e-05 -4.4470410279705445e-05
leaf_weight=182 94 70 197 50 108 95 51 73 113 107 53 59 50 335 52 54 967 50 119 53 50 73 78 61 76 385 113 51 70 91
leaf_count=182 94 70 197 50 108 95 51 73 113 107 53 59 50 335 52 54 967 50 119 53 50 73 78 61 76 385 113 51 70 91
internal_value=9.82298e-07 5.59109e-05 -3.73155e-05 4.81028e-05 2.81176e-05 6.64226e-05 -2.38879e-05 6.07099e-05 -5.83007e-05 -3.52897e-05 1.80539e-05 2.70024e-05 6.64497e-06 1.32719e-05 6.73626e-05 -2.69396e-05 -2.8898e-05 7.35489e-05 6.58728e-05 0.000101289 5.53975e-05 7.43392e-05 -7.18436e-05 4.1252e-05 0.000101573 -6.61939e-05 5.92265e-05 2.18043e-05 -3.31247e-05 -1.1856e-05
internal_weight=3980 1635 2345 1541 737 804 1430 754 915 339 667 559 157 506 681 1379 1325 586 460 105 355 236 576 171 126 498 163 110 1128 161
internal_count=3980 1635 2345 1541 737 804 1430 754 915 339 667 559 157 506 681 1379 1325 586 460 105 355 236 576 171 126 498 163 110 1128 161
is_linear=0
shrinkage=0.05


Tree=9
num_leaves=31
num_cat=0
split_feature=6 3 6 13 12 6 3 3 11 3 3 3 2 2 11 3 3 12 4 12 12 8 12 2 13 10 3 1 10 3
split_gain=0.00290775 0.00062081 0.000201897 0.000192423 0.000195489 0.000203188 0.000163764 9.668e-05 8.86109e-05 0.000180584 0.000403228 8.60794e-05 8.23156e-05 7.4838e-05 6.23873e-05 5.81126e-05 0.000130184 5.48018e-05 6.52254e-05 4.60149e-05 8.68524e-05 3.54234e-05 9.95802e-05 4.2606e-05 3.51305e-05 4.91674e-05 3.44532e-05 4.66976e-05 3.26452e-05 3.14609e-05
threshold=0.45439000000001223 -0.0069474503751155671 0.27943000000002488 -0.28384793009386539 0.91315678603790629 0.65269999999999306 0.0041260280673289284 -0.0042935412909629982 -0.26562705262602998 -0.0037601287236614165 -0.0014869275087633636 0.0016672559674379705 -0.0014390421038209531 0.0022183480067761168 -0.38149528388436232 -0.0012892821204159796 -0.00053547668511209868 -0.075150678836518381 0.89369329362915662 0.42258759280001973 0.3042607097970994 0.00079504812044252609 0.29922935657757616 -1.0000000180025095e-35 -0.010804743220652816 50.318231232706033 -0.00095969061864268344 -0.00058897627651116602 49.028181120906758 0.003398443269649293
decision_type=2 2 2 2 2 2 2 2 2 2 2 2 2 2 2 2 2 2 2 2 2 2 2 2 2 2 2 2 2 2
left_child=2 -2 11 -3 5 8 13 -7 9 -5 -11 15 -10 14 -4 -1 -17 -18 -19 20 26 23 28 -9 25 -14 -16 -28 -23 -13
right_child=1 3 6 4 -6 7 -8 21 12 10 -12 29 24 -15 19 16 17 18 -20 -21 -22 22 -24 -25 -26 -27 27 -29 -30 -31
leaf_value=-6.6849335778637652e-05 0.00017471862842323893 0.00010771740573614326 8.2647338377701466e-06 -1.3195733146102458e-05 0.00012728687975372156 0.00012044172508467455 6.4819802985766723e-05 6.0938158740030904e-05 6.508957674847553e-05 0.00017836408787843541 1.1328772982950256e-06 -6.5906296843332496e-05 -2.7441710768332746e-06 2.9628909793163161e-05 -4.6982533846685647e-05 1.3817304211484084e-05 -7.7249013412483694e-05 -5.52374138654462e-05 6.0557701103521945e-06 -7.6703398478677071e-05 3.1421975977279526e-05 7.4339795803877814e-05 0.00011257087702809563 2.3500591930832399e-05 -5.5519315649634846e-06 4.3738310074715646e-05 2.0358943557922585e-06 -3.3500817835626459e-05 2.7514286742738116e-05 -0.00010173023067181931
leaf_weight=175 94 106 98 77 59 54 50 131 61 60 69 262 119 55 348 111 112 120 68 58 53 56 75 181 364 109 111 553 111 80
leaf_count=175 94 106 98 77 59 54 50 131 61 60 69 262 119 55 348 111 112 120 68 58 53 56 75 181 364 109 111 553 111 80
internal_value=9.33183e-07 4.97719e-05 -3.6465e-05 4.25752e-05 3.80502e-05 3.44613e-05 -2.39463e-05 5.65794e-05 1.88061e-05 4.73978e-05 8.3566e-05 -5.43528e-05 9.78634e-06 -2.74246e-05 -2.99946e-05 -4.27193e-05 -3.24449e-05 -4.9562e-05 -3.30675e-05 -3.33333e-05 -3.09714e-05 5.03546e-05 6.47105e-05 3.92196e-05 4.08787e-06 1.94777e-05 -3.4239e-05 -2.75602e-05 4.32163e-05 -7.42862e-05
internal_weight=3980 1726 2254 1632 1526 1467 1326 608 859 206 129 928 653 1276 1221 586 411 300 188 1123 1065 554 242 312 592 228 1012 664 167 342
internal_count=3980 1726 2254 1632 1526 1467 1326 608 859 206 129 928 653 1276 1221 586 411 300 188 1123 1065 554 242 312 592 228 1012 664 167 342
is_linear=0
shrinkage=0.05


Tree=10
num_leaves=31
num_cat=0
split_feature=7 3 3 7 12 12 12 7 14 15 5 3 7 17 7 8 17 3 15 3 14 10 3 1 12 12 12 10 17 7
split_gain=0.00279436 0.000666018 0.0002077 0.000191845 0.000152131 0.000147229 0.000323407 0.000379181 0.00014784 0.000144296 0.000122929 9.85943e-05 9.1887e-05 8.10263e-05 8.02396e-05 8.26229e-05 7.78064e-05 6.05635e-05 5.85044e-05 5.15137e-05 4.83859e-05 4.7588e-05 4.04241e-05 4.09953e-05 4.38798e-05 4.18869e-05 6.26266e-05 3.85082e-05 4.41803e-05 3.35218e-05
threshold=0.48373999999999651 -0.0069474503751155671 -0.00024840176609495324 0.34361333333333738 0.2830278291780714 -0.37076088949804037 -0.54591904136385339 0.72086333333333352 0.00067128529318899639 -0.00054020580923674888 -0.42131979192681374 0.0020868610162131465 0.41940333333333613 0.00070658200201004619 0.60080333333333646 0.0005127370565487405 0.00033289950651992241 0.0035083950055213899 -0.00010093659545296062 -0.002196907918770607 0.00091452675462566581 59.40459236696362 -0.0016257808759988373 -0.00056895537113232908 -0.13637931079788143 -0.071832057487907344 -0.013326380590294125 38.038382821150428 0.00038701363829189743 0.5530900000000013
decision_type=2 2 2 2 2 2 2 2 2 2 2 2 2 2 2 2 2 2 2 2 2 2 2 2 2 2 2 2 2 2
left_child=3 -2 5 11 27 6 7 -3 9 16 -9 13 -6 22 18 -16 -7 20 -4 -11 21 -17 -1 -24 -25 -26 -27 28 -5 -20
right_child=1 2 14 4 12 8 -8 10 -10 19 -12 -13 -14 -15 15 17 -18 -19 29 -21 -22 -23 23 24 25 26 -28 -29 -30 -31
leaf_value=-6.8195542402475995e-05 0.00017774364823520787 -4.8644646515943656e-05 5.0027685526893939e-05 -2.1886496472903031e-05 -1.2979948882570466e-05 0.00012826394116207255 0.00017026819552525428 0.00016150550239183727 0.00012365806695824075 -6.9687979715319117e-06 5.2704701249695067e-05 -7.2457625856412364e-05 6.4093454434273385e-05 5.0519461400772748e-06 9.2398380634635537e-06 6.6592951221170992e-05 4.5445484799723196e-05 6.4123332745582267e-06 7.303375070191381e-06 3.4649099261320985e-05 0.00010712430857847721 1.3344189365102866e-05 -9.5464539437230243e-06 -1.1533642687027169e-05 -7.2546399601410453e-05 -3.4058688041782837e-06 -5.0807843992645632e-05 -3.1753747245460522e-05 3.0881584897152993e-05 -3.1810240507864548e-05
leaf_weight=147 97 60 61 136 74 53 88 54 54 123 50 297 81 92 165 159 61 58 184 188 50 57 99 90 143 87 350 705 56 78
leaf_count=147 97 60 61 136 74 53 88 54 54 123 50 297 81 92 165 159 61 58 184 188 50 57 99 90 143 87 350 705 56 78
internal_value=5.41491e-07 5.06604e-05 4.26714e-05 -3.43312e-05 -1.84435e-05 6.20055e-05 9.29423e-05 5.14503e-05 4.57298e-05 3.58283e-05 0.000109197 -4.71388e-05 2.72971e-05 -3.96789e-05 2.52659e-05 3.80401e-05 8.39488e-05 5.27069e-05 5.92666e-06 1.81893e-05 6.28012e-05 5.25412e-05 -4.41715e-05 -3.95791e-05 -4.40167e-05 -4.90572e-05 -4.13708e-05 -2.63474e-05 -6.49581e-06 -4.34114e-06
internal_weight=3997 1640 1543 2357 1052 731 252 164 479 425 104 1305 155 1008 812 489 114 324 323 311 266 216 916 769 670 580 437 897 192 262
internal_count=3997 1640 1543 2357 1052 731 252 164 479 425 104 1305 155 1008 812 489 114 324 323 311 266 216 916 769 670 580 437 897 192 262
is_linear=0
shrinkage=0.05


Tree=11
num_leaves=31
num_cat=0
split_feature=6 3 12 12 18 6 18 3 11 15 3 18 18 3 3 12 3 12 18 6 18 3 3 18 8 18 12 18 3 15
split_gain=0.00235422 0.000628538 0.000249065 0.000200678 0.000204578 0.000180209 0.000141599 0.000224228 0.000465655 0.000110998 9.0675e-05 7.47072e-05 7.73334e-05 8.70454e-05 7.43038e-05 9.26283e-05 7.2289e-05 7.03483e-05 6.42583e-05 6.27776e-05 6.22024e-05 5.91649e-05 9.16288e-05 7.50861e-05 5.42969e-05 9.32132e-05 4.34752e-05 4.04202e-05 3.95223e-05 3.26856e-05
threshold=0.46200000000000052 -0.0069474503751155671 0.96347495771663649 -0.37076088949804037 305.50000000000006 0.27943000000002488 234.50000000000003 -0.0017432098678681095 -0.63964609096905167 -0.00045945837453503774 0.0038779444335300946 48.500000000000007 164.50000000000003 0.0010778096185813063 -0.002196907918770607 -0.24149722325287951 0.0018396164628997349 0.41135141237013684 188.50000000000003 0.72100000000001507 34.500000000000007 -0.0012892821204159796 -0.00053547668511209868 262.50000000000006 0.00042486087411398784 82.500000000000014 0.29922935657757616 269.50000000000006 -0.00050239125843668485 -4.9914477383561354e-06
decision_type=2 2 2 2 2 2 2 2 2 2 2 2 2 2 2 2 2 2 2 2 2 2 2 2 2 2 2 2 2 2
left_child=5 -2 3 6 9 16 7 8 -3 24 11 17 -13 14 -14 -16 21 -7 -15 29 -9 -1 23 -23 -5 -26 -21 -24 -17 -11
right_child=1 2 -4 4 -6 10 -8 20 -10 19 -12 12 13 18 15 28 -18 -19 -20 26 -22 22 27 -25 25 -27 -28 -29 -30 -31
leaf_value=-6.3619719811766929e-05 0.00016885647117718334 4.3384295469597035e-05 0.00014232015607831272 9.9300432916874469e-05 0.00011984373710489578 3.8871015709739229e-05 -8.4610548983619091e-06 6.2819021546342153e-05 0.00021063039004257249 1.9543099866226046e-05 4.3326680054822241e-05 -4.2172878115172144e-05 -3.126419475105841e-05 8.0907326870753131e-06 7.2374028457908524e-05 -1.8725221769453612e-05 -6.8868514186563287e-05 -3.2976406302103511e-05 -5.5648399380846638e-05 1.8124224215662463e-05 -1.3509419830584462e-05 4.349653776664513e-05 -3.1728317566824798e-05 -3.6415720765120876e-05 7.4373549260826628e-05 -8.0691113817010782e-06 5.886447469882634e-05 -7.0014980899367411e-05 2.3570670174360928e-05 -2.9649604762156857e-06
leaf_weight=180 97 92 55 51 54 87 50 56 76 256 53 510 152 51 52 136 313 56 176 174 51 66 227 53 80 60 105 99 93 436
leaf_count=180 97 92 55 51 54 87 50 56 76 256 53 510 152 51 52 136 313 56 176 174 51 66 227 53 80 60 105 99 93 436
internal_value=5.14416e-07 4.52794e-05 3.77688e-05 3.40373e-05 2.47091e-05 -3.23793e-05 6.89388e-05 8.30115e-05 0.000119043 2.02881e-05 -2.07917e-05 -2.33799e-05 -2.75495e-05 -1.62496e-05 -3.10223e-06 1.21313e-05 -4.92542e-05 1.0735e-05 -4.13282e-05 1.34343e-05 2.64382e-05 -3.94314e-05 -2.96474e-05 7.90536e-06 5.51312e-05 3.9041e-05 3.34566e-05 -4.33552e-05 -1.54829e-06 5.36172e-06
internal_weight=3997 1693 1596 1541 1216 2304 325 275 168 1162 1366 1313 1170 660 433 281 938 143 227 971 107 625 445 119 191 140 279 326 229 692
internal_count=3997 1693 1596 1541 1216 2304 325 275 168 1162 1366 1313 1170 660 433 281 938 143 227 971 107 625 445 119 191 140 279 326 229 692
is_linear=0
shrinkage=0.05


Tree=12
num_leaves=31
num_cat=0
split_feature=7 3 18 14 18 3 18 18 18 12 3 3 13 13 11 7 7 18 18 18 12 18 3 18 7 13 3 12 18 18
split_gain=0.00231271 0.000539047 0.00022361 0.000217935 0.000181912 0.000146203 0.000562353 0.000337235 0.000215912 0.000114831 0.000165739 0.000109635 0.000110991 0.000103171 0.000173438 0.00010193 8.14007e-05 9.21902e-05 7.74386e-05 0.000111987 7.50211e-05 0.000146242 7.09852e-05 5.97948e-05 0.00017547 0.000104383 6.88199e-05 5.07731e-05 7.7573e-05 5.64929e-05
threshold=0.48373999999999651 -0.0069474503751155671 304.50000000000006 -0.00011737166083070964 52.500000000000007 -0.0037601287236614165 180.50000000000003 78.500000000000014 112.50000000000001 0.66963899415508255 0.0030448697421059045 -0.0019751451786858814 -0.16370778942610933 -0.073657532216185442 0.16656754604781557 0.34361333333333738 0.67932999999999699 154.50000000000003 104.50000000000001 42.500000000000007 -0.13637931079788143 265.50000000000006 0.0035083950055213899 235.50000000000003 0.20733666666664402 0.037022404109487518 -0.0007797603513832683 0.081874978951112828 184.50000000000003 118.50000000000001
decision_type=2 2 2 2 2 2 2 2 2 2 2 2 2 2 2 2 2 2 2 2 2 2 2 2 2 2 2 2 2 2
left_child=4 -2 3 5 13 8 7 11 -3 16 -11 -7 -13 -1 -15 20 17 -5 19 -18 21 -6 -17 26 -25 -26 -22 28 -28 -29
right_child=1 2 -4 9 15 6 -8 -9 -10 10 -12 12 -14 14 -16 22 18 -19 -20 -21 23 -23 -24 24 25 -27 27 29 -30 -31
leaf_value=-3.0583148209723948e-05 0.00016041364334369907 8.1733667805868518e-05 0.00014290750320787991 -1.9221420082301069e-05 5.8355160610517493e-05 0.00015270109376433539 0.00020132179311387941 -1.4099258517620857e-05 -2.8592656358353234e-05 9.954843942902396e-05 -8.0870401513509523e-06 0.00012726446860562225 3.7798428759900237e-05 -1.1896769967534693e-05 0.0001150236395701273 -2.5867853793996753e-05 1.7420872966241682e-05 2.8742470813552082e-05 -1.0436602573041987e-05 8.8181870815072017e-05 -9.2667029680488941e-05 -4.3423012837138234e-05 3.4832973837825092e-05 -6.5443906948768396e-05 -2.2184223475347466e-05 5.9578864747891205e-05 1.7421499317354083e-05 -1.6326925790921947e-05 -5.3311865323156721e-05 -7.185442371264534e-05
leaf_weight=68 97 81 50 280 50 50 73 132 98 96 57 52 104 57 51 866 138 156 82 94 124 120 51 241 178 50 59 55 113 274
leaf_count=68 97 81 50 280 50 50 73 132 98 96 57 52 104 57 51 866 138 156 82 94 124 120 51 241 178 50 59 55 113 274
internal_value=4.88695e-07 4.60841e-05 3.88969e-05 3.54136e-05 -3.12366e-05 5.90467e-05 7.54726e-05 4.82921e-05 2.13315e-05 1.99722e-05 5.94489e-05 8.82711e-05 6.76204e-05 1.76616e-05 4.80379e-05 -3.51825e-05 1.19189e-05 -2.06003e-06 3.13292e-05 4.60913e-05 -4.43892e-05 -1.34883e-05 -2.24919e-05 -4.9191e-05 -3.56969e-05 -4.25372e-06 -5.93171e-05 -5.10628e-05 -2.90487e-05 -6.25717e-05
internal_weight=3997 1640 1543 1493 2357 590 411 338 179 903 153 206 156 176 108 2181 750 436 314 232 1264 170 917 1094 469 228 625 501 172 329
internal_count=3997 1640 1543 1493 2357 590 411 338 179 903 153 206 156 176 108 2181 750 436 314 232 1264 170 917 1094 469 228 625 501 172 329
is_linear=0
shrinkage=0.05


Tree=13
num_leaves=31
num_cat=0
split_feature=7 3 18 14 18 3 18 18 18 2 3 2 12 3 7 7 18 18 18 12 18 3 18 7 13 3 12 18 18 3
split_gain=0.00208722 0.00048649 0.000201808 0.000196687 0.000164176 0.000131948 0.000507523 0.000305602 0.00019486 0.000130401 0.000104185 0.000147985 0.000103635 0.00014958 9.19921e-05 7.34641e-05 8.32017e-05 6.98884e-05 0.000101068 6.77066e-05 0.000131983 6.40642e-05 5.39648e-05 0.000158362 9.42057e-05 6.29825e-05 5.50372e-05 9.73067e-05 4.92348e-05 4.73056e-05
threshold=0.48373999999999651 -0.0069474503751155671 304.50000000000006 -0.00011737166083070964 52.500000000000007 -0.0037601287236614165 180.50000000000003 80.500000000000014 112.50000000000001 0.0010442341070624475 -0.0019751451786858814 -0.0021084463878249244 0.66963899415508255 0.0030448697421059045 0.34361333333333738 0.67932999999999699 154.50000000000003 104.50000000000001 42.500000000000007 -0.13637931079788143 265.50000000000006 0.0035083950055213899 235.50000000000003 0.20733666666664402 0.037022404109487518 -0.00043391287415875916 0.077378312991340417 188.50000000000003 118.50000000000001 -0.0014538010496215866
decision_type=2 2 2 2 2 2 2 2 2 2 2 2 2 2 2 2 2 2 2 2 2 2 2 2 2 2 2 2 2 2
left_child=4 -2 3 5 9 8 7 10 -3 -1 -7 -12 15 -14 19 16 -5 18 -17 20 -6 -16 25 -24 -25 -21 27 -27 -28 -18
right_child=1 2 -4 12 14 6 -8 -9 -10 -11 11 -13 13 -15 21 17 29 -19 -20 22 -22 -23 23 24 -26 26 28 -29 -30 -31
leaf_value=-1.1472851202427601e-05 0.00015239296489574973 7.7646984439884423e-05 0.00013576212710177059 -1.826034881072961e-05 5.5437402281313558e-05 0.00014506603783229368 0.00019125570191771323 -1.6979855687035213e-05 -2.7163023529580215e-05 8.2342920791663083e-05 0.0001253182682012266 2.6883129776468285e-05 9.4571018386583705e-05 -7.6826871679115454e-06 -2.4574461190933474e-05 1.6549829637949808e-05 -1.1633136773525621e-05 -9.9147723627190664e-06 8.3772776875737199e-05 -8.6030320988016604e-05 -4.1251862159394179e-05 3.3091324782135951e-05 -6.217171136252158e-05 -2.1075011886112182e-05 5.659992379787582e-05 3.2717278155849697e-05 -1.5510579158382658e-05 -5.2687517794978591e-05 -6.7166366622135225e-05 4.6774589318724445e-05
leaf_weight=123 97 81 50 280 50 50 73 123 98 53 60 105 96 57 866 138 52 82 94 139 120 51 241 178 50 52 55 93 286 104
leaf_count=123 97 81 50 280 50 50 73 123 98 53 60 105 96 57 866 138 52 82 94 139 120 51 241 178 50 52 55 93 286 104
internal_value=4.64261e-07 4.37799e-05 3.6952e-05 3.36429e-05 -2.96748e-05 5.60944e-05 7.1699e-05 4.58775e-05 2.0265e-05 1.67785e-05 8.18378e-05 6.26777e-05 1.89736e-05 5.64765e-05 -3.34234e-05 1.1323e-05 -1.95703e-06 2.97628e-05 4.37867e-05 -4.21698e-05 -1.28138e-05 -2.13673e-05 -4.67315e-05 -3.3912e-05 -4.04103e-06 -5.63512e-05 -4.78628e-05 -2.20596e-05 -5.88348e-05 2.73053e-05
internal_weight=3997 1640 1543 1493 2357 590 411 338 179 176 215 165 903 153 2181 750 436 314 232 1264 170 917 1094 469 228 625 486 145 341 156
internal_count=3997 1640 1543 1493 2357 590 411 338 179 176 215 165 903 153 2181 750 436 314 232 1264 170 917 1094 469 228 625 486 145 341 156
is_linear=0
shrinkage=0.05


Tree=14
num_leaves=31
num_cat=0
split_feature=7 3 18 12 12 7 3 18 18 2 11 2 12 18 3 7 18 18 3 7 18 3 18 18 7 18 7 3 7 18
split_gain=0.00188372 0.000439057 0.000182132 0.000166718 0.000179461 0.000301821 0.000241991 0.000210775 0.000148169 0.000117687 8.43446e-05 8.07214e-05 9.8758e-05 0.000157922 9.01132e-05 7.60484e-05 4.82547e-05 0.000157195 0.000194993 4.74997e-05 7.79237e-05 0.000120228 6.84335e-05 0.000101253 6.62705e-05 5.55926e-05 5.47558e-05 5.1959e-05 4.62962e-05 0.000107518
threshold=0.48373999999999651 -0.0069474503751155671 304.50000000000006 -0.37076088949804037 -0.54591904136385339 0.72086333333333352 -0.0023269558770135737 92.500000000000014 52.500000000000007 0.0010442341070624475 -0.18556180890658422 -0.0021084463878249244 0.66963899415508255 40.500000000000007 -0.0015644362497745357 0.45526666666667481 268.50000000000006 190.50000000000003 -0.0020969851597558444 0.62619333333334459 156.50000000000003 -0.002196907918770607 110.50000000000001 42.500000000000007 0.7774099999999825 183.50000000000003 0.5530900000000013 0.00078127388143353171 0.20733666666664402 229.50000000000003
decision_type=2 2 2 2 2 2 2 2 2 2 2 2 2 2 2 2 2 2 2 2 2 2 2 2 2 2 2 2 2 2
left_child=8 -2 3 4 5 -3 -6 -7 9 -1 16 14 19 -14 -5 28 17 -10 -19 20 26 -22 23 -21 -25 -24 -13 -23 -12 -30
right_child=1 2 -4 11 6 7 -8 -9 10 -11 15 12 13 -15 -16 -17 -18 18 -20 22 21 27 25 24 -26 -27 -28 -29 29 -31
leaf_value=-1.0899208189777148e-05 0.00014477331384282996 -4.7391903824193704e-05 0.00012897402172893635 2.2377727886571623e-05 0.0001900124172508103 0.00012860260273501968 4.0298634409719974e-05 2.8146716574031187e-08 -3.1646392367576934e-05 7.8225772388594914e-05 -5.472594980901482e-05 1.1074901557361139e-06 0.00011266272126436781 8.7227606025960636e-06 0.00010693043703464229 5.3735596891640985e-06 -3.5453679873691207e-05 -1.1151393824656592e-05 0.00011933041828160641 9.8597158096172938e-06 -2.1721415966591874e-05 9.8386987214325942e-05 -3.5424222409197333e-05 9.0337196787812797e-05 2.1059006756434621e-05 2.8684369001331066e-05 -4.5621016471734637e-05 2.733173765454064e-05 -4.4984275747345288e-05 -1.453692468191977e-05
leaf_weight=123 97 70 50 69 55 85 53 51 160 53 369 174 68 79 58 102 140 67 50 168 74 50 73 99 53 63 98 53 854 439
leaf_count=123 97 70 50 69 55 85 53 51 160 53 369 174 68 79 58 102 140 67 50 168 74 50 73 99 53 63 98 53 854 439
internal_value=4.41047e-07 4.15909e-05 3.51044e-05 3.19608e-05 6.43367e-05 3.69671e-05 0.000116542 8.03872e-05 -2.8191e-05 1.59396e-05 -3.17522e-05 2.33381e-05 1.87924e-05 5.68038e-05 6.09924e-05 -3.65329e-05 -1.15289e-05 5.63014e-07 4.46101e-05 1.26182e-05 1.07437e-06 2.68957e-05 2.39848e-05 3.66123e-05 6.6181e-05 -5.72686e-06 -1.57285e-05 6.18246e-05 -3.91048e-05 -3.46468e-05
internal_weight=3997 1640 1543 1493 314 206 108 136 2357 176 2181 1179 1052 147 127 1764 417 277 117 905 449 177 456 320 152 136 272 103 1662 1293
internal_count=3997 1640 1543 1493 314 206 108 136 2357 176 2181 1179 1052 147 127 1764 417 277 117 905 449 177 456 320 152 136 272 103 1662 1293
is_linear=0
shrinkage=0.05


Tree=15
num_leaves=31
num_cat=0
split_feature=7 3 3 18 13 3 12 10 3 12 3 18 3 13 6 7 17 14 18 7 3 7 12 10 18 18 3 17 4 7
split_gain=0.0018624 0.000478531 0.000157175 0.00013437 0.000136012 0.000107971 0.000102427 0.00020473 0.000223876 0.000162251 9.94438e-05 8.96102e-05 7.90012e-05 5.17764e-05 0.000101609 7.12441e-05 5.56266e-05 4.78422e-05 5.45342e-05 7.9055e-05 6.89799e-05 7.92854e-05 0.000131566 5.49407e-05 5.17475e-05 7.66555e-05 0.000117049 4.4905e-05 4.48256e-05 5.75995e-05
threshold=0.4903233333333144 -0.0084621849583951577 0.0030448697421059045 293.50000000000006 -0.28384793009386539 0.0042731440822835155 -0.37076088949804037 33.920300675311815 -0.0015644362497745357 -0.62381883515116032 0.001809177491158922 58.500000000000007 0.0025778198550632046 -0.029022541330107798 0.56014000000001274 0.65533333333333998 0.0011707768844873272 -0.00021590473468310095 228.50000000000003 0.20733666666664402 -0.00037675509897032461 0.30332333333334044 -0.026516432039993109 59.988259877515368 265.50000000000006 193.50000000000003 -0.0019751451786858814 0.00024412076383509423 0.44919231938149912 0.41293666666665185
decision_type=2 2 2 2 2 2 2 2 2 2 2 2 2 2 2 2 2 2 2 2 2 2 2 2 2 2 2 2 2 2
left_child=5 -2 3 4 -3 11 7 -6 9 -9 13 28 17 14 -8 -15 -17 24 20 -20 -19 -22 -23 -21 25 -13 -27 -16 -1 -30
right_child=1 2 -4 -5 6 -7 10 8 -10 -11 -12 12 -14 15 27 16 -18 18 19 23 21 22 -24 -25 -26 26 -28 -29 29 -31
leaf_value=-3.7610844505252317e-05 0.00016130347464240915 9.4951432343676599e-05 -7.2201740167852272e-06 0.00012144853440344486 -1.2471805521004974e-05 4.1622767876932899e-05 7.945970808197306e-05 7.7388846701938053e-05 1.5442378954238807e-05 0.00019386108166583182 6.3773092913023765e-05 -2.2860663720621233e-05 -5.8668815450713391e-05 -1.081849242128548e-05 5.6279138653684096e-05 4.2512404623899465e-06 5.4102163569141431e-05 -6.3651339311050778e-05 -4.9807115614789334e-05 -1.6836465806439569e-05 -4.9685264955839491e-05 5.5187080107045182e-05 -3.0735853794970924e-05 3.896053687640233e-05 -3.784099148636718e-05 -1.5143196487513989e-05 8.2531571482562607e-05 3.3387428043683058e-06 -5.571967876197673e-06 6.0728516902599952e-05
leaf_weight=50 80 99 186 51 68 55 90 67 67 54 147 200 249 237 53 115 109 251 180 375 299 57 204 50 168 71 54 164 95 50
leaf_count=50 80 99 186 51 68 55 90 67 67 54 147 200 249 237 53 115 109 251 180 375 299 57 204 50 168 71 54 164 95 50
internal_value=8.6492e-08 4.21386e-05 3.58126e-05 4.18718e-05 3.86762e-05 -2.76281e-05 3.39185e-05 6.18754e-05 8.8767e-05 0.000129368 2.60966e-05 -2.92468e-05 -3.21799e-05 1.88851e-05 3.47939e-05 8.29077e-06 2.85091e-05 -2.87248e-05 -3.33953e-05 -2.20346e-05 -4.18703e-05 -3.21078e-05 -1.19711e-05 -1.02721e-05 -1.53101e-05 -3.66337e-06 2.70523e-05 1.62689e-05 3.21306e-06 1.72903e-05
internal_weight=3995 1587 1507 1321 1270 2408 1171 256 188 121 915 2353 2158 768 307 461 224 1909 1416 605 811 560 261 425 493 325 125 217 195 145
internal_count=3995 1587 1507 1321 1270 2408 1171 256 188 121 915 2353 2158 768 307 461 224 1909 1416 605 811 560 261 425 493 325 125 217 195 145
is_linear=0
shrinkage=0.05


Tree=16
num_leaves=31
num_cat=0
split_feature=7 3 3 3 13 18 7 18 13 18 18 3 4 3 11 10 10 7 18 18 18 16 14 18 11 3 7 11 7 7
split_gain=0.00168196 0.000424571 0.000153971 0.000138765 0.000102659 0.000170703 0.000135729 9.33128e-05 9.06945e-05 0.000106462 9.44162e-05 7.57505e-05 7.24148e-05 6.66012e-05 7.5949e-05 6.60082e-05 0.000117898 5.77784e-05 9.78528e-05 0.000100195 6.51167e-05 4.98089e-05 4.65693e-05 4.64607e-05 7.83985e-05 6.41971e-05 7.62732e-05 8.02272e-05 4.62361e-05 4.49296e-05
threshold=0.49829333333332976 -0.0084621849583951577 -0.00024840176609495324 0.0044768006665496162 0.08835128177197453 106.50000000000001 0.54388666666665897 58.500000000000007 -0.26733524130999448 223.50000000000003 122.50000000000001 0.002620641451142039 0.82621814916332526 0.0035083950055213899 0.64066901192251191 35.340037405388145 43.184166694456572 0.68366666666667408 76.500000000000014 34.500000000000007 155.50000000000003 0.00082367874068911659 -0.00021590473468310095 228.50000000000003 0.17258082148833867 -0.00037675509897032461 0.30332333333334044 -0.0035755071186827077 0.75180333333332039 0.20733666666664402
decision_type=2 2 2 2 2 2 2 2 2 2 2 2 2 2 2 2 2 2 2 2 2 2 2 2 2 2 2 2 2 2
left_child=3 -2 4 7 6 -6 -3 21 -8 10 15 22 -7 14 17 -10 -17 20 19 -19 -4 -1 -9 25 29 -24 -27 -28 -18 -25
right_child=1 2 13 -5 5 12 8 11 9 -11 -12 -13 -14 -15 -16 16 28 18 -20 -21 -22 -23 23 24 -26 26 27 -29 -30 -31
leaf_value=-9.8064352915907759e-06 0.00015323829686849424 0.00010444748790729285 -7.3262365461953542e-06 5.5223562472187604e-05 0.00014688091933642096 1.6513590380782263e-06 7.5664536246261818e-05 -1.411732825845157e-05 -2.49865581031818e-05 7.5937400093347871e-05 -3.6843878179688758e-05 -5.6391964029501425e-05 8.6748261957836814e-05 -1.2125340048860774e-05 7.4837162035589551e-05 9.8497646518935978e-05 -2.0847925745705465e-05 2.0001177861356865e-05 -2.2544489185747811e-05 9.5698460153438903e-05 4.517467508016632e-05 4.6397323846273748e-05 -6.0468772155482692e-05 -4.7436581843099483e-05 3.6316783610312051e-05 -4.741531147396702e-05 4.2389687094360591e-05 -2.4767800805241897e-05 4.3140964445972883e-05 -1.7092188584282439e-05
leaf_weight=146 80 73 234 52 68 50 92 516 51 70 86 247 50 139 71 57 58 90 50 85 79 54 251 179 54 303 56 216 55 383
leaf_count=146 80 73 234 52 68 50 92 516 51 70 86 247 50 139 71 57 58 90 50 85 79 54 251 179 54 303 56 216 55 383
internal_value=8.21673e-08 4.10879e-05 3.49342e-05 -2.5586e-05 5.16118e-05 8.57612e-05 4.10267e-05 -2.73333e-05 3.11552e-05 2.02936e-05 7.60603e-06 -3.02994e-05 4.41998e-05 1.91039e-05 2.62318e-05 2.49033e-05 3.98702e-05 1.98173e-05 3.91433e-05 5.67684e-05 5.92479e-06 5.36858e-06 -2.70079e-05 -3.16206e-05 -2.12278e-05 -3.93711e-05 -3.01615e-05 -1.09413e-05 1.02971e-05 -2.6757e-05
internal_weight=3995 1538 1458 2457 710 168 542 2405 469 377 307 2205 100 748 609 221 170 538 225 175 313 200 1958 1442 616 826 575 272 113 562
internal_count=3995 1538 1458 2457 710 168 542 2405 469 377 307 2205 100 748 609 221 170 538 225 175 313 200 1958 1442 616 826 575 272 113 562
is_linear=0
shrinkage=0.05


Tree=17
num_leaves=31
num_cat=0
split_feature=7 3 3 18 13 7 3 10 14 18 18 3 7 5 18 18 14 10 13 18 7 3 3 18 7 3 3 14 18 6
split_gain=0.00151924 0.000389558 0.000130361 0.000117914 0.00011664 8.79014e-05 0.000101062 8.10839e-05 0.00011177 0.000155307 0.000138365 0.000107104 0.000102341 9.88601e-05 8.86337e-05 5.56369e-05 5.42005e-05 5.39943e-05 7.40301e-05 7.31563e-05 5.78212e-05 5.38998e-05 0.000115225 0.00015391 7.26467e-05 5.08765e-05 4.30298e-05 4.13752e-05 6.92044e-05 4.00683e-05
threshold=0.4903233333333144 -0.0084621849583951577 0.0030448697421059045 293.50000000000006 -0.29469567590427037 0.20733666666664402 0.0042731440822835155 29.570990172225105 -0.00012520021407754796 74.500000000000014 180.50000000000003 0.0017748974104903296 0.64491666666668468 -0.6968990973387007 110.50000000000001 58.500000000000007 0.00094956698354671249 36.838291462776311 -0.026145653530585226 228.50000000000003 0.30332333333334044 0.00051085116660623509 -0.0012892821204159796 275.50000000000006 0.27867333333334354 -0.0018328804487446942 0.00027173569505902628 7.3560182839237789e-05 130.50000000000003 0.38898999999998984
decision_type=2 2 2 2 2 2 2 2 2 2 2 2 2 2 2 2 2 2 2 2 2 2 2 2 2 2 2 2 2 2
left_child=5 -2 3 4 -3 26 15 -6 9 13 12 16 -11 -9 -14 -7 -10 18 -17 20 -19 22 24 -24 -21 -22 -1 28 -27 -30
right_child=1 2 -4 -5 7 6 -8 8 11 10 -12 -13 14 -15 -16 17 -18 19 -20 21 25 -23 23 -25 -26 27 -28 -29 29 -31
leaf_value=-1.9146004836073595e-05 0.00014557638672158647 9.0073670402530246e-05 -6.8394055774440921e-06 0.0001124141642607106 -3.0329890331228282e-05 2.7933447997314104e-06 4.9421309015087905e-05 0.00015314045218201499 4.8886050613127124e-06 -3.83878920855649e-05 8.4203043953810555e-05 6.1312949653627042e-05 7.1305360408488829e-05 6.5625051696780235e-05 -1.4869246359012323e-05 -1.7274723426512919e-05 4.645026474076502e-05 -5.4235700797070282e-05 5.0299988672122714e-05 -6.76774493255305e-05 -6.453922520021854e-05 -3.4049164541399405e-05 0.00010401129760066396 -8.3654688296519453e-06 -3.8320181292669474e-06 -3.6476091146916452e-05 -5.6888990328210545e-05 -3.7225564668320406e-05 3.5053263397573065e-05 -1.5182060988455269e-05
leaf_weight=103 80 89 186 51 52 195 50 50 474 72 89 135 74 91 50 214 94 328 50 67 85 208 50 78 133 135 283 269 87 73
leaf_count=103 80 89 186 51 52 195 50 50 474 72 89 135 74 91 50 214 94 328 50 67 85 208 50 78 133 135 283 269 87 73
internal_value=7.8059e-08 3.80589e-05 3.23513e-05 3.78694e-05 3.48759e-05 -2.49533e-05 -2.07794e-05 3.07162e-05 3.35279e-05 5.37375e-05 3.25027e-05 2.12813e-05 9.02656e-06 9.66589e-05 3.65575e-05 -2.25594e-05 1.17668e-05 -2.53414e-05 -4.47648e-06 -2.89821e-05 -3.71256e-05 -1.41385e-05 -1.51216e-06 3.55317e-05 -2.52202e-05 -2.84783e-05 -4.68177e-05 -2.30436e-05 -1.01116e-05 1.21334e-05
internal_weight=3995 1587 1507 1321 1270 2408 2022 1181 1129 426 285 703 196 141 124 1972 568 1777 264 1513 977 536 328 128 200 649 386 564 295 160
internal_count=3995 1587 1507 1321 1270 2408 2022 1181 1129 426 285 703 196 141 124 1972 568 1777 264 1513 977 536 328 128 200 649 386 564 295 160
is_linear=0
shrinkage=0.05


Tree=18
num_leaves=31
num_cat=0
split_feature=7 3 12 3 11 18 3 7 18 9 13 7 18 16 13 11 3 5 18 14 18 14 9 7 18 3 3 18 3 3
split_gain=0.00137167 0.00035232 0.000138097 0.000213712 0.000317147 0.000140735 0.000114683 9.40973e-05 7.785e-05 0.000133536 9.24063e-05 0.000125671 7.7639e-05 6.98008e-05 8.47039e-05 7.35398e-05 6.5948e-05 6.28368e-05 5.96949e-05 5.69254e-05 5.44179e-05 0.000118153 7.46795e-05 5.22018e-05 5.2481e-05 8.67177e-05 0.000174888 4.71539e-05 7.02935e-05 8.37858e-05
threshold=0.49829333333332976 -0.005812920908333654 -0.33397514190665517 -0.0016559989673983519 -0.63964609096905167 298.50000000000006 0.0044768006665496162 0.77062666666665802 110.50000000000001 0.092389935299513795 -0.18372553598532224 0.63523333333333398 70.500000000000014 0.0010017229651055001 -0.054928421856533148 0.20821731778380584 0.0022161164713803494 -0.052179194222539749 156.50000000000003 0.00031787235574897891 30.500000000000004 0.001268357834699263 0.2377200653502908 0.26978666666666418 262.50000000000006 -0.0014152346463315627 -0.00053547668511209868 180.50000000000003 0.0022404248968039523 -0.0016559989673983519
decision_type=2 2 2 2 2 2 2 2 2 2 2 2 2 2 2 2 2 2 2 2 2 2 2 2 2 2 2 2 2 2
left_child=6 17 3 4 -3 8 12 -5 9 -4 -11 -12 13 14 -1 -16 18 -2 -14 23 21 -13 -22 24 25 -20 -27 -10 29 -29
right_child=1 2 5 7 -6 -7 -8 -9 27 10 11 20 16 -15 15 -17 -18 -19 19 -21 22 -23 -24 -25 -26 26 -28 28 -30 -31
leaf_value=-6.4940000672570694e-05 0.00015015383477434829 2.9191279182238141e-05 -4.1321026926905488e-05 -3.5434078839194457e-05 0.00015980053042937301 0.00010290783490442361 5.0358051301093217e-05 5.5300679501532667e-05 -2.135456627484745e-05 8.6341867318441925e-05 -7.0338362599743833e-06 -6.4206142666410996e-06 -3.9532160887798581e-05 5.09170033621688e-05 -2.0135981391350099e-05 5.5352466006297618e-05 -4.7305935681504603e-05 7.9706270023128435e-05 -7.0404397399489969e-05 3.3802934665800424e-05 4.3010713810504869e-05 8.5043643705900586e-05 0.00011092729835451924 -1.1777576865886232e-05 -4.8797281872562143e-05 7.7743044604693424e-05 -2.6364208128652161e-05 -1.0901678887402879e-06 -3.7801160110575446e-05 6.8863409126750322e-05
leaf_weight=55 67 95 63 62 91 51 52 53 156 77 175 110 453 56 85 52 359 60 63 50 146 52 56 733 255 51 193 98 50 76
leaf_count=55 67 95 63 62 91 51 52 53 156 77 175 110 453 56 85 52 359 60 63 50 146 52 56 733 255 51 193 98 50 76
internal_value=7.4156e-08 3.71048e-05 2.99252e-05 5.99636e-05 9.30915e-05 2.17796e-05 -2.31058e-05 6.38281e-06 1.78726e-05 2.80142e-05 3.51054e-05 2.77859e-05 -2.46942e-05 1.80009e-06 -1.25257e-05 8.51657e-06 -2.77403e-05 0.000116872 -2.38337e-05 -1.85465e-05 4.45261e-05 2.29383e-05 6.18391e-05 -2.05677e-05 -3.20324e-05 -1.81071e-05 -4.60409e-06 -2.48915e-07 1.44497e-05 2.94643e-05
internal_weight=3995 1538 1411 301 186 1110 2457 115 1059 679 616 539 2405 248 192 137 2157 127 1798 1345 364 162 202 1295 562 307 244 380 224 174
internal_count=3995 1538 1411 301 186 1110 2457 115 1059 679 616 539 2405 248 192 137 2157 127 1798 1345 364 162 202 1295 562 307 244 380 224 174
is_linear=0
shrinkage=0.05


Tree=19
num_leaves=31
num_cat=0
split_feature=7 3 3 13 7 3 3 7 3 3 13 14 10 7 11 3 4 3 10 13 3 3 7 7 11 11 12 7 3 10
split_gain=0.0012394 0.000323931 0.000111199 9.79541e-05 9.18974e-05 0.000134881 0.000257771 7.33807e-05 8.22928e-05 6.71221e-05 6.38101e-05 7.41114e-05 5.2203e-05 5.10611e-05 0.000134525 5.45263e-05 3.93122e-05 3.77941e-05 3.43248e-05 6.44299e-05 4.45946e-05 3.9271e-05 6.67407e-05 5.70572e-05 4.87077e-05 4.10626e-05 3.85212e-05 3.35787e-05 2.62585e-05 2.40231e-05
threshold=0.4903233333333144 -0.0084621849583951577 0.0030448697421059045 -0.29469567590427037 0.66103333333334169 -0.0036696727588787234 -0.0019751451786858814 0.20733666666664402 0.0042731440822835155 -0.0048358079626754039 -0.029022541330107798 -0.00012102836027172958 35.093352472923044 1.0791500000000045 0.62526584274360186 -0.0021411665822356585 0.32152695642528467 0.00027173569505902628 36.838291462776311 -0.026145653530585226 -0.0012892821204159796 0.0019211440302140811 0.2279033333333246 0.40586999999998935 0.13421800673063447 0.27899760971882875 0.32737074529108162 0.38544000000000178 0.001809177491158922 59.263023298916856
decision_type=2 2 2 2 2 2 2 2 2 2 2 2 2 2 2 2 2 2 2 2 2 2 2 2 2 2 2 2 2 2
left_child=7 -2 3 -3 5 -5 -7 17 16 -6 11 -8 -11 14 15 -14 -9 -1 19 -18 27 22 -22 25 -25 -24 -23 -20 -12 -17
right_child=1 2 -4 4 9 6 10 8 -10 12 28 -13 13 -15 -16 29 18 -19 20 -21 21 26 23 24 -26 -27 -28 -29 -30 -31
leaf_value=-1.6581712568870557e-05 0.00013241897624730826 8.4323820791034232e-05 -7.0251487571073991e-06 -3.5002707202367232e-05 9.6183306847127497e-05 0.00012241229852084107 8.4225504258683313e-05 -5.6337453896372757e-05 4.4622674985248522e-05 -1.0442339014900882e-05 -9.2116691026719099e-06 9.6166239711692476e-06 7.2480302129918073e-05 1.9872068286762199e-06 0.00012295240492811126 3.5795574090230228e-05 -1.3955098443522053e-05 -5.195403728974483e-05 -4.9558060612596806e-05 4.864514658584085e-05 3.2524878784338046e-05 -3.8985321105706247e-05 -1.9037270137503537e-05 -7.3159209277685578e-06 5.12800968153897e-05 -6.620806922546763e-05 5.6776595964289183e-06 -1.9230337750793591e-05 2.9825087188294639e-05 1.738847554646016e-07
leaf_weight=103 80 91 186 106 55 62 57 73 50 50 213 80 96 67 54 279 231 283 218 50 78 288 597 122 50 50 58 157 54 57
leaf_count=103 80 91 186 106 55 62 57 73 50 50 213 80 96 67 54 279 231 283 218 50 78 288 597 122 50 50 58 157 54 57
internal_value=7.04483e-08 3.43754e-05 2.91707e-05 3.42672e-05 3.05638e-05 1.59055e-05 2.74854e-05 -2.25383e-05 -1.87247e-05 4.33063e-05 1.29175e-05 4.06583e-05 3.84833e-05 4.2907e-05 4.85482e-05 3.92477e-05 -2.03309e-05 -4.25153e-05 -1.89468e-05 -2.81626e-06 -2.17482e-05 -1.71888e-05 -1.16692e-05 -1.58781e-05 9.71781e-06 -2.26826e-05 -3.14985e-05 -3.68609e-05 -1.31659e-06 2.97526e-05
internal_weight=3995 1587 1507 1321 1230 572 466 2408 2022 658 404 137 603 553 486 432 1972 386 1899 281 1618 1243 897 819 172 647 346 375 267 336
internal_count=3995 1587 1507 1321 1230 572 466 2408 2022 658 404 137 603 553 486 432 1972 386 1899 281 1618 1243 897 819 172 647 346 375 267 336
is_linear=0
shrinkage=0.05


Tree=20
num_leaves=31
num_cat=0
split_feature=7 3 10 18 18 18 2 18 18 3 8 12 7 18 10 7 13 3 3 3 7 12 18 12 18 6 13 7 12 3
split_gain=0.00103938 0.000220261 0.000196096 0.00012489 9.97243e-05 0.000108527 0.000147306 0.000139154 0.000353637 0.000207188 8.53457e-05 8.7949e-05 8.28605e-05 9.41679e-05 6.30575e-05 5.9417e-05 5.50313e-05 6.46044e-05 5.44344e-05 5.01376e-05 3.99635e-05 3.56982e-05 9.29619e-05 3.10864e-05 3.8723e-05 6.58916e-05 6.00701e-05 3.1003e-05 2.8883e-05 5.35855e-05
threshold=0.48373999999999651 -0.0056681021681495676 40.138236406599312 26.500000000000004 301.50000000000006 76.500000000000014 -0.00049039200329459287 179.50000000000003 241.50000000000003 -0.0028589730135384758 0.00029470811122985353 0.80164246118289684 0.67932999999999699 40.500000000000007 44.234654748557055 0.28449999999999137 0.12509226125562625 0.001809177491158922 0.0040522980677189721 0.0032719641909623714 0.74203666666668389 0.46273473841843876 46.500000000000007 -0.16122328813874939 233.50000000000003 0.2139999999999759 -0.0079746460929588786 0.23745999999999493 0.17735866543702047 0.00052840430162909508
decision_type=2 2 2 2 2 2 2 2 2 2 2 2 2 2 2 2 2 2 2 2 2 2 2 2 2 2 2 2 2 2
left_child=3 2 -2 -1 5 6 14 16 9 -9 -8 12 -12 -14 20 19 17 -7 21 23 -3 22 -17 -5 27 -26 -27 -25 -10 -30
right_child=1 4 -4 15 -6 7 10 8 28 -11 11 -13 13 -15 -16 18 -18 -19 -20 -21 -22 -23 -24 24 25 26 -28 -29 29 -31
leaf_value=4.913224902030394e-05 3.7312251557707476e-05 1.933056998666416e-05 0.00015721321363647197 1.9278940138011585e-06 9.0686479014485093e-05 -3.2027671236879905e-05 -4.1446829677357425e-05 2.8133245539579391e-05 -3.3300345273801212e-05 0.00015634137296043608 -1.2181242012350899e-05 8.9303249813383449e-05 1.2341056384494414e-05 7.6572823037007929e-05 0.00010290568806714659 4.5796388682598876e-05 2.3223422490685297e-05 1.8386267408589317e-05 3.1610974714704698e-05 -6.8637234896110985e-05 7.4378909491368934e-05 -6.1079017776886329e-05 -2.1202324390525832e-05 -3.1457786001447116e-05 -3.6884625158504412e-05 -2.427077493507568e-05 4.6638977164548126e-05 -5.9381452903532284e-05 4.3776962354728176e-05 -2.3074499173505332e-05
leaf_weight=59 79 64 60 68 53 261 51 58 76 69 138 50 153 91 85 54 95 84 53 96 68 51 1256 222 230 64 56 180 53 69
leaf_count=59 79 64 60 68 53 261 51 58 76 69 138 50 153 91 85 54 95 84 53 96 68 51 1256 222 230 64 56 180 53 69
internal_value=-1.60405e-06 2.88252e-05 8.90681e-05 -2.27096e-05 2.33089e-05 2.08713e-05 3.5098e-05 7.85352e-06 3.26661e-05 9.77896e-05 1.9724e-05 2.69455e-05 1.87835e-05 3.62963e-05 6.93175e-05 -2.45288e-05 -1.0474e-05 -1.9753e-05 -1.81024e-05 -3.44491e-05 4.76888e-05 -2.00383e-05 -1.84405e-05 -3.04466e-05 -3.33741e-05 -2.12143e-05 8.82044e-06 -4.39609e-05 -9.10499e-06 5.96753e-06
internal_weight=4046 1657 139 2389 1518 1465 700 765 325 127 483 432 382 244 217 2330 440 345 1414 916 132 1361 1310 820 752 350 120 402 198 122
internal_count=4046 1657 139 2389 1518 1465 700 765 325 127 483 432 382 244 217 2330 440 345 1414 916 132 1361 1310 820 752 350 120 402 198 122
is_linear=0
shrinkage=0.05


Tree=21
num_leaves=31
num_cat=0
split_feature=7 3 18 4 18 12 18 18 5 18 13 7 7 11 18 18 18 3 7 3 3 7 12 18 7 3 12 12 12 18
split_gain=0.000938041 0.000198785 0.00011312 0.000105491 9.00012e-05 0.000106609 0.000129233 0.000207165 0.000172522 7.19691e-05 0.000104003 7.01152e-05 9.69754e-05 7.81085e-05 7.74973e-05 5.47491e-05 0.000128374 5.76682e-05 5.43897e-05 4.89132e-05 4.53028e-05 4.33348e-05 3.48754e-05 9.01815e-05 3.08094e-05 2.98872e-05 4.72086e-05 2.82782e-05 3.62419e-05 6.15882e-05
threshold=0.48373999999999651 -0.0056681021681495676 24.500000000000004 0.959511323992572 301.50000000000006 -0.37076088949804037 211.50000000000003 102.50000000000001 -0.43000261042411497 76.500000000000014 -0.16816971503616129 0.99966333333334589 0.60080333333333646 0.67124810224004261 40.500000000000007 178.50000000000003 209.50000000000003 0.0013798904826590843 0.28449999999999137 0.0040522980677189721 0.0033400132982304102 0.70852333333333128 0.46273473841843876 48.500000000000007 0.53066333333332538 0.0022404248968039523 0.27246696640745405 -0.16122328813874939 -0.071832057487907344 239.50000000000003
decision_type=2 2 2 2 2 2 2 2 2 2 2 2 2 2 2 2 2 2 2 2 2 2 2 2 2 2 2 2 2 2
left_child=2 3 -1 -2 5 6 7 8 -3 10 -7 12 24 14 -14 17 -17 -11 20 22 27 -16 23 -20 -12 26 -18 -4 -29 -30
right_child=1 4 18 -5 -6 9 -8 -9 -10 15 11 -13 13 -15 21 16 25 -19 19 -21 -22 -23 -24 -25 -26 -27 -28 28 29 -31
leaf_value=4.9970816278935806e-05 0.00012976904448561385 0.00010321318607088167 1.8314993226072949e-06 4.2595994738942667e-05 8.6152154722614533e-05 8.210461806912565e-05 0.00011942532368194923 -5.0341668482925066e-05 3.333222424573297e-06 -2.9153277493452773e-05 1.4724930485310738e-05 -3.7722362361034586e-05 1.1065527695854457e-06 9.5797518821200362e-05 2.3325646560579118e-05 8.3856392509538833e-05 -1.6836187159528953e-05 1.3246065792796951e-05 3.917337241491895e-05 3.0030426143708129e-05 -6.6412984451744706e-05 7.883870414301643e-05 -5.9086765115632888e-05 -2.0373057760865247e-05 -3.5965846267841596e-05 -2.8935314866618089e-05 3.9108688369756588e-05 -5.1347593053828385e-05 -3.8574451322835123e-05 -4.9708771221419051e-06
leaf_weight=54 67 97 68 72 53 72 51 58 78 202 53 51 137 50 64 58 73 133 67 53 90 78 52 1247 69 63 78 181 356 221
leaf_count=54 67 97 68 72 53 72 51 58 78 202 53 51 137 50 64 58 73 133 67 53 90 78 52 1247 69 63 78 181 356 221
internal_value=-1.52384e-06 2.73839e-05 -2.15742e-05 8.46147e-05 2.21435e-05 1.98278e-05 4.73329e-05 3.1553e-05 5.86953e-05 1.32135e-05 2.59063e-05 1.7846e-05 2.41297e-05 3.82484e-05 2.7935e-05 1.21079e-06 1.78757e-05 -1.23201e-05 -2.32287e-05 -1.70976e-05 -3.27266e-05 5.38187e-05 -1.89261e-05 -1.73368e-05 -1.39444e-05 -6.95704e-09 1.20625e-05 -2.90562e-05 -3.18272e-05 -2.57038e-05
internal_weight=4046 1657 2389 139 1518 1465 284 233 175 1181 574 502 451 329 279 607 272 335 2335 1419 916 142 1366 1314 122 214 151 826 758 577
internal_count=4046 1657 2389 139 1518 1465 284 233 175 1181 574 502 451 329 279 607 272 335 2335 1419 916 142 1366 1314 122 214 151 826 758 577
is_linear=0
shrinkage=0.05


Tree=22
num_leaves=31
num_cat=0
split_feature=6 12 12 3 14 17 7 18 3 17 12 18 2 7 7 7 8 14 18 18 3 11 3 8 7 18 3 3 3 18
split_gain=0.0008517 0.000181671 0.000164892 0.000119395 0.000201046 0.000145073 0.000115144 9.96244e-05 8.13549e-05 6.67905e-05 8.9717e-05 7.06671e-05 6.01139e-05 8.79425e-05 6.06592e-05 4.94912e-05 4.76629e-05 4.49467e-05 3.98983e-05 8.09943e-05 0.000199058 0.000201117 7.14448e-05 3.94296e-05 5.94198e-05 4.1262e-05 3.71894e-05 3.53697e-05 3.50554e-05 4.10203e-05
threshold=0.47898999999998754 -0.37076088949804037 0.96347495771663649 -0.0017432098678681095 -0.00088207324294962183 0.0011584486777051698 0.8099700000000023 301.50000000000006 0.0044768006665496162 0.001331321261055822 0.50363092923595931 56.500000000000007 -0.0015149514799591144 0.5782933333333139 0.61158333333332104 0.30332333333334044 0.00063953986562821663 0.00022508283004878213 159.50000000000003 200.50000000000003 -0.0010935439795188534 -0.0016251993345122171 0.00038530146725270701 0.00082106561765130223 0.78297666666666921 40.500000000000007 -0.0016257808759988373 0.0012072348109127987 0.0032719641909623714 228.50000000000003
decision_type=2 2 2 2 2 2 2 2 2 2 2 2 2 2 2 2 2 2 2 2 2 2 2 2 2 2 2 2 2 2
left_child=8 3 7 4 6 -6 -2 12 9 10 11 17 13 -3 16 28 -14 -1 27 20 -20 -22 -21 25 -25 -16 -15 -17 29 -13
right_child=1 2 -4 -5 5 -7 -8 -9 -10 -11 -12 15 14 26 23 18 -18 -19 19 22 21 -23 -24 24 -26 -27 -28 -29 -30 -31
leaf_value=-7.9411884361552843e-06 -4.9713625123351878e-06 8.6264864146376227e-05 0.00010025832692471134 9.1291704451350603e-06 0.0001535960452620815 5.3492647590455377e-05 8.7051277583999437e-05 8.1465565448988678e-05 4.2428037062670818e-05 1.9916197257732572e-05 -7.8820455559512742e-05 -3.921193400220035e-05 -1.8290784384820008e-06 -1.4509411823127039e-05 -1.9440878159303057e-05 -3.5436452021311946e-05 -4.633445975196082e-05 5.0954617618117484e-05 -6.1243107255922605e-05 -4.2734066090812501e-06 0.00011824581525103449 -1.1375816533824005e-05 -4.7156095403605399e-05 7.530702815961749e-05 1.0789130924633862e-05 1.7150882488069122e-05 3.8785743436504289e-05 -4.1479829888419597e-06 -6.0277045016240063e-05 -1.8151312164859384e-05
leaf_weight=92 89 59 57 100 89 61 55 51 51 94 70 456 304 64 106 340 75 50 51 279 63 57 149 61 86 282 67 123 96 469
leaf_count=92 89 59 57 100 89 61 55 51 51 94 70 456 304 64 106 340 75 50 51 279 63 57 149 61 86 282 67 123 96 469
internal_value=-1.44765e-06 2.68286e-05 1.72404e-05 5.63233e-05 7.23757e-05 0.000112887 3.01762e-05 1.31435e-05 -2.0059e-05 -2.1393e-05 -2.3085e-05 -2.13315e-05 9.98728e-06 3.55772e-05 4.66771e-06 -2.3658e-05 -1.06362e-05 1.27968e-05 -1.61012e-05 -7.58076e-06 2.15068e-05 5.66755e-05 -1.92022e-05 1.55092e-05 3.75619e-05 7.15416e-06 1.27484e-05 -2.71244e-05 -3.15183e-05 -2.85336e-05
internal_weight=4046 1606 1212 394 294 150 144 1155 2440 2389 2295 2225 1104 190 914 2083 379 142 1062 599 171 120 428 535 147 388 131 463 1021 925
internal_count=4046 1606 1212 394 294 150 144 1155 2440 2389 2295 2225 1104 190 914 2083 379 142 1062 599 171 120 428 535 147 388 131 463 1021 925
is_linear=0
shrinkage=0.05


Tree=23
num_leaves=31
num_cat=0
split_feature=7 3 10 12 6 12 3 11 6 12 3 6 13 4 12 3 11 6 7 4 3 3 11 10 17 6 3 3 12 7
split_gain=0.000774935 0.000168398 0.000165433 0.000101397 7.89096e-05 9.3187e-05 0.000115095 0.000247218 4.55997e-05 4.54486e-05 0.000112818 4.78607e-05 4.31377e-05 3.87824e-05 3.80947e-05 3.50385e-05 3.6307e-05 5.58897e-05 4.49769e-05 3.92079e-05 3.43046e-05 6.12976e-05 4.89817e-05 4.19963e-05 3.38968e-05 3.12337e-05 2.99876e-05 2.8257e-05 2.75404e-05 2.62209e-05
threshold=0.48373999999999651 -0.0056681021681495676 40.138236406599312 0.59810033629867798 0.47898999999998754 -0.37076088949804037 -0.0017432098678681095 -0.61127876853106489 0.20899999999998045 0.37343221628812445 0.0031276371969913268 0.63049999999997242 -0.00073008643125909562 0.33448070812085334 0.51982435911022706 -0.0039516950455789866 0.043407712933174032 0.7603200000000131 0.5475666666666561 0.91374194946069875 -0.0013129794890461069 0.0014790896397138392 0.24255317815863012 33.241774910001425 0.00097784917714641563 0.24899999999998959 -9.545834922331771e-05 0.0021340607559674333 -0.031877417617434914 0.32599000000000544
decision_type=2 2 2 2 2 2 2 2 2 2 2 2 2 2 2 2 2 2 2 2 2 2 2 2 2 2 2 2 2 2
left_child=3 2 -2 8 12 6 7 -6 -1 15 11 14 -3 -10 -11 -7 18 27 -17 28 29 22 23 -22 -14 -25 -27 -18 -20 -15
right_child=1 4 -4 -5 5 9 -8 -9 13 10 -12 -13 24 20 -16 16 17 -19 19 -21 21 -23 -24 25 -26 26 -28 -29 -30 -31
leaf_value=-3.507026154718847e-05 3.0037189888481648e-05 1.6430158667737105e-05 0.00014016546393880467 4.8787735445416134e-05 2.0503646744853341e-05 -2.8292042714803336e-05 8.6727119921761196e-06 0.00014297551724666848 -5.0438707487659868e-05 4.6354953617712733e-05 -1.7270382265148025e-05 3.0227295521475147e-05 -5.3288676079432667e-05 -4.5444800115979392e-05 0.00010631425495362195 6.3486368906442701e-05 -1.7531770556227612e-05 3.2411891968459704e-05 -1.5823557155921924e-05 4.3033971605658165e-05 3.7944347419397675e-05 -2.5226278278202861e-05 4.3147004207302989e-05 1.9514157137575555e-05 1.6561870779696621e-06 -2.4935129451559116e-05 -2.2358407748721095e-06 1.9870927606100497e-05 2.979067645145943e-05 -2.0040102047681325e-05
leaf_weight=470 79 95 60 53 90 52 100 76 86 52 78 114 64 140 54 67 205 122 91 89 50 503 54 81 50 292 290 67 52 370
leaf_count=470 79 95 60 53 90 52 100 76 86 52 78 114 64 140 54 67 205 122 91 89 50 503 54 81 50 292 290 67 52 370
internal_value=-1.37527e-06 2.48994e-05 7.75746e-05 -1.95992e-05 2.0076e-05 2.46311e-05 5.10479e-05 7.65751e-05 -2.11508e-05 1.7894e-05 3.43968e-05 5.27152e-05 -8.45359e-06 -1.76449e-05 7.69003e-05 1.12929e-05 1.42632e-05 4.29338e-06 2.74006e-05 1.69793e-05 -1.60604e-05 -1.16618e-05 -2.76617e-06 -6.24346e-06 -2.91901e-05 -9.57587e-06 -1.36245e-05 -8.31861e-06 7.63437e-07 -2.70139e-05
internal_weight=4046 1657 139 2389 1518 1309 266 166 2336 1043 298 220 209 1866 106 745 693 394 299 232 1780 1270 767 713 114 663 582 272 143 510
internal_count=4046 1657 139 2389 1518 1309 266 166 2336 1043 298 220 209 1866 106 745 693 394 299 232 1780 1270 767 713 114 663 582 272 143 510
is_linear=0
shrinkage=0.05


Tree=24
num_leaves=31
num_cat=0
split_feature=7 12 18 12 4 6 3 18 18 7 11 6 14 3 2 18 14 4 18 18 14 14 3 11 18 3 6 6 18 18
split_gain=0.000700376 0.000166895 0.000178106 0.000158696 0.000147472 0.000135661 0.000107762 9.37708e-05 7.86615e-05 6.33995e-05 9.54663e-05 4.38015e-05 4.01133e-05 6.12568e-05 6.35734e-05 6.17124e-05 3.85909e-05 3.76131e-05 4.82972e-05 3.42081e-05 4.31258e-05 4.70425e-05 6.38859e-05 9.06549e-05 8.54231e-05 6.65388e-05 5.96092e-05 7.58024e-05 5.61503e-05 3.51448e-05
threshold=0.49829333333332976 -0.37076088949804037 187.50000000000003 0.6213382152449366 0.66253182395919141 0.65269999999999306 -0.002196907918770607 300.50000000000006 76.500000000000014 1.0791500000000045 0.89710477386273635 0.20899999999998045 7.3560182839237789e-05 -0.0016257808759988373 -0.0015149514799591144 120.50000000000001 -0.00020342923993830174 0.33448070812085334 56.500000000000007 163.50000000000003 0.0003465896562173223 6.3312032331727498e-05 -0.0020551727264088216 -0.3506189950061866 185.50000000000003 0.00013814908926596754 0.25161999999997992 0.35495999999997147 217.50000000000003 263.50000000000006
decision_type=2 2 2 2 2 2 2 2 2 2 2 2 2 2 2 2 2 2 2 2 2 2 2 2 2 2 2 2 2 2
left_child=3 2 4 11 6 -6 -2 9 -7 10 12 -1 13 15 -15 -3 -16 -13 -19 -20 21 22 28 -24 -25 26 -26 29 -21 -28
right_child=1 7 -4 -5 5 8 -8 -9 -10 -11 -12 17 -14 14 16 -17 -18 18 19 20 -22 -23 23 24 25 -27 27 -29 -30 -31
leaf_value=-3.331674860447417e-05 0.00013207434322366803 3.6732964537422005e-05 0.00012203240255889557 7.0382615842390814e-05 -5.9845331350516063e-05 8.4275850306612653e-05 3.1609112602382085e-05 8.2553050751812414e-05 9.0594099872598036e-06 -3.281745246555248e-05 7.5868210387852741e-05 -4.8465215399767336e-05 3.5017156538005793e-06 7.4237556833965318e-05 -1.5441243354586072e-05 -3.117422216791404e-05 3.561127205372301e-05 1.2477898551637645e-05 -2.6812883034687543e-05 -7.6430046325325613e-05 2.539006895100708e-05 -3.1551826837053574e-05 6.5193852394600078e-05 4.9981634069287087e-05 5.1242778588196175e-05 -3.2903636735084173e-05 -6.3685122719219915e-05 3.5969247852942015e-05 -1.6668587699969521e-05 -5.8281340486400782e-06
leaf_weight=470 56 57 76 50 50 53 51 50 101 72 62 87 583 83 51 81 135 149 602 52 72 295 50 61 55 216 52 60 161 53
leaf_count=470 56 57 76 50 50 53 51 50 101 72 62 87 583 83 51 81 135 149 602 52 72 295 50 61 55 216 52 60 161 53
internal_value=-1.30651e-06 2.49408e-05 5.34161e-05 -1.77942e-05 3.66482e-05 1.17125e-05 8.4189e-05 1.55541e-05 3.49456e-05 1.25737e-05 1.56804e-05 -1.96049e-05 1.1911e-05 2.39568e-05 3.78503e-05 -3.1256e-06 2.1613e-05 -1.63252e-05 -1.48363e-05 -1.71901e-05 -1.205e-05 -1.46051e-05 -8.02714e-06 1.01897e-06 -5.43725e-06 -1.31908e-05 6.16359e-06 -8.8628e-06 -3.12582e-05 -3.44811e-05
internal_weight=4046 1561 387 2485 311 204 107 1174 154 1124 1052 2435 990 407 269 138 186 1965 1878 1729 1127 1055 760 547 497 436 220 165 213 105
internal_count=4046 1561 387 2485 311 204 107 1174 154 1124 1052 2435 990 407 269 138 186 1965 1878 1729 1127 1055 760 547 497 436 220 165 213 105
is_linear=0
shrinkage=0.05


Tree=25
num_leaves=31
num_cat=0
split_feature=7 12 3 2 18 18 18 7 13 13 3 7 3 12 7 18 18 12 3 3 3 4 5 3 4 18 18 3 9 12
split_gain=0.000515243 0.000202138 0.000125325 9.43819e-05 9.05343e-05 0.000159702 8.39972e-05 0.000128261 0.000178012 7.82427e-05 7.62631e-05 0.000161002 4.80429e-05 6.07735e-05 5.17479e-05 9.73214e-05 0.000148949 5.46239e-05 4.68528e-05 4.50176e-05 4.04499e-05 5.26192e-05 3.09881e-05 2.99564e-05 3.3143e-05 3.97489e-05 7.1976e-05 0.000109576 0.000116227 6.4455e-05
threshold=0.66550000000002008 0.66963899415508255 -0.0048358079626754039 -0.0013763596024414235 274.50000000000006 104.50000000000001 50.500000000000007 0.7774099999999825 -0.054928421856533148 0.051962181214882643 -0.0036696727588787234 0.47930333333334457 0.0046003085501937777 0.50363092923595931 0.49829333333332976 155.50000000000003 244.50000000000003 0.27600354544463568 0.0021340607559674333 0.0011731263572421172 -0.0018328804487446942 0.53731881476092325 -0.64174286235997202 -0.0017062090123631066 0.33448070812085334 262.50000000000006 213.50000000000003 0.001272925661931906 0.064568011828278607 0.072203209496468426
decision_type=2 2 2 2 2 2 2 2 2 2 2 2 2 2 2 2 2 2 2 2 2 2 2 2 2 2 2 2 2 2
left_child=1 3 9 10 5 6 20 8 -8 -2 -1 -12 13 14 17 -16 -17 18 23 -19 -4 22 -22 -5 -25 26 -26 28 -28 -27
right_child=2 -3 4 12 -6 -7 7 -9 -10 -11 11 -13 -14 -15 15 16 -18 19 -20 -21 21 -23 -24 24 25 29 27 -29 -30 -31
leaf_value=-2.6122855536490639e-05 4.5900304538573156e-05 6.4877067957558061e-05 -2.0776680758196812e-05 -3.2580580014768802e-05 8.922541886477121e-05 -2.2454021184556532e-05 3.5465505121074037e-05 1.1869550814216255e-05 0.00016472551963715888 0.00012208982722685589 -2.504983044680569e-06 7.7445931180581524e-05 3.0824670998213754e-05 -6.5380854834984348e-05 -1.8990300981616088e-05 7.4860516233247947e-05 -2.1290819063627473e-05 4.4576643915461961e-05 -3.9021072890179777e-05 -1.1202087003913782e-05 2.9448915355108815e-05 7.8041398240756714e-06 8.0102539008154204e-05 -4.6060992644925136e-05 -1.4809512520069889e-05 -3.5951782751235324e-05 9.6555269613865738e-05 -2.5414461297259554e-05 -3.9163740370466529e-06 2.198808911647607e-05
leaf_weight=107 87 86 55 292 50 171 57 79 50 55 195 93 53 64 261 87 75 57 321 99 72 169 52 80 676 304 63 80 53 57
leaf_count=107 87 86 55 292 50 171 57 79 50 55 195 93 53 64 261 87 75 57 321 99 72 169 52 80 676 304 63 80 53 57
internal_value=-1.06072e-06 -1.0709e-05 3.23158e-05 -1.28636e-05 2.42106e-05 1.95996e-05 3.30662e-05 6.01909e-05 9.58674e-05 7.54103e-05 9.92115e-06 2.33125e-05 -1.62961e-05 -1.72682e-05 -1.6039e-05 -9.55439e-08 3.0346e-05 -1.92782e-05 -2.15832e-05 9.1786e-06 1.85685e-05 2.59541e-05 5.06908e-05 -1.80956e-05 -1.48742e-05 -1.28508e-05 -7.07451e-06 1.96034e-05 5.06501e-05 -2.68034e-05
internal_weight=4000 3103 897 3017 755 705 534 186 107 142 395 288 2622 2569 2505 423 162 2082 1926 156 348 293 124 1605 1313 1233 872 196 116 361
internal_count=4000 3103 897 3017 755 705 534 186 107 142 395 288 2622 2569 2505 423 162 2082 1926 156 348 293 124 1605 1313 1233 872 196 116 361
is_linear=0
shrinkage=0.05


Tree=26
num_leaves=31
num_cat=0
split_feature=7 12 3 8 3 11 2 3 11 12 12 5 7 3 12 3 13 12 7 14 3 2 7 10 11 12 3 3 11 14
split_gain=0.000465512 0.000173309 0.000123916 8.10333e-05 7.03979e-05 7.00321e-05 6.61025e-05 0.000106777 4.68377e-05 3.80083e-05 4.1521e-05 6.88006e-05 7.62477e-05 3.04945e-05 0.000120307 4.18893e-05 4.23323e-05 3.31629e-05 2.99934e-05 3.78989e-05 6.47721e-05 3.23493e-05 2.93114e-05 2.88211e-05 3.89939e-05 5.40952e-05 2.68665e-05 2.57224e-05 2.43231e-05 2.81355e-05
threshold=0.6503833333333281 0.66963899415508255 -0.0048358079626754039 0.00025291992646548023 0.0033400132982304102 -0.87305318479599225 -0.0022744281135331774 -0.0029768964535863232 0.55688188217868639 -0.80924620081141618 0.31959693921193505 -0.62439774732796549 0.73871333333332445 -0.0035686606631091795 -0.37076088949804037 -0.00040298074581291885 -0.11412879885289988 0.10076853071483023 0.99966333333334589 -0.00084512596712995507 -0.0021411665822356585 0.0017578414962385882 0.50899333333332697 42.396368563208647 0.018526199635914512 -0.063251463193284355 0.00090330600406692929 0.002620641451142039 0.2446635793761516 0.00013780891316254794
decision_type=2 2 2 2 2 2 2 2 2 2 2 2 2 2 2 2 2 2 2 2 2 2 2 2 2 2 2 2 2 2
left_child=1 3 5 27 9 -2 7 -5 13 -4 18 -12 -13 22 -15 16 -16 -18 19 -11 -21 -22 -8 -17 25 -25 -26 28 29 -1
right_child=2 -3 4 6 -6 -7 8 -9 -10 10 11 12 -14 14 15 23 17 -19 -20 20 21 -23 -24 24 26 -27 -28 -29 -30 -31
leaf_value=-1.657240087391094e-05 2.9361947852145214e-05 6.0767975573761799e-05 6.9018529082313763e-05 -1.7092519658035598e-05 -2.1669349806794037e-05 0.00010013040502433962 -8.1918462351145902e-06 8.6240518176055057e-05 -5.2701673266710716e-05 -2.6661178769464985e-05 4.4039183943217115e-06 2.2534450703021275e-05 9.9447472607159433e-05 5.3469059033280555e-05 2.2623344639564144e-05 -3.1980265681120342e-05 -3.1818171050802523e-05 8.0856501969514464e-06 4.9790626884974448e-05 6.1577536460831524e-05 1.6305764430259985e-05 -2.2919440169581711e-05 -5.5126839570534528e-05 -7.5811630029078306e-07 1.045188819374499e-05 5.551381171834372e-05 -1.2842853056981739e-05 -3.8681542671691056e-05 9.734671990808124e-06 -3.6571150298637271e-05
leaf_weight=910 58 83 50 50 83 88 78 50 55 58 75 59 71 87 52 66 325 62 56 66 211 70 58 101 197 74 333 185 71 218
leaf_count=910 58 83 50 50 83 88 78 50 55 58 75 59 71 87 52 66 325 62 56 66 211 70 58 101 197 74 333 185 71 218
internal_value=-1.00768e-06 -1.04944e-05 2.9661e-05 -1.24846e-05 2.19214e-05 7.20169e-05 -4.77694e-06 3.4574e-05 -7.42149e-06 2.69745e-05 2.3818e-05 4.25395e-05 6.45408e-05 -5.68359e-06 -3.32172e-06 -7.40502e-06 -1.97339e-05 -2.54253e-05 1.54928e-05 1.07504e-05 1.70037e-05 6.53436e-06 -2.82082e-05 -3.85076e-07 2.57277e-06 2.30369e-05 -4.18424e-06 -2.13283e-05 -1.86507e-05 -2.04374e-05
internal_weight=4000 3055 945 2972 799 146 1588 100 1488 716 666 205 130 1433 1297 1210 439 387 461 405 347 281 136 771 705 175 530 1384 1199 1128
internal_count=4000 3055 945 2972 799 146 1588 100 1488 716 666 205 130 1433 1297 1210 439 387 461 405 347 281 136 771 705 175 530 1384 1199 1128
is_linear=0
shrinkage=0.05


Tree=27
num_leaves=31
num_cat=0
split_feature=7 12 3 2 18 18 12 4 13 3 7 7 12 18 7 3 12 11 18 18 11 18 18 3 18 18 12 18 3 3
split_gain=0.000420288 0.000165205 0.000101809 7.91036e-05 7.8964e-05 0.000140359 7.73733e-05 9.5068e-05 6.7755e-05 6.44811e-05 0.000142168 4.84124e-05 7.4165e-05 6.04965e-05 5.19431e-05 4.38685e-05 5.30756e-05 4.48353e-05 9.59353e-05 7.15542e-05 4.637e-05 7.83728e-05 0.000349733 3.83448e-05 4.82482e-05 4.33999e-05 6.82377e-05 5.58111e-05 0.000188595 9.57569e-05
threshold=0.66550000000002008 0.66963899415508255 -0.0048358079626754039 -0.0013763596024414235 274.50000000000006 104.50000000000001 -0.40964620737086688 0.67096042591465055 0.067444521629896254 -0.0036696727588787234 0.47930333333334457 1.0537166666666511 0.6213382152449366 42.500000000000007 0.78661666666666108 0.0046003085501937777 0.50363092923595931 0.24887880489802686 40.500000000000007 266.50000000000006 -0.18556180890658422 207.50000000000003 242.50000000000003 -0.0014869275087633636 283.50000000000006 262.50000000000006 0.08995381145431508 230.50000000000003 0.0011731263572421172 -0.00020244765352113737
decision_type=2 2 2 2 2 2 2 2 2 2 2 2 2 2 2 2 2 2 2 2 2 2 2 2 2 2 2 2 2 2
left_child=1 3 8 9 5 6 7 -4 -2 -1 -11 12 13 -8 -15 16 17 20 -19 -20 21 -5 -23 24 -22 26 27 29 -29 -25
right_child=2 -3 4 15 -6 -7 11 -9 -10 10 -12 -13 -14 14 -16 -17 -18 18 19 -21 23 22 -24 25 -26 -27 -28 28 -30 -31
leaf_value=-2.3902941106018398e-05 4.2567007200056612e-05 5.8661502582126984e-05 0.00011481335864287016 -2.6232414890764152e-05 8.2600360085052679e-05 -2.1848997944847755e-05 -3.3176880224570518e-06 2.4404093641177974e-05 0.0001148782944510458 -2.7067814561376464e-06 7.2422232449573511e-05 -2.2266124154878622e-05 8.2815383214830378e-05 6.4586260387437111e-05 3.2531431656934731e-06 3.0265550529567818e-05 -6.065289819048303e-05 6.6165416035801175e-05 -2.0915092320971477e-05 3.9730664896330282e-05 -4.5274169705677991e-05 0.00011835429950737776 -2.9198048532794419e-05 -4.1264708578457794e-05 8.424864083906414e-06 -3.2266263703144559e-05 -2.7272798757763222e-05 9.46650143430753e-05 -2.3444956834147753e-05 3.9651816074762634e-06
leaf_weight=107 92 86 54 152 50 171 162 63 50 195 93 58 51 90 56 53 64 50 240 61 256 62 114 167 50 360 463 58 81 391
leaf_count=107 92 86 54 152 50 171 162 63 50 195 93 58 51 90 56 53 64 50 240 61 256 62 114 167 50 360 463 58 81 391
internal_value=-9.57296e-07 -9.67132e-06 2.91872e-05 -1.16192e-05 2.18819e-05 1.75756e-05 3.02004e-05 6.61314e-05 6.80287e-05 9.24008e-06 2.15536e-05 2.0119e-05 2.69667e-05 1.77191e-05 4.10612e-05 -1.47616e-05 -1.56905e-05 -1.45418e-05 2.02911e-06 -8.62476e-06 -1.7242e-05 6.72621e-08 2.27806e-05 -2.03513e-05 -3.64998e-05 -1.71003e-05 -1.23936e-05 -2.50974e-06 2.58383e-05 -9.57136e-06
internal_weight=4000 3103 897 3017 755 705 534 117 142 395 288 417 359 308 146 2622 2569 2505 351 301 2154 328 176 1826 306 1520 1160 697 139 558
internal_count=4000 3103 897 3017 755 705 534 117 142 395 288 417 359 308 146 2622 2569 2505 351 301 2154 328 176 1826 306 1520 1160 697 139 558
is_linear=0
shrinkage=0.05


Tree=28
num_leaves=31
num_cat=0
split_feature=8 3 18 11 14 5 13 8 18 18 14 3 18 3 11 3 18 2 18 3 17 2 3 18 3 14 18 2 5 18
split_gain=0.000307737 0.000119152 9.25241e-05 7.26779e-05 0.000107657 6.70782e-05 6.43367e-05 5.1874e-05 5.18047e-05 4.81862e-05 7.43581e-05 0.000198954 6.07896e-05 4.66031e-05 8.29134e-05 5.42261e-05 8.96477e-05 4.39855e-05 5.06616e-05 3.91951e-05 3.73513e-05 3.2288e-05 3.21926e-05 6.60318e-05 7.52206e-05 9.30843e-05 4.0799e-05 2.99235e-05 2.71585e-05 2.64529e-05
threshold=0.00029470811122985353 -0.0084621849583951577 74.500000000000014 0.89710477386273635 0.00049106942400043774 -0.91801701665514257 0.24361852900259559 0.00086918678708722296 46.500000000000007 155.50000000000003 -0.0004710869670089966 -0.0036696727588787234 114.50000000000001 0.0021093489088067486 0.21658901233053032 -0.00071979320178728711 202.50000000000003 8.1030164812201391e-05 214.50000000000003 0.00044708592876838274 0.00097784917714641563 -0.00045332483257093376 -0.00065962594472867317 190.50000000000003 -0.0011192208156461936 -0.00022617815440158053 285.50000000000006 0.0002820514543584452 -0.16858029094341301 96.500000000000014
decision_type=2 2 2 2 2 2 2 2 2 2 2 2 2 2 2 2 2 2 2 2 2 2 2 2 2 2 2 2 2 2
left_child=8 -2 3 4 5 -3 9 21 19 12 11 -11 29 14 15 17 -17 18 -12 -1 -16 -7 23 -10 25 -25 -27 -23 -20 -4
right_child=1 2 6 -5 -6 7 -8 -9 22 10 13 -13 -14 -15 20 16 -18 -19 28 -21 -22 27 -24 24 -26 26 -28 -29 -30 -31
leaf_value=-1.1379850931751373e-05 7.3509024098408792e-05 7.2210838327773846e-05 -9.8467657142614996e-06 7.2761966315310392e-05 -1.6358362603579715e-05 2.9983016118840502e-05 5.5185996549240645e-05 5.6790513052215705e-05 -3.5643152554290412e-05 -2.581027380840265e-05 -3.9420244752736685e-05 0.00010127109050374012 -3.1075400005709338e-05 -2.7525565950294135e-05 6.9430154727001534e-05 5.4485521550104216e-05 -2.3518888520601862e-05 -4.400482440776917e-05 -7.2038722479549911e-06 4.9786747806138018e-05 1.4518052007588266e-05 -2.8809755595800871e-05 -2.3488865565716631e-05 3.3820914214845392e-05 4.9333468720852994e-05 -3.7541189827649319e-05 5.6789135942381111e-06 1.3457345054815565e-05 3.9977728277738266e-05 2.0561113515140601e-05
leaf_weight=55 75 79 169 68 167 164 54 87 166 57 61 67 236 120 64 85 65 96 61 50 60 62 1100 97 69 172 80 129 61 124
leaf_count=55 75 79 169 68 167 164 54 87 166 57 61 67 236 120 64 85 65 96 61 50 60 62 1100 97 69 172 80 129 61 124
internal_value=-9.09431e-07 1.15656e-05 9.39059e-06 2.34503e-05 1.85764e-05 2.97744e-05 1.68833e-06 2.21896e-05 -1.63271e-05 -4.90308e-07 7.275e-06 4.28547e-05 -1.21896e-05 7.19456e-07 6.84857e-06 -3.56026e-06 2.06836e-05 -1.65946e-05 -2.21546e-06 1.77471e-05 4.28598e-05 1.37099e-05 -1.84517e-05 -8.96386e-06 1.63126e-06 -7.79984e-06 -2.38205e-05 -2.62866e-07 1.63869e-05 3.0221e-06
internal_weight=4000 2211 2136 756 688 521 1380 442 1789 1326 797 124 529 673 553 429 150 279 183 105 124 355 1684 584 418 349 252 191 122 293
internal_count=4000 2211 2136 756 688 521 1380 442 1789 1326 797 124 529 673 553 429 150 279 183 105 124 355 1684 584 418 349 252 191 122 293
is_linear=0
shrinkage=0.05


Tree=29
num_leaves=31
num_cat=0
split_feature=6 12 3 6 12 12 17 13 12 4 3 3 12 12 3 11 3 4 9 12 3 3 4 3 3 4 13 9 10 11
split_gain=0.000337262 0.000121012 9.75018e-05 6.81656e-05 7.44531e-05 0.000107269 5.55138e-05 4.81092e-05 3.45718e-05 8.2128e-05 3.41883e-05 5.52803e-05 3.33538e-05 5.00378e-05 6.48589e-05 3.58687e-05 6.53178e-05 3.04145e-05 3.63033e-05 4.97053e-05 2.5068e-05 3.17461e-05 2.66212e-05 2.47842e-05 2.45424e-05 2.42458e-05 2.68169e-05 2.42422e-05 2.70178e-05 3.28347e-05
threshold=0.46200000000000052 0.96347495771663649 -0.0084621849583951577 0.668000000000052 -0.54591904136385339 -0.34642420902232135 0.0013651335979702015 0.0027831658952441958 -0.39359390063301808 0.70732509240619634 -0.00177736824954173 -0.00075065550831390293 0.50363092923595931 0.25234212684563867 0.0011731263572421172 -0.38149528388436232 -0.002196907918770607 0.91374194946069875 0.24454799907473818 0.31959693921193505 0.0021340607559674333 -0.0014869275087633636 0.33448070812085334 0.0031276371969913268 -0.0030310956236976323 1.5061447595323443 0.049474762125131425 0.044780796267833607 39.175188188200984 0.022355285688945518
decision_type=2 2 2 2 2 2 2 2 2 2 2 2 2 2 2 2 2 2 2 2 2 2 2 2 2 2 2 2 2 2
left_child=6 2 -2 4 -4 -6 12 10 9 -5 -7 -12 13 15 -15 16 -1 18 -10 -20 21 24 -23 -9 -17 26 -19 -24 -29 -30
right_child=1 -3 3 8 5 7 -8 23 17 -11 11 -13 -14 14 -16 20 -18 25 19 -21 -22 22 27 -25 -26 -27 -28 28 29 -31
leaf_value=-2.6179568697537844e-05 6.7768568707050913e-05 8.8963707481365303e-05 -4.9886572290303705e-05 7.922131839904978e-05 5.8190282380700803e-05 -1.3930017939856044e-05 3.1144670122529304e-05 -9.0241524598675476e-06 -1.2066591897236737e-05 1.1402666390104555e-05 6.733756545509095e-05 9.8213546938205686e-06 -4.6834944772947503e-05 4.8357600477781191e-05 -1.1957578139366438e-05 -1.6945111357773373e-06 4.9187801896391258e-05 2.3233252547628503e-05 7.3045120511632119e-07 6.069291688452888e-05 -3.1046282359988235e-05 -3.9783193171005174e-05 -2.2576647864630455e-05 -4.7051891095750269e-05 -3.4481925223959483e-05 2.4191259000329875e-06 6.5378901862800379e-05 -2.595681178401278e-05 9.3857313048915528e-06 -1.1882154680116879e-05
leaf_weight=58 79 55 65 80 87 104 68 268 147 101 50 254 78 72 117 71 57 92 93 55 292 76 260 51 291 57 64 132 359 367
leaf_count=58 79 55 65 80 87 104 68 268 147 101 50 254 78 72 117 71 57 92 93 55 292 76 260 51 291 57 64 132 359 367
internal_value=-8.6396e-07 1.60062e-05 1.35698e-05 1.08392e-05 1.60932e-06 5.7214e-06 -1.33587e-05 -5.5755e-07 2.26143e-05 4.13778e-05 1.08156e-05 1.92813e-05 -1.47158e-05 -1.35516e-05 1.10196e-05 -1.59174e-05 1.11764e-05 1.59288e-05 5.53306e-06 2.30138e-05 -1.76034e-05 -1.50807e-05 -1.11483e-05 -1.51038e-05 -2.80512e-05 3.03268e-05 4.05238e-05 -9.2017e-06 -5.14869e-06 -1.36539e-06
internal_weight=4000 1702 1647 1568 879 814 2298 727 689 181 408 304 2230 2152 189 1963 115 508 295 148 1848 1556 1194 319 362 213 156 1118 858 726
internal_count=4000 1702 1647 1568 879 814 2298 727 689 181 408 304 2230 2152 189 1963 115 508 295 148 1848 1556 1194 319 362 213 156 1118 858 726
is_linear=0
shrinkage=0.05


Tree=30
num_leaves=31
num_cat=0
split_feature=6 12 13 18 6 18 8 10 2 18 12 13 12 17 17 12 18 8 12 18 8 11 18 14 8 2 18 10 12 14
split_gain=0.000349255 0.000164316 9.34862e-05 8.48076e-05 0.000206931 0.000163401 0.000229687 6.52435e-05 7.26207e-05 6.02357e-05 0.000116496 7.80499e-05 5.24648e-05 4.65929e-05 3.72873e-05 3.66523e-05 5.6105e-05 3.91288e-05 3.51984e-05 6.54046e-05 3.69066e-05 4.21496e-05 3.34033e-05 2.78329e-05 2.7417e-05 2.24441e-05 2.47886e-05 3.72698e-05 2.10466e-05 1.92888e-05
threshold=0.46599999999999686 0.96347495771663649 -0.29469567590427037 186.50000000000003 0.84252999999998801 237.50000000000003 0.00042767355141589704 29.570990172225105 0.0026666445905666474 74.500000000000014 -0.3857766610965731 0.17423111980631781 0.17057572640950303 0.0013651335979702015 0.00090265559700215554 0.46273473841843876 40.500000000000007 0.00062196138722473554 0.50363092923595931 44.500000000000007 0.00031841277703534981 -0.38149528388436232 42.500000000000007 0.00038137329068568105 0.00069876229809111268 -0.0024731786354676428 90.500000000000014 55.578570224496325 1.0000000180025095e-35 8.6910438003957681e-05
decision_type=2 2 2 2 2 2 2 2 2 2 2 2 2 2 2 2 2 2 2 2 2 2 2 2 2 2 2 2 2 2
left_child=13 2 22 7 5 6 -5 -4 9 10 -9 24 -7 18 -14 16 28 -18 19 -1 23 -22 -2 29 25 -11 -27 -28 -12 -21
right_child=1 -3 3 4 -6 12 -8 8 -10 11 15 -13 14 -15 -16 -17 17 -19 -20 20 21 -23 -24 -25 -26 26 27 -29 -30 -31
leaf_value=2.8763458605292761e-05 8.8380698755722382e-05 0.00010348172510484286 -4.84528508598471e-05 0.00014562493563789758 0.00012351727668216811 -3.428456486063787e-05 7.6398866512088142e-06 8.931724940518254e-05 -2.6207561529645321e-05 2.9834529656909585e-05 -2.5420792033401084e-05 5.5838051560352108e-05 4.6974126481927668e-05 2.3953594187865173e-05 -9.2314082192185909e-06 -2.139427330448752e-05 2.5449019268475436e-05 8.0094664008356636e-05 -4.6986340034891331e-05 -1.5860584493373959e-05 4.0852749296783604e-05 -7.6259577500457209e-06 3.1143563828663903e-05 1.2119444641535261e-05 -3.1180117127628271e-05 -3.1235475527766444e-05 -1.0838633797635233e-05 3.8930078692199182e-05 1.3436162790521453e-05 -2.7517201153028934e-05
leaf_weight=89 52 53 57 50 52 106 76 61 146 50 50 54 50 82 72 59 95 50 80 1091 51 371 50 72 98 74 136 52 115 526
leaf_count=89 52 53 57 50 52 106 76 61 146 50 50 54 50 82 72 59 95 50 80 1091 51 371 50 72 98 74 136 52 115 526
internal_value=-7.28604e-07 1.68618e-05 1.40015e-05 1.08579e-05 3.03809e-05 1.66999e-05 6.23959e-05 3.63236e-06 6.48703e-06 1.18264e-05 2.53084e-05 -6.67641e-07 -8.55315e-06 -1.30761e-05 1.38036e-05 1.4727e-05 2.16016e-05 4.42923e-05 -1.44079e-05 -1.32232e-05 -1.49934e-05 -1.76716e-06 6.03233e-05 -1.8298e-05 -8.10985e-06 -8.63426e-07 -6.72181e-06 2.92718e-06 1.66133e-06 -1.96524e-05
internal_weight=4020 1658 1605 1503 406 354 126 1097 1040 894 430 464 228 2362 122 369 310 145 2280 2200 2111 422 102 1689 410 312 262 188 165 1617
internal_count=4020 1658 1605 1503 406 354 126 1097 1040 894 430 464 228 2362 122 369 310 145 2280 2200 2111 422 102 1689 410 312 262 188 165 1617
is_linear=0
shrinkage=0.05


Tree=31
num_leaves=31
num_cat=0
split_feature=6 12 7 18 10 15 17 8 7 18 18 7 13 3 18 11 8 13 3 12 18 14 3 14 14 3 11 18 3 13
split_gain=0.000315202 0.000148296 0.000103139 0.000126744 0.000115273 5.29774e-05 4.74566e-05 4.48859e-05 3.64169e-05 6.44056e-05 0.000127605 0.000104715 9.54611e-05 5.78899e-05 7.31949e-05 0.000169951 5.57245e-05 4.73732e-05 3.31786e-05 8.10119e-05 6.7756e-05 3.17675e-05 2.99813e-05 2.84581e-05 2.90115e-05 3.77907e-05 6.9919e-05 4.61004e-05 4.79491e-05 3.13028e-05
threshold=0.46599999999999686 0.96347495771663649 0.93501333333331715 150.50000000000003 49.836044208201642 0.0005103702279591894 0.00027102661080690755 0.00041623234261032026 0.66550000000002008 104.50000000000001 42.500000000000007 0.78297666666666921 -0.066707530672464502 -0.0036696727588787234 154.50000000000003 -0.12941543431179522 0.00065774263211049828 -0.010106617423724941 0.0042106252817604856 0.50363092923595931 44.500000000000007 0.00048093419315471485 -0.0002685126224554884 0.00038137329068568105 6.8654063724305425e-05 -0.0021411665822356585 -0.38149528388436232 260.50000000000006 -0.0012892821204159796 -0.010804743220652816
decision_type=2 2 2 2 2 2 2 2 2 2 2 2 2 2 2 2 2 2 2 2 2 2 2 2 2 2 2 2 2 2
left_child=5 2 6 4 -4 18 7 -2 13 10 -10 12 -12 -8 16 -16 17 -15 19 20 -1 -19 -11 24 25 -22 -27 28 -28 -30
right_child=1 -3 3 -5 -6 -7 8 -9 9 22 11 -13 -14 14 15 -17 -18 21 -20 -21 23 -23 -24 -25 -26 26 27 -29 29 -31
leaf_value=2.9912310469109634e-05 5.979128965499023e-05 9.8307639468057126e-05 7.2483593055127838e-05 0.00011657724099495681 -2.1455936890244791e-05 3.6532574180185929e-05 -4.1523144464844833e-05 1.4530802758619522e-05 -4.2022455944810997e-06 3.2367133644584101e-06 4.1996687980157871e-05 9.1941912252062091e-06 0.00013782123659991923 2.2871347150230066e-05 0.00010386985613177575 -9.9979655523220462e-08 -5.8740861223432823e-05 -5.3557909264630627e-06 2.4801280795310796e-05 -7.7438479796001052e-05 -3.0275328359312756e-05 -5.2143680456686947e-05 -4.0917514709535858e-05 1.1307864520609665e-05 -2.457595122963014e-05 4.4918368899682e-05 -3.1573750718962402e-05 -2.5706362433189655e-05 -6.7885307694689289e-06 1.7234482708156857e-05
leaf_weight=88 78 53 62 50 69 54 87 184 164 140 53 68 51 107 52 161 54 120 55 50 231 52 53 99 678 59 125 354 346 223
leaf_count=88 78 53 62 50 69 54 87 184 164 140 53 68 51 107 52 161 54 120 55 50 231 52 53 99 678 59 125 354 346 223
internal_value=-6.92174e-07 1.60187e-05 1.33014e-05 4.8853e-05 2.3004e-05 -1.24223e-05 8.78253e-06 2.80053e-05 4.44831e-06 1.41309e-05 2.73534e-05 5.74414e-05 8.89876e-05 -3.64347e-06 2.3923e-06 2.52823e-05 -1.22491e-05 -3.25065e-06 -1.35677e-05 -1.45044e-05 -1.3076e-05 -1.9501e-05 -8.88854e-06 -1.48647e-05 -1.61499e-05 -1.18802e-05 -8.04167e-06 -1.10232e-05 -3.53352e-06 2.62646e-06
internal_weight=4020 1658 1605 181 131 2362 1424 262 1162 529 336 172 104 633 546 213 333 279 2308 2253 2203 172 193 2115 2016 1338 1107 1048 694 569
internal_count=4020 1658 1605 181 131 2362 1424 262 1162 529 336 172 104 633 546 213 333 279 2308 2253 2203 172 193 2115 2016 1338 1107 1048 694 569
is_linear=0
shrinkage=0.05


Tree=32
num_leaves=31
num_cat=0
split_feature=6 3 13 11 18 15 10 11 18 18 18 3 3 3 11 18 11 8 3 14 14 3 11 18 3 3 18 10 18 3
