tree
version=v4
num_class=1
num_tree_per_iteration=1
label_index=0
max_feature_idx=18
objective=binary sigmoid:1
feature_names=ret_1 ret_5 ret_15 vwap_dev rvol vol_z atr_5 atr_15 rv_5 rv_annual rsi_14 macd macd_signal macd_hist ema_9_21_spread ema_slope high_dist_5 low_dist_5 minutes_into_session
feature_infos=[-0.015677687171702148:0.014967032077990439] [-0.015690910556436122:0.015563047875927216] [-0.016330477290430023:0.016776440101495593] [-0.010769316564706082:0.011555649325945815] [0.085897591586046582:16.421932949697943] [-2.2805209086673317:4.2477201019028978] [0.091999999999984539:5.6134799999999361] [0.11933999999998074:2.3150733333332938] [0:0.0072283513829064262] [0:2.2660622193327193] [0:92.774767560002246] [-2.9941801703616875:3.3715872000049103] [-2.4501411230505341:2.9327479907069276] [-1.3227458395538956:1.4162982293934174] [-0.0045251449473134682:0.0048278690298358112] [-0.0071149865152180247:0.0074600997333376107] [0:0.016609799372185013] [0:0.029208551223345092] [0:379]
tree_sizes=3450 3444 3445 3459

Tree=0
num_leaves=31
num_cat=0
split_feature=18 14 6 7 18 12 7 14 18 7 13 18 12 7 7 18 18 12 18 2 15 13 12 11 12 14 18 14 18 18
split_gain=74.838 36.578 29.5257 29.4549 24.8231 34.1744 20.7094 19.2843 20.1028 19.1506 29.1798 15.023 17.593 15.7163 14.5089 25.0583 25.2509 23.536 19.0835 13.8535 13.3366 12.3166 11.7861 14.3592 11.4147 16.031 24.3338 34.489 13.2455 12.5923
threshold=164.50000000000003 -0.0013041249254417376 0.2260000000000105 0.23835999999998878 34.500000000000007 -0.021163434372755956 0.14726333333334199 0.00058000433582918842 343.50000000000006 0.47308333333331803 -0.00058969862513955074 94.500000000000014 -0.2358918901382995 0.69822666666665334 0.45493000000000167 180.50000000000003 232.50000000000003 -0.084345828356647459 210.50000000000003 0.00060865839480850348 0.00023692366345717811 0.14119630584700166 0.54253169659344558 0.21359868141041718 0.017140173815520496 0.00010793213755978078 112.50000000000001 0.00018963432720134053 138.50000000000003 102.50000000000001
decision_type=2 2 2 2 2 2 2 2 2 2 2 2 2 2 2 2 2 2 2 2 2 2 2 2 2 2 2 2 2 2
left_child=1 -1 6 -3 5 -5 -2 8 14 10 -10 12 13 -6 15 -4 17 18 -17 -19 -12 24 23 -7 29 -26 -27 -28 -29 -13
right_child=2 3 7 4 11 22 -8 -9 9 -11 20 21 -14 -15 -16 16 -18 19 -20 -21 -22 -23 -24 -25 25 26 27 28 -30 -31
leaf_value=0.037835514186780946 -0.036723720698833291 0.0064177920752758952 -0.11715258008821777 0.027764671543588533 -0.11752686563164799 -0.058220373716788718 -0.085086641780656086 -0.10558510279019233 0.020444606040006578 -0.086457762931088727 -0.069207141809722456 -0.067687790638042394 -0.054015785200966733 -0.050067000322121337 -0.044950675282048692 -0.10076017893321779 -0.074980676262106707 0.0040873887807148929 -0.030131191240687021 -0.053426147639872176 -0.0067548573738013123 -0.084168666573427892 -0.066712404700667541 -0.0027270872088769049 -0.085244737510789814 0.022242792787919442 0.014200459681639958 -0.10692756689863289 -0.042445538719111185 -0.016195598201467064
leaf_weight=14.489191472530363 24.731550961732864 28.72856929898262 22.982855439186096 24.481737315654755 23.232669085264206 19.73527804017067 210.84271728992462 20.484718978404999 25.231178253889084 13.739750534296034 25.980619192123413 14.239377826452253 152.63613775372505 13.739750534296034 100.92471301555634 21.483973562717438 146.1409829556942 29.478010237216949 17.237141579389572 16.237886995077133 12.740495949983595 15.488446056842802 26.979873776435852 28.47875565290451 23.982110023498535 13.489936888217924 13.240123242139815 19.985091686248779 13.240123242139815 71.446702778339386
leaf_count=58 99 115 92 98 93 79 844 82 101 55 104 57 611 55 404 86 585 118 69 65 51 62 108 114 96 54 53 80 53 286
internal_value=-0.0548513 -0.0404881 -0.0656536 -0.0427437 -0.0457208 -0.0235446 -0.0800093 -0.0581826 -0.0559358 -0.0329013 -0.0213951 -0.0516197 -0.0615116 -0.0924573 -0.0609842 -0.0673661 -0.0624036 -0.0406355 -0.0693189 -0.0163409 -0.0486583 -0.0414874 -0.04025 -0.025442 -0.0375902 -0.0506952 -0.0368753 -0.0540387 -0.0812317 -0.0247526
internal_weight=1205.85 517.614 688.237 503.125 474.396 99.6756 235.574 452.662 432.178 77.692 63.9523 374.72 189.609 36.9724 354.486 253.561 230.578 84.437 38.7211 45.7159 38.7211 185.112 75.1939 48.214 169.623 83.9374 59.9553 46.4653 33.2252 85.6861
internal_count=4827 2072 2755 2014 1899 399 943 1812 1730 311 256 1500 759 148 1419 1015 923 338 155 183 155 741 301 193 679 336 240 186 133 343
is_linear=0
shrinkage=1


Tree=1
num_leaves=31
num_cat=0
split_feature=18 7 11 7 7 18 12 18 7 3 18 12 2 10 12 3 18 7 18 18 18 8 3 18 3 18 12 18 12 18
split_gain=67.5602 27.2907 27.2813 26.2503 23.5767 22.6346 30.9868 20.4692 27.3842 21.861 25.744 20.8692 19.0386 16.8615 26.3849 15.93 25.8782 18.3639 16.7809 23.2069 26.9334 15.7164 14.8859 22.8337 38.7766 35.4991 21.8307 20.469 13.7208 17.1042
threshold=164.50000000000003 0.2043133333333155 -0.94691985911902055 0.23835999999998878 0.16182333333332891 34.500000000000007 -0.021163434372755956 339.50000000000006 0.51799999999999879 0.0032667501288948957 300.50000000000006 -0.28046024792374441 -0.00022169461228926932 36.686856422292742 -0.043918346258191993 0.0022898896790640422 150.50000000000003 0.29399999999999415 118.50000000000001 78.500000000000014 48.500000000000007 0.00013921355043290811 -0.0025390531131915411 230.50000000000003 0.00067074705772890246 178.50000000000003 0.14683254991733802 255.50000000000003 -0.089798726228244211 251.50000000000003
decision_type=2 2 2 2 2 2 2 2 2 2 2 2 2 2 2 2 2 2 2 2 2 2 2 2 2 2 2 2 2 2
left_child=2 4 -1 -4 21 6 -5 9 13 10 12 -12 28 -9 -15 16 17 -7 19 20 -17 -2 27 24 -24 -26 -27 -14 -3 -30
right_child=1 7 3 5 -6 15 -8 8 -10 -11 11 -13 22 14 -16 18 -18 -19 -20 -21 -22 -23 23 -25 25 26 -28 -29 29 -31
leaf_value=0.083581252369842707 0.021449430176789516 -0.0038798681238618343 0.057940579459889223 0.078405127635388108 -0.03820973680924155 0.060564648288001843 0.013928091455490245 0.075577348657473814 -0.052698721319718006 0.033366236881519427 0.0031101535091495151 -0.056573418679555301 -0.033915457530627767 -0.013496487175586415 0.046870708119242883 0.025795866230196498 0.053935336083897167 0.00066382135737210444 -0.052712499450434637 0.030499861137476353 -0.066022701826559227 -0.040096779428862347 -0.066024619945671201 -0.050665693686285734 -0.052006979757693042 0.063735817024533764 -0.014539532544389569 0.047577627205244895 0.047701262240157402 -0.018857930711596426
leaf_weight=13.49544547498226 33.716563805937767 99.618942365050316 28.749703541398048 24.745065525174141 131.51697415113449 13.490988820791243 75.453112423419952 14.243819788098333 12.725956872105597 27.710468873381615 20.479081854224205 51.42733658850193 13.483409225940706 36.959859594702721 35.473059579730034 12.990521907806395 28.491243824362755 247.99449577927589 22.714450269937515 28.725688815116882 20.734871506690979 14.981707870960234 20.970509737730026 53.668295681476593 14.962327048182486 27.228727877140045 13.238241195678709 17.981080800294876 33.96841125190258 13.483654215931891
leaf_count=54 135 399 115 99 527 54 302 57 51 111 82 206 54 148 142 52 114 993 91 115 83 60 84 215 60 109 53 72 136 54
internal_value=-0.00022168 -0.0104899 0.0134241 0.0115458 -0.0272049 0.00873977 0.0298514 -0.0045557 0.0157912 -0.00951022 -0.0126327 -0.0395754 -0.00635487 0.0258469 0.0160675 0.00310098 0.00868479 0.00375432 -0.0159111 -0.00252583 -0.0306555 0.00251514 -0.0182049 -0.0256703 -0.00811191 0.0137982 0.0381291 0.0126556 0.00666041 0.0287883
internal_weight=1205.42 687.838 517.586 504.09 180.215 475.34 100.198 507.623 99.4027 408.22 380.51 71.9064 308.604 86.6767 72.4329 375.142 289.977 261.485 85.1655 62.4511 33.7254 48.6983 161.533 130.068 76.3998 55.4293 40.467 31.4645 147.071 47.4521
internal_count=4827 2755 2072 2018 722 1903 401 2033 398 1635 1524 288 1236 347 290 1502 1161 1047 341 250 135 195 647 521 306 222 162 126 589 190
is_linear=0
shrinkage=0.05


Tree=2
num_leaves=31
num_cat=0
split_feature=18 14 6 3 6 18 12 14 3 18 18 11 8 3 10 12 3 12 3 12 8 8 13 3 18 18 10 3 18 18
split_gain=61.0228 30.5012 24.3438 20.1239 18.2315 21.2157 27.5824 17.1206 29.302 23.6462 14.8566 15.0774 13.9041 13.8674 13.0737 12.2319 12.0801 14.4997 13.993 12.3976 11.7521 11.6737 11.4142 18.5765 32.078 18.6246 10.6032 16.2244 10.3273 12.7264
threshold=164.50000000000003 -0.0013041249254417376 0.2260000000000105 0.0023674924869004008 0.24600000000001501 34.500000000000007 -0.021163434372755956 0.00058000433582918842 0.0047654081741419115 363.50000000000006 94.500000000000014 -0.22421958265130112 0.00061317423488167321 0.0027018013969794599 42.444735863353564 0.22873479201613633 -0.0034140003131586361 -0.22238441416635576 -0.0024764256903049308 -0.043918346258191993 0.00028479501731823068 0.00013622877844639077 0.14119630584700166 0.0022521732381816798 114.50000000000001 106.50000000000001 37.874766292159826 0.00017703912985938844 210.50000000000003 275.50000000000006
decision_type=2 2 2 2 2 2 2 2 2 2 2 2 2 2 2 2 2 2 2 2 2 2 2 2 2 2 2 2 2 2
left_child=1 -1 3 26 15 6 -6 8 9 14 11 12 -7 -5 16 -3 17 -4 -18 28 -11 -15 23 25 -25 -12 27 -2 -20 -30
right_child=2 4 7 13 5 10 -8 -9 -10 20 22 -13 -14 21 -16 -17 18 -19 19 -21 -22 -23 -24 24 -26 -27 -28 -29 29 -31
leaf_value=0.084372816402991893 -0.0400171140238606 0.063423057464751312 0.0020574297285629877 0.041219812960537804 0.074490591010724153 -0.051580959259625227 0.013316555749287912 -0.047930388283232872 0.060499124035502928 0.058565980566205572 -0.013466612329996814 0.00023993681965255869 0.01100362677922488 0.0027868552924725258 -0.014714754456295094 0.0060680134055967512 0.053345055557713121 -0.0544885843724425 -0.037323600201916732 0.049917014093278644 -0.0024442174044427148 -0.038530186156517716 -0.02835821642203637 0.046806282628199802 -0.054451569344701439 0.034666161374026137 -0.040877098631665137 0.035205697895600935 0.041575107838763371 -0.01569546352824517
leaf_weight=14.452707976102827 16.444210365414623 25.96767558157444 40.685963720083237 14.215637117624281 24.430877551436424 30.675411373376846 74.970798417925835 20.417821452021599 18.493762478232384 21.475773930549622 24.973251402378082 143.10232353210449 12.487152576446531 45.406822949647903 234.22380721569061 14.47918003797531 19.470545724034309 15.716059714555739 16.965046346187592 12.734459474682806 12.480028688907622 27.419341087341309 15.473751455545424 12.490815147757528 20.923070847988129 102.94075363874435 118.84861712157726 12.707530945539473 17.2293681204319 22.197581946849823
leaf_count=58 66 104 163 57 98 123 300 82 74 86 100 573 50 182 939 58 78 63 68 51 50 110 62 50 84 412 477 51 69 89
internal_value=-0.000211521 0.0127583 -0.00997697 -0.0230292 0.0107002 0.00788486 0.0283519 -0.00319113 -0.00107499 -0.00383103 0.00228133 -0.0075727 -0.0334749 -0.00395171 -0.00741027 0.0428911 0.004389 -0.0136988 0.0159039 0.00535802 0.0361424 -0.0127692 0.0126628 0.0165973 -0.0165992 0.025269 -0.034249 -0.00722675 -0.0047043 0.00933147
internal_weight=1204.5 517.368 687.132 235.042 502.915 462.468 99.4017 452.09 431.672 413.179 363.067 186.265 43.1626 87.0418 379.223 40.4469 144.999 56.402 88.597 69.1265 33.9558 72.8262 176.802 161.328 33.4139 127.914 148 29.1517 56.392 39.427
internal_count=4827 2072 2755 943 2014 1852 398 1812 1730 1656 1454 746 173 349 1520 162 581 226 355 277 136 292 708 646 134 512 594 117 226 158
is_linear=0
shrinkage=0.05


Tree=3
num_leaves=31
num_cat=0
split_feature=18 14 7 7 7 18 11 18 7 13 15 3 18 2 14 11 13 10 3 13 18 7 18 7 18 3 11 13 3 9
split_gain=55.1342 27.7652 23.4298 22.8004 20.7456 17.3544 24.7685 17.1567 24.2011 19.0216 21.8566 18.6344 23.3186 16.1309 16.1035 22.5655 15.7221 15.504 15.0425 41.8594 21.7868 24.3767 13.6345 15.449 24.8541 37.7961 23.8699 15.2264 14.5577 13.4409
threshold=164.50000000000003 -0.0013041249254417376 0.2043133333333155 0.22253333333332728 0.16182333333332891 34.500000000000007 0.046055690369371412 339.50000000000006 0.51799999999999879 1.0000000180025095e-35 0.00028440644927285602 0.0032667501288948957 300.50000000000006 -0.00022169461228926932 0.00026348783670772049 0.52573716142370597 0.034950584473456135 37.874766292159826 0.0022898896790640422 0.08847495405325094 150.50000000000003 0.29399999999999415 176.50000000000003 0.40541666666666371 230.50000000000003 0.0011039841496989374 0.12175804234067301 0.096381181011924402 -0.00081689814726596368 0.043642948487700402
decision_type=2 2 2 2 2 2 2 2 2 2 2 2 2 2 2 2 2 2 2 2 2 2 2 2 2 2 2 2 2 2
left_child=1 -1 4 -3 29 6 -5 11 9 -9 -11 12 13 -4 -8 -16 17 -14 20 -20 21 -7 -15 24 25 -24 -27 -25 -26 -2
right_child=2 3 7 5 -6 18 14 8 -10 10 -12 -13 16 22 15 -17 -18 -19 19 -21 -22 -23 23 27 28 26 -28 -29 -30 -31
leaf_value=0.080685906032835958 0.020363692871811362 0.063625241647088646 0.0065381587942236674 0.066945272695300928 -0.035352592528211511 0.060454211758464618 -0.037467381108126779 0.054386144348153601 -0.04986681080769681 -0.012768118004488386 0.059811213683673106 0.031052232599215124 -0.016470464376256003 -0.054896684405542809 0.057695152294279656 -0.0049916151591538113 0.0046142673590600604 -0.071296874672241259 -0.031641789428307102 0.054135342930504697 0.050066094402422462 0.00013359462726240048 -0.064619593998536617 0.039361734385210595 -0.019729591008983284 0.070819178832888838 -0.017926475040201336 -0.019045219462238736 -0.073298775096273625 -0.036625344637908522
leaf_weight=14.359674990177153 33.726362034678459 19.188829213380814 146.97110532224178 27.577569544315338 131.04325667023659 17.964945703744888 13.742853775620459 32.425960898399353 12.678488060832022 40.184949398040771 13.981911048293112 27.71347913146019 20.931933984160423 20.097835436463356 25.721548318862915 32.489279881119728 17.175237089395523 33.581417366862297 71.991108536720276 17.724782183766365 28.714049860835075 247.40392392873764 13.681542858481405 24.952803790569305 25.622047409415245 18.736112445592884 12.7216749638319 20.185069933533669 25.112741440534592 14.924788847565649
leaf_count=58 135 77 589 111 527 72 55 130 51 161 56 111 84 81 103 130 69 135 289 71 115 991 55 100 103 75 51 81 101 60
internal_value=-0.000201496 0.0121323 -0.00948857 0.0101734 -0.0250011 0.00805129 0.0266561 -0.00398786 0.0146515 0.024098 0.00596654 -0.0085288 -0.0114172 -0.00544061 0.0112145 0.0227077 -0.0371015 -0.0502447 0.00322648 -0.0146952 0.00869384 0.00421718 -0.0163681 -0.0108768 -0.0222325 0.00475695 0.03493 0.0132429 -0.0462453 0.00288108
internal_weight=1203.33 516.879 686.449 502.519 179.694 483.33 99.5313 506.754 99.2713 86.5928 54.1669 407.483 379.77 308.081 71.9537 58.2108 71.6886 54.5134 383.799 89.7159 294.083 265.369 161.11 141.012 95.8741 45.1393 31.4578 45.1379 50.7348 48.6512
internal_count=4827 2072 2755 2014 722 1937 399 2033 398 347 217 1635 1524 1236 288 233 288 219 1538 360 1178 1063 647 566 385 181 126 181 204 195
is_linear=0
shrinkage=0.05


end of trees

feature_importances:
minutes_into_session=37
atr_15=16
vwap_dev=15
macd_signal=14
ema_9_21_spread=8
macd_hist=7
macd=6
rv_5=4
rsi_14=4
ret_15=3
atr_5=3
ema_slope=2
rv_annual=1

parameters:
[boosting: gbdt]
[objective: binary]
[metric: binary_logloss]
[tree_learner: serial]
[device_type: cpu]
[data_sample_strategy: bagging]
[data: ]
[valid: ]
[num_iterations: 1000]
[learning_rate: 0.05]
[num_leaves: 31]
[num_threads: 0]
[seed: 42]
[deterministic: 0]
[force_col_wise: 0]
[force_row_wise: 0]
[histogram_pool_size: -1]
[max_depth: -1]
[min_data_in_leaf: 50]
[min_sum_hessian_in_leaf: 0.001]
[bagging_fraction: 0.8]
[pos_bagging_fraction: 1]
[neg_bagging_fraction: 1]
[bagging_freq: 5]
[bagging_seed: 400]
[bagging_by_query: 0]
[feature_fraction: 0.8]
[feature_fraction_bynode: 1]
[feature_fraction_seed: 30056]
[extra_trees: 0]
[extra_seed: 12879]
[early_stopping_round: 0]
[early_stopping_min_delta: 0]
[first_metric_only: 0]
[max_delta_step: 0]
[lambda_l1: 0]
[lambda_l2: 0]
[linear_lambda: 0]
[min_gain_to_split: 0]
[drop_rate: 0.1]
[max_drop: 50]
[skip_drop: 0.5]
[xgboost_dart_mode: 0]
[uniform_drop: 0]
[drop_seed: 17869]
[top_rate: 0.2]
[other_rate: 0.1]
[min_data_per_group: 100]
[max_cat_threshold: 32]
[cat_l2: 10]
[cat_smooth: 10]
[max_cat_to_onehot: 4]
[top_k: 20]
[monotone_constraints: ]
[monotone_constraints_method: basic]
[monotone_penalty: 0]
[feature_contri: ]
[forcedsplits_filename: ]
[refit_decay_rate: 0.9]
[cegb_tradeoff: 1]
[cegb_penalty_split: 0]
[cegb_penalty_feature_lazy: ]
[cegb_penalty_feature_coupled: ]
[path_smooth: 0]
[interaction_constraints: ]
[verbosity: -1]
[saved_feature_importance_type: 0]
[use_quantized_grad: 0]
[num_grad_quant_bins: 4]
[quant_train_renew_leaf: 0]
[stochastic_rounding: 1]
[linear_tree: 0]
[max_bin: 255]
[max_bin_by_feature: ]
[min_data_in_bin: 3]
[bin_construct_sample_cnt: 200000]
[data_random_seed: 175]
[is_enable_sparse: 1]
[enable_bundle: 1]
[use_missing: 1]
[zero_as_missing: 0]
[feature_pre_filter: 1]
[pre_partition: 0]
[two_round: 0]
[header: 0]
[label_column: ]
[weight_column: ]
[group_column: ]
[ignore_column: ]
[categorical_feature: ]
[forcedbins_filename: ]
[precise_float_parser: 0]
[parser_config_file: ]
[objective_seed: 16083]
[num_class: 1]
[is_unbalance: 0]
[scale_pos_weight: 1]
[sigmoid: 1]
[boost_from_average: 1]
[reg_sqrt: 0]
[alpha: 0.9]
[fair_c: 1]
[poisson_max_delta_step: 0.7]
[tweedie_variance_power: 1.5]
[lambdarank_truncation_level: 30]
[lambdarank_norm: 1]
[label_gain: ]
[lambdarank_position_bias_regularization: 0]
[eval_at: ]
[multi_error_top_k: 1]
[auc_mu_weights: ]
[num_machines: 1]
[local_listen_port: 12400]
[time_out: 120]
[machine_list_filename: ]
[machines: ]
[gpu_platform_id: -1]
[gpu_device_id: -1]
[gpu_use_dp: 0]
[num_gpu: 1]

end of parameters

pandas_categorical:[]
