tree
version=v4
num_class=1
num_tree_per_iteration=1
label_index=0
max_feature_idx=18
objective=regression
feature_names=ret_1 ret_5 ret_15 vwap_dev rvol vol_z atr_5 atr_15 rv_5 rv_annual rsi_14 macd macd_signal macd_hist ema_9_21_spread ema_slope high_dist_5 low_dist_5 minutes_into_session
feature_infos=[-0.015677687171702148:0.014967032077990439] [-0.015690910556436122:0.015563047875927216] [-0.016330477290430023:0.016776440101495593] [-0.015876507772837896:0.0097694233743588783] [0.085897591586046582:16.421932949697943] [-2.2805209086729388:4.2477201019028978] [0.091999999999984539:5.6134799999999361] [0.11933999999998074:2.3150733333332938] [0:0.0072283513829064262] [0:2.2660622193327193] [0:92.774767560002246] [-2.9941801703616875:3.3715872000049103] [-2.4501411230505341:2.9327479907069276] [-1.3227458395538956:1.4162982293934174] [-0.0045251449473134682:0.0048278690298358112] [-0.0071149865152180247:0.0074600997333376107] [0:0.016609799372185013] [0:0.029208551223345092] [0:329]
tree_sizes=2959 3061 3076 3046 3094 3065 3081 3085 3084 3096 3077 3080 3073 3071 3072 3076 3072 3085 3059 3072 3087 3079 3104 3102 3075 3074 3099 3077 3077 3088 3063 3062 3105 3075 3075 3064 3066

Tree=0
num_leaves=31
num_cat=0
split_feature=7 12 7 7 13 11 7 8 18 18 18 7 18 18 18 12 7 18 11 7 8 18 7 1 13 7 11 13 7 18
split_gain=0.00834591 0.001337 0.000825543 0.000390216 0.000500426 0.00027278 0.000222035 0.00021613 0.000186263 0.000232092 0.000161541 0.000159091 0.000155326 0.000142714 0.000137759 0.000133912 0.000295943 0.000126968 0.000113423 9.73546e-05 8.18289e-05 8.02969e-05 7.21268e-05 7.06663e-05 8.15332e-05 6.54671e-05 6.10249e-05 5.89291e-05 9.13095e-05 5.70387e-05
threshold=0.48032000000000236 -0.36661352058852903 0.29966666666666703 0.63294333333334041 -0.13399453382890561 0.27293069777516626 0.37276999999999522 0.00087037618298310888 271.50000000000006 112.50000000000001 44.500000000000007 0.2079799999999902 183.50000000000003 155.50000000000003 217.50000000000003 -0.44643832697700631 0.64966666666666717 74.500000000000014 -0.37664110530374723 0.7900499999999967 0.00035959983841858911 52.500000000000007 0.41983000000000176 0.00070273456509917242 -0.060584088659693593 0.69750000000001366 0.10197965543125066 0.037055683293290793 0.25592333333333578 120.50000000000001
decision_type=2 2 2 2 2 2 2 2 2 2 2 2 2 2 2 2 2 2 2 2 2 2 2 2 2 2 2 2 2 2
left_child=2 7 11 4 -3 18 -7 15 9 10 -5 -1 -11 -6 29 16 -2 -8 22 25 -15 -20 -4 24 -18 -12 -22 28 -16 -13
right_child=1 3 5 8 13 6 17 -9 -10 12 19 14 -14 20 27 -17 23 -19 21 -21 26 -23 -24 -25 -26 -27 -28 -29 -30 -31
leaf_value=0.0036731427597584726 0.0038234198416285349 0.0039433137024537908 0.0038284182230347761 0.003854840227713176 0.0037753296481731666 0.0037240147934008861 0.0039056192560101132 0.0040231418318007577 0.0039610429330885523 0.0037604835667913016 0.0038994296605809916 0.0037363746189375611 0.003860275623974382 0.0038698157766143852 0.0037002326817199708 0.0040002522179209601 0.0039351774086030661 0.0038042924118998449 0.0037776559342250844 0.0038617058599605095 0.0037712912485483086 0.0037316359621435524 0.0037526593292618975 0.0039076863795047684 0.0040192857132505828 0.0039686635128295556 0.003834675328542357 0.0037747154585009027 0.0037628414071830298 0.0036783188772621517
leaf_weight=522 65 67 57 268 297 56 50 80 52 79 62 50 77 77 165 57 68 81 106 61 68 896 70 71 50 76 86 68 90 275
leaf_count=522 65 67 57 268 297 56 50 80 52 79 62 50 77 77 165 57 68 81 106 61 68 896 70 71 50 76 86 68 90 275
internal_value=0.00378222 0.003869 0.00372424 0.00384411 0.00381459 0.00375141 0.00380734 0.00394985 0.00387013 0.00386254 0.00388018 0.00369369 0.00380974 0.00379825 0.00371023 0.00393099 0.00391545 0.00384297 0.00374215 0.00391431 0.00382773 0.0037365 0.00378666 0.0039471 0.00397082 0.00393756 0.00380669 0.00373336 0.00372233 0.00368725
internal_weight=4147 1661 2486 1270 595 1316 187 391 675 623 467 1170 156 528 648 311 254 131 1129 199 231 1002 127 189 118 138 154 323 255 325
internal_count=4147 1661 2486 1270 595 1316 187 391 675 623 467 1170 156 528 648 311 254 131 1129 199 231 1002 127 189 118 138 154 323 255 325
is_linear=0
shrinkage=1


Tree=1
num_leaves=31
num_cat=0
split_feature=7 3 7 11 7 3 11 15 7 3 3 7 18 18 18 10 3 2 18 3 7 3 3 18 18 18 4 18 3 18
split_gain=0.00753218 0.00159535 0.000745052 0.000541467 0.000329617 0.000257949 0.000246184 0.000204472 0.000200386 0.000186923 0.00057699 0.000459534 0.000145153 0.000261732 0.000165795 0.000139083 0.000131081 0.000127611 0.000114588 0.000113953 0.000111621 8.13887e-05 0.00024561 9.89803e-05 0.000235264 7.77576e-05 6.90759e-05 6.87604e-05 5.24176e-05 4.84365e-05
threshold=0.48032000000000236 -0.006787019155209551 0.29966666666666703 -0.29927097118121532 0.67403333333333737 0.002435437317838672 0.27293069777516626 -0.00012181752798112731 0.37276999999999522 -0.0038231078895525315 -0.0021278279082670723 0.62799333333332108 264.50000000000006 108.50000000000001 44.500000000000007 37.17874577223332 -0.0016565547915628129 -0.0020159097055039705 74.500000000000014 0.00062407984927661533 0.7900499999999967 -0.0014042504049395002 -0.00025290752666672962 215.50000000000003 264.50000000000006 44.500000000000007 0.95855361701791897 155.50000000000003 -0.0015082485619885655 30.500000000000004
decision_type=2 2 2 2 2 2 2 2 2 2 2 2 2 2 2 2 2 2 2 2 2 2 2 2 2 2 2 2 2 2
left_child=2 26 5 9 7 21 15 16 -8 11 -11 -3 13 14 -6 -4 -5 -12 -10 -18 -16 -1 23 -23 -25 -17 -2 29 -29 -9
right_child=1 3 6 4 12 -7 8 27 18 10 17 -13 -14 -15 20 25 19 -19 -20 -21 -22 22 -24 24 -26 -27 -28 28 -30 -31
leaf_value=-0.00010081758892930503 0.00031725005595944827 -2.3103405761676621e-05 1.0437504916558635e-06 1.0660734618863058e-05 6.6719179266931102e-05 -0.000120940699637587 -5.4828660151023159e-05 4.2405555523502848e-05 0.00011769558163359763 0.00025273208748542454 0.0001402821189863922 0.00016367252157737234 0.00016261021579129403 3.6664107170945297e-06 0.0001689655931292454 4.3497163757264288e-06 0.00014286112159121937 5.072328679087277e-05 2.1435076121740425e-05 4.5413267767798976e-05 7.9921445192890686e-05 -7.1260512282606206e-05 -7.9458450475231672e-05 9.6715704122289037e-05 -4.121326384825178e-05 -4.9732724090745253e-05 0.00023454656526583303 -6.6090242071368272e-06 5.3381131791973964e-05 -1.1191606544916459e-05
leaf_weight=161 50 63 193 54 222 332 56 51 50 86 74 69 52 102 92 72 75 86 81 50 57 50 496 50 81 864 51 50 134 243
leaf_count=161 50 63 193 54 222 332 56 51 50 86 74 69 52 102 92 72 75 86 81 50 57 50 496 50 81 864 51 50 134 243
internal_value=4.68775e-07 8.29071e-05 -5.46117e-05 7.04387e-05 5.37804e-05 -8.36418e-05 -2.88023e-05 3.01776e-05 2.43348e-05 0.000122529 0.000148285 7.45295e-05 8.33176e-05 7.46004e-05 9.41025e-05 -3.76036e-05 7.57594e-05 9.21442e-05 5.81757e-05 0.000103882 0.000134902 -6.88646e-05 -6.12657e-05 -1.14117e-05 1.14314e-05 -4.55725e-05 0.000275489 1.31082e-05 3.70795e-05 -1.89414e-06
internal_weight=4147 1661 2486 1560 1182 1170 1316 657 187 378 246 132 525 473 371 1129 179 160 131 125 149 838 677 181 131 936 101 478 184 294
internal_count=4147 1661 2486 1560 1182 1170 1316 657 187 378 246 132 525 473 371 1129 179 160 131 125 149 838 677 181 131 936 101 478 184 294
is_linear=0
shrinkage=0.05


Tree=2
num_leaves=31
num_cat=0
split_feature=6 3 6 11 3 14 6 18 3 18 18 12 3 8 2 2 11 18 18 3 3 6 3 3 18 18 10 3 10 12
split_gain=0.00644463 0.00146912 0.000683677 0.000430189 0.000276051 0.000275877 0.000242231 0.000261315 0.000236343 0.000234774 0.000298164 0.000398846 0.000220123 0.000195518 0.000139022 0.000133755 0.000130036 0.000123233 0.000110298 7.75506e-05 7.5408e-05 7.01477e-05 6.89005e-05 0.000165445 8.50024e-05 6.77727e-05 6.68579e-05 7.74733e-05 5.97501e-05 5.94596e-05
threshold=0.46567000000001152 -0.006787019155209551 0.29470999999999786 -0.29927097118121532 0.0042489585563383926 -0.00053938283801443826 0.60199999999998688 92.500000000000014 0.002435437317838672 301.50000000000006 108.50000000000001 0.77291312479298313 -0.0024355421590381123 0.00079036385415454634 -0.0014595058279902038 0.002207342822843628 -0.38475854057065811 34.500000000000007 179.50000000000003 0.0022257308520778145 -0.0021278279082670723 0.44149999999998507 -0.0014288260702224956 -0.00060160206368976355 262.50000000000006 108.50000000000001 65.457929526779211 0.0017610235121923662 39.280924016413053 0.33528487498103998
decision_type=2 2 2 2 2 2 2 2 2 2 2 2 2 2 2 2 2 2 2 2 2 2 2 2 2 2 2 2 2 2
left_child=2 28 8 5 15 6 -3 -8 22 10 11 13 -7 14 -5 16 20 -15 -12 29 -4 -18 -1 24 -24 -25 27 -16 -2 -20
right_child=1 3 4 9 -6 12 7 -9 -10 -11 18 -13 -14 17 26 -17 21 -19 19 -21 -22 -23 23 25 -26 -27 -28 -29 -30 -31
leaf_value=-9.4942957309433195e-05 0.00022287450204566998 8.8978036728803996e-06 -2.1840595135555225e-05 0.00011643079143990657 8.7456047804852671e-05 0.00024985244740660331 0.00015578857083587888 3.8588859749021749e-05 -0.00011366301725326803 0.00015462263315081754 -1.4571669255824069e-05 0.00020222788646788106 0.00010641576464911611 6.4345148562657817e-05 2.0783098998726156e-05 4.5423927771740376e-05 -4.2734850681379655e-05 0.00016020639743674698 3.240949365488686e-05 -1.1315243410983875e-05 6.2141682481244343e-05 1.8073156058665884e-06 2.7295972600544179e-05 -1.9295527146886313e-05 -4.6466303978204016e-05 -7.6459515184235002e-05 -2.2578086866185634e-05 6.865252447217548e-05 0.00029979282293888723 9.1959404667026415e-05
leaf_weight=148 50 77 55 53 52 54 130 75 332 51 195 50 53 73 235 56 996 62 134 67 52 97 73 58 84 489 52 132 51 61
leaf_count=148 50 77 55 53 52 54 130 75 332 51 195 50 53 73 235 56 996 62 134 67 52 97 73 58 84 489 52 132 51 61
internal_value=4.45337e-07 7.69305e-05 -5.03504e-05 6.49207e-05 -2.54335e-05 0.000110447 8.451e-05 0.000112911 -7.78768e-05 4.97192e-05 4.49166e-05 6.64906e-05 0.000178804 5.53096e-05 4.01333e-05 -3.01073e-05 -3.36321e-05 0.00010837 1.39011e-05 3.50927e-05 1.89732e-05 -3.87819e-05 -6.39319e-05 -5.74125e-05 -1.21692e-05 -7.03983e-05 3.04823e-05 3.80004e-05 0.000261714 5.10379e-05
internal_weight=4147 1655 2492 1554 1308 389 282 205 1184 1165 1114 657 107 607 472 1256 1200 135 457 262 107 1093 852 704 157 547 419 367 101 195
internal_count=4147 1655 2492 1554 1308 389 282 205 1184 1165 1114 657 107 607 472 1256 1200 135 457 262 107 1093 852 704 157 547 419 367 101 195
is_linear=0
shrinkage=0.05


Tree=3
num_leaves=31
num_cat=0
split_feature=7 3 7 11 18 13 7 11 3 7 5 14 18 18 18 3 13 3 10 18 13 18 18 7 18 3 3 18 18 5
split_gain=0.0061843 0.00129497 0.000602963 0.000442108 0.000296299 0.000220488 0.000234863 0.000212348 0.000210663 0.000170868 0.000170866 0.000258114 0.000180531 0.000178981 0.000140369 0.000136529 0.000176537 0.000151616 0.000118318 0.000103048 8.59561e-05 8.18136e-05 7.68469e-05 7.21438e-05 6.90138e-05 6.7928e-05 0.000206661 8.85923e-05 0.000202505 5.45608e-05
threshold=0.48032000000000236 -0.006787019155209551 0.29966666666666703 -0.29927097118121532 301.50000000000006 -0.026328244292625477 0.66103333333334169 0.27293069777516626 0.002435437317838672 0.37276999999999522 -0.44390487486008839 -0.0006946546120116967 205.50000000000003 86.500000000000014 108.50000000000001 0.0032412892791544895 -0.18453393143872451 0.00033616916214118154 37.17874577223332 74.500000000000014 0.2100622212985935 194.50000000000003 52.500000000000007 0.68460333333333678 44.500000000000007 -0.0014042504049395002 -0.00025290752666672962 215.50000000000003 264.50000000000006 -0.076423185367605714
decision_type=2 2 2 2 2 2 2 2 2 2 2 2 2 2 2 2 2 2 2 2 2 2 2 2 2 2 2 2 2 2
left_child=2 29 8 10 5 15 -7 18 25 -9 11 -3 13 -12 20 16 -5 21 -4 -11 22 -18 -8 -19 -20 -1 27 -27 -29 -2
right_child=1 3 7 4 -6 6 14 9 -10 19 12 -13 -14 -15 -16 -17 17 23 24 -21 -22 -23 -24 -25 -26 26 -28 28 -30 -31
leaf_value=-9.143905681977339e-05 0.00028501601476569244 7.9771888026048806e-05 1.2036169320491953e-06 0.00016713125448983523 0.00016672474581070013 -5.6156992228200882e-07 7.3578929514042104e-05 -5.0018124680458897e-05 -0.0001093092439285934 0.00011077487043803557 0.00010274712907690567 0.00020908410085178011 0.00015859645881360408 -2.3553326261756176e-06 6.0416707096270073e-06 4.9392097502104234e-06 1.7659356088017832e-05 7.6325635597674629e-05 5.2394626866064052e-06 1.9490179068798396e-05 4.0173301527529571e-05 8.6631798124594143e-05 0.00014827841304294352 0.00015844138184238889 -4.5711539185833565e-05 -6.619626542669721e-05 -7.1993594676842491e-05 9.1160324220254554e-05 -3.6805971813234388e-05 0.00021151368813298178
leaf_weight=161 51 70 193 55 51 375 95 56 332 50 91 86 58 73 98 63 120 54 72 81 97 67 54 53 864 50 496 50 81 50
leaf_count=161 51 70 193 55 51 375 95 56 332 50 91 86 58 73 98 63 120 54 72 81 97 67 54 53 864 50 496 50 81 50
internal_value=4.2307e-07 7.51219e-05 -4.94863e-05 6.38885e-05 4.8836e-05 4.352e-05 2.68085e-05 -2.62681e-05 -7.56019e-05 2.30825e-05 0.000110957 0.000151059 8.27777e-05 5.59637e-05 5.66451e-05 7.2684e-05 8.4913e-05 6.95321e-05 -3.44422e-05 5.43317e-05 7.68042e-05 4.23714e-05 0.000100651 0.000117 -4.17922e-05 -6.22477e-05 -5.53056e-05 -9.57503e-06 1.20361e-05 0.000248629
internal_weight=4147 1661 2486 1560 1182 1131 719 1316 1170 187 378 156 222 164 344 412 349 294 1129 131 246 187 149 107 936 838 677 181 131 101
internal_count=4147 1661 2486 1560 1182 1131 719 1316 1170 187 378 156 222 164 344 412 349 294 1129 131 246 187 149 107 936 838 677 181 131 101
is_linear=0
shrinkage=0.05


Tree=4
num_leaves=31
num_cat=0
split_feature=7 3 7 11 7 13 3 3 3 3 7 3 13 12 13 10 7 3 7 3 3 8 12 8 14 12 10 4 12 8
split_gain=0.00558437 0.00116105 0.000558595 0.000406772 0.000252172 0.000248303 0.000206173 0.000183711 0.00016621 0.000514203 0.000399528 0.000121774 0.000112504 9.88564e-05 0.000147396 0.000122857 8.64617e-05 0.00016313 7.61066e-05 7.18748e-05 0.000173895 6.93676e-05 8.14801e-05 7.06588e-05 6.58581e-05 5.77822e-05 5.42541e-05 5.31792e-05 4.88013e-05 4.73157e-05
threshold=0.48212999999999134 -0.006787019155209551 0.29346333333332958 -0.29927097118121532 0.67999333333332679 -0.15182045349010151 0.0040663981109239399 0.0020456598591367206 -0.0038231078895525315 -0.0021278279082670723 0.62799333333332108 0.0038922972030706153 0.0010205198390229183 0.25377016518625822 -0.081795079965391218 37.961069106755239 0.7900499999999967 -0.00095122691506012034 0.39356666666665968 -0.0014042504049395002 -0.00060160206368976355 0.00041696571279829857 0.20855498007906328 0.00075580494053115253 9.7304439712349731e-05 -0.015617722584049464 58.833544572226565 0.95855361701791897 -0.061615001467531981 0.00031625372398349404
decision_type=2 2 2 2 2 2 2 2 2 2 2 2 2 2 2 2 2 2 2 2 2 2 2 2 2 2 2 2 2 2
left_child=2 27 7 8 5 -5 13 19 10 -10 -3 21 -7 15 -15 -4 17 -11 -16 -1 25 -6 24 26 -23 -21 -24 -2 -22 -17
right_child=1 3 6 4 11 12 -8 -9 9 16 -12 -13 -14 14 18 29 -18 -19 -20 20 28 22 23 -25 -26 -27 -28 -29 -30 -31
leaf_value=-8.7645328816732555e-05 0.00027283937821630391 -3.2395350032230886e-05 -1.3407725662562388e-06 0.00013315143519685081 3.3145656830413371e-05 4.0653885793329506e-05 6.9515631079081111e-05 -9.9202899264128064e-05 0.00023015612802469951 0.00011429542961554246 0.00014324558016623075 3.930063603388191e-06 -2.6530854854337819e-06 -5.6895665613323915e-05 -4.0172780963506452e-06 -5.1939058662629325e-05 0.00012876348210160029 -1.0354572320019938e-05 7.6025355361531601e-05 2.2290538926545594e-05 -8.8493599250595185e-05 9.3022804518568591e-05 5.4007371099373819e-05 0.00014322326464592748 3.3533903596194829e-05 -4.4487291714176533e-05 0.00012352000678947662 0.00020027366314453131 -5.2547981419703518e-05 -2.8758490823030604e-05
leaf_weight=153 50 61 222 50 64 277 55 416 85 52 69 57 327 63 57 557 55 53 62 92 147 100 64 93 87 50 50 51 264 364
leaf_count=153 50 61 222 50 64 277 55 416 85 52 69 57 327 63 57 557 55 53 62 92 147 100 64 93 87 50 50 51 264 364
internal_value=4.01916e-07 7.19587e-05 -4.66448e-05 6.12151e-05 4.66796e-05 2.60721e-05 -2.53422e-05 -7.28458e-05 0.000106527 0.000130775 6.08295e-05 7.28491e-05 1.72079e-05 -2.92797e-05 4.94594e-06 -3.47295e-05 7.79785e-05 5.13769e-05 3.76856e-05 -5.73153e-05 -4.89238e-05 8.14264e-05 8.92689e-05 0.00011088 6.53462e-05 -1.22278e-06 8.44954e-05 0.000236197 -6.54044e-05 -4.27776e-05
internal_weight=4147 1645 2502 1544 1169 654 1380 1122 375 245 130 515 604 1325 182 1143 160 105 119 706 553 458 394 207 187 142 114 101 411 921
internal_count=4147 1645 2502 1544 1169 654 1380 1122 375 245 130 515 604 1325 182 1143 160 105 119 706 553 458 394 207 187 142 114 101 411 921
is_linear=0
shrinkage=0.05


Tree=5
num_leaves=31
num_cat=0
split_feature=7 3 7 7 13 18 18 18 3 18 3 3 18 2 13 18 17 12 3 3 18 12 18 3 2 12 18 4 18 3
split_gain=0.0050328 0.00089891 0.00050671 0.000323108 0.00043652 0.000402255 0.000378731 0.000265116 0.000364173 0.000353335 0.000216379 0.00020352 0.000216665 0.00017703 0.000146952 9.38631e-05 8.87161e-05 8.66907e-05 0.000106788 7.32281e-05 6.53721e-05 7.18331e-05 0.000100716 9.09359e-05 6.50777e-05 6.34497e-05 6.17093e-05 6.06942e-05 5.75389e-05 5.55843e-05
threshold=0.48212999999999134 -0.006787019155209551 0.28531666666667671 0.64966666666666717 -0.18453393143872451 182.50000000000003 236.50000000000003 110.50000000000001 -0.0029474659812239626 279.50000000000006 0.0018521864178903029 0.0040663981109239399 56.500000000000007 0.0009827848162243804 0.19998656716605182 223.50000000000003 0.0006061121435164315 -0.40488472622547284 0.0014401073278417634 0.0016537985860482793 155.50000000000003 -0.026635437045371826 213.50000000000003 -0.0013546321655381408 -1.0000000180025095e-35 0.11365300735065566 279.50000000000006 0.90618633346365607 60.500000000000007 0.0028426899093246271
decision_type=2 2 2 2 2 2 2 2 2 2 2 2 2 2 2 2 2 2 2 2 2 2 2 2 2 2 2 2 2 2
left_child=2 -2 10 4 -3 19 -7 8 -5 15 16 12 13 -4 17 -9 -1 -10 24 28 -14 22 23 -22 -19 -8 -23 -25 -6 -21
right_child=1 3 11 7 5 6 25 9 14 -11 -12 -13 20 -15 -16 -17 -18 18 -20 29 21 26 -24 27 -26 -27 -28 -29 -30 -31
leaf_value=-5.5303115761015095e-05 0.000217220386457484 0.00017429219299174294 -7.1573897787237772e-06 0.00018732915281323889 9.815291177174318e-06 0.00014941804694738059 -1.129301858452601e-05 -2.781229081590096e-05 0.00015168843241307345 0.00015303020278588521 -9.4532698676630394e-05 7.4143519674073439e-05 -4.9203014277398792e-05 0.00010186085948776856 3.1986668865358345e-05 4.4598126437332937e-05 1.3504954613738081e-05 8.9629259017449367e-05 0.00012326046719371349 5.406425530589546e-05 -3.5061018213625332e-05 -5.8254917971520177e-05 -3.1419049386484226e-05 1.0102249523007576e-05 3.408394568206556e-05 5.2591235758969108e-05 -4.2351707020722125e-06 8.5274334494897638e-05 -4.0130958650339833e-05 -7.7830349581722075e-06
leaf_weight=575 96 52 138 96 87 99 69 105 59 50 472 51 498 51 117 78 51 117 122 68 53 216 269 58 96 89 70 50 171 78
leaf_count=575 96 52 138 96 87 99 69 105 59 50 472 51 498 51 117 78 51 117 122 68 53 216 269 58 96 89 70 50 171 78
internal_value=6.59022e-07 6.87404e-05 -4.33324e-05 5.9562e-05 3.48076e-05 2.38345e-05 7.27385e-05 8.05738e-05 9.79771e-05 3.52355e-05 -6.89708e-05 -2.39714e-05 -2.7538e-05 2.22602e-05 8.11908e-05 3.05117e-06 -4.96973e-05 9.58022e-05 8.59596e-05 -7.27518e-06 -3.52907e-05 -2.56143e-05 -1.26984e-05 1.85802e-05 6.45948e-05 2.46924e-05 -4.50333e-05 4.49041e-05 -2.32886e-05 2.10226e-05
internal_weight=4201 1649 2552 1553 713 661 257 840 607 233 1098 1454 1403 189 511 183 626 394 335 404 1214 716 430 161 213 158 286 108 258 146
internal_count=4201 1649 2552 1553 713 661 257 840 607 233 1098 1454 1403 189 511 183 626 394 335 404 1214 716 430 161 213 158 286 108 258 146
is_linear=0
shrinkage=0.05


Tree=6
num_leaves=31
num_cat=0
split_feature=7 3 7 7 13 18 18 18 3 18 3 12 13 18 17 18 12 3 10 18 3 2 12 3 3 18 12 18 4 14
split_gain=0.0045421 0.000811266 0.000457306 0.000291605 0.000393959 0.000363035 0.000341804 0.000239268 0.000328666 0.000318885 0.00019569 0.000188763 0.000132624 0.000108692 8.7717e-05 8.47114e-05 7.82384e-05 9.63764e-05 7.62048e-05 7.21259e-05 6.60883e-05 5.87326e-05 5.72634e-05 5.23351e-05 0.000173994 7.79e-05 5.31518e-05 5.21266e-05 5.12738e-05 5.37364e-05
threshold=0.48212999999999134 -0.006787019155209551 0.28531666666667671 0.64966666666666717 -0.18453393143872451 182.50000000000003 236.50000000000003 110.50000000000001 -0.0029474659812239626 279.50000000000006 0.0024613890403678736 0.62408581598822221 0.19998656716605182 56.500000000000007 0.00067960135378860502 223.50000000000003 -0.40488472622547284 0.0014401073278417634 37.17874577223332 291.50000000000006 0.0016537985860482793 -1.0000000180025095e-35 0.11365300735065566 -0.00020630603897901439 -0.0013019583691630621 227.50000000000003 -0.061615001467531981 56.500000000000007 0.53866712083578772 6.4820180242905351e-05
decision_type=2 2 2 2 2 2 2 2 2 2 2 2 2 2 2 2 2 2 2 2 2 2 2 2 2 2 2 2 2 2
left_child=2 -2 10 4 -3 20 -7 8 -5 15 14 13 16 28 23 -9 -10 21 -15 -20 27 -18 -8 24 -1 -26 -25 -6 -4 -30
right_child=1 3 11 7 5 6 22 9 12 -11 -12 -13 -14 18 -16 -17 17 -19 19 -21 -22 -23 -24 26 25 -27 -28 -29 29 -31
leaf_value=-7.3307502299584665e-05 0.00020635936790919609 0.00016557758916370893 -2.5907958521483371e-05 0.00017796269549611072 1.2982097415563963e-05 0.00014194714533723895 -1.0728367564350238e-05 -2.6421676063061267e-05 0.00014410400953068856 0.00014537869276682613 -9.7934313532141589e-05 7.2692170891969007e-05 3.0387335374711193e-05 -2.9864127989185365e-06 1.1591844536180326e-05 4.236821962830362e-05 8.5147795125211024e-05 0.00011709744437107697 -4.1360037475734535e-05 4.7050238726083555e-07 1.9971425341556249e-05 3.2379748911163617e-05 4.9961674371485735e-05 -9.6548976327916352e-05 -4.4540203592847466e-05 3.4265798260232172e-05 -5.6675112705915031e-05 -3.6512009683810603e-05 -4.6590119682953045e-06 6.628518909954957e-05
leaf_weight=174 96 52 58 96 75 99 69 105 59 50 327 50 117 200 51 78 117 122 923 116 146 96 89 116 52 79 299 183 51 56
leaf_count=174 96 52 58 96 75 99 69 105 59 50 327 50 117 200 51 78 117 122 923 116 146 96 89 116 52 79 299 183 51 56
internal_value=6.26071e-07 6.53034e-05 -4.11658e-05 5.65839e-05 3.30672e-05 2.26428e-05 6.91016e-05 7.65451e-05 9.30783e-05 3.34737e-05 -6.55223e-05 -2.27728e-05 7.71313e-05 -2.61726e-05 -5.17756e-05 2.89861e-06 9.10121e-05 8.16616e-05 -3.12494e-05 -3.66898e-05 -6.91142e-06 6.1365e-05 2.34578e-05 -5.62641e-05 -4.05397e-05 2.98403e-06 -6.78206e-05 -2.21242e-05 1.19497e-05 3.24707e-05
internal_weight=4201 1649 2552 1553 713 661 257 840 607 233 1098 1454 511 1404 771 183 394 335 1239 1039 404 213 158 720 305 131 415 258 165 107
internal_count=4201 1649 2552 1553 713 661 257 840 607 233 1098 1454 511 1404 771 183 394 335 1239 1039 404 213 158 720 305 131 415 258 165 107
is_linear=0
shrinkage=0.05


Tree=7
num_leaves=31
num_cat=0
split_feature=7 3 7 7 15 3 3 2 3 3 3 2 8 14 17 10 8 3 3 10 6 3 3 12 3 3 7 3 12 2
split_gain=0.00409925 0.000732168 0.000412719 0.000263173 0.000243433 0.000319509 0.000208625 0.000202585 0.000180681 0.00017527 0.000126563 0.000114921 8.12067e-05 7.49966e-05 7.37916e-05 7.32511e-05 6.20647e-05 6.11527e-05 0.000142422 5.12719e-05 4.85235e-05 7.12968e-05 0.000238432 4.91811e-05 4.0716e-05 4.06583e-05 4.17683e-05 5.09536e-05 5.17108e-05 5.29087e-05
threshold=0.48212999999999134 -0.006787019155209551 0.28531666666667671 0.64966666666666717 -0.00014101319224502082 -0.0036272162833454924 -0.0048832870275364818 -0.0016808391283933963 0.0018521864178903029 0.0040663981109239399 0.0033587658995963719 0.0018169138686826571 0.00043177869865440116 0.00089578932435054818 0.0006061121435164315 37.17874577223332 0.00042913122981816279 -0.0032364010404274334 -0.0011196073642183366 60.210451363367461 0.25198999999997801 -0.00060160206368976355 -0.0012744147110636023 -0.061615001467531981 0.0042489585563383926 0.0019077887605312598 0.9390866666666664 -0.0021278279082670723 -0.3576678824759118 -0.00036168066571057306
decision_type=2 2 2 2 2 2 2 2 2 2 2 2 2 2 2 2 2 2 2 2 2 2 2 2 2 2 2 2 2 2
left_child=2 -2 8 4 5 -3 -5 -7 14 11 12 15 -8 19 20 -4 -9 -6 -19 25 21 22 -1 -23 -20 26 27 -14 -29 -30
right_child=1 3 9 6 17 7 10 16 -10 -11 -12 -13 13 -15 -16 -17 -18 18 24 -21 -22 23 -24 -25 -26 -27 -28 28 29 -31
leaf_value=-5.7619608258112116e-05 0.00019604139705127943 -1.1635906725132373e-05 -1.38787933856081e-06 0.00017176514049060645 -4.0701989500495771e-05 0.0001911656700345206 3.5187027629420962e-05 0.00011001318530962068 -8.5604468001863204e-05 6.9417052145581692e-05 5.9843650619885205e-06 3.9463329361558756e-05 9.7025776291347759e-05 0.00012843642316511252 1.3007299168177771e-05 -3.3246507240837854e-05 3.2354829825635536e-05 9.6528698632027956e-05 2.8602419331214263e-07 2.967887938149065e-05 -7.5969062008543581e-05 -8.7003230955629926e-05 6.0899620069586308e-05 -4.1398328558416143e-05 4.8309145659361242e-05 0.00011990250801318324 0.0001055428100915465 1.3868709410431979e-05 9.8187298187570244e-05 4.2150761103301349e-05
leaf_weight=130 96 75 215 50 51 55 118 53 472 51 78 66 94 72 51 1122 50 50 328 58 135 98 63 149 51 55 84 61 77 93
leaf_count=130 96 75 215 50 51 55 118 53 472 51 78 66 94 72 51 1122 50 50 328 58 135 98 63 149 51 55 84 61 77 93
internal_value=5.94767e-07 6.20382e-05 -3.91075e-05 5.37547e-05 3.14138e-05 7.3347e-05 7.27179e-05 0.000113687 -6.22462e-05 -2.16342e-05 6.6449e-05 -2.4944e-05 7.3073e-05 8.05991e-05 -4.46342e-05 -2.81234e-05 7.2315e-05 1.10588e-05 1.72122e-05 7.40009e-05 -4.97467e-05 -4.17012e-05 -1.8932e-05 -5.94926e-05 6.74824e-06 7.95411e-05 7.41136e-05 6.59903e-05 5.33612e-05 6.7532e-05
internal_weight=4201 1649 2552 1553 713 233 840 158 1098 1454 790 1403 712 594 626 1337 103 480 429 522 575 440 193 247 379 464 409 325 231 170
internal_count=4201 1649 2552 1553 713 233 840 158 1098 1454 790 1403 712 594 626 1337 103 480 429 522 575 440 193 247 379 464 409 325 231 170
is_linear=0
shrinkage=0.05


Tree=8
num_leaves=31
num_cat=0
split_feature=7 3 7 7 13 3 3 3 11 12 3 13 17 8 11 3 10 11 7 10 10 3 3 3 3 7 12 12 3 17
split_gain=0.00369993 0.000665178 0.000363991 0.000245464 0.000335 0.000188285 0.000163466 0.000133198 0.000411917 0.00013287 0.000114223 9.6685e-05 7.54471e-05 7.38638e-05 6.14133e-05 5.45192e-05 6.08714e-05 5.2266e-05 5.21895e-05 7.56718e-05 8.2805e-05 7.36055e-05 4.7584e-05 4.18009e-05 0.000145315 6.48341e-05 4.5269e-05 3.26675e-05 7.61697e-05 2.90342e-05
threshold=0.48032000000000236 -0.006787019155209551 0.28531666666667671 0.64966666666666717 -0.18453393143872451 -0.0048832870275364818 0.0024613890403678736 -0.0037446706033652604 -0.32304179280242801 0.60196171752812011 0.0033587658995963719 -0.026760755429622404 0.00067960135378860502 0.00041696571279829857 0.022158490886056374 0.0033587658995963719 37.17874577223332 0.61175005754176948 1.0099566666666651 56.596361486936196 36.545475236231965 -0.0021278279082670723 0.0011797409243102062 -0.00020630603897901439 -0.0013019583691630621 0.23311999999999675 -0.061615001467531981 0.23796855349832549 0.0012384252685056795 0.00039825035346467387
decision_type=2 2 2 2 2 2 2 2 2 2 2 2 2 2 2 2 2 2 2 2 2 2 2 2 2 2 2 2 2 2
left_child=2 -2 6 4 -3 -5 12 -6 -9 15 13 14 23 -7 -10 16 29 18 19 20 -15 -22 -23 24 -1 -26 -25 -18 -29 -4
right_child=1 3 9 5 7 10 -8 8 11 -11 -12 -13 -14 17 -16 -17 27 -19 -20 -21 21 22 -24 26 25 -27 -28 28 -30 -31
leaf_value=-6.6625345789361751e-05 0.00018623932849853495 0.00015172795072850511 -1.2750431648617616e-05 0.00016317688359231399 -3.0591631551642172e-05 3.025993516080102e-05 -8.875737324964387e-05 0.00016680165108118674 9.1102667910389657e-05 5.604061885285908e-05 5.6851472226508825e-06 1.0926424277388755e-06 1.2198773159373862e-05 1.8586180369146117e-05 2.6977175910676226e-05 2.7353354707884139e-05 -3.3914372950571638e-05 0.00011344008206058924 0.00010893860636861064 2.5999998195950816e-05 0.00012819370913105861 5.6705291905775363e-05 0.00010887374056437692 -8.7573371930632068e-05 3.4449537195367354e-05 -3.6366571812950184e-05 -5.077490136781639e-05 2.9471971304571654e-05 -4.0774609510134367e-05 2.8499972522387016e-05
leaf_weight=174 96 52 154 50 109 103 327 50 54 54 78 343 51 55 121 50 965 81 75 102 75 161 60 116 73 58 299 70 86 59
leaf_count=174 96 52 154 50 109 103 327 50 54 54 78 343 51 55 121 50 965 81 75 102 75 161 60 116 73 58 299 70 86 59
internal_value=5.65029e-07 5.84756e-05 -3.74559e-05 5.06583e-05 2.94294e-05 6.9082e-05 -5.91339e-05 2.00357e-05 2.97511e-05 -2.09034e-05 6.31266e-05 1.65223e-05 -4.65698e-05 6.94193e-05 4.67645e-05 -2.39056e-05 -2.58268e-05 7.60423e-05 7.03052e-05 6.39089e-05 7.49252e-05 8.53936e-05 7.08687e-05 -5.07326e-05 -3.66795e-05 3.09584e-06 -6.10607e-05 -3.04826e-05 -9.25371e-06 -1.32426e-06
internal_weight=4201 1665 2536 1569 729 840 1098 677 568 1438 790 518 771 712 175 1384 1334 609 528 453 351 296 221 720 305 131 415 1121 156 213
internal_count=4201 1665 2536 1569 729 840 1098 677 568 1438 790 518 771 712 175 1384 1334 609 528 453 351 296 221 720 305 131 415 1121 156 213
is_linear=0
shrinkage=0.05


Tree=9
num_leaves=31
num_cat=0
split_feature=6 3 6 3 12 6 3 2 3 12 3 2 15 12 12 3 3 3 12 4 13 11 3 13 6 11 12 3 3 5
split_gain=0.00323696 0.000576027 0.000366729 0.000202853 0.000188848 0.000226869 0.000144172 0.000132059 0.000211974 0.000264949 0.000122265 8.66825e-05 8.5848e-05 7.43957e-05 8.41362e-05 7.28307e-05 6.04681e-05 0.00012729 5.29388e-05 6.20128e-05 5.27806e-05 4.958e-05 9.44535e-05 4.87757e-05 3.93788e-05 3.43009e-05 5.18617e-05 0.00013065 4.93145e-05 4.23842e-05
threshold=0.47800000000003146 -0.0079125463561515487 0.27988000000000285 0.0043628290792184186 0.93627171717014845 0.65299999999999736 0.0016771766094867675 -0.00013109733261218445 -0.0037446706033652604 -0.34992420324906515 -0.0048832870275364818 -0.001294323851554535 0.00054436826070658484 0.51894349358755287 0.30131771977756167 0.0011411237179987303 -0.0013019583691630621 -0.00053678116496903665 -0.076312814476112142 0.8904906000298175 -0.27615389616619163 -0.37664110530374723 -0.0022367034723030179 -0.015191629505109159 0.43200000000000505 0.57592030361792024 -0.40488472622547284 -0.0021278279082670723 -0.0013757135852947022 -0.066580975213936966
decision_type=2 2 2 2 2 2 2 2 2 2 2 2 2 2 2 2 2 2 2 2 2 2 2 2 2 2 2 2 2 2
left_child=2 -2 6 12 5 7 16 8 -3 -10 -7 -11 13 14 21 -16 -1 -18 -19 -20 -12 22 -4 -9 -23 26 27 -22 -28 -30
right_child=1 4 3 -5 -6 10 -8 23 9 11 20 -13 -14 -15 15 -17 17 18 19 -21 25 24 -24 -25 -26 -27 28 -29 29 -31
leaf_value=-6.3538227465848417e-05 0.00018612803012135883 -1.7401343121627565e-05 -3.4083924866105296e-05 7.852020135719356e-05 0.00013848277484267501 0.00013614439331235942 -7.4808007727665343e-05 3.9679286631970048e-05 0.00017615935308276675 8.6558053605465356e-05 0.0001010842444910094 1.9751541976819406e-05 4.2679434295232395e-05 -8.2641060510236548e-05 6.5541188407223675e-05 -1.7837578720487231e-05 1.7013563330241983e-05 -7.2650236950164422e-05 -5.0121788775045608e-05 9.1259714803099457e-06 0.00013706041230492433 -3.2120703006913375e-05 4.871206469933968e-05 -2.4222990149048964e-06 -5.666182998235551e-06 8.560006904639365e-05 8.2031760129389473e-06 3.4176494158365417e-05 3.7872214633488953e-05 7.8927625441127774e-05
leaf_weight=172 82 87 76 53 58 58 514 89 50 83 71 117 51 51 50 55 113 111 126 68 54 954 63 303 165 81 87 72 194 93
leaf_count=172 82 87 76 53 58 58 514 89 50 83 71 117 51 51 50 55 113 111 126 68 54 954 63 303 165 81 87 72 194 93
internal_value=5.36778e-07 5.7094e-05 -3.35226e-05 -1.75758e-05 5.0026e-05 4.64607e-05 -5.54496e-05 2.6868e-05 4.98199e-05 7.32129e-05 6.65776e-05 4.74762e-05 -2.10523e-05 -2.3351e-05 -2.11325e-05 2.18666e-05 -3.85847e-05 -2.83168e-05 -4.51113e-05 -2.93545e-05 6.03891e-05 -2.47215e-05 3.44232e-06 7.13648e-06 -2.82199e-05 5.54161e-05 5.05262e-05 7.82696e-05 4.11796e-05 5.11759e-05
internal_weight=4201 1579 2622 1518 1497 1439 1104 729 337 250 710 200 1465 1414 1363 105 590 418 305 194 652 1258 139 392 1119 581 500 126 374 287
internal_count=4201 1579 2622 1518 1497 1439 1104 729 337 250 710 200 1465 1414 1363 105 590 418 305 194 652 1258 139 392 1119 581 500 126 374 287
is_linear=0
shrinkage=0.05


Tree=10
num_leaves=31
num_cat=0
split_feature=7 3 6 3 3 7 12 7 14 12 10 7 8 3 3 7 3 3 4 7 3 1 5 12 7 8 12 8 12 4
split_gain=0.00309025 0.000671644 0.000268002 0.000246282 0.000138906 0.000324331 0.000311259 0.000293987 0.000123487 0.000112627 9.87443e-05 9.03983e-05 9.27281e-05 6.50455e-05 5.85308e-05 5.61413e-05 6.58662e-05 9.84736e-05 6.41258e-05 6.31417e-05 5.55784e-05 4.66982e-05 4.59138e-05 4.09076e-05 4.00222e-05 3.34092e-05 3.22063e-05 3.10502e-05 3.06111e-05 2.62857e-05
threshold=0.48212999999999134 -0.0079125463561515487 0.20899999999998045 -0.00025290752666672962 -0.0037446706033652604 0.63294333333334041 -0.37418183464568006 0.72730333333334263 0.00071815619345600129 0.37726248923347 37.17874577223332 0.60162333333332008 0.00050826866567353136 0.00037484713242890133 0.0033154889582185441 0.39232666666666399 -0.0012744147110636023 0.0014401073278417634 0.64259042834350155 0.26470999999999478 0.00021462284703056039 0.0016959291362219633 -0.24280173591192797 -0.28834685031674517 0.71872333333332883 0.00032247695496294182 0.15848914302813802 0.00015096141100375381 0.28487675533641937 0.63358258633165321
decision_type=2 2 2 2 2 2 2 2 2 2 2 2 2 2 2 2 2 2 2 2 2 2 2 2 2 2 2 2 2 2
left_child=2 -2 20 4 5 -3 7 -6 15 10 -8 13 -13 -5 21 16 23 18 -18 -20 27 24 -7 -4 -14 -19 -26 -1 -17 -12
right_child=1 3 8 11 6 22 9 -9 -10 -11 29 12 14 -15 -16 28 17 25 19 -21 -22 -23 -24 -25 26 -27 -28 -29 -30 -31
leaf_value=-5.2456286579591079e-05 0.00019128098745438497 -2.5323383558890403e-05 -1.3457294529621768e-05 5.7446883169893173e-05 0.00023258522685449734 0.00012865506818752692 0.00010351450525703051 8.5467063796126503e-05 5.2642673792433925e-05 0.00010691217832407513 5.0918755677252553e-06 1.0463254067165802e-05 4.99929829500714e-05 -1.9432682716126838e-06 1.398471375436062e-05 -1.8399618383174837e-05 -3.9352126557499667e-05 -5.2203872664083643e-05 3.3132398225857089e-05 -1.3678631087149841e-05 -7.1062935736120132e-05 3.0527972651753133e-05 6.6461181370258397e-05 -6.2858351358683766e-05 6.9275680477309432e-05 -1.1128794979193681e-05 0.00012034559444573186 -3.7775025994051249e-06 1.7428601870675782e-05 4.0512127764423926e-05
leaf_weight=95 84 114 51 55 57 50 53 84 50 88 82 164 74 285 65 541 177 338 92 332 472 66 73 235 58 58 66 50 67 145
leaf_count=95 84 114 51 55 57 50 53 84 50 88 82 164 74 285 65 541 177 338 92 332 472 66 73 235 58 58 66 50 67 145
internal_value=4.54584e-07 5.35141e-05 -3.40403e-05 4.61851e-05 6.70516e-05 3.54327e-05 8.17739e-05 0.00014494 -2.49156e-05 5.75716e-05 4.20645e-05 2.7498e-05 4.11767e-05 7.66396e-06 5.64867e-05 -2.69663e-05 -3.2897e-05 -2.68293e-05 -1.4074e-05 -3.52152e-06 -6.27454e-05 6.69512e-05 9.17432e-05 -5.40491e-05 7.90923e-05 -4.61878e-05 9.64581e-05 -3.56705e-05 -1.44514e-05 2.77171e-05
internal_weight=4221 1663 2558 1579 746 237 509 141 1941 368 280 833 493 340 329 1891 1283 997 601 424 617 264 123 286 198 396 124 145 608 227
internal_count=4221 1663 2558 1579 746 237 509 141 1941 368 280 833 493 340 329 1891 1283 997 601 424 617 264 123 286 198 396 124 145 608 227
is_linear=0
shrinkage=0.05


Tree=11
num_leaves=31
num_cat=0
split_feature=6 3 6 12 11 18 5 1 18 18 18 12 8 3 11 14 3 18 3 11 11 3 3 18 12 18 16 18 18 3
split_gain=0.00264668 0.000639568 0.000230287 0.000208643 0.000211389 0.000197237 0.000167176 0.000177585 0.000106055 9.96156e-05 9.97045e-05 9.61063e-05 7.97929e-05 7.69751e-05 7.46483e-05 6.62575e-05 0.000103174 5.88602e-05 8.70963e-05 0.000145607 6.80082e-05 6.70058e-05 8.50002e-05 6.08333e-05 0.000110581 0.00014987 5.34925e-05 5.32266e-05 5.80082e-05 5.1678e-05
threshold=0.45399999999998503 -0.0079125463561515487 0.20899999999998045 0.8954386383423516 -0.29239655104834122 307.50000000000006 -0.44390487486008839 3.9835230017826191e-05 48.500000000000007 204.50000000000003 84.500000000000014 0.41694156899080431 0.00079036385415454634 0.0040087624709699001 -0.41157946302286058 -0.00012008140641719856 -0.0036272162833454924 238.50000000000003 -0.0013019583691630621 -0.0032919875715151643 -0.076601707032068575 0.0015597555257258605 -0.0010099233862591332 144.50000000000003 -0.12607647857181323 197.50000000000003 0.0015724468344397201 108.50000000000001 26.500000000000004 0.0025748067634785848
decision_type=2 2 2 2 2 2 2 2 2 2 2 2 2 2 2 2 2 2 2 2 2 2 2 2 2 2 2 2 2 2
left_child=2 -2 29 4 6 12 7 -3 11 10 26 -4 15 14 -10 16 -6 18 -16 23 -19 22 -22 -20 -25 -26 -8 28 -14 -1
right_child=1 3 8 -5 5 -7 9 -9 13 -11 -12 -13 27 -15 17 -17 -18 20 19 -21 21 -23 -24 24 25 -27 -28 -29 -30 -31
leaf_value=-4.750373540591481e-05 0.00018171693605901446 0.00015611447937023031 4.8172342459750599e-05 0.00012302876945036027 -2.2723588983353696e-05 0.00011976932764466838 2.1302173300122937e-05 5.3908053079580627e-05 2.0055945094554774e-05 9.1526514858106917e-05 -1.4429190679204836e-05 -3.4625415093870017e-05 3.5596547781767045e-05 3.3254286907322238e-05 -6.5925590504952041e-05 7.1763679004933065e-06 6.0008056311893054e-05 -3.5662983500741539e-05 -3.2012927514727306e-05 -4.6007897907090587e-05 -8.2206428827464504e-06 -3.9064631140290127e-05 6.7199167551734726e-05 6.7157657975677965e-05 3.6167490182325477e-05 -7.483808386082687e-05 9.3371112624856121e-05 1.3379886630327573e-05 9.8920401110691301e-05 -7.6906990505549622e-05
leaf_weight=363 84 85 91 73 50 53 52 85 72 73 93 57 76 50 227 698 153 241 113 570 99 68 60 65 68 55 51 73 69 254
leaf_count=363 84 85 91 73 50 53 52 85 72 73 93 57 76 50 227 698 153 241 113 570 99 68 60 65 68 55 51 73 69 254
internal_value=4.31854e-07 4.70678e-05 -3.3181e-05 4.03514e-05 3.6605e-05 2.55201e-05 6.61984e-05 0.000105011 -2.43e-05 4.16697e-05 2.31006e-05 1.6284e-05 2.10561e-05 -2.78583e-05 -2.97238e-05 1.44885e-05 3.96308e-05 -3.20125e-05 -3.83411e-05 -3.1152e-05 -1.71647e-05 2.4745e-06 2.02397e-05 -3.01966e-06 1.44071e-05 -1.34691e-05 5.69868e-05 4.81999e-05 6.573e-05 -5.96082e-05
internal_weight=4221 1768 2453 1684 1611 1172 439 170 1836 269 196 148 1119 1688 1638 901 203 1566 1098 871 468 227 159 301 188 123 103 218 145 617
internal_count=4221 1768 2453 1684 1611 1172 439 170 1836 269 196 148 1119 1688 1638 901 203 1566 1098 871 468 227 159 301 188 123 103 218 145 617
is_linear=0
shrinkage=0.05


Tree=12
num_leaves=31
num_cat=0
split_feature=7 3 18 3 7 3 18 12 7 18 12 18 13 13 12 7 18 13 8 7 18 3 14 18 18 18 3 14 3 18
split_gain=0.00255558 0.000543848 0.000214027 0.000212912 0.000153161 0.000123851 0.00042892 0.000527283 0.000290138 0.000230313 0.000218519 0.000150551 0.000109978 9.60653e-05 0.00019533 7.57722e-05 8.36951e-05 0.00014966 7.31802e-05 7.7285e-05 6.804e-05 6.4738e-05 6.74576e-05 0.000114693 6.38831e-05 6.24281e-05 6.14619e-05 5.00161e-05 4.65351e-05 6.05343e-05
threshold=0.48212999999999134 -0.0079125463561515487 56.500000000000007 -0.00025290752666672962 0.20636333333333903 -0.0037446706033652604 199.50000000000003 -0.12825194697027101 0.62799333333332108 84.500000000000014 -0.38441847190045519 112.50000000000001 -0.17661216065304144 -0.088375267822840817 0.16183464232312708 0.60162333333332008 86.500000000000014 0.19998656716605182 0.00051423717361403153 0.8222333333333155 183.50000000000003 0.0040087624709699001 6.1587894183207816e-05 251.50000000000003 106.50000000000001 156.50000000000003 0.0002481074605285089 0.00020753032032155274 -0.0012744147110636023 264.50000000000006
decision_type=2 2 2 2 2 2 2 2 2 2 2 2 2 2 2 2 2 2 2 2 2 2 2 2 2 2 2 2 2 2
left_child=2 -2 13 5 26 8 9 -8 -3 10 -7 -10 -12 -1 -15 25 17 18 -17 -20 -18 22 28 24 -24 -5 -4 -25 -6 -30
right_child=1 3 4 15 21 6 7 -9 11 -11 12 -13 -14 14 -16 16 20 -19 19 -21 -22 -23 23 27 -26 -27 -28 -29 29 -31
leaf_value=-2.7856880163864249e-05 0.00017263109151004064 -2.6832581949471593e-05 -2.3864034788857681e-05 -6.5163295030260773e-06 -3.4506572793937774e-05 0.00016100092411111942 0.00027807073926013282 7.6431222853533032e-05 0.00013585964832765803 -1.1239208780697765e-05 0.00010419725187250974 2.5941571504394605e-05 2.3753259869813014e-05 -6.9583606347523655e-06 0.00012131022319283825 3.1636593623391362e-05 -2.7876077901092775e-05 8.2872783605125732e-07 0.00012383970791162344 5.333360515473085e-05 3.6769488563268373e-05 2.7801598524092701e-05 -1.8393522641305981e-05 -3.0108430015388874e-05 -5.9008891865403383e-05 4.170949358200707e-05 -6.7500517457663674e-05 3.8987611789542079e-05 -4.8479393887008494e-06 -4.0032035997646859e-05
leaf_weight=67 84 112 100 248 453 56 51 89 66 116 62 59 135 71 51 70 73 100 89 69 92 50 122 50 469 92 418 55 489 163
leaf_count=67 84 112 100 248 453 56 51 89 66 116 62 59 135 71 51 70 73 100 89 69 92 50 122 50 469 92 418 55 489 163
internal_value=4.10262e-07 4.86618e-05 -3.09589e-05 4.20668e-05 -3.5044e-05 6.14682e-05 7.53698e-05 0.000149886 3.1612e-05 4.70982e-05 7.38457e-05 8.39783e-05 4.90707e-05 2.02453e-05 4.66621e-05 2.46918e-05 3.72151e-05 5.18268e-05 7.41944e-05 9.30491e-05 8.16872e-06 -2.83185e-05 -2.98765e-05 -4.20694e-05 -5.06247e-05 6.53301e-06 -5.90765e-05 6.08473e-06 -2.21967e-05 -1.3644e-05
internal_weight=4221 1663 2558 1579 2369 746 509 140 237 369 253 125 197 189 122 833 493 328 228 158 165 1851 1801 696 591 340 518 105 1105 652
internal_count=4221 1663 2558 1579 2369 746 509 140 237 369 253 125 197 189 122 833 493 328 228 158 165 1851 1801 696 591 340 518 105 1105 652
is_linear=0
shrinkage=0.05


Tree=13
num_leaves=31
num_cat=0
split_feature=7 3 18 18 14 2 7 3 18 18 18 13 2 12 18 7 7 3 7 18 3 12 18 3 12 18 18 13 18 18
split_gain=0.00230641 0.000490823 0.000194363 0.000192343 0.000221626 0.000152717 0.000140379 0.000139368 0.00059728 0.000338121 0.000200138 0.00010235 0.000110722 8.72459e-05 0.00014364 7.80484e-05 8.9227e-05 5.96437e-05 5.87882e-05 5.46089e-05 4.5713e-05 4.501e-05 8.37137e-05 8.38001e-05 0.000130247 6.5063e-05 5.94493e-05 5.68686e-05 4.35437e-05 3.99156e-05
threshold=0.48212999999999134 -0.0079125463561515487 52.500000000000007 304.50000000000006 -0.00011566934410368937 0.0010468611577155731 0.2079799999999902 -0.0037446706033652604 180.50000000000003 84.500000000000014 112.50000000000001 0.074744545551956379 -0.0020848378357268267 0.7324305152744347 40.500000000000007 0.71064666666667342 0.78448333333332521 0.0002481074605285089 0.39232666666666399 156.50000000000003 -0.0017500291667673343 -0.19120734800155317 231.50000000000003 0.0005228124876747014 -0.018862063621320837 276.50000000000006 116.50000000000001 0.047742708367107277 280.50000000000006 24.500000000000004
decision_type=2 2 2 2 2 2 2 2 2 2 2 2 2 2 2 2 2 2 2 2 2 2 2 2 2 2 2 2 2 2
left_child=2 -2 5 4 7 -1 17 10 9 11 -3 12 -9 15 -15 19 -17 -4 21 29 -21 25 23 -23 -25 -8 -26 -24 -22 -6
right_child=1 3 6 -5 13 -7 18 8 -10 -11 -12 -13 -14 14 -16 16 -18 -19 -20 20 28 22 27 24 26 -27 -28 -29 -30 -31
leaf_value=-8.6107523247101508e-06 0.00016399953230299098 8.0829340376652029e-05 -2.1930736374564558e-05 0.00013548333228808427 3.2895187024013676e-05 9.4421177053328727e-05 2.0504191153097256e-05 0.00010206148267619723 0.00020637234044181539 -2.4851624444661899e-05 -2.2723991178415473e-05 0.0001420674184787045 2.3588034219891984e-05 0.00010947159013513181 3.3305613760603596e-06 7.6414631845917496e-05 1.6137543215115384e-05 -6.3974325583634103e-05 -1.3249228410977435e-05 -1.2900337885814504e-05 6.786506057498428e-05 -6.6225810564901627e-05 -2.5409781182860071e-05 2.9531412666175231e-05 -1.3383772906446927e-05 -4.2325215368141234e-05 -5.6882051174608884e-05 2.7446440936564314e-05 8.3236948928558541e-06 -1.4603726248964991e-05
leaf_weight=122 84 86 105 51 52 51 90 93 73 107 102 55 87 68 60 94 177 429 570 52 73 300 307 72 112 76 263 61 53 296
leaf_count=122 84 86 105 51 52 51 90 93 73 107 102 55 87 68 60 94 177 429 570 52 73 300 307 72 112 76 263 61 53 296
internal_value=3.89748e-07 4.62287e-05 -2.94109e-05 3.99635e-05 3.67753e-05 2.17628e-05 -3.31229e-05 6.03601e-05 7.65389e-05 4.88259e-05 2.46461e-05 8.23727e-05 6.41326e-05 2.14006e-05 5.9718e-05 1.52467e-05 3.70455e-05 -5.57073e-05 -2.66075e-05 4.01584e-06 2.65421e-05 -3.25514e-05 -3.61677e-05 -4.57837e-05 -3.20642e-05 -8.26108e-06 -4.38906e-05 -1.66483e-05 4.28199e-05 -7.50619e-06
internal_weight=4221 1663 2558 1579 1528 173 2385 603 415 342 188 235 180 925 128 797 271 534 1851 526 178 1281 1115 747 447 166 375 368 126 348
internal_count=4221 1663 2558 1579 1528 173 2385 603 415 342 188 235 180 925 128 797 271 534 1851 526 178 1281 1115 747 447 166 375 368 126 348
is_linear=0
shrinkage=0.05


Tree=14
num_leaves=31
num_cat=0
split_feature=7 3 3 18 2 7 18 3 12 18 13 7 12 2 7 8 18 13 3 7 3 7 18 7 7 10 3 12 18 18
split_gain=0.00208153 0.000442968 0.000181262 0.000175412 0.000137827 0.000126692 0.000105258 0.000412967 0.000433692 0.000221765 0.000205725 0.000143797 7.83973e-05 8.9743e-05 6.25854e-05 7.14368e-05 9.4553e-05 0.000107045 5.8882e-05 5.39224e-05 5.38285e-05 5.30564e-05 4.75102e-05 4.71377e-05 4.64772e-05 4.60958e-05 4.31347e-05 6.71361e-05 6.15147e-05 5.83937e-05
threshold=0.48212999999999134 -0.0079125463561515487 -0.00025290752666672962 52.500000000000007 0.0010468611577155731 0.2079799999999902 199.50000000000003 -0.0036272162833454924 -0.12825194697027101 112.50000000000001 0.087838221480564915 0.92708000000000468 -0.30197616780842257 -0.0003712655212655957 0.60162333333332008 0.00050826866567353136 84.500000000000014 0.084190050659141161 0.00037484713242890133 0.72428666666667152 0.0002481074605285089 0.39232666666666399 94.500000000000014 0.78448333333332521 0.5970833333333494 56.002488460210195 -0.0012744147110636023 0.14059286322221107 116.50000000000001 156.50000000000003
decision_type=2 2 2 2 2 2 2 2 2 2 2 2 2 2 2 2 2 2 2 2 2 2 2 2 2 2 2 2 2 2
left_child=3 -2 6 4 -1 20 9 24 -9 10 11 12 19 -14 18 -16 17 23 -4 -3 -5 26 25 -17 -8 -20 -7 29 -29 -28
right_child=1 2 14 5 -6 21 7 8 -10 -11 -12 -13 13 -15 15 16 -18 -19 22 -21 -22 -23 -24 -25 -26 -27 27 28 -30 -31
leaf_value=-8.1802140970631012e-06 0.00015579955711040211 -3.2927548672887497e-05 5.2796025970151689e-05 -2.0834199434223897e-05 8.9700117597007488e-05 -4.7372068821747048e-05 -2.077006243748576e-05 0.00025810225968598389 7.252152030345957e-05 -1.8191037691335427e-05 0.00013403492701801549 0.00012037414807127791 8.1664318531937923e-05 -1.3994922919664534e-06 6.3573809896064543e-06 0.00012662682200103656 8.9318100219770716e-06 2.7965762935516728e-05 1.7299291117524264e-05 3.5383246134957661e-05 -6.0775609598472009e-05 -1.2586766942380917e-05 1.8739278619941336e-05 6.3093624297629123e-05 4.4597785500417769e-05 -4.0941201895859778e-05 -4.3293239608513064e-05 -8.8442621242595322e-06 -5.7288687824729557e-05 -8.0134347787706483e-06
leaf_weight=122 84 65 55 105 51 304 57 50 85 115 77 50 93 50 164 65 110 101 50 52 429 570 129 53 52 106 154 90 241 492
leaf_count=122 84 65 55 105 51 304 57 50 85 115 77 50 93 50 164 65 110 101 50 52 429 570 129 53 52 106 154 90 241 492
internal_value=3.70261e-07 4.39172e-05 3.79653e-05 -2.79404e-05 2.06747e-05 -3.14668e-05 5.58666e-05 8.28059e-05 0.000141255 4.27727e-05 6.08885e-05 4.27198e-05 2.77863e-05 5.2621e-05 2.19336e-05 3.33151e-05 4.6753e-05 6.575e-05 5.43043e-06 -2.5672e-06 -5.2922e-05 -2.52771e-05 -3.7103e-06 9.80907e-05 1.04146e-05 -2.22744e-05 -3.09238e-05 -2.58059e-05 -4.41165e-05 -1.64238e-05
internal_weight=4221 1663 1579 2558 173 2385 746 244 135 502 387 310 260 143 833 493 329 219 340 117 534 1851 285 118 109 156 1281 977 331 646
internal_count=4221 1663 1579 2558 173 2385 746 244 135 502 387 310 260 143 833 493 329 219 340 117 534 1851 285 118 109 156 1281 977 331 646
is_linear=0
shrinkage=0.05


Tree=15
num_leaves=31
num_cat=0
split_feature=7 3 7 3 3 12 14 15 18 13 14 7 18 10 18 13 18 3 3 18 7 7 3 18 6 13 7 4 14 13
split_gain=0.00206091 0.000489264 0.000170702 0.000149313 0.000143974 0.000100552 0.000207899 0.000117739 0.00010017 0.000105907 8.7408e-05 8.56729e-05 7.86872e-05 8.30768e-05 8.462e-05 7.18391e-05 6.74339e-05 6.17327e-05 9.45509e-05 0.000156283 7.18374e-05 5.62297e-05 5.55672e-05 5.3837e-05 0.00010937 0.00010555 7.24782e-05 5.11941e-05 5.27337e-05 4.97472e-05
threshold=0.49258666666667072 -0.0079125463561515487 0.2079799999999902 -0.00025290752666672962 0.0041618897453827809 -0.36661352058852903 -0.0006946546120116967 0.00013196267426307531 272.50000000000006 -0.16370778942610933 0.00062419972424181331 0.80295666666666354 58.500000000000007 37.17874577223332 228.50000000000003 -0.026760755429622404 112.50000000000001 0.00057273946918194618 -0.0013019583691630621 277.50000000000006 0.27995666666666169 0.30452666666666733 -0.0012004814194627132 74.500000000000014 0.53397999999998558 -0.079647183922591444 0.63928000000001561 0.4499759451990219 0.00012461055468923125 0.2100622212985935
decision_type=2 2 2 2 2 2 2 2 2 2 2 2 2 2 2 2 2 2 2 2 2 2 2 2 2 2 2 2 2 2
left_child=2 -2 -1 5 12 6 11 -8 9 -7 16 -3 27 15 21 -14 22 18 20 -20 -16 -15 -11 24 -5 -26 -27 -4 -29 -28
right_child=1 3 4 23 -6 8 7 -9 -10 10 -12 -13 13 14 17 -17 -18 -19 19 -21 -22 -23 -24 -25 25 26 29 28 -30 -31
leaf_value=-5.2027687941154673e-05 0.00016246310689374305 1.3942200686008284e-05 -3.483824729161055e-05 -1.2664970910868257e-05 6.3195807480951767e-05 7.752618492304464e-05 0.00018776188284951229 8.0841236374052487e-05 0.00010115331187691601 7.3763887983659522e-05 7.4749391754729715e-05 9.3776009299080431e-05 -1.3588150182139869e-05 -5.4405310215365533e-05 -6.6792694633477373e-05 4.9456932665953795e-05 -1.7855516912908054e-05 -3.6477490874924262e-05 0.0001012931187428876 -9.4046584267330643e-06 -2.3219715898503776e-06 -3.0045643719252742e-05 6.0697994492577647e-06 9.3286793415359174e-06 0.00011075994013543974 -1.7286733728884857e-05 6.8344991875816542e-05 -9.5474004530505028e-06 5.1543906340013664e-05 1.6319892592441143e-05
leaf_weight=546 84 95 52 90 50 100 52 51 61 50 57 52 218 365 64 57 137 194 50 88 133 675 77 370 58 51 127 66 76 72
leaf_count=546 84 95 52 90 50 100 52 51 61 50 57 52 218 365 64 57 137 194 50 88 133 675 77 370 58 51 127 66 76 72
internal_value=-3.32795e-08 4.50356e-05 -2.71362e-05 3.84597e-05 -2.06272e-05 5.46181e-05 8.03495e-05 0.000134821 4.12719e-05 3.25955e-05 1.85984e-05 4.21827e-05 -2.26837e-05 -2.58704e-05 -3.03135e-05 -5.20624e-07 6.47486e-06 -1.40324e-05 -1.03435e-06 3.07032e-05 -2.32668e-05 -3.85949e-05 3.2721e-05 2.30587e-05 3.58227e-05 4.99912e-05 3.58929e-05 7.60629e-06 2.31494e-05 4.95218e-05
internal_weight=4218 1584 2634 1500 2088 732 250 103 482 421 321 147 2038 1844 1569 275 264 529 335 138 197 1040 127 768 398 308 250 194 142 199
internal_count=4218 1584 2634 1500 2088 732 250 103 482 421 321 147 2038 1844 1569 275 264 529 335 138 197 1040 127 768 398 308 250 194 142 199
is_linear=0
shrinkage=0.05


Tree=16
num_leaves=31
num_cat=0
split_feature=7 3 7 18 14 3 18 18 3 18 10 5 18 10 18 11 7 18 13 3 3 18 7 7 7 3 18 3 4 7
split_gain=0.00185997 0.00044156 0.000154059 0.000140097 0.000151248 0.000129936 0.000122084 0.00011978 0.000413843 0.000149052 0.000125329 0.000112456 7.10152e-05 7.49768e-05 7.63695e-05 6.81266e-05 0.000112936 0.000109617 6.48348e-05 5.57137e-05 8.53321e-05 0.000141045 6.48332e-05 5.41502e-05 5.07473e-05 4.94403e-05 4.90608e-05 4.76134e-05 4.62027e-05 5.15234e-05
threshold=0.49258666666667072 -0.0079125463561515487 0.2079799999999902 299.50000000000006 8.0918293942211148e-05 0.0041618897453827809 76.500000000000014 180.50000000000003 -0.0036272162833454924 112.50000000000001 40.658023025866193 -0.87033248076292613 58.500000000000007 37.17874577223332 228.50000000000003 0.69164484273778737 1.0377033333333432 42.500000000000007 -0.026760755429622404 0.00057273946918194618 -0.0013019583691630621 277.50000000000006 0.27995666666666169 0.98554999999998938 0.30452666666666733 -0.0018926485526995216 28.500000000000004 0.0002481074605285089 0.4499759451990219 0.40586999999998935
decision_type=2 2 2 2 2 2 2 2 2 2 2 2 2 2 2 2 2 2 2 2 2 2 2 2 2 2 2 2 2 2
left_child=2 -2 27 4 6 12 11 9 -9 10 -8 -3 28 18 24 -6 17 -17 -14 20 22 -22 -16 26 -15 -26 -13 -1 -4 -30
right_child=1 3 5 -5 15 -7 7 8 -10 -11 -12 23 13 14 19 16 -18 -19 -20 -21 21 -23 -24 -25 25 -27 -28 -29 29 -31
leaf_value=-1.9166732492435372e-05 0.00015433995038598543 0.00013819054704526936 -3.3096335622618567e-05 0.0001156092942370311 9.1885168635162328e-06 6.0036016774574818e-05 -5.2171438137125029e-06 -1.7730945340060445e-05 0.00015131011109830676 -2.7048058445507195e-05 8.3926557462632448e-05 5.2609654283193836e-06 -1.290874272545398e-05 -5.1685044764245469e-05 -6.3453060283791282e-05 0.00012923238140430447 -1.2125085280516672e-05 2.6065423298859969e-05 4.6984085942344871e-05 -3.4653616419689701e-05 9.6228463591614859e-05 -8.9344254426425678e-06 -2.2058726641344244e-06 0.00010522316265540249 -6.4933130151319609e-05 -2.3511386837436025e-05 6.2651930893414416e-05 -5.6630963916923851e-05 -9.0142132648907145e-07 6.1614921245423977e-05
leaf_weight=105 84 56 52 54 562 50 69 70 75 125 92 51 218 365 64 51 54 52 57 194 50 88 133 51 82 593 138 441 90 52
leaf_count=105 84 56 52 54 562 50 69 70 75 125 92 51 218 365 64 51 54 52 57 194 50 88 133 51 82 593 138 441 90 52
internal_value=-3.16157e-08 4.27838e-05 -2.57794e-05 3.65367e-05 3.35838e-05 -1.95959e-05 4.96653e-05 3.26853e-05 6.97041e-05 1.3917e-05 4.57221e-05 7.43896e-05 -2.15495e-05 -2.45769e-05 -2.87978e-05 1.73233e-05 4.64427e-05 7.71481e-05 -4.94593e-07 -1.33308e-05 -9.82636e-07 2.91681e-05 -2.21034e-05 5.95027e-05 -3.66652e-05 -2.85434e-05 4.71655e-05 -4.94263e-05 7.22597e-06 2.19919e-05
internal_weight=4218 1584 2634 1500 1446 2088 727 431 145 286 161 296 2038 1844 1569 719 157 103 275 529 335 138 197 240 1040 675 189 546 194 142
internal_count=4218 1584 2634 1500 1446 2088 727 431 145 286 161 296 2038 1844 1569 719 157 103 275 529 335 138 197 240 1040 675 189 546 194 142
is_linear=0
shrinkage=0.05


Tree=17
num_leaves=31
num_cat=0
split_feature=7 3 7 3 3 13 18 2 3 7 13 9 18 13 7 18 10 18 3 13 18 3 3 18 7 7 13 7 2 3
split_gain=0.00167863 0.000398508 0.000139038 0.000130838 0.000117267 8.76858e-05 0.00018451 0.000114193 0.000133807 0.00033133 7.85176e-05 6.87103e-05 7.42216e-05 8.37515e-05 0.000100432 6.40912e-05 6.76666e-05 6.89235e-05 6.32503e-05 5.85134e-05 5.30461e-05 5.02817e-05 7.76249e-05 0.000169077 7.27217e-05 4.57995e-05 4.53568e-05 5.23603e-05 4.52154e-05 4.46199e-05
threshold=0.49258666666667072 -0.0079125463561515487 0.2079799999999902 -0.00025290752666672962 0.0041618897453827809 0.087838221480564915 106.50000000000001 -0.0002267953796138977 -0.0037446706033652604 0.57333333333333114 -0.21377879413101367 0.092106075287234204 74.500000000000014 -0.079647183922591444 0.63928000000001561 58.500000000000007 37.17874577223332 228.50000000000003 -0.0029474659812239626 -0.026760755429622404 222.50000000000003 0.00057273946918194618 -0.0014042504049395002 268.50000000000006 0.27995666666666169 0.30452666666666733 0.19076753654309628 0.8222333333333155 0.00086932967751973688 -0.0018926485526995216
decision_type=2 2 2 2 2 2 2 2 2 2 2 2 2 2 2 2 2 2 2 2 2 2 2 2 2 2 2 2 2 2
left_child=2 -2 -1 5 15 7 -7 8 10 -10 -3 -5 13 -13 -15 28 19 25 -8 -17 -9 22 24 -24 -19 -18 27 -16 -4 -27
right_child=1 3 4 11 -6 6 18 20 9 -11 -12 12 -14 14 26 16 17 21 -20 -21 -22 -23 23 -25 -26 29 -28 -29 -30 -31
leaf_value=-4.6954989184186972e-05 0.0001466229571655103 7.1352171541066661e-05 -1.0269934476360336e-05 -1.9275351581408512e-05 5.7034216260944966e-05 0.00014508669358105289 -1.4313737810880413e-06 -1.466965050977623e-05 0.00017919886008936286 4.3974971226454982e-05 -3.4911571063389603e-06 9.4088047868960231e-05 8.6214428312704417e-06 -1.7153241530536433e-05 9.9178642290898017e-05 -1.2263305243823613e-05 -4.910079253927382e-05 -7.0335022974177272e-05 7.8098699013935409e-05 4.4634881417375278e-05 4.5840093955323232e-05 -3.292093592696717e-05 9.9686017518465893e-05 -1.1997159967589565e-05 -1.9388704451672297e-06 -6.1686473560346311e-05 1.9020565878955623e-05 3.522048826027913e-05 4.0870281109863963e-05 -2.2335817246105013e-05
leaf_weight=546 84 51 129 96 50 68 50 110 61 176 112 63 322 80 64 218 365 56 50 57 54 194 51 101 127 82 79 64 65 593
leaf_count=546 84 51 129 96 50 68 50 110 61 176 112 63 322 80 64 218 365 56 50 57 54 194 51 101 127 82 79 64 65 593
internal_value=-3.00348e-08 4.06446e-05 -2.44904e-05 3.47098e-05 -1.86161e-05 4.98356e-05 8.15432e-05 4.03907e-05 5.47967e-05 7.87794e-05 1.99261e-05 2.02931e-05 2.59458e-05 4.18842e-05 3.04248e-05 -2.04721e-05 -2.33481e-05 -2.73579e-05 3.83337e-05 -4.69863e-07 5.25429e-06 -1.26642e-05 -9.33505e-07 2.54755e-05 -2.28688e-05 -3.48319e-05 4.88124e-05 6.71996e-05 6.86467e-06 -2.71162e-05
internal_weight=4218 1584 2634 1500 2088 732 168 564 400 237 163 768 672 350 287 2038 1844 1569 100 275 164 529 335 152 183 1040 207 128 194 675
internal_count=4218 1584 2634 1500 2088 732 168 564 400 237 163 768 672 350 287 2038 1844 1569 100 275 164 529 335 152 183 1040 207 128 194 675
is_linear=0
shrinkage=0.05


Tree=18
num_leaves=31
num_cat=0
split_feature=7 3 18 14 7 18 3 18 3 18 3 5 12 6 3 9 12 18 18 3 3 18 12 18 7 7 18 7 12 3
split_gain=0.00151496 0.000359654 0.000128753 0.000127713 0.000125482 0.00010587 0.000105834 0.000101622 0.00036179 0.000129615 0.000103676 9.88082e-05 7.80511e-05 6.50289e-05 6.0548e-05 8.04942e-05 8.91706e-05 5.78423e-05 5.93002e-05 6.20629e-05 6.35675e-05 0.0001418 9.50862e-05 0.000130882 0.000121708 7.37234e-05 5.56548e-05 5.27146e-05 4.86466e-05 4.29711e-05
threshold=0.49258666666667072 -0.0079125463561515487 298.50000000000006 8.0918293942211148e-05 0.2079799999999902 76.500000000000014 0.0041618897453827809 180.50000000000003 -0.0036272162833454924 112.50000000000001 -0.0030548071882257645 -0.87033248076292613 0.30131771977756167 0.65299999999999736 0.0038922972030706153 0.24777623202729107 0.8330789543323458 58.500000000000007 165.50000000000003 0.0013953490176360432 -0.0013019583691630621 269.50000000000006 -0.15048836906075422 234.50000000000003 0.30452666666666733 0.34870000000000051 162.50000000000003 0.6444099999999936 -0.39043531232116363 0.0002481074605285089
decision_type=2 2 2 2 2 2 2 2 2 2 2 2 2 2 2 2 2 2 2 2 2 2 2 2 2 2 2 2 2 2
left_child=4 -2 3 5 29 11 17 9 -9 10 -7 -3 -5 -13 15 16 26 -6 -19 20 25 22 -22 24 -24 -20 27 -14 -15 -1
right_child=1 2 -4 12 6 7 -8 8 -10 -11 -12 13 14 28 -16 -17 -18 18 19 -21 21 -23 23 -25 -26 -27 -28 -29 -30 -31
leaf_value=-1.58606463273394e-05 0.0001392918046414187 0.00012767234207525948 0.00010667979291100526 -4.2325342358946357e-06 6.5214402944857469e-06 9.1488762390081474e-05 5.4182504918571794e-05 -2.0113004520079117e-05 0.00013913759933590578 -2.6413587743445532e-05 9.2761322961525052e-06 1.2091888903111128e-05 -4.0510742667265735e-05 0.00010006445717839309 -1.3247719918061714e-05 8.7414741475103335e-05 7.6342973190901897e-05 -3.364321491361417e-05 -4.5577461682253674e-05 -3.4059599249938774e-05 9.0603945061636356e-05 -2.972224388386735e-05 -5.6062632410127358e-05 7.424994418978449e-05 3.9042496486158077e-05 -3.0099675776667593e-06 5.0552645565343871e-05 1.9127653017037005e-05 4.6641671324604687e-05 -5.1451665587490206e-05
leaf_weight=105 84 56 57 302 194 63 50 68 75 125 98 67 64 76 70 66 67 700 183 315 51 168 75 62 61 229 61 88 97 441
leaf_count=105 84 56 57 302 194 63 50 68 75 125 98 67 64 76 70 66 67 700 183 315 51 168 75 62 61 229 61 88 97 441
internal_value=-2.8533e-08 3.86124e-05 3.29744e-05 3.00629e-05 -2.32659e-05 4.48658e-05 -1.76853e-05 2.89948e-05 6.341e-05 1.17873e-05 4.14463e-05 6.78681e-05 1.51157e-05 5.39137e-05 2.91617e-05 3.77416e-05 2.6033e-05 -1.94485e-05 -2.21807e-05 -1.51668e-05 -7.98806e-06 5.77423e-06 2.97237e-05 1.40424e-05 -1.34052e-05 -2.19174e-05 1.02078e-05 -5.98325e-06 7.01106e-05 -4.46072e-05
internal_weight=4218 1584 1500 1443 2634 725 2088 429 143 286 161 296 718 240 416 346 280 2038 1844 1144 829 417 249 198 136 412 213 152 173 546
internal_count=4218 1584 1500 1443 2634 725 2088 429 143 286 161 296 718 240 416 346 280 2038 1844 1144 829 417 249 198 136 412 213 152 173 546
is_linear=0
shrinkage=0.05


Tree=19
num_leaves=31
num_cat=0
split_feature=7 3 7 3 3 13 2 3 7 10 13 9 12 10 13 2 7 3 13 12 12 7 3 3 7 16 3 7 3 7
split_gain=0.00136725 0.000324587 0.000113247 0.000108967 9.55151e-05 7.88751e-05 0.000100869 0.000117172 0.000288401 8.78473e-05 6.6737e-05 5.97729e-05 5.81546e-05 4.89853e-05 6.01953e-05 4.7999e-05 3.9989e-05 4.8246e-05 4.6485e-05 4.42841e-05 4.45341e-05 3.91024e-05 3.87814e-05 3.36413e-05 3.83737e-05 3.0149e-05 2.67222e-05 3.16343e-05 5.85773e-05 2.85038e-05
threshold=0.49258666666667072 -0.0079125463561515487 0.2079799999999902 -0.00025290752666672962 0.0041618897453827809 0.087838221480564915 -0.0002267953796138977 -0.0037446706033652604 0.57333333333333114 48.661127739804556 -0.21377879413101367 0.092106075287234204 0.072890697543173538 36.934245267782465 -0.025741153761202704 0.0021050825803009547 0.67999333333332679 0.0033587658995963719 0.022228553567149981 0.36067659461517571 0.014190759402934796 0.73043666666668139 0.0002481074605285089 0.00059471124502146085 0.78448333333332521 0.0013457083566688613 -0.0013019583691630621 0.22550666666666835 0.00093761005636861427 0.27995666666666169
decision_type=2 2 2 2 2 2 2 2 2 2 2 2 2 2 2 2 2 2 2 2 2 2 2 2 2 2 2 2 2 2
left_child=2 -2 22 5 13 6 7 10 -9 -7 -3 -5 -8 14 -4 -11 18 23 19 20 -13 -10 -1 -18 -25 26 29 28 -28 -15
right_child=1 3 4 11 -6 9 12 8 21 15 -12 16 -14 25 -16 -17 17 -19 -20 -21 -22 -23 -24 24 -26 -27 27 -29 -30 -31
leaf_value=-1.5067613719674273e-05 0.00013232721344788194 6.4491442333069156e-05 -9.8615576027204167e-06 -1.8736542773467591e-05 5.1473379730850869e-05 0.0001299649029176947 -3.2676685034165356e-05 0.00016584201698531645 1.5845176743949136e-05 2.218736419692391e-05 -4.509200133690732e-06 4.9312567873629656e-05 2.7893730385613642e-05 -5.8736917913926815e-05 5.0669922506131122e-05 8.652290730338483e-05 1.476017197520003e-05 -3.8389769044090738e-06 -8.4220244423681548e-06 6.6608185793652581e-05 -1.0476537155650336e-05 6.2983408174097376e-05 -4.8879082952430045e-05 8.0155694361523785e-05 3.5946724480672365e-05 1.6311942982058243e-05 4.6125453809509058e-05 -2.1675215000333582e-05 -2.8332101006916287e-05 -2.6600560192946433e-05
leaf_weight=105 84 51 230 96 50 51 67 61 87 64 112 51 97 92 50 53 68 62 158 54 80 89 441 88 111 51 50 1233 56 276
leaf_count=105 84 51 230 96 50 51 67 61 87 64 112 51 97 92 50 53 68 62 158 54 80 89 441 88 111 51 50 1233 56 276
internal_value=-2.71065e-08 3.66818e-05 -2.21026e-05 3.13256e-05 -1.6801e-05 4.51294e-05 3.61716e-05 4.97111e-05 7.21537e-05 7.52019e-05 1.708e-05 1.81689e-05 3.1485e-06 -1.8476e-05 9.47635e-07 5.13308e-05 2.34411e-05 3.5895e-05 1.14956e-05 2.85063e-05 1.28001e-05 3.96821e-05 -4.23769e-05 4.51216e-05 5.54964e-05 -2.15697e-05 -2.27015e-05 -1.94219e-05 6.78939e-06 -3.46346e-05
internal_weight=4218 1584 2634 1500 2088 732 564 400 237 168 163 768 164 2038 280 117 672 329 343 185 131 176 546 267 199 1758 1707 1339 106 368
internal_count=4218 1584 2634 1500 2088 732 564 400 237 168 163 768 164 2038 280 117 672 329 343 185 131 176 546 267 199 1758 1707 1339 106 368
is_linear=0
shrinkage=0.05


Tree=20
num_leaves=31
num_cat=0
split_feature=7 3 12 10 18 12 3 11 7 7 2 11 3 3 3 12 3 10 18 18 18 7 3 11 3 15 3 3 18 12
split_gain=0.00109466 0.000240348 0.000175425 0.000148267 0.000118356 0.000133495 0.000156807 0.000367749 0.000109823 0.00010005 6.94757e-05 8.92349e-05 8.6288e-05 6.14951e-05 5.27565e-05 0.000101496 4.47268e-05 4.44897e-05 5.87374e-05 0.000103599 4.61646e-05 4.99504e-05 4.04379e-05 5.15716e-05 5.04155e-05 4.56986e-05 3.5001e-05 5.98659e-05 9.27152e-05 3.96313e-05
threshold=0.49809000000000581 -0.005593913180806309 0.60196171752812011 38.84318262047131 300.50000000000006 -0.36661352058852903 -0.0017117401220644211 -0.64675006131790258 0.78009666666665323 0.28843333333333782 -0.0020848378357268267 -0.25734232188983691 -0.0015636248546058494 0.002435437317838672 0.0034997575106341214 0.62408581598822221 0.0035590741496859405 37.17874577223332 179.50000000000003 209.50000000000003 48.500000000000007 0.39083666666666667 0.001719369548295361 0.0030721421618409299 -0.0020415258467774097 0.00049589029293772857 -0.0014042504049395002 -0.00053678116496903665 261.50000000000006 -0.064269254567117698
decision_type=2 2 2 2 2 2 2 2 2 2 2 2 2 2 2 2 2 2 2 2 2 2 2 2 2 2 2 2 2 2
left_child=2 3 9 -2 5 6 7 -3 -8 13 12 -12 -7 26 15 22 17 18 -11 -20 21 -19 23 24 -13 -24 -1 28 -28 -29
right_child=1 4 -4 -5 -6 10 8 -9 -10 16 11 14 -14 -15 -16 -17 -18 20 19 -21 -22 -23 25 -25 -26 -27 27 29 -30 -31
leaf_value=-4.7105047479788253e-05 4.7920882738445046e-05 1.2735675684118841e-05 7.1486139837789405e-05 0.00015165519111582802 0.00010012913360417142 7.1505238918011779e-06 -4.1543740485394666e-05 0.00015944684202118682 6.0407101205782964e-05 -2.7629096563540898e-05 -5.3677779082136113e-05 -5.8157065073568711e-06 9.7438886634997542e-05 -5.1399874025278165e-05 -1.5001108947743092e-05 6.5169001116476648e-05 3.050704485303868e-05 4.8148453136406036e-05 8.103808894007028e-05 -5.8241104757360605e-06 -2.2670192594432174e-05 -1.6721831034623367e-05 5.3109384601735987e-05 -3.1095719325611374e-06 5.4481351746069997e-05 -2.0533819756046634e-06 4.8956432250893814e-05 -5.155878189524615e-05 -3.2135344757297786e-05 -1.9945012029186742e-05
leaf_weight=155 76 88 51 63 52 51 56 83 50 93 50 56 55 335 128 106 55 50 51 105 1087 73 110 401 91 57 70 138 71 352
leaf_count=155 76 88 51 63 52 51 56 83 50 93 50 56 55 335 128 106 55 50 51 105 1087 73 110 401 91 57 70 138 71 352
internal_value=-9.62962e-07 3.21612e-05 -2.03614e-05 9.49372e-05 2.60762e-05 2.32899e-05 5.43276e-05 8.39464e-05 6.54628e-06 -2.21391e-05 1.55094e-05 1.14255e-05 5.39983e-05 -3.34618e-05 1.48556e-05 1.95105e-05 -1.37556e-05 -1.54242e-05 3.82291e-06 2.25731e-05 -1.93849e-05 9.6482e-06 1.27415e-05 6.17735e-06 3.1511e-05 3.42814e-05 -2.58164e-05 -2.0587e-05 8.12298e-06 -2.88485e-05
internal_weight=4259 1573 2686 139 1434 1382 277 171 106 2635 1105 999 106 1121 949 821 1514 1459 249 156 1210 123 715 548 147 167 786 631 141 490
internal_count=4259 1573 2686 139 1434 1382 277 171 106 2635 1105 999 106 1121 949 821 1514 1459 249 156 1210 123 715 548 147 167 786 631 141 490
is_linear=0
shrinkage=0.05


Tree=21
num_leaves=31
num_cat=0
split_feature=7 3 18 18 4 18 18 18 12 13 7 18 7 13 3 3 3 12 18 13 18 3 7 12 7 13 12 18 11 3
split_gain=0.000988653 0.000218843 0.000150269 0.00010107 8.30939e-05 8.09836e-05 0.000126708 0.000303252 0.000190847 0.000104451 0.000166173 0.000217176 7.45955e-05 5.68945e-05 5.55731e-05 5.45511e-05 4.61757e-05 4.57933e-05 9.37885e-05 4.47377e-05 3.26666e-05 4.52563e-05 3.21105e-05 8.44463e-05 3.15126e-05 3.74819e-05 2.96401e-05 7.71894e-05 4.58036e-05 6.95396e-05
threshold=0.48032000000000236 -0.005593913180806309 24.500000000000004 302.50000000000006 0.78462300498712223 76.500000000000014 179.50000000000003 241.50000000000003 -0.18325183074390317 -0.26126072594148869 0.66568000000001282 52.500000000000007 0.28843333333333782 0.12406964324224513 0.0027703285133846831 0.0018243200823746932 0.0038304104067256356 0.45914704311507576 50.500000000000007 -0.079647183922591444 156.50000000000003 0.0021194374742228234 1.0377033333333432 0.3286764724744437 0.69027333333333829 -0.0053272785538432529 -0.026635437045371826 188.50000000000003 -0.20878230063800626 -0.0018926485526995216
decision_type=2 2 2 2 2 2 2 2 2 2 2 2 2 2 2 2 2 2 2 2 2 2 2 2 2 2 2 2 2 2
left_child=2 4 -1 5 -2 9 13 8 -8 -3 19 22 14 15 -4 -7 17 18 -14 -11 -20 26 23 -12 25 -9 27 -22 29 -29
right_child=1 3 12 -5 -6 6 7 24 -10 10 11 -13 16 -15 -16 -17 -18 -19 20 -21 21 -23 -24 -25 -26 -27 -28 28 -30 -31
leaf_value=6.3688581143686373e-05 0.00013904363246968157 8.8574691625054641e-05 -2.5793679318776119e-05 9.1830809532649052e-05 5.9627396902664824e-05 -2.8822472146311783e-05 0.00016837504091017763 3.4222591282443802e-05 4.5532822818935278e-05 2.8596085996923648e-05 1.110381567282305e-05 0.0001103485227510894 4.0228229394218744e-05 2.5030353799593286e-05 -5.2461965656726136e-05 1.7757120909357263e-05 3.1759035192198309e-05 -6.2731885854565707e-05 -2.7495260074885219e-05 -2.0489226177937917e-05 4.4055489355180141e-05 -4.5128929477333959e-05 -6.4899625073167049e-06 7.3645009238784302e-05 -3.3673646566288635e-05 -1.7706955622510837e-05 -2.1233486342286435e-05 -1.3997258312382531e-05 -2.8220799798806533e-05 5.4449034775773596e-05
leaf_weight=52 51 76 869 52 93 259 50 69 86 64 151 99 74 102 252 83 52 51 504 169 85 85 64 84 67 70 217 110 163 56
leaf_count=52 51 76 869 52 93 259 50 69 86 64 151 99 74 102 252 83 52 51 504 169 85 85 64 84 67 70 217 110 163 56
internal_value=-9.14814e-07 2.88012e-05 -2.04441e-05 2.33065e-05 8.7754e-05 2.09199e-05 9.87561e-06 3.27495e-05 9.06954e-05 3.31982e-05 2.65285e-05 4.61608e-05 -2.21816e-05 -7.74343e-06 -3.17887e-05 -1.75181e-05 -1.44725e-05 -1.62599e-05 -1.44283e-05 -7.00657e-06 -1.77435e-05 -1.08791e-05 2.4908e-05 3.3459e-05 -5.50613e-06 8.07102e-06 -6.26544e-06 1.58013e-06 -9.39375e-06 9.09306e-06
internal_weight=4259 1689 2570 1545 144 1493 786 342 136 707 631 398 2518 444 1121 342 1397 1345 1294 233 1220 716 299 235 206 139 631 414 329 166
internal_count=4259 1689 2570 1545 144 1493 786 342 136 707 631 398 2518 444 1121 342 1397 1345 1294 233 1220 716 299 235 206 139 631 414 329 166
is_linear=0
shrinkage=0.05


Tree=22
num_leaves=31
num_cat=0
split_feature=6 3 12 7 18 18 3 18 7 3 14 18 2 6 12 17 12 17 11 2 12 18 2 12 18 14 14 3 2 18
split_gain=0.000898793 0.000182426 0.000158507 0.000160065 0.000118929 0.000225782 0.000282158 0.000133725 0.00016683 0.000145468 0.000402676 0.000127807 0.000119523 7.35865e-05 6.16558e-05 5.46735e-05 4.60412e-05 3.58896e-05 4.02888e-05 3.58144e-05 4.93843e-05 5.28663e-05 3.52862e-05 3.16531e-05 7.46151e-05 4.26471e-05 3.6787e-05 5.35581e-05 3.84814e-05 5.12818e-05
threshold=0.44149999999998507 -0.0079125463561515487 0.93627171717014845 0.49809000000000581 179.50000000000003 238.50000000000003 -0.0033478652964370448 112.50000000000001 0.64966666666666717 -0.0021278279082670723 -0.00089152225485158488 299.50000000000006 -0.0011525083536590428 0.20899999999998045 -0.34026350806412548 0.00052436485258590523 0.29442381939984436 0.0013082644732966911 -0.37664110530374723 -0.0020848378357268267 0.042209138847493742 40.500000000000007 -0.0013665631961091715 0.50294611239845388 48.500000000000007 0.00037368256104839927 8.3206337371012219e-05 -0.0015082485619885655 -9.5157469628903688e-05 134.50000000000003
decision_type=2 2 2 2 2 2 2 2 2 2 2 2 2 2 2 2 2 2 2 2 2 2 2 2 2 2 2 2 2 2
left_child=13 -2 3 14 7 6 -6 8 12 10 -10 16 -5 -1 -3 22 -7 18 -15 -11 -21 -22 -16 24 -20 26 27 -26 -29 -30
right_child=1 2 -4 4 5 11 -8 -9 9 19 -12 -13 -14 17 15 -17 -18 -19 23 20 21 -23 -24 -25 25 -27 -28 28 29 -31
leaf_value=-3.5676603345095078e-05 9.6416397318958055e-05 -6.1559928244427217e-05 9.9092078616536139e-05 6.2947941669157383e-05 3.0158202804159376e-05 -2.3613421109032409e-05 0.00019651081110816029 -1.9305388688793295e-05 1.8778873635123485e-05 5.9854317822856655e-05 0.00020009821851272138 9.1426454931041801e-05 -2.2307329702213774e-05 1.5042576728774293e-05 5.6436800579831472e-05 -1.8695432346049759e-05 3.067313515476935e-05 1.7579322767150273e-05 2.6012010463862521e-05 -1.1954451634246261e-06 1.4514341539382707e-05 6.2306889726514614e-05 1.1050982506918337e-06 -5.1794627834682056e-05 -3.7320145494845747e-05 1.1414211366989511e-05 -3.3922996745364541e-05 -1.7798313247569547e-05 -3.5939957004302413e-05 2.2028907504966851e-05
leaf_weight=632 86 51 64 51 50 84 52 189 79 77 50 53 212 91 50 192 73 77 92 139 126 107 68 71 230 98 476 428 50 161
leaf_count=632 86 51 64 51 50 84 52 189 79 77 50 53 212 91 50 192 73 77 92 139 126 107 68 71 230 98 476 428 50 161
internal_value=-8.69073e-07 2.53041e-05 2.1843e-05 1.894e-05 2.68904e-05 5.39349e-05 0.000114965 1.86982e-05 2.72389e-05 4.22607e-05 8.90577e-05 2.42915e-05 -5.77494e-06 -2.10265e-05 -1.06152e-05 -2.23399e-06 1.6281e-06 -1.58074e-05 -1.73222e-05 2.88157e-05 2.23911e-05 3.6462e-05 2.45507e-05 -1.91561e-05 -1.76465e-05 -2.04299e-05 -2.27502e-05 -1.66302e-05 -9.18313e-06 8.29221e-06
internal_weight=4259 1853 1767 1703 1342 312 102 1030 841 578 129 210 263 2406 361 310 157 1774 1697 449 372 233 118 1606 1535 1443 1345 869 639 211
internal_count=4259 1853 1767 1703 1342 312 102 1030 841 578 129 210 263 2406 361 310 157 1774 1697 449 372 233 118 1606 1535 1443 1345 869 639 211
is_linear=0
shrinkage=0.05


Tree=23
num_leaves=31
num_cat=0
split_feature=6 3 12 7 13 10 12 17 6 7 8 14 3 12 17 8 14 4 4 17 11 13 3 10 7 13 3 3 6 3
split_gain=0.000811161 0.00016464 0.000143052 0.000144459 8.45504e-05 9.52578e-05 0.0001413 0.000178798 6.64118e-05 6.58223e-05 6.35405e-05 7.91273e-05 5.77277e-05 5.56444e-05 4.93428e-05 4.18451e-05 3.89106e-05 3.63145e-05 3.45537e-05 3.33936e-05 3.23594e-05 3.22947e-05 3.20704e-05 4.28529e-05 3.44526e-05 3.90632e-05 2.71286e-05 2.66572e-05 4.75117e-05 4.39283e-05
threshold=0.44149999999998507 -0.0079125463561515487 0.93627171717014845 0.49809000000000581 -0.28940545277836555 32.827130614532713 -0.36661352058852903 0.0010225150163222605 0.20899999999998045 0.68460333333333678 0.00039207208241248188 4.2725904904754402e-05 -0.0016565547915628129 -0.34026350806412548 0.00052436485258590523 0.00043177869865440116 -0.00013395965483216214 1.0181058159326817 0.39237478834568701 0.0013082644732966911 -0.37664110530374723 0.0028175946463439576 -0.0015926558153361704 66.544982048560726 0.44366666666666493 0.0010205198390229183 -0.0030036249064743703 0.0014666628572520123 0.24998000000002779 -9.8580050595619337e-05
decision_type=2 2 2 2 2 2 2 2 2 2 2 2 2 2 2 2 2 2 2 2 2 2 2 2 2 2 2 2 2 2
left_child=8 -2 3 13 -5 -6 7 -7 -1 10 11 -8 -9 -3 -15 -11 -17 21 -10 20 -20 -18 26 24 27 -26 -22 28 29 -24
right_child=1 2 -4 4 5 6 9 12 18 15 -12 -13 -14 14 -16 16 17 -19 19 -21 22 -23 23 -25 25 -27 -28 -29 -30 -31
leaf_value=-3.3892773359771648e-05 9.1595574537920989e-05 -5.8481932044777944e-05 9.4137475971933793e-05 7.3212392558109543e-05 -2.9858869958466465e-05 0.00012553688940307759 8.5566559315566342e-05 5.7989793130183027e-05 -4.1158448314893389e-05 -4.3556841097738751e-06 -4.041175707637574e-06 5.9442147395169611e-06 -7.1267733950603022e-06 2.3323198272426113e-05 -1.7760660789415775e-05 -2.5254662263991862e-07 6.6854282137380022e-05 7.4040000506200553e-05 1.429044838694828e-05 2.039301058611157e-05 -4.041193365299565e-06 2.4086715566880742e-05 5.6731569256663871e-05 -4.8481275567837658e-05 4.7449236262764316e-05 -1.2478487674104e-05 -4.1829300970171605e-05 -2.389143595555888e-05 -1.3216731420333771e-05 -7.4122847934177121e-06
leaf_weight=632 86 51 64 87 82 74 50 77 118 66 398 83 61 118 192 54 60 83 91 71 63 167 51 80 52 57 193 385 557 56
leaf_count=632 86 51 64 87 82 74 50 77 118 66 398 83 61 118 192 54 60 83 91 71 63 167 51 80 52 57 193 385 557 56
internal_value=-8.2562e-07 2.40389e-05 2.07509e-05 1.7993e-05 2.55458e-05 2.22415e-05 2.58836e-05 6.28312e-05 -1.99752e-05 1.77328e-05 5.95727e-06 3.58774e-05 2.92064e-05 -1.00845e-05 -2.12229e-06 3.22743e-05 3.8916e-05 4.57389e-05 -1.5017e-05 -1.31542e-05 -1.4657e-05 3.53909e-05 -1.64202e-05 -1.30889e-05 -1.06439e-05 1.61109e-05 -3.25299e-05 -1.34239e-05 -7.35466e-06 2.3161e-05
internal_weight=4259 1853 1767 1703 1342 1255 1173 212 2406 961 531 133 138 361 310 430 364 310 1774 1656 1585 227 1494 1238 1158 109 256 1049 664 107
internal_count=4259 1853 1767 1703 1342 1255 1173 212 2406 961 531 133 138 361 310 430 364 310 1774 1656 1585 227 1494 1238 1158 109 256 1049 664 107
is_linear=0
shrinkage=0.05


Tree=24
num_leaves=31
num_cat=0
split_feature=6 3 11 7 18 18 3 18 18 14 10 3 6 11 7 17 7 3 18 18 3 3 12 15 12 18 12 18 7 12
split_gain=0.000732073 0.000148587 0.000129752 0.000103075 8.57534e-05 0.00022432 0.000251794 0.00012677 0.000118622 0.000126876 0.000104892 0.00029488 0.000121077 7.33209e-05 6.03816e-05 5.78287e-05 5.41611e-05 4.81162e-05 4.5917e-05 4.46862e-05 3.70276e-05 3.26296e-05 3.05745e-05 2.90049e-05 2.81889e-05 2.74302e-05 2.74043e-05 3.84496e-05 9.62973e-05 2.7235e-05
threshold=0.44149999999998507 -0.0079125463561515487 1.1848028884837734 0.49809000000000581 179.50000000000003 238.50000000000003 -0.0033478652964370448 299.50000000000006 112.50000000000001 0.00010311042037961924 40.658023025866193 -0.0019289608444086755 0.65299999999999736 -0.016894192130280313 0.28843333333333782 0.00054406603221186995 0.65532000000000246 0.0032412892791544895 76.500000000000014 40.500000000000007 0.0038304104067256356 0.0021499228107702572 0.1766030145737699 -0.00043185269318146696 -0.16268858915105963 60.500000000000007 -0.073259146112194071 239.50000000000003 0.20636333333333903 0.025435769785963309
decision_type=2 2 2 2 2 2 2 2 2 2 2 2 2 2 2 2 2 2 2 2 2 2 2 2 2 2 2 2 2 2
left_child=14 -2 3 15 8 6 -6 22 9 10 12 -12 -5 -13 17 23 25 24 -14 -18 -16 -21 -7 -3 -1 -11 -26 -28 -29 -10
right_child=1 2 -4 4 5 7 -8 -9 29 16 11 13 18 -15 20 -17 19 -19 -20 21 -22 -23 -24 -25 26 -27 27 28 -30 -31
leaf_value=6.9132495887710575e-06 8.7015795890143049e-05 4.3832337204578167e-05 9.830597428292238e-05 -5.1383743080876622e-05 2.743119143997319e-05 -2.8915867285146647e-05 0.0001845782625773259 8.5325479257043529e-05 -3.5545809974893119e-05 -4.5879521577819935e-06 0.00016612357765883313 1.5781318768404163e-05 5.8650559186916283e-05 8.0240302418133075e-05 -1.3321271088577859e-05 -2.283020038957211e-05 -9.8628284185159919e-07 -5.5811610736506715e-05 -1.6422016272497108e-07 1.5220019479286594e-05 2.9751337047820504e-05 7.1243440483800336e-05 1.4441429532256957e-05 -9.2284517868183787e-07 -4.2748255240100612e-05 -5.0216754938197027e-05 -3.0881043588666115e-05 -2.7964240665900225e-05 3.3210313856600522e-05 2.8081183714159212e-06
leaf_weight=70 86 62 51 51 50 69 52 53 108 93 55 142 95 64 1233 215 134 132 51 53 52 51 99 87 193 51 438 191 97 81
leaf_count=70 86 62 51 51 50 69 52 53 108 93 55 142 95 64 1233 215 134 132 51 53 52 51 99 87 193 51 438 191 97 81
internal_value=-7.84339e-07 2.28369e-05 1.97133e-05 1.73776e-05 2.3736e-05 4.62117e-05 0.000107545 1.79039e-05 1.66809e-05 2.47335e-05 4.24803e-05 6.32687e-05 1.49384e-05 3.58074e-05 -1.89765e-05 -6.23949e-06 3.45597e-06 -2.7457e-05 3.81057e-05 1.81005e-05 -1.15783e-05 4.2693e-05 -3.36603e-06 1.77001e-05 -2.36726e-05 -2.07482e-05 -2.60023e-05 -2.15505e-05 -7.36031e-06 -1.91084e-05
internal_weight=4259 1853 1767 1716 1352 323 102 221 1029 840 458 261 197 206 2406 364 382 1121 146 238 1285 104 168 149 989 144 919 726 288 189
internal_count=4259 1853 1767 1716 1352 323 102 221 1029 840 458 261 197 206 2406 364 382 1121 146 238 1285 104 168 149 989 144 919 726 288 189
is_linear=0
shrinkage=0.05


Tree=25
num_leaves=31
num_cat=0
split_feature=7 18 12 18 7 18 4 18 3 7 12 2 7 7 18 18 7 18 3 4 12 2 18 18 13 18 14 7 3 18
split_gain=0.000579908 0.000144629 0.000115461 0.000128967 0.000186777 0.000116607 0.000126397 9.55842e-05 8.35784e-05 5.67996e-05 4.47089e-05 5.17635e-05 0.000121955 4.94157e-05 6.14467e-05 6.96417e-05 4.53814e-05 4.14217e-05 5.66296e-05 3.99289e-05 3.28781e-05 3.24322e-05 4.73427e-05 2.73928e-05 3.65884e-05 3.42802e-05 5.70743e-05 5.61335e-05 4.9057e-05 4.93481e-05
threshold=0.47787666666667222 304.50000000000006 -0.37418183464568006 187.50000000000003 0.66568000000001282 100.50000000000001 0.6688943900828932 24.500000000000004 -0.0079125463561515487 0.2079799999999902 0.8954386383423516 -0.0016808391283933963 0.57333333333333114 0.67403333333333737 108.50000000000001 42.500000000000007 0.7900499999999967 94.500000000000014 -0.00017913395113157941 0.31443358312178604 0.077927428752276429 0.00044305423505330849 60.500000000000007 56.500000000000007 -0.088375267822840817 224.50000000000003 0.00031951401208818393 0.30452666666666733 -0.0018411201901618291 163.50000000000003
decision_type=2 2 2 2 2 2 2 2 2 2 2 2 2 2 2 2 2 2 2 2 2 2 2 2 2 2 2 2 2 2
left_child=7 2 3 4 -2 6 -6 -1 -7 -9 11 12 -4 17 15 -15 -17 21 -19 -11 -20 22 -13 24 -21 27 -27 -25 -29 -30
right_child=1 -3 10 -5 5 8 -8 9 -10 19 -12 13 -14 14 -16 16 -18 18 20 23 -22 -23 -24 25 -26 26 -28 28 29 -31
leaf_value=4.9820977080714698e-05 -5.9762684898433853e-05 0.00010476824559280468 0.00010007626380775038 9.7582802352137938e-05 0.00012707509585538901 4.9811760181447908e-05 3.4503614594656429e-05 -3.1431031189421378e-05 -3.3996883615827755e-05 -5.4183552881646586e-05 4.5380443171470092e-05 3.5412052185628851e-05 6.0313099507962957e-06 8.0333798757555457e-06 -1.451969556426129e-05 8.2275588607293081e-05 2.3378974389413938e-05 -1.7104520387734878e-05 5.9355162979182698e-05 -2.0108903719609283e-05 1.2130657665122183e-05 -3.5379353913584794e-05 -2.6495621802275091e-05 -3.6087701433098659e-05 3.5971241264963864e-05 -8.922287538355983e-06 4.6600164838309866e-05 -3.9804770330236008e-05 -1.4547581625747712e-05 1.7054659515267932e-05
leaf_weight=54 51 51 50 84 64 59 87 560 60 58 91 53 111 166 107 75 58 130 53 52 121 143 74 337 66 623 50 126 432 173
leaf_count=54 51 51 50 84 64 59 87 560 60 58 91 53 111 166 107 75 58 130 53 52 121 143 74 337 66 623 50 126 432 173
internal_value=-8.49133e-07 2.18498e-05 1.92665e-05 4.24266e-05 2.79932e-05 4.45693e-05 7.37392e-05 -1.59877e-05 7.5553e-06 -1.74224e-05 1.1653e-05 8.96304e-06 3.52378e-05 4.64647e-06 1.79965e-05 2.96327e-05 5.65914e-05 -4.79624e-06 7.86199e-06 -1.33301e-05 2.65151e-05 -1.90485e-05 -6.60136e-07 -1.20555e-05 1.1258e-05 -1.36356e-05 -4.79729e-06 -1.92051e-05 -1.1422e-05 -5.51091e-06
internal_weight=4219 1688 1637 405 321 270 151 2531 119 2477 1232 1141 161 980 406 299 133 574 304 1917 174 270 127 1859 118 1741 673 1068 731 605
internal_count=4219 1688 1637 405 321 270 151 2531 119 2477 1232 1141 161 980 406 299 133 574 304 1917 174 270 127 1859 118 1741 673 1068 731 605
is_linear=0
shrinkage=0.05


Tree=26
num_leaves=31
num_cat=0
split_feature=7 7 13 3 10 3 14 12 3 11 3 14 3 3 12 12 12 14 12 11 3 7 3 3 7 8 7 3 12 8
split_gain=0.000523367 0.00010051 0.000117981 0.000111146 0.000109236 8.46694e-05 8.47262e-05 6.89903e-05 6.12764e-05 6.0491e-05 5.40145e-05 4.61243e-05 4.60681e-05 5.52069e-05 3.76569e-05 4.38654e-05 3.13013e-05 2.82873e-05 2.89219e-05 2.72188e-05 4.49355e-05 2.55581e-05 2.53716e-05 5.34182e-05 2.55629e-05 2.51469e-05 2.34713e-05 2.24669e-05 2.03183e-05 2.73392e-05
threshold=0.47787666666667222 0.66568000000001282 -0.013116148202059334 0.0033587658995963719 37.347000307797181 -0.0048832870275364818 -0.0010453952668629178 0.60196171752812011 0.0015597555257258605 0.2428398242882395 -0.0015082485619885655 0.00089578932435054818 -0.0028803651960474033 -0.00079567876407881191 0.018999717820756348 0.36067659461517571 -0.80066258280053137 -0.00055388533898076712 -0.39043531232116363 -0.1876901094833556 -0.0011196073642183366 0.28249999999999703 -0.0022367034723030179 -0.00079567876407881191 0.37420666666665742 0.00015658932324411762 0.23556666666665935 0.0032412892791544895 0.31705252212594598 0.00070155159159712612
decision_type=2 2 2 2 2 2 2 2 2 2 2 2 2 2 2 2 2 2 2 2 2 2 2 2 2 2 2 2 2 2
left_child=7 2 4 5 -2 6 -3 8 9 19 -6 16 -4 -14 -12 -16 -7 -18 -19 22 -21 27 -1 24 -24 -22 -27 -10 -20 -30
right_child=1 3 12 -5 10 11 -8 -9 21 -11 14 -13 13 -15 15 -17 17 18 28 20 25 -23 23 -25 -26 26 -28 -29 29 -31
leaf_value=-1.9850909889887283e-05 8.2105654195942956e-05 3.0017798293094589e-05 -5.1216972550734132e-05 -2.4850280569574891e-05 -2.0596884375360484e-05 6.0992667349637494e-05 0.00010820346163542693 4.1257349962592652e-05 -2.8316179723956781e-05 3.0031354433662654e-05 6.3851343176518746e-05 6.2644145305775487e-05 4.449746407044586e-05 -1.2362092773156441e-05 -4.3796475531784143e-06 4.6310105664790023e-05 -1.0807360644042724e-06 6.2204679961024134e-05 1.454711265139127e-05 -3.0511727102492615e-05 -2.520587055184269e-05 -1.5923142050945412e-05 4.4173094041017227e-05 -1.9389629024820018e-05 4.1238177169968067e-06 1.8150300837760371e-05 -9.0355701577967306e-06 -5.2505961814728969e-05 1.8107260084001436e-05 6.7623414379340831e-05
leaf_weight=133 74 63 61 78 81 55 77 53 403 86 53 95 50 292 107 71 111 52 255 400 195 306 85 114 75 96 459 126 63 50
leaf_count=133 74 63 61 78 81 55 77 53 403 86 53 95 50 292 107 71 111 52 255 400 195 306 85 114 75 96 459 126 63 50
internal_value=-8.06676e-07 2.07573e-05 7.73371e-06 3.21873e-05 2.74896e-05 3.76062e-05 7.30199e-05 -1.51883e-05 -1.63956e-05 -1.07904e-05 1.45358e-05 3.03259e-05 -1.11888e-05 -4.04929e-06 2.6855e-05 1.58393e-05 2.50866e-05 2.13675e-05 2.73002e-05 -1.30452e-05 -1.6978e-05 -2.74247e-05 -1.93265e-06 6.7649e-06 2.54e-05 -9.76006e-06 -4.33315e-06 -3.40778e-05 2.2368e-05 4.00171e-05
internal_weight=4219 1688 789 899 386 821 140 2531 2478 1643 312 681 403 342 231 178 586 531 420 1557 1150 835 407 274 160 750 555 529 368 113
internal_count=4219 1688 789 899 386 821 140 2531 2478 1643 312 681 403 342 231 178 586 531 420 1557 1150 835 407 274 160 750 555 529 368 113
is_linear=0
shrinkage=0.05


Tree=27
num_leaves=31
num_cat=0
split_feature=7 18 3 18 9 18 18 3 12 7 18 18 13 12 13 18 11 7 4 3 3 18 11 13 18 13 12 7 18 3
split_gain=0.000472339 0.000130338 9.73128e-05 8.3506e-05 7.07121e-05 6.65509e-05 0.000220676 0.000211889 0.000111805 8.84438e-05 0.000168101 0.000106074 0.000122364 9.8295e-05 6.18462e-05 5.94004e-05 5.62708e-05 4.71149e-05 3.56892e-05 3.47896e-05 3.10697e-05 6.98088e-05 4.53611e-05 2.56979e-05 2.42778e-05 3.38762e-05 2.54588e-05 5.47106e-05 3.29989e-05 6.1276e-05
threshold=0.47787666666667222 304.50000000000006 -0.0079125463561515487 24.500000000000004 0.07337865950605478 242.50000000000003 187.50000000000003 -0.0034633070442898393 0.8954386383423516 0.66568000000001282 108.50000000000001 52.500000000000007 0.043096402990467082 -0.30197616780842257 -0.13399453382890561 84.500000000000014 -0.71895064389497054 0.1923333333333441 0.31443358312178604 -0.0015926558153361704 0.0013953490176360432 94.500000000000014 0.3537974999008498 0.0010205198390229183 56.500000000000007 -0.088375267822840817 -0.30921006610476393 0.41804333333333266 224.50000000000003 -0.00034737103153446809
decision_type=2 2 2 2 2 2 2 2 2 2 2 2 2 2 2 2 2 2 2 2 2 2 2 2 2 2 2 2 2 2
left_child=3 2 -2 -1 -4 6 8 -8 9 13 11 16 15 -6 -15 -13 -11 -5 -19 -18 -16 22 -22 -7 25 -20 27 -26 29 -28
right_child=1 -3 4 17 5 23 7 -9 -10 10 -12 12 -14 14 20 -17 19 18 24 -21 21 -23 -24 -25 26 -27 28 -29 -30 -31
leaf_value=4.7081546281796605e-05 7.0354157076774464e-05 9.8434660250467133e-05 -3.6176274664881294e-05 -3.0922237423296524e-05 -6.7034204525482673e-05 8.806629851489854e-06 8.6489151858999816e-06 0.00013822405145170655 8.495365019491215e-05 6.4380613748296899e-05 -3.3719157986938216e-05 6.1306320791516884e-05 0.00010999920272561325 5.4048852161584225e-05 -1.8851332348470386e-05 -7.148503950052796e-06 -3.0531155590779236e-05 -5.0303739069067145e-05 -1.966211093531456e-05 1.5634349629303993e-05 1.8930960444777159e-05 5.2784102465539629e-05 -4.8419677274068817e-05 -2.6460878570509923e-05 3.3266112223179659e-05 3.4299437897695472e-05 -3.8635201005385952e-05 -2.3656187679035811e-05 -6.1605575359092269e-06 -1.2179097812307648e-05
leaf_weight=54 82 51 66 425 58 99 55 74 53 51 110 73 81 51 186 56 50 61 52 222 50 62 50 108 87 66 317 82 680 707
leaf_count=54 82 51 66 425 58 99 55 74 53 51 110 73 81 51 186 56 50 61 52 222 50 62 50 108 87 66 317 82 680 707
internal_value=-7.66342e-07 1.97194e-05 1.72671e-05 -1.44289e-05 1.44676e-05 1.67124e-05 2.096e-05 8.29788e-05 1.40212e-05 1.06035e-05 2.25561e-05 3.41701e-05 6.18332e-05 -6.2137e-06 2.62737e-06 3.15895e-05 1.61848e-05 -1.57699e-05 -1.26316e-05 7.14804e-06 -4.90853e-06 1.10999e-05 -1.47444e-05 -9.59381e-06 -1.14774e-05 1.05198e-05 -1.28632e-05 5.64701e-06 -1.4699e-05 -2.03691e-05
internal_weight=4219 1688 1637 2531 1555 1489 1282 129 1153 1100 643 533 210 457 399 129 323 2477 2052 272 348 162 100 207 1991 118 1873 169 1704 1024
internal_count=4219 1688 1637 2531 1555 1489 1282 129 1153 1100 643 533 210 457 399 129 323 2477 2052 272 348 162 100 207 1991 118 1873 169 1704 1024
is_linear=0
shrinkage=0.05


Tree=28
num_leaves=31
num_cat=0
split_feature=8 11 13 18 18 11 17 13 18 18 13 11 3 13 13 17 18 14 3 4 10 18 18 3 3 14 3 10 2 18
split_gain=0.000361563 8.87154e-05 0.000145792 0.000123536 0.000107148 0.000108017 8.04138e-05 6.87688e-05 5.70281e-05 0.000135069 5.17699e-05 4.77063e-05 5.95302e-05 5.90723e-05 5.00764e-05 7.84002e-05 5.70672e-05 3.99979e-05 4.38901e-05 3.30547e-05 3.24927e-05 3.09542e-05 9.86816e-05 5.21719e-05 0.000140877 0.000114677 4.66185e-05 6.33132e-05 2.87858e-05 3.25586e-05
threshold=0.00034028335365982959 -0.32922622314617905 0.061270744425711558 307.50000000000006 74.500000000000014 0.76717818708482366 0.0013990288820797175 -0.15732364813133207 187.50000000000003 231.50000000000003 -0.30376554997919564 0.25003366521241338 0.001936452031968556 -0.055907744153333001 0.0071494214340401411 0.001259013544602706 157.50000000000003 0.00066701853867378767 0.00054726699992213763 0.73706208955974384 56.596361486936196 262.50000000000006 222.50000000000003 -0.0014042504049395002 0.0011797409243102062 -0.00015866272836094586 -0.002002271534575259 33.91073697842311 -0.0022213609946197805 86.500000000000014
decision_type=2 2 2 2 2 2 2 2 2 2 2 2 2 2 2 2 2 2 2 2 2 2 2 2 2 2 2 2 2 2
left_child=11 2 8 4 5 7 -4 -3 10 -10 -2 12 21 -13 -15 16 -16 18 -9 -6 -20 22 26 25 -25 -24 -1 -28 29 -12
right_child=1 3 6 -5 19 -7 -8 17 9 -11 28 13 -14 14 15 -17 -18 -19 20 -21 -22 -23 23 24 -26 -27 27 -29 -30 -31
leaf_value=-4.2871133004631529e-05 5.0754039708123199e-05 6.6214826951441609e-05 0.0001299453698283167 8.1517049798837335e-05 -1.8273615977401887e-05 7.6369327579103397e-05 4.1549730494807593e-05 -3.7248251416394128e-06 0.00010384027709733346 -6.4746728958198217e-06 3.5647388741429156e-05 -4.1020332859612578e-05 -3.1147207155711576e-05 5.957226386789105e-05 -3.9695505841060945e-05 5.6796572950107107e-05 2.706057988916655e-05 -2.7572945322574834e-05 5.4464013422159088e-05 2.5461181367828704e-06 1.1204854201803376e-05 -2.3050116169757395e-05 5.5061376027879312e-05 0.00010160666374998216 -1.2199227127824159e-05 -4.6712548727291215e-05 4.3231678868839764e-05 -1.4010546677149156e-05 -3.4637620627412012e-05 -1.4342772077438176e-05
leaf_weight=126 51 56 53 57 300 82 50 173 56 55 57 57 526 51 89 51 50 69 83 523 91 424 50 57 52 62 52 680 60 76
leaf_count=126 51 56 53 57 300 82 50 173 56 55 57 57 526 51 89 51 50 69 83 523 91 424 50 57 52 62 52 680 60 76
internal_value=-7.28025e-07 1.55048e-05 3.46629e-05 9.38602e-06 6.4002e-06 2.33999e-05 8.70349e-05 1.41976e-05 1.94676e-05 4.91797e-05 5.95102e-06 -1.39264e-05 -1.667e-05 4.7543e-06 1.55807e-05 3.77239e-06 -1.56825e-05 7.19526e-06 1.41088e-05 -5.04309e-06 3.184e-05 -1.16035e-05 -7.10545e-06 2.26883e-05 4.73139e-05 -1.27776e-06 -1.47796e-05 -9.94416e-06 -5.88812e-06 7.08158e-06
internal_weight=4219 1892 458 1434 1377 554 103 472 355 111 244 2327 2029 298 241 190 139 416 347 823 174 1503 1079 221 109 112 858 732 193 133
internal_count=4219 1892 458 1434 1377 554 103 472 355 111 244 2327 2029 298 241 190 139 416 347 823 174 1503 1079 221 109 112 858 732 193 133
is_linear=0
shrinkage=0.05


Tree=29
num_leaves=31
num_cat=0
split_feature=6 12 12 4 12 6 1 9 6 11 13 14 12 13 6 3 3 12 3 12 10 12 1 5 3 13 4 11 1 13
split_gain=0.000392383 0.000109786 9.49475e-05 0.000102628 0.000116656 0.00010947 7.43749e-05 5.51247e-05 4.94435e-05 4.61552e-05 5.41551e-05 4.41756e-05 3.79206e-05 3.41533e-05 3.07371e-05 3.05993e-05 6.33307e-05 3.68469e-05 2.76787e-05 2.7852e-05 2.66546e-05 3.27405e-05 2.63545e-05 2.56053e-05 2.45915e-05 3.66003e-05 2.53308e-05 2.49333e-05 2.21063e-05 2.19437e-05
threshold=0.46567000000001152 0.93627171717014845 -0.37418183464568006 0.64900082838445206 -0.54963049131140018 0.73510999999998605 0.00062774613181515459 0.24777623202729107 0.37402000000000729 0.62622207149564713 -0.0014993082096760727 -8.528337174425616e-06 -0.34026350806412548 -0.032256455029107269 0.72599999999996501 -0.0017820379067585033 -5.6875499256889126e-05 0.033981473066135658 0.0021776732246266048 0.27053041945713152 62.107188223071894 0.30561298133361198 -0.0013687956365519003 -0.69940467598266765 -0.0016257808759988373 -0.090623471374274858 0.4751417077563303 0.2428398242882395 0.0016959291362219633 -0.041206213721516942
decision_type=2 2 2 2 2 2 2 2 2 2 2 2 2 2 2 2 2 2 2 2 2 2 2 2 2 2 2 2 2 2
left_child=8 2 3 6 5 -5 -2 13 12 10 23 -9 -1 15 28 22 17 -17 24 -20 21 -13 -4 -10 -14 -26 -27 -28 -15 -25
right_child=1 -3 7 4 -6 -7 -8 11 9 -11 -12 20 18 14 -16 16 -18 -19 19 -21 -22 -23 -24 29 25 26 27 -29 -30 -31
leaf_value=2.5656088771938811e-05 0.00010459314385529566 8.2877118355042075e-05 1.7331434326410571e-05 -4.8240969278058639e-05 6.6526775312820651e-05 2.9343936551417379e-05 2.674328286368965e-05 -4.7217945090475649e-06 3.354422178122212e-05 4.3205772611677195e-05 -2.2524993189929432e-05 3.435716045670433e-05 -3.0620528406604823e-05 -6.5671865191200783e-06 2.3370385745763018e-05 7.7036323840483251e-05 1.2743937009031745e-06 2.4373468845863644e-05 -3.2781498834961595e-05 5.5996213048720678e-06 1.3836700967002516e-05 8.569146868239841e-05 -3.0868526387241192e-05 -7.7159765359024835e-06 -5.0441254301529562e-05 -2.8380000528997767e-05 -8.6996230109123933e-06 2.4161380583754796e-05 -4.0962252282866451e-05 2.2900816036326434e-05
leaf_weight=50 77 63 53 78 89 109 51 72 73 53 267 82 205 394 78 59 166 76 437 53 61 50 61 218 58 154 837 62 53 80
leaf_count=50 77 63 53 78 89 109 51 72 73 53 267 82 205 394 78 59 166 76 437 53 61 50 61 218 58 154 837 62 53 80
internal_value=-6.91624e-07 1.81282e-05 1.5593e-05 3.65697e-05 1.94079e-05 -3.01768e-06 7.35748e-05 8.56018e-06 -1.30461e-05 -1.62888e-06 -5.35339e-06 2.87016e-05 -1.72968e-05 2.882e-06 -5.59158e-06 1.36016e-05 2.19571e-05 4.73891e-05 -1.8486e-05 -2.86301e-05 4.11705e-05 5.3802e-05 -8.45977e-06 7.00461e-06 -1.47089e-05 -1.17729e-05 -9.64302e-06 -6.43335e-06 -1.06453e-05 5.03297e-07
internal_weight=4219 1672 1609 404 276 187 128 1205 2547 691 638 265 1856 940 525 415 301 135 1806 490 193 132 114 371 1316 1111 1053 899 447 298
internal_count=4219 1672 1609 404 276 187 128 1205 2547 691 638 265 1856 940 525 415 301 135 1806 490 193 132 114 371 1316 1111 1053 899 447 298
is_linear=0
shrinkage=0.05


Tree=30
num_leaves=31
num_cat=0
split_feature=6 12 12 18 18 18 4 17 13 6 8 8 11 2 10 4 12 2 8 18 18 8 14 10 18 6 14 8 12 12
split_gain=0.000360261 0.000131721 9.40412e-05 0.000105037 9.00546e-05 0.00033285 9.03811e-05 7.30937e-05 5.94207e-05 5.53338e-05 4.88695e-05 4.53473e-05 4.45375e-05 4.15522e-05 3.78862e-05 2.17936e-05 5.08575e-05 1.94451e-05 2.34336e-05 4.94673e-05 4.42166e-05 4.47177e-05 3.25433e-05 2.2193e-05 2.11764e-05 2.08926e-05 1.87893e-05 1.81093e-05 1.77093e-05 5.01749e-05
threshold=0.47800000000003146 0.93627171717014845 -0.36661352058852903 303.50000000000006 233.50000000000003 185.50000000000003 0.7009743580044755 0.0013082644732966911 -0.28940545277836555 0.71518000000000947 0.0007164245750430001 0.00031821781291947976 0.10546342404217059 -0.0014595058279902038 41.153549642793401 0.90618633346365607 -0.051722294891600941 0.0013355688504151921 0.00038161257413433022 112.50000000000001 34.500000000000007 0.00050826866567353136 -6.1420172869372479e-06 52.15250187645681 155.50000000000003 0.80550000000000643 -3.1512794328309318e-05 0.00035959983841858911 0.25377016518625822 0.47444394051939354
decision_type=2 2 2 2 2 2 2 2 2 2 2 2 2 2 2 2 2 2 2 2 2 2 2 2 2 2 2 2 2 2
left_child=7 2 4 8 5 6 14 11 -4 -8 -11 28 -9 -13 -2 -15 -17 18 22 20 -20 -22 -10 -21 25 -19 -23 -18 -1 -30
right_child=1 -3 3 -5 -6 -7 9 12 17 10 -12 13 -14 15 -16 16 27 24 19 23 21 26 -24 -25 -26 -27 -28 -29 29 -31
leaf_value=-1.8520455493108653e-05 2.6346817539888433e-05 9.3008478969542862e-05 5.6033308043913203e-05 7.9053926645428877e-05 -2.6178717229186079e-05 0.00016492964036297054 -3.663400459611124e-05 -3.8992095516987957e-06 5.356557740014978e-05 5.4899078909560774e-05 -9.1865964719772819e-06 3.2327343619670746e-05 5.8605207493855504e-05 -1.5891252909043084e-05 8.3680763967710367e-05 -2.5182749698012834e-05 4.9549453090138761e-05 -2.5111804341620283e-05 -1.3144907590053069e-05 -2.3608004289863585e-05 -1.7848320671143967e-06 2.4061682427326026e-05 -1.262506175407907e-06 9.4549925156191719e-06 1.2243614409354368e-05 5.6458525727421372e-06 6.0372170823606343e-05 9.610650826985535e-06 1.561550484069354e-05 -4.2578601086169558e-05
leaf_weight=1815 50 57 54 50 50 50 59 57 59 59 60 81 57 263 68 77 51 169 92 172 81 63 50 72 99 82 82 64 123 53
leaf_count=1815 50 57 54 50 50 50 59 57 59 59 60 81 57 263 68 77 51 169 92 172 81 63 50 72 99 82 82 64 123 53
internal_value=-5.16114e-07 1.83857e-05 1.55892e-05 8.21298e-06 3.65445e-05 4.56086e-05 2.5453e-05 -1.181e-05 4.91805e-06 2.95755e-06 2.2587e-05 -1.35767e-05 2.7353e-05 -6.67636e-07 5.93867e-05 -6.54147e-06 6.26579e-06 2.2146e-06 7.1981e-06 3.08307e-06 1.6077e-05 2.79727e-05 2.84151e-05 -1.38517e-05 -7.33948e-06 -1.50635e-05 4.45959e-05 2.73226e-05 -1.7052e-05 -1.90886e-06
internal_weight=4219 1578 1521 1125 396 346 296 2641 1075 178 119 2527 114 536 118 455 192 1021 671 562 318 226 109 244 350 251 145 115 1991 176
internal_count=4219 1578 1521 1125 396 346 296 2641 1075 178 119 2527 114 536 118 455 192 1021 671 562 318 226 109 244 350 251 145 115 1991 176
is_linear=0
shrinkage=0.05


Tree=31
num_leaves=31
num_cat=0
split_feature=7 12 7 11 10 13 7 3 18 10 3 3 11 7 3 12 18 18 7 18 17 10 18 10 7 18 18 3 3 13
split_gain=0.000334571 0.000187461 0.000135487 0.000106561 6.38557e-05 7.54297e-05 8.16547e-05 8.72008e-05 8.67996e-05 0.000119934 8.00527e-05 5.82856e-05 5.78908e-05 5.06417e-05 0.000123346 5.66166e-05 5.43524e-05 4.79311e-05 4.58179e-05 0.000105335 3.9149e-05 3.87591e-05 8.02683e-05 3.83762e-05 4.24003e-05 3.51116e-05 3.12006e-05 2.97907e-05 2.75358e-05 2.79259e-05
threshold=0.39936000000001293 1.0559003291392133 0.9390866666666664 -0.51136661200519018 28.532980887128371 -0.22619782894573504 0.71064666666667342 0.0050058090601071865 152.50000000000003 36.934245267782465 0.0023259997256636776 -0.0032364010404274334 0.55612170237350267 0.76301999999999082 -0.002696234898320242 0.33528487498103998 74.500000000000014 96.500000000000014 0.50002333333333138 244.50000000000003 0.0017125481252227316 34.462140388705755 234.50000000000003 37.961069106755239 0.66103333333334169 36.500000000000007 201.50000000000003 0.00054726699992213763 0.0032699712633737612 -0.090623471374274858
decision_type=2 2 2 2 2 2 2 2 2 2 2 2 2 2 2 2 2 2 2 2 2 2 2 2 2 2 2 2 2 2
left_child=21 2 4 -4 -2 -6 7 8 12 -10 11 -11 20 14 -8 17 -16 -15 26 -20 23 22 -1 -7 27 -5 -13 -25 29 -23
right_child=1 -3 3 25 5 6 13 -9 9 10 -12 18 -14 15 16 -17 -18 -19 19 -21 -22 28 -24 24 -26 -27 -28 -29 -30 -31
leaf_value=5.012074059943024e-05 -3.2013104718730981e-05 0.00010313825824986062 0.00010254601934183016 -1.822283195451746e-06 5.6304078580637909e-05 -4.4866850339531089e-05 0.00011304040301547503 6.0784835348950486e-05 6.9024075526860192e-05 -1.6448532762655639e-05 -5.6572843626781835e-05 3.1607235601329411e-05 -5.5821691037433798e-05 2.1119394388242691e-05 5.0754142432468491e-05 5.891982833558219e-05 -1.820544304174068e-05 -2.6980637483373153e-05 8.5151067369598397e-05 3.264211644925715e-06 -3.9506725213133006e-05 -3.8711684738909307e-05 -2.525080388080058e-05 -1.7848844883587845e-05 3.864511021573789e-05 5.3789804284557854e-05 -1.493223949661402e-05 7.4906223731016089e-06 -3.9606174639686305e-05 -1.3892997670453148e-05
leaf_weight=66 101 56 66 64 80 52 50 58 81 142 50 58 72 122 62 52 53 90 73 85 89 122 76 230 63 51 95 234 129 1597
leaf_count=66 101 56 66 64 80 52 50 58 81 142 50 58 72 122 62 52 53 90 73 85 89 122 76 230 63 51 95 234 129 1597
internal_value=-4.90308e-07 1.28136e-05 1.04859e-05 5.19044e-05 6.72248e-06 8.79139e-06 6.69254e-06 7.77248e-07 -1.85148e-06 1.25595e-05 3.46682e-06 1.00937e-05 -1.32245e-05 2.57483e-05 4.74781e-05 1.21672e-05 1.89728e-05 6.9957e-07 2.22127e-05 4.1098e-05 -8.63318e-06 -1.53921e-05 9.78104e-06 -3.8875e-06 1.56002e-07 2.28405e-05 2.71018e-06 -5.06989e-06 -1.73264e-05 -1.56544e-05
internal_weight=4219 2229 2173 181 1992 1891 1811 1382 1324 584 503 453 740 429 165 264 115 212 311 158 668 1990 142 579 527 115 153 464 1848 1719
internal_count=4219 2229 2173 181 1992 1891 1811 1382 1324 584 503 453 740 429 165 264 115 212 311 158 668 1990 142 579 527 115 153 464 1848 1719
is_linear=0
shrinkage=0.05


Tree=32
num_leaves=31
num_cat=0
split_feature=6 13 18 3 10 11 17 18 11 17 3 11 18 3 11 3 18 14 14 10 18 3 11 3 3 18 18 18 3 11
