tree
version=v4
num_class=1
num_tree_per_iteration=1
label_index=0
max_feature_idx=18
objective=binary sigmoid:1
feature_names=ret_1 ret_5 ret_15 vwap_dev rvol vol_z atr_5 atr_15 rv_5 rv_annual rsi_14 macd macd_signal macd_hist ema_9_21_spread ema_slope high_dist_5 low_dist_5 minutes_into_session
feature_infos=[-0.015677687171702148:0.014967032077990439] [-0.015690910556436122:0.015563047875927216] [-0.016330477290430023:0.016776440101495593] [-0.0079118014339674726:0.0097694233743588783] [0.085897591586046582:16.421932949697943] [-2.2805209086673317:4.2477201019028978] [0.091999999999984539:5.6134799999999361] [0.13232666666666168:2.3150733333332938] [0:0.0072283513829064262] [0:2.2660622193327193] [0:92.774767560002246] [-2.9941801703616875:3.3715872000049103] [-2.4501411230505341:2.9327479907069276] [-1.3227458395538956:1.4162982293934174] [-0.0045251449473134682:0.0048278690298358112] [-0.0071149865152180247:0.0074600997333376107] [0:0.016609799372185013] [0:0.029208551223345092] [0:269]
tree_sizes=3324 3434 3453 3443 3463 3430 3429 3459 3460 3481 3458 3452 3450 3444 3430 3439 3447 3470 3443 3453 3455 3447 3435 3474 3446

Tree=0
num_leaves=31
num_cat=0
split_feature=7 6 11 18 7 16 18 14 18 12 12 18 12 18 18 7 7 11 14 16 11 7 6 18 7 7 8 8 15 13
split_gain=112.755 80.0403 83.9235 80.0284 44.887 38.8653 27.1366 35.2333 33.8954 44.6594 23.6331 22.2525 20.3143 18.4437 24.7175 18.2097 18.4246 21.4015 16.0497 14.672 14.1076 19.5725 13.6198 12.8159 29.2582 10.3362 9.85332 9.69796 9.69044 9.17176
threshold=0.16279666666667938 0.54525000000003276 -0.73291685778491444 220.50000000000003 0.33943000000000062 0.0010311327260550214 128.50000000000003 0.00015971902018022189 76.500000000000014 0.089662586660594457 -0.52585463445225922 40.500000000000007 0.1383070947388457 150.50000000000003 67.500000000000014 0.20016999999998389 0.30083333333334022 0.17196091973460173 -2.313085698621824e-05 0.000341157205811951 0.012988498304991937 0.46018000000000642 0.3640000000000328 83.500000000000014 0.64905666666665718 0.53390333333333062 0.00015765687220931196 0.00042064191367711365 2.6648300548437479e-05 0.25202354610274119
decision_type=2 2 2 2 2 2 2 2 2 2 2 2 2 2 2 2 2 2 2 2 2 2 2 2 2 2 2 2 2 2
left_child=-1 3 11 4 13 12 7 8 9 -6 -4 -3 18 14 -2 28 17 -17 -5 -8 21 -10 -9 24 -12 -24 -16 -21 -15 -26
right_child=1 2 10 5 6 -7 19 22 20 -11 23 -13 -14 15 26 16 -18 -19 -20 27 -22 -23 25 -25 29 -27 -28 -29 -30 -31
leaf_value=0.28949437671766509 0.41619942017502221 0.3098925139182187 0.39408937034430047 0.44236088538665747 0.45446693995307008 0.35625191664674954 0.39904521147308575 0.38875388921186088 0.31210970274436578 0.337883096697709 0.40181201932823679 0.40261131937528044 0.39598854755691887 0.45851530501850879 0.37521712685387582 0.35208597953519954 0.4280342176457651 0.42447896217175723 0.4835954010166828 0.450200665441507 0.39692573224819644 0.38406755828386807 0.44940807495974083 0.47329793343660476 0.46755963845762155 0.4008004052061972 0.32868315940285986 0.40124780753032363 0.3967110317552856 0.42192773717883497
leaf_weight=17.975497618317604 13.901051491498945 12.942358285188677 16.297784507274628 61.356365203857422 23.248310253024101 12.223338380455969 28.041776284575462 22.049943745136261 27.562429681420326 12.702684983611105 27.802102982997894 12.942358285188673 15.099417999386786 12.223338380455973 15.81843790411949 52.009106442332268 14.859744697809218 12.702684983611105 38.347728252410889 58.719958886504173 12.702684983611105 14.380398094654081 38.108054950833321 72.62101037800312 73.819376885890961 15.339091300964354 40.504787966609001 12.223338380455969 13.182031586766241 12.942358285188673
leaf_count=75 58 54 68 256 97 51 117 92 115 53 116 54 63 51 66 217 62 53 160 245 53 60 159 303 308 64 169 51 55 54
internal_value=0.413332 0.416126 0.44105 0.406049 0.395962 0.441011 0.408941 0.396591 0.375568 0.413274 0.451837 0.356252 0.450035 0.376324 0.356489 0.389593 0.377826 0.366296 0.45822 0.429664 0.350762 0.336781 0.421817 0.456865 0.446449 0.435458 0.341752 0.441766 0.426447 0.460753
internal_weight=814.65 796.674 229.367 567.307 440.28 127.027 265.079 166.094 90.5965 35.951 203.483 25.8847 114.804 175.201 70.2243 104.977 79.5715 64.7118 99.7041 98.9851 54.6455 41.9428 75.4971 187.185 114.564 53.4471 56.3232 70.9433 25.4054 86.7617
internal_count=3399 3324 957 2367 1837 530 1106 693 378 150 849 108 479 731 293 438 332 270 416 413 228 175 315 781 478 223 235 296 106 362
is_linear=0
shrinkage=1


Tree=1
num_leaves=31
num_cat=0
split_feature=7 6 18 3 11 3 3 3 3 3 7 12 18 7 7 3 12 18 11 12 12 15 18 7 3 18 7 18 4 3
split_gain=99.6126 72.875 75.1795 95.9718 70.3426 60.6985 58.5399 49.374 47.8929 74.3541 50.9533 42.5975 36.9672 39.9234 34.0876 27.674 23.3044 46.274 21.8257 26.9438 21.2618 20.765 20.3992 19.7044 16.9347 18.0588 16.3104 24.3033 13.8354 13.2334
threshold=0.16279666666667938 0.51900000000000557 220.50000000000003 0.0035304359589836899 -0.73291685778491444 -0.0018967285909154434 0.0025704668976142659 -0.0039516950455789866 -0.0014399776481140391 0.0007256964302520515 0.25576666666666298 -0.23358494995537196 157.50000000000003 0.37959333333332484 0.26746333333332667 0.0026631143479324887 0.22802990743814672 50.500000000000007 0.18367923651288723 0.082000641293839188 -0.52585463445225922 -0.00029873669012248078 40.500000000000007 0.34744999999999976 -0.00083670328297667774 122.50000000000001 0.62633000000001482 111.50000000000001 0.84126743316751351 0.0014313528989657526
decision_type=2 2 2 2 2 2 2 2 2 2 2 2 2 2 2 2 2 2 2 2 2 2 2 2 2 2 2 2 2 2
left_child=-1 2 3 7 22 11 -7 -2 23 14 15 -4 13 -12 -10 -11 17 -16 19 -14 -6 -19 -3 -9 -23 -26 27 28 -22 -15
right_child=1 4 5 -5 20 6 -8 8 9 10 12 -13 18 29 16 -17 -18 21 -20 -21 26 24 -24 -25 25 -27 -28 -29 -30 -31
leaf_value=-0.1140646705646074 0.054153838552499979 -0.095403900344012166 0.027903424877260909 0.065047368530047681 -0.018800237433793478 0.067093095608474151 -0.038062182046387109 -0.11841327508912121 0.075158733237251321 -0.10665597183964376 -0.079085130742184484 -0.087536322790011348 0.025781672052504031 -0.039671021722842405 0.075108814416955383 -0.032799080788451916 -0.066086344322597093 0.042426076100017696 0.07038098753038291 -0.066834824801594667 -0.037581236514476868 -0.067161271239091283 -0.007477167848430913 -0.051761197580190814 -0.037181097733126119 0.029504058642300025 0.049400291650828231 0.048932414013882868 0.024178732562840522 0.011251460070359539
leaf_weight=18.362577259540558 19.342142224311829 13.181005150079729 15.526936843991281 33.068264678120613 17.075329482555389 75.035739406943321 16.06963537633419 15.978548750281332 17.316208064556122 35.536042854189873 40.331828624010086 16.46548755466938 21.801353171467781 23.984633892774582 20.059485390782356 19.72240523993969 12.018264859914778 14.630970954895018 12.189373582601545 12.273682773113249 19.436559319496155 16.44505487382412 13.204896584153174 36.233446657657623 22.508854106068611 18.494075462222099 136.84584686160088 36.564126774668694 16.998906895518303 27.257566854357719
leaf_count=75 81 54 65 138 71 316 67 66 72 147 167 69 91 100 84 82 50 61 51 51 81 68 55 151 93 77 577 154 71 114
internal_value=0.00106983 0.00372716 -0.00661521 -0.0167036 0.0258686 0.0277394 0.0485453 -0.0237049 -0.0278108 -0.0204499 -0.0397303 -0.0315098 -0.023468 -0.0418727 0.0101988 -0.0802956 -0.000600909 0.00794082 0.0129617 -0.0075784 0.0348533 -0.010752 -0.0514007 -0.0721589 -0.0242954 -0.00710324 0.0392191 0.0201334 -0.00876722 -0.0125835
internal_weight=813.959 795.597 542.29 419.192 253.307 123.098 91.1054 386.124 366.782 314.57 193.097 31.9924 137.838 91.574 121.473 55.2584 104.157 92.1384 46.2644 34.075 226.921 72.079 26.3859 52.212 57.448 41.0029 209.845 72.9996 36.4355 51.2422
internal_count=3399 3324 2261 1744 1063 517 383 1606 1525 1308 803 134 574 381 505 229 433 383 193 142 954 299 109 217 238 170 883 306 152 214
is_linear=0
shrinkage=0.05


Tree=2
num_leaves=31
num_cat=0
split_feature=6 18 3 3 14 3 3 3 3 6 18 3 6 13 6 12 15 15 2 12 3 16 13 18 18 3 12 11 2 12
split_gain=85.5808 66.7909 78.2882 81.9352 53.4506 51.6499 30.959 63.6703 53.1316 48.7751 32.7515 30.3123 29.8483 29.2504 24.6359 22.3861 21.4493 30.5204 17.8906 16.8889 31.8554 16.7563 15.7146 24.5491 14.4204 14.3653 12.1127 11.7545 12.9958 11.6049
threshold=0.42599999999998778 222.50000000000003 0.0025145234351757347 -0.0018967285909154434 -0.0012974715542511982 0.0035706199054662091 0.0007256964302520515 -0.0011110223304932286 -0.0036378257169344401 0.2472899999999868 156.50000000000003 0.0022768014532061763 0.58200000000000507 0.020773281516507942 0.25584000000000068 -0.64636639598797174 -0.00023271323266915719 0.00026443332748027354 -0.00092383418006009011 0.099848165886629495 0.0024293984757974541 0.000497907727361873 -0.088374886440509545 51.500000000000007 88.500000000000014 0.0021178006267515187 -0.35544655735433767 -0.19128017906677994 3.3460154975184515e-05 0.074841616170502223
decision_type=2 2 2 2 2 2 2 2 2 2 2 2 2 2 2 2 2 2 2 2 2 2 2 2 2 2 2 2 2 2
left_child=1 5 3 -3 -2 6 7 8 -1 19 13 12 16 -11 -9 -14 18 21 26 20 -8 -18 -16 -24 -15 -12 -6 -10 -29 -13
right_child=4 2 -4 -5 11 -7 9 14 27 10 25 29 15 24 22 -17 17 -19 -20 -21 -22 -23 23 -25 -26 -27 -28 28 -30 -31
leaf_value=0.043814292268516623 -0.078185477759221481 -0.049811447746134774 -0.061854152134841738 0.067426605408232893 0.0025007436920555983 0.049019735894324908 -0.1002094319905945 0.072188779547923465 -0.040905445975284283 -0.014531628810903557 -0.007081411947559792 0.012297112693621239 -0.030064839850830163 -0.046781159648459227 -0.046405071065823061 0.037364238138786532 -0.005385910057164359 0.029130676209735265 -0.024338546523670908 -0.098212031221100879 0.01239010855993971 -0.061054542974187304 0.066168287504734205 -0.0068013905786496647 -0.11435290228049784 0.057298897957152456 0.064514274406742414 -0.11672249892026343 -0.051714831090125507 0.065586126474385206
leaf_weight=12.048475563526152 13.49321588873863 19.029389142990112 22.874417632818222 68.726904988288879 11.909334808588023 22.574859872460365 13.003112211823465 15.881042689085005 18.174971058964729 36.560500949621201 31.751342132687569 12.84668882191181 13.521658241748808 15.953948497772219 13.002779006958006 137.25705397129059 23.180774003267288 24.502198442816734 13.431285187602041 39.582075595855713 12.150962084531782 32.426754787564278 16.32912740111351 39.188645362854004 15.631861597299574 11.91647259891033 23.240319445729259 19.573827728629112 12.660779118537901 49.903725385665894
leaf_count=51 55 79 94 294 50 95 53 67 75 151 132 54 56 66 54 583 97 103 56 162 50 135 69 162 64 50 98 80 52 212
internal_value=0.00103653 -0.0132876 0.0205301 0.0420043 0.0194238 -0.024101 -0.029205 -0.0122433 -0.0505142 -0.0433142 -0.0233174 0.0232724 0.0162211 -0.0449793 0.0160776 0.0313173 -0.00146606 -0.0173622 0.0247467 -0.0778532 -0.0458169 -0.0378483 0.00307263 0.0146608 -0.0802225 0.0104873 0.043503 -0.0730598 -0.0911895 0.0546764
internal_weight=812.329 456.615 110.631 87.7563 355.713 345.985 323.41 146.86 62.4581 176.55 111.814 342.22 279.469 68.1463 84.4016 150.779 128.691 80.1097 48.5809 64.7361 25.1541 55.6075 68.5206 55.5178 31.5858 43.6678 35.1497 50.4096 32.2346 62.7504
internal_count=3399 1900 467 373 1499 1433 1338 610 258 728 463 1444 1178 281 352 639 539 335 204 265 103 232 285 231 130 182 148 207 132 266
is_linear=0
shrinkage=0.05


Tree=3
num_leaves=31
num_cat=0
split_feature=7 6 14 18 3 3 3 3 3 3 7 18 7 7 7 7 7 11 15 13 3 11 18 3 11 13 3 10 6 7
split_gain=84.8688 60.6335 60.3292 57.2474 78.8928 52.9891 44.9207 43.173 38.0514 54.2912 49.1236 35.2445 31.0685 31.0376 27.7283 26.123 31.1173 17.6248 16.5334 24.5503 20.8829 15.4906 14.8479 21.1316 15.252 15.8594 12.2515 11.9199 11.1764 10.1033
threshold=0.16279666666667938 0.58200000000000507 -0.0012974715542511982 218.50000000000003 0.0035304359589836899 -0.0018967285909154434 0.0025704668976142659 -0.0039516950455789866 -0.0014399776481140391 0.0007256964302520515 0.30490666666668181 170.50000000000003 0.26746333333332667 0.41842999999999325 0.46896666666666159 0.24977666666666973 0.20438333333332823 -0.37133914239262816 -0.00029873669012248078 0.01697788845323921 -0.00066821487839840326 0.024489525283286188 133.50000000000003 0.0013570267179923389 0.033314762367353985 0.0139394335643471 0.0014313528989657526 64.246654008005052 0.39100000000000829 0.76368666666667961
decision_type=2 2 2 2 2 2 2 2 2 2 2 2 2 2 2 2 2 2 2 2 2 2 2 2 2 2 2 2 2 2
left_child=-1 3 -3 4 7 13 -7 -2 14 12 11 -11 -10 -5 -9 16 -13 29 -14 20 -20 -22 24 -24 -12 26 -26 -6 -27 -4
right_child=1 2 17 5 27 6 -8 8 9 10 22 15 18 -15 -16 -17 -18 -19 19 -21 21 -23 23 -25 25 28 -28 -29 -30 -31
leaf_value=-0.1044051072688163 0.048982472652579941 -0.07595064040924715 0.027727659269615314 -0.074383984789172422 0.079545775575079872 0.061698091890861041 -0.026696357383280689 -0.078402590174165246 0.073661772699863667 -0.091482821841543382 -0.06321215779257526 0.0025047180915137891 0.036609459337984193 0.016010439520101363 0.0051708913583803431 0.026476657122353114 -0.10394552353794462 0.043699994686645927 -0.088693447394244285 0.017947042551973193 0.025790431698387812 -0.03943655333822866 -0.040919097031803395 0.036429370117244335 -0.019186920962336332 -0.067667520769975578 0.041743796785912966 0.020438560258081769 -0.0073324943679157545 -0.021247173734646473
leaf_weight=18.656373560428619 22.296145901083946 13.118406400084494 25.077240601181984 17.34008152782917 23.095828846096992 75.747694432735443 17.738387927412987 45.132460340857506 16.120968446135521 45.136137321591377 19.129276677966118 12.418809443712236 24.18653616309166 20.992190763354301 12.722699776291845 14.490075722336767 15.351347163319586 139.5043321698904 12.708365455269812 43.517324358224869 14.615578085184096 24.130279168486595 12.760971531271933 28.666185230016708 16.244453355669975 15.694985732436182 16.763943031430244 13.524498775601385 15.02143958210945 18.154267475008965
leaf_count=75 95 53 106 71 99 329 73 184 69 183 79 51 102 88 53 60 62 600 52 182 61 100 53 121 67 64 70 58 63 76
internal_value=0.0010022 0.00348706 0.0276205 -0.00444958 -0.0127146 0.0246264 0.0449258 -0.0187534 -0.0224842 -0.0162243 -0.0320359 -0.0607592 0.00851677 -0.0248806 -0.0600243 -0.0279447 -0.056341 0.0350558 -0.000296735 -0.00969569 -0.0330745 -0.0148319 -0.0118373 0.0126034 -0.0240577 -0.0123041 0.0117579 0.0577165 -0.0381615 0.00716159
internal_weight=810.057 791.401 195.854 595.547 463.728 131.818 93.4861 427.108 404.812 346.957 211.678 87.3964 135.279 38.3323 57.8552 42.2602 27.7702 182.736 119.158 94.9715 51.4542 38.7459 124.281 41.4272 82.8541 63.7248 33.0084 36.6203 30.7164 43.2315
internal_count=3399 3324 835 2489 1928 561 402 1771 1676 1439 873 356 566 159 237 173 113 782 497 395 213 161 517 174 343 264 137 157 127 182
is_linear=0
shrinkage=0.05


Tree=4
num_leaves=31
num_cat=0
split_feature=7 6 14 3 10 7 3 12 12 3 7 3 3 3 3 7 7 8 15 3 6 7 12 10 8 7 12 3 13 13
split_gain=76.3061 55.1718 54.6795 35.6646 28.695 28.7276 28.336 21.248 19.5392 19.4801 26.9063 23.5353 65.6179 30.0111 26.5661 29.046 28.4501 18.6921 18.3499 21.1365 16.7966 13.4628 13.3602 30.0254 26.2572 10.6746 10.5744 10.0194 12.1085 9.94779
threshold=0.16279666666667938 0.58200000000000507 -0.0011022064862338703 0.0040941426149468238 63.815927158141065 0.21469000000000357 0.0017430803198397232 1.0000000180025095e-35 -0.61760645886995469 0.0024724315271449256 0.32532333333332425 -0.0039516950455789866 -0.0018967285909154434 -0.0060043899008215091 0.0007256964302520515 0.23815666666667998 0.26746333333332667 0.00036532638564820111 -0.0004511670493133057 -0.0010164272339298172 0.40800000000000414 0.3495766666666707 0.24996650814619623 50.545661299584602 0.00038242961195019364 0.35859666666665746 0.089662586660594457 0.0026631143479324887 0.053880859703661611 0.016203828408106666
decision_type=2 2 2 2 2 2 2 2 2 2 2 2 2 2 2 2 2 2 2 2 2 2 2 2 2 2 2 2 2 2
left_child=-1 3 -3 4 5 6 -2 -8 -4 11 -11 13 17 -7 16 -16 -14 -13 -18 21 27 -20 23 24 25 -17 -9 28 -6 -21
right_child=1 2 8 -5 20 9 7 26 -10 10 -12 12 14 -15 15 22 18 -19 19 29 -22 -23 -24 -25 -26 -27 -28 -29 -30 -31
leaf_value=-0.098764449412247601 0.073173253084331716 -0.054725965212823739 -0.019905835101102359 0.064369113115616952 -0.062013878023151052 -0.033476783275079823 -0.046561927563490701 0.059097022258964994 0.040202694245911941 -0.028498759676652649 0.054019530813864881 -0.083997082670185075 0.063176208029933636 0.051446519560655969 -0.082528014034354474 0.053951756241362336 0.057107148839537783 -0.017461167001406975 -0.071383555390893944 -0.0057331725257563568 0.010497441399719722 -0.010697130864370626 0.021492173648467158 -0.046013674090440465 -0.054158307150244028 -0.0011183138069238454 -0.004447186739240396 -0.074058890564161733 0.00067316605302891242 0.029082178233755213
leaf_weight=18.733306899666786 23.215732246637344 18.731675192713737 14.761965557932852 18.363831773400307 15.436134159564974 15.61991700530052 13.772022247314451 14.326021254062654 160.68985195457935 15.225082680582998 28.130814626812935 38.676487252116203 20.750095993280411 31.149675905704498 16.991540983319283 20.169851124286652 12.877708092331885 14.517979547381399 16.185771763324738 51.971849903464317 14.858408853411673 20.990724802017212 23.0827297270298 54.571995839476585 12.537983283400534 15.609687045216559 12.057087108492849 23.532558247447014 15.37695427238941 33.901029169559479
leaf_count=75 102 76 61 80 63 65 57 62 698 63 120 157 91 133 69 86 55 60 66 216 63 88 96 226 52 66 50 96 64 143
internal_value=0.000969033 0.00333977 0.026476 -0.00422494 -0.00641359 -0.00228611 0.0292015 0.00377917 0.0351454 -0.00679079 0.025042 -0.0102445 -0.0146624 0.0230842 -0.00557733 -0.0211629 0.00864411 -0.0658379 0.000319457 -0.00562365 -0.0366124 -0.0371186 -0.0128858 -0.0205983 0.00810692 0.0299261 0.0300573 -0.0494924 -0.0307306 0.00801129
internal_weight=806.816 788.083 194.183 593.9 575.536 506.332 63.3709 40.1551 175.452 442.961 43.3559 399.605 352.835 46.7696 299.641 142.964 156.677 53.1945 135.927 123.049 69.2041 37.1765 125.972 102.89 48.3175 35.7795 26.3831 54.3456 30.8131 85.8729
internal_count=3399 3324 835 2489 2409 2123 271 169 759 1852 183 1669 1471 198 1254 595 659 217 568 513 286 154 526 430 204 152 112 223 127 359
is_linear=0
shrinkage=0.05


Tree=5
num_leaves=31
num_cat=0
split_feature=7 7 18 12 3 12 18 18 12 18 7 7 3 18 11 3 7 18 7 18 7 3 12 7 3 14 14 14 7 12
split_gain=73.1637 52.4014 78.1233 52.5058 46.1589 48.8318 39.3512 52.0417 36.5138 36.0867 38.63 55.7093 22.6116 30.8502 31.4163 16.5602 27.466 49.8433 27.5513 26.3211 22.749 17.1578 15.8192 31.2452 39.6273 28.2173 15.7492 32.9607 15.3536 14.2844
threshold=0.16279666666667938 0.42874000000001239 151.50000000000003 -0.37046202483555224 -0.0019435637767669157 0.10779026636202967 57.500000000000007 147.50000000000003 -0.21447610342387222 223.50000000000003 0.30083333333334022 0.20016999999998389 0.0033565915624810525 76.500000000000014 0.02969678113834107 0.002779779026921374 0.642083333333335 124.50000000000001 1.074359999999998 57.500000000000007 0.49003666666666662 -0.0010570554839154343 -0.14840329545039019 0.37959333333332484 0.00069873306559970123 1.3759348123130468e-05 0.00019686365327665313 0.00041687880417273565 0.52399333333332088 -0.10943467344501681
decision_type=2 2 2 2 2 2 2 2 2 2 2 2 2 2 2 2 2 2 2 2 2 2 2 2 2 2 2 2 2 2
left_child=-1 2 12 6 8 9 -3 -8 -4 10 11 -6 13 14 -2 16 17 19 -18 28 21 -19 -15 24 25 -24 -16 -28 -5 -21
right_child=1 3 4 15 5 -7 7 -9 -10 -11 -12 -13 -14 22 26 -17 18 20 -20 29 -22 -23 23 -25 -26 -27 27 -29 -30 -31
leaf_value=-0.092350011285888919 0.055201553039711262 -0.074752030491163912 0.021949880496535335 0.033689112426610164 0.053921239543748001 -0.020801823553892543 0.039002575694406037 -0.06017820615569737 -0.076287628797906085 0.061892498646122687 0.064693054863616553 -0.048628762611221142 0.030064630007170801 -0.100890418302879 -0.074061109668522543 0.050186601477948893 0.049675085052473394 0.038463675532858566 -0.030586519961066278 -0.0077229586800258007 0.062502820470006396 -0.03544937166502881 -0.07535641721614246 0.002485204364045038 -0.097359977315979646 0.026623183209527685 0.047601904475393128 -0.064825834116290004 -0.03036645079277522 -0.073965601610931672
leaf_weight=21.709684535861015 13.399787068367003 24.178349226713181 14.671550974249838 21.778501734137535 20.812414899468422 60.930587723851204 34.997770369052887 21.261177226901054 26.623279228806496 60.642077788710594 23.59860597550869 36.414478823542595 11.685877576470373 17.555019468069077 14.871266409754751 50.744388535618782 83.913221165537834 17.200529158115391 12.253545626997946 11.953375294804571 36.900248020887375 14.445814803242682 12.37155242264271 22.195969730615616 40.372677490115166 15.016258895397185 12.816187620162966 13.268128007650374 16.398940667510033 25.497514009475708
leaf_count=87 57 99 62 92 90 252 147 89 108 271 100 150 50 71 61 224 369 73 53 50 160 61 50 92 162 63 53 54 69 106
internal_value=-0.00179858 0.00069371 -0.0114671 0.0143512 0.00679109 0.0166204 -0.021406 0.00152053 -0.041385 0.0327382 0.0108642 -0.0113331 -0.0371043 -0.0419535 -0.0112544 0.0242321 0.0187522 0.00494772 0.0394482 -0.0230408 0.0358277 0.0047241 -0.0574743 -0.0490017 -0.065867 -0.0194428 -0.0329973 -0.00958593 0.00617435 -0.0528226
internal_weight=810.479 788.769 417.246 371.523 243.693 202.398 80.4373 56.2589 41.2948 141.468 80.8255 57.2269 173.553 161.867 54.3554 291.086 240.342 144.175 96.1668 75.6283 68.5466 31.6463 107.511 89.9565 67.7605 27.3878 40.9556 26.0843 38.1774 37.4509
internal_count=3425 3338 1746 1592 1033 863 335 236 170 611 340 240 713 663 225 1257 1033 611 422 317 294 134 438 367 275 113 168 107 161 156
is_linear=0
shrinkage=0.05


Tree=6
num_leaves=31
num_cat=0
split_feature=7 7 18 12 3 12 18 18 12 18 7 7 3 18 12 3 7 18 7 18 7 3 7 7 3 3 14 12 5 13
split_gain=66.4033 47.5486 70.5081 47.7198 41.7599 44.5927 35.1931 46.8055 33.9338 33.69 35.4264 50.4333 20.387 27.8352 25.8397 15.3751 25.263 45.269 25.326 23.4691 21.1587 15.5192 13.8919 12.6553 26.7667 26.3437 33.0326 12.6028 11.0815 9.84251
threshold=0.16279666666667938 0.42874000000001239 151.50000000000003 -0.37046202483555224 -0.0019435637767669157 0.10779026636202967 57.500000000000007 147.50000000000003 -0.10679511470757501 223.50000000000003 0.30083333333334022 0.20016999999998389 0.0033565915624810525 75.500000000000014 0.1258120369069809 0.002779779026921374 0.642083333333335 124.50000000000001 1.074359999999998 57.500000000000007 0.49003666666666662 -0.0010570554839154343 0.52399333333332088 0.37959333333332484 0.00076736135712305719 0.00069873306559970123 1.3759348123130468e-05 -0.10943467344501681 -0.34684386397048056 -0.078381839017501745
decision_type=2 2 2 2 2 2 2 2 2 2 2 2 2 2 2 2 2 2 2 2 2 2 2 2 2 2 2 2 2 2
left_child=-1 2 12 6 8 9 -3 -8 -4 10 11 -6 13 14 -2 16 17 19 -18 22 21 -19 -5 25 -25 26 -15 -21 -7 -16
right_child=1 3 4 15 5 28 7 -9 -10 -11 -12 -13 -14 23 29 -17 18 20 -20 27 -22 -23 -24 24 -26 -27 -28 -29 -30 -31
leaf_value=-0.088190822355870405 0.036302401695316538 -0.070506687271540094 -0.0060339204932171597 0.032261350807160055 0.051979891417795757 0.0060558969393958379 0.037370930905604623 -0.056506434429235891 -0.10100487972875923 0.060054280395796147 0.062457053796102668 -0.045943531962137067 0.028776082258020409 -0.07697632085952523 -0.072034689156925805 0.048455967496179142 0.047941504541929539 0.036877662199051482 -0.028825628604117415 -0.0073257923911644518 0.060477423146667458 -0.033419320571910875 -0.028661672599792895 -0.067163516603367127 0.024138830148272606 -0.09261666914871497 0.021073575555727864 -0.069396321061501245 -0.037300201463929171 -0.016034971186695831
leaf_weight=21.599353030323982 19.138273000717163 24.347694769501686 26.894807025790215 21.609582513570786 20.517774298787117 24.808777883648872 34.706999912858009 21.503970324993134 14.464087799191473 59.404923677444458 23.230634674429893 36.610275492072105 11.600896567106245 19.381011515855789 12.314099982380865 49.94931235909462 82.633017182350159 17.047218263149265 12.349418237805365 11.970888897776602 36.245917767286301 14.554246738553045 16.502841889858246 18.904392972588539 13.951518893241881 41.150398746132851 15.427625879645346 25.808955058455467 36.306408286094666 21.627139553427696
leaf_count=87 82 99 112 92 90 103 147 89 58 271 100 150 50 78 50 224 369 73 53 50 160 61 69 77 58 165 65 106 149 88
internal_value=-0.00170399 0.000675819 -0.0109214 0.0137337 0.00650486 0.0159248 -0.0202927 0.00145737 -0.0392473 0.0315028 0.0103962 -0.0107739 -0.0352524 -0.0398405 -0.0101559 0.0232294 0.0179511 0.00472897 0.0379604 -0.0218018 0.0344056 0.00450196 0.00588142 -0.0543206 -0.028394 -0.065535 -0.0335194 -0.0497287 -0.0197005 -0.036352
internal_weight=806.562 784.963 415.733 369.23 242.238 200.879 80.5587 56.211 41.3589 139.764 80.3587 57.128 173.495 161.894 53.0795 288.671 238.722 143.74 94.9824 75.8923 67.8474 31.6015 38.1124 108.815 32.8559 75.959 34.8086 37.7798 61.1152 33.9412
internal_count=3425 3338 1746 1592 1033 863 335 236 170 611 340 240 713 663 220 1257 1033 611 422 317 294 134 161 443 135 308 143 156 252 138
is_linear=0
shrinkage=0.05


Tree=7
num_leaves=31
num_cat=0
split_feature=7 7 12 3 11 3 3 7 6 6 3 3 10 7 3 8 15 10 12 3 3 7 3 5 11 12 10 14 15 10
split_gain=60.5031 43.1968 43.7792 31.0808 26.9731 44.5102 30.991 27.7666 18.3509 15.1105 17.019 17.6756 11.2627 11.1449 14.9588 10.265 15.1656 9.97518 9.89995 9.56537 11.7278 18.8791 20.2112 9.16769 8.88039 8.02652 17.4655 10.4594 8.2057 7.38708
threshold=0.16279666666667938 0.42874000000001239 -0.28215075937573858 -0.0034342569683269413 0.11973138682941455 -0.0017810844304197227 -0.004193944632813233 0.19828999999998589 0.23624000000002074 0.73949000000000076 0.002779779026921374 -0.0036378257169344401 39.729923757894191 0.63789000000000462 0.0012319886800247319 0.00035459939971988597 0.00031328716419198882 46.047595824117835 0.054286538854784398 0.0020713319835670659 0.0017047120842672257 0.24429000000001605 -0.0010164272339298172 -0.79085133022702292 0.11973138682941455 0.15748739480653332 63.490167689955541 0.00024513067404769953 -9.2550837282934215e-05 40.683416908568624
decision_type=2 2 2 2 2 2 2 2 2 2 2 2 2 2 2 2 2 2 2 2 2 2 2 2 2 2 2 2 2 2
left_child=-1 4 3 12 5 6 -2 -7 -6 10 11 -4 -3 15 24 -13 17 -17 19 20 21 -9 29 -5 -15 27 28 -10 -27 -23
right_child=1 2 9 23 8 7 -8 18 25 -11 -12 13 -14 14 -16 16 -18 -19 -20 -21 -22 22 -24 -25 -26 26 -28 -29 -30 -31
leaf_value=-0.084540889779277359 0.012144290275816162 -0.00011772478630630297 0.060438573726507065 0.0040524822821151104 -0.054969612926521944 0.048772942326462766 -0.065383044837184975 0.054255824906630314 -0.066515885852134499 0.046121165681599831 0.048452267837707425 0.015676869683944803 0.053837567636511569 0.043835310975286999 0.074818668146357875 0.0063383817290428622 0.020591486670258861 -0.047631495633996532 -0.019979857302625303 0.043540252899683829 -0.036984303719759984 -0.0002750825714461248 0.018774413064918925 -0.043705150593670652 -0.011820774567070057 -0.021075582822913691 -0.039414940291372026 -0.0065441603758602061 0.026604757198876512 -0.049689799175625174
leaf_weight=21.409870743751526 19.21536722779274 25.215253427624702 16.067803561687469 12.343400046229361 43.829030990600586 37.024507775902748 39.160957798361778 18.828703045845032 15.328525677323343 60.613185405731201 36.494703084230423 41.230928629636765 15.690532416105269 11.281251788139345 11.714300379157065 11.773590117692946 19.11278048157692 31.383480951189995 42.196996986865997 16.419053241610527 16.003156021237373 11.866734415292738 50.006746843457222 54.055770009756088 19.653057068586349 12.792824029922484 25.754986673593521 13.829748019576071 30.625537648797035 20.854316622018814
leaf_count=87 81 106 72 52 179 168 159 87 63 274 166 174 68 51 53 50 82 132 176 72 68 50 213 225 87 53 105 58 127 87
internal_value=-0.00161796 0.000657082 0.0131538 -0.013706 -0.0104167 -0.00118005 -0.0398639 0.00941196 -0.0280621 0.0242679 0.017602 0.0106615 0.0205783 0.00518899 0.0266984 -0.00367422 -0.0164872 -0.0329081 0.00113998 0.00779174 0.0027989 0.00906789 -0.00121681 -0.0348272 0.00847612 -0.0160687 -0.00679398 -0.0380713 0.0125562 -0.0317689
internal_weight=801.777 780.367 366.63 107.305 413.737 271.577 58.3763 213.2 142.161 259.325 198.712 162.217 40.9058 146.149 42.6486 103.501 62.2699 43.1571 176.176 133.979 117.56 101.557 82.7278 66.3992 30.9343 98.3316 69.1733 29.1583 43.4184 32.7211
internal_count=3425 3338 1592 451 1746 1161 240 921 585 1141 867 701 174 629 191 438 264 182 753 577 505 437 350 277 138 406 285 121 180 137
is_linear=0
shrinkage=0.05


Tree=8
num_leaves=31
num_cat=0
split_feature=7 7 12 3 3 11 3 7 3 6 12 7 6 3 11 17 16 3 10 16 3 4 12 3 3 7 3 10 10 13
split_gain=55.3144 39.1781 39.8726 27.9507 24.4991 40.9463 34.7037 25.5646 18.6663 28.8509 27.5564 15.6342 14.0501 15.7841 16.6849 13.065 13.4961 15.3413 12.7145 12.4555 10.9677 10.1355 9.90894 8.84621 9.62295 19.6079 17.5654 9.83956 11.8621 8.61667
threshold=0.16279666666667938 0.42874000000001239 -0.28215075937573858 -0.0034342569683269413 -0.0019435637767669157 0.11357953385947896 -0.004193944632813233 0.19828999999998589 0.00061753539862126415 0.31398999999996707 0.24996650814619623 0.24233666666665768 0.73949000000000076 0.002779779026921374 -0.13857222539792244 0.0011544316691190304 0.00076988551496641325 0.00074313601055350364 63.815927158141065 0.00079951089808072992 0.0024724315271449256 0.51347924347057561 0.054286538854784398 0.0020713319835670659 0.0017047120842672257 0.24022666666666057 -0.0010164272339298172 38.156035614734485 46.374383891020251 0.097737849471759369
decision_type=2 2 2 2 2 2 2 2 2 2 2 2 2 2 2 2 2 2 2 2 2 2 2 2 2 2 2 2 2 2
left_child=-1 4 3 19 6 7 -2 -6 9 -7 11 -10 13 14 -4 16 17 -16 -12 -3 -13 -5 23 24 25 -9 27 -27 -29 -15
right_child=1 2 12 21 5 8 -8 22 10 -11 18 20 -14 29 15 -17 -18 -19 -20 -21 -22 -23 -24 -25 -26 26 -28 28 -30 -31
leaf_value=-0.081310587682124624 0.011564622028949603 0.052606178197154574 0.044651440123588446 -0.065543506257588799 0.046970561916270831 0.056825669717626016 -0.073021707238972985 0.055357727031226878 -0.084892542476364255 -0.045800955509594038 0.024824529731804046 -0.052697072046038379 0.044536959049687852 0.063045048379727645 0.00011541828363411291 0.026990946572990046 0.0080382933968108743 -0.06398093799913207 -0.028965740217677782 -0.0035744379695318326 -0.002662037015102901 -0.021278062663376382 -0.021213329011976697 0.041869923562535827 -0.033773072009207282 0.0089595179291287463 0.017819217915560182 -0.07669435655129607 -0.0084952113454380748 0.0097739254337001931
leaf_weight=21.153767183423042 19.170763492584229 16.827483743429184 28.840040624141693 17.54429729282856 36.20548041164875 15.442482724785807 32.997701808810234 18.12326543033123 25.038820251822472 12.305207014083861 21.394952550530434 33.820682555437088 59.655393987894058 24.965931937098503 19.405455484986305 39.037031620740891 56.239994391798973 17.990023657679558 22.580043956637383 23.84641420841217 16.197689086198807 49.185570061206818 39.493611305952072 16.225347146391869 15.846077531576155 12.584113135933874 49.777647703886032 13.730599179863932 11.90334080159664 10.907347947359083
leaf_count=87 81 73 128 72 167 66 133 85 101 51 89 138 274 116 83 170 245 75 92 101 67 205 164 72 67 53 213 56 51 50
internal_value=-0.00153597 0.000635095 0.0125826 -0.0130023 -0.00991189 -0.0052795 -0.0419381 0.0086765 -0.0256164 0.0113141 -0.0342253 -0.0526396 0.0232731 0.0168466 0.0101831 0.00269039 -0.00744061 -0.0307197 -0.00279541 0.0196684 -0.036494 -0.0329161 0.000873577 0.00718582 0.0025717 0.00799884 -0.00175502 -0.0272498 -0.0450255 0.0468478
internal_weight=798.437 777.283 364.445 107.404 412.838 360.669 52.1685 213.889 146.78 27.7477 119.032 75.0572 257.041 197.386 161.513 132.673 93.6355 37.3955 43.975 40.6739 50.0184 66.7299 177.684 138.19 121.965 106.119 87.9957 38.2181 25.6339 35.8733
internal_count=3425 3338 1592 451 1746 1532 214 928 604 117 487 306 1141 867 701 573 403 158 181 174 205 277 761 597 525 458 373 160 107 166
is_linear=0
shrinkage=0.05


Tree=9
num_leaves=31
num_cat=0
split_feature=6 3 12 6 6 3 10 3 3 4 3 15 3 1 13 3 6 3 15 12 6 3 8 11 12 4 15 8 2 13
split_gain=48.3377 31.4355 31.3604 25.099 22.6547 22.5197 21.8342 26.6161 24.3476 17.4239 16.6521 21.0205 15.3067 13.0486 12.1567 13.856 20.6433 28.4248 18.1795 13.6644 14.915 13.5744 11.3565 11.107 10.7842 9.24474 14.0556 9.35084 9.21088 8.72484
threshold=0.39489000000000946 0.0022768014532061763 -0.64636639598797174 0.15269999999998166 0.5556899999999928 -0.004193944632813233 63.11170602290278 -0.0018477630279939694 -0.0044135305851976253 0.30286241972518185 -0.0019435637767669157 -0.00038193644514894482 -0.0029664547757116328 8.0789602513009498e-05 -0.088374886440509545 0.0017297418956466852 0.23493999999996054 -0.00062752227314593441 0.00012584549626770694 0.1258120369069809 0.2790000000000078 0.0011727111018065548 0.00031126794521981019 -0.018252106700685996 0.074841616170502223 0.5630848884900751 -0.00012700904581175451 0.0006486191434610793 0.0011400693722731783 -0.053096805293436015
decision_type=2 2 2 2 2 2 2 2 2 2 2 2 2 2 2 2 2 2 2 2 2 2 2 2 2 2 2 2 2 2
left_child=3 2 12 -1 5 -4 7 8 -5 -9 -7 -12 -2 22 -11 16 21 -18 -19 23 -21 -16 -13 -17 -3 26 -6 -28 -8 -27
right_child=1 24 4 6 25 10 28 9 -10 14 11 13 -14 -15 15 19 17 18 -20 20 -22 -23 -24 -25 -26 29 27 -29 -30 -31
leaf_value=-0.067242693926176378 -0.0086940671695321624 0.0045968699865955838 0.046386787064673293 0.0072933086410957755 -0.038626879743204584 -0.046328878442030264 -0.056820222133881687 -0.057031588943277894 -0.068367814056248893 -0.036041941949937754 0.051877255312776316 0.0031592640832441587 -0.07722079500098164 0.0082760602857286387 0.067447801587610365 -0.021696823393183167 -0.030656876070850454 0.038688808470861993 -0.017620099720006013 -0.058811715553533588 0.0095326614959448264 0.0019736362520656392 -0.049478543129104297 0.023098513532829379 0.052750880586010976 0.017115916104419107 -0.00071332563781268852 0.055912508104554282 -0.018826657583317041 0.046278855816843524
leaf_weight=20.742177218198776 16.794999018311501 14.938672900199888 19.250242710113525 16.787747874855995 13.223479747772215 27.212513402104378 31.263196736574173 12.510799467563627 29.001618206501007 18.169652506709099 15.227118358016012 15.957121923565863 15.829371154308317 41.659685641527176 26.417160958051682 22.414391055703163 37.068309977650642 52.226579934358597 19.756266742944717 21.771197721362114 12.604543730616568 11.303497955203055 28.634203568100929 36.16510896384716 52.444810852408409 50.634864747524261 17.194925069808964 12.657145783305166 32.572556599974632 51.970169946551323
leaf_count=87 70 65 85 71 59 111 128 52 118 76 67 67 64 176 125 96 155 223 82 89 53 51 118 161 246 227 76 57 134 236
internal_value=-0.00146061 0.0109845 0.00456294 -0.0136838 0.00973026 -0.00405172 -0.0107606 -0.00537564 -0.0406282 0.00059384 -0.0115966 -0.00228273 -0.0419433 -0.0118444 0.0033893 0.00637792 0.0159443 0.00491584 0.0232344 -0.00872686 -0.0337519 0.0478276 -0.030642 0.00595838 0.0420753 0.0237261 0.00428655 0.0232958 -0.0374338 0.0318871
internal_weight=794.404 393.629 326.246 400.775 293.621 147.941 380.033 316.197 45.7894 270.408 128.691 101.478 32.6244 86.251 257.897 239.727 146.772 109.051 71.9828 92.9552 34.3757 37.7207 44.5913 58.5795 67.3835 145.681 43.0756 29.8521 63.8358 102.605
internal_count=3425 1724 1413 1701 1279 624 1614 1352 189 1163 539 428 134 361 1111 1035 636 460 305 399 142 176 185 257 311 655 192 133 262 463
is_linear=0
shrinkage=0.05


Tree=10
num_leaves=31
num_cat=0
split_feature=6 12 7 3 10 3 3 3 12 7 4 15 7 4 15 7 7 3 3 7 14 10 10 8 3 3 7 7 3 12
split_gain=43.1393 41.828 35.6372 26.6537 21.507 28.4019 52.037 32.2018 20.6262 18.9005 14.0264 11.1762 10.7468 10.451 19.2526 12.6864 9.63331 9.54919 10.1755 13.3168 19.2275 8.42906 8.09148 7.47628 9.32336 12.4261 24.6744 24.4712 18.0739 11.4108
threshold=0.54525000000003276 -0.61760645886995469 0.16279666666667938 0.0040941426149468238 64.067644124131746 -0.0017810844304197227 -0.004193944632813233 -0.0060043899008215091 0.093390239539156747 0.19584999999999964 0.34350188087270667 -0.00043947249164366648 0.24691666666665621 0.5630848884900751 -0.00012700904581175451 0.66205333333331673 0.21469000000000357 0.0025145234351757347 0.0019419269255222759 0.33575666666667608 0.00020071151047348123 50.672492380329949 35.801041315029678 0.00043036551678240196 0.0025145234351757347 0.0013570267179923389 0.2760466666666806 0.26746333333332667 -0.00083670328297667774 -0.0190403716515779
decision_type=2 2 2 2 2 2 2 2 2 2 2 2 2 2 2 2 2 2 2 2 2 2 2 2 2 2 2 2 2 2
left_child=2 -2 -1 4 5 6 7 -4 9 -7 -10 -11 16 14 -3 -16 -12 18 19 -14 -21 22 -8 24 25 27 -27 -13 -29 -28
right_child=1 13 3 -5 -6 8 21 -9 10 11 12 23 17 -15 15 -17 -18 -19 -20 20 -22 -23 -24 -25 -26 26 29 28 -30 -31
leaf_value=-0.076073188260243063 -0.037400188395219323 -0.043591048709792274 -0.036424190452234578 0.057843981095765135 -0.035146808898398364 0.048871830810621547 -0.033915062082259265 0.059715250195842756 -0.063078121302455215 0.056154203780922896 -0.0014345264544063686 0.054641075480720828 0.030901567616969591 0.035005473214703584 -0.016442873689716499 0.04720814501564654 -0.057413407369978846 0.029290902795148229 -0.048367277537600097 -0.057283351119001839 0.008597897874891576 -0.020405209578975639 -0.079489108897122102 -0.029995374856553028 0.048102456737153861 -0.062323933140195589 0.03333878239360729 -0.025973841081594329 0.01887228203564904 -0.027565190189247829
leaf_weight=18.469420731067657 28.634826436638832 13.226780757308005 14.964375287294386 16.136499032378197 61.751023530960083 29.449077442288399 13.701602742075918 20.839666351675987 12.473274439573286 10.575151622295378 13.457818910479547 26.279257267713547 23.075410291552544 131.42751021683216 11.487598851323126 24.57538178563118 17.917819887399673 21.933442056179047 13.032489269971846 17.394744738936424 30.482483640313148 12.675156891345976 33.679734885692596 15.452749803662298 12.388766765594481 19.143917888402939 19.525254920125008 38.881530523300164 53.217233330011375 12.6884179264307
leaf_count=78 117 58 62 76 255 140 56 93 51 48 57 125 97 606 50 114 74 96 54 71 126 52 137 65 54 80 86 162 226 54
internal_value=-0.000708232 0.0187456 -0.00773515 -0.00548577 -0.00736092 -0.00381021 -0.0281776 0.0195336 0.00221989 0.01138 -0.0123124 0.00607574 -0.00770027 0.027642 0.00800774 0.0269326 -0.0334026 -8.66075e-05 -0.0077588 -0.000299885 -0.0153381 -0.0566217 -0.0663101 0.00339533 0.00622844 0.00317211 -0.0173671 0.0120829 -6.05009e-05 0.00934974
internal_weight=788.938 209.352 579.586 561.117 544.98 483.229 95.8605 35.804 387.369 237.601 149.767 208.152 137.294 180.717 49.2898 36.063 31.3756 105.919 83.9851 70.9526 47.8772 60.0565 47.3813 197.577 182.124 169.736 51.3576 118.378 92.0988 32.2137
internal_count=3420 945 2475 2397 2321 2066 400 155 1666 1040 626 900 575 828 222 164 131 444 348 294 197 245 193 852 787 733 220 513 388 140
is_linear=0
shrinkage=0.05


Tree=11
num_leaves=31
num_cat=0
split_feature=6 11 18 3 3 3 3 3 3 6 6 6 12 3 11 12 18 18 15 18 12 4 3 3 6 18 11 12 3 12
split_gain=39.2393 39.2261 31.2801 52.3856 35.0069 59.5368 28.9227 24.6425 43.5459 35.3408 27.5993 23.9204 20.5612 17.8623 27.2752 16.9175 29.5506 15.4116 13.1473 12.7274 15.4145 14.1054 12.6914 10.4673 10.2148 10.0094 9.9945 9.86136 9.50133 12.6823
threshold=0.54525000000003276 -0.73291685778491444 214.50000000000003 0.0036723293221732262 0.0025704668976142659 -0.0018172855663389699 -0.004193944632813233 -0.0014399776481140391 0.00079759082230917088 0.27181999999999112 0.24199999999999591 0.18999999999997499 -0.23358494995537196 0.0026631143479324887 0.11701280454224162 0.26920278238583328 47.500000000000007 35.500000000000007 -0.00029873669012248078 127.50000000000001 0.12822960806415479 0.58943162384620118 -0.00062752227314593441 -0.0010164272339298172 0.38263999999999221 40.500000000000007 -0.37133914239262816 0.29303673951978676 -0.0024129024096099165 0.11168378308277097
decision_type=2 2 2 2 2 2 2 2 2 2 2 2 2 2 2 2 2 2 2 2 2 2 2 2 2 2 2 2 2 2
left_child=2 25 3 6 5 12 -1 26 10 13 -9 -6 -4 -10 -15 16 -12 22 -18 20 -11 -21 -3 -20 -22 -2 -8 -24 -19 -30
right_child=1 17 4 -5 11 -7 7 8 9 19 15 -13 -14 14 -16 -17 18 28 23 21 24 -23 27 -25 -26 -27 -28 -29 29 -31
leaf_value=0.052646357766437057 -0.070968773582838623 -0.032166573538270432 0.015857432194605749 0.053659750417786478 -0.083404187845352404 0.050903034783420467 -0.014234233908448453 0.073078782009247445 -0.074654113050718271 -0.057577571953910014 0.062799277533988493 0.0074752991204614962 -0.058166459431015942 0.022628736348109649 -0.070675216343306868 -0.04922308234140621 0.034509367296899088 0.060481492324398173 -0.055200023038426194 -0.038365913925852001 -0.034384312331705254 0.021904557026104058 -0.0041427398646305394 -0.0062738057089142445 0.010818983432085641 -0.0089219342346444543 -0.064184978482373853 0.048717342622793008 0.010155258428468419 0.045827743583704519
leaf_weight=13.79045984148979 12.797983318567278 16.99899810552597 16.719717681407928 26.787737160921097 13.928375646471979 76.065234646201134 13.194299325346945 13.945181652903555 49.686903893947601 26.23931285738945 18.783581793308258 15.079887598752974 21.372213438153267 14.879476621747019 16.538653388619423 15.93193870782852 15.664748087525366 29.3800378292799 13.784515708684912 13.203107252717016 23.446735814213753 36.668800234794617 19.021031066775322 52.822127908468254 26.763331666588783 13.208225429058073 41.549564257264137 16.456723839044571 49.455320090055466 50.212797895073891
leaf_count=63 52 77 71 127 59 359 54 66 203 107 82 62 88 65 68 65 69 136 56 55 95 157 86 220 114 54 170 77 225 238
internal_value=-0.000669867 0.0179749 -0.00737767 -0.0140674 0.012887 0.0253505 -0.0185262 -0.021023 -0.0159876 -0.0302386 0.00658931 -0.0361607 -0.0256751 -0.0559953 -0.0264869 -0.00133643 0.0062132 0.0262027 -0.00670611 -0.0137014 -0.0265201 0.00594853 0.00335633 -0.0163993 -0.0102897 -0.039456 -0.0521459 0.020377 0.0354931 0.0281271
internal_weight=784.377 207.531 576.846 433.68 143.165 114.157 406.893 393.102 338.358 207.426 130.932 29.0083 38.0919 81.105 31.4181 116.987 101.055 181.525 82.2714 126.321 76.4494 49.8719 52.4768 66.6066 50.2101 26.0062 54.7439 35.4778 129.048 99.6681
internal_count=3420 945 2475 1836 639 518 1709 1646 1422 864 558 121 159 336 133 492 427 839 345 528 316 212 240 276 209 106 224 163 599 463
is_linear=0
shrinkage=0.05


Tree=12
num_leaves=31
num_cat=0
split_feature=7 7 18 3 12 3 3 18 18 3 3 3 7 7 18 14 18 7 11 18 7 18 7 3 13 3 7 14 3 13
split_gain=37.942 27.0972 53.6744 42.7558 33.7364 32.1683 38.1514 28.5121 27.0608 26.7236 30.0865 26.5513 31.118 31.0567 23.3484 26.6745 21.1579 31.6817 22.3231 18.9839 18.5546 14.963 14.6141 20.6598 14.3278 14.1608 20.3335 14.1551 13.4637 16.5912
threshold=0.16279666666667938 0.47828333333334672 214.50000000000003 0.0035706199054662091 -0.30838042044487168 -0.0018172855663389699 0.0030999497819382614 34.500000000000007 147.50000000000003 -0.004193944632813233 -0.0018477630279939694 0.0007256964302520515 0.30490666666668181 0.26746333333332667 52.500000000000007 -0.00038242327981258132 113.50000000000001 0.64905666666665718 0.35779925839125332 169.50000000000003 0.35604666666666468 46.500000000000007 0.57275666666665759 0.0011727111018065548 -0.054104273797648046 0.0021552050028440422 0.23815666666667998 -7.9264900856687836e-05 0.0012731270859788629 0.010321959678972538
decision_type=2 2 2 2 2 2 2 2 2 2 2 2 2 2 2 2 2 2 2 2 2 2 2 2 2 2 2 2 2 2
left_child=-1 2 3 9 7 20 -7 -3 -9 -2 -11 13 19 -12 24 -16 17 18 22 -13 -4 -19 23 -6 -15 26 -21 -17 -14 -30
right_child=1 4 5 -5 16 6 -8 8 -10 10 11 12 28 14 15 27 -18 21 -20 25 -22 -23 -24 -25 -26 -27 -28 -29 29 -31
leaf_value=-0.072576783147352802 0.055570915282115052 -0.063717345263520492 -0.062924510671111586 0.052533557261840259 0.02500214362476251 0.049191609701894623 -0.047915385953217149 0.028400116694347236 -0.045169003095453041 -0.069031763695277346 0.068403310466089426 -0.072696056779416637 -0.03895915207362171 -0.008718117060664634 0.039147574444733019 -0.061896909230949371 0.048235291885574121 0.016845633462019404 0.027580065931790427 -0.081362406460696701 0.01757635635296274 0.060899467401359736 -0.082936781655198827 -0.061346417836632999 0.066226399924362508 0.020601991100547886 0.0033871629808711516 -0.014892443146728711 0.032313994956846837 -0.020547908408193236
leaf_weight=17.905257150530815 11.215813457965849 21.469172969460487 14.675018638372423 21.430700615048409 14.43594139814377 80.581631228327751 11.566424474120138 37.673288285732269 18.705604806542397 31.911338925361633 14.667928785085676 47.515249282121658 25.979477912187576 11.716176539659502 14.23453715443611 29.614406675100327 62.502406507730484 50.562263801693916 20.987723499536514 16.420960202813152 13.974084481596945 31.149311885237694 11.76143619418144 13.317850381135939 13.995262280106543 11.587002351880072 12.438441202044485 34.882836490869522 27.879949763417244 31.743855521082878
leaf_count=78 52 88 60 101 61 383 47 163 78 131 71 195 106 50 61 122 296 238 95 67 59 152 50 56 62 50 51 144 120 133
internal_value=-0.000633985 0.00105963 -0.00619619 -0.0159388 0.0133347 0.0226158 0.0370027 -0.0146818 0.00399107 -0.0203087 -0.0229307 -0.0179041 -0.0303798 0.000275074 -0.0092928 -0.0228025 0.0239886 0.0133323 -0.0140933 -0.0512652 -0.0236589 0.0336394 -0.0362273 -0.0164328 0.0320757 -0.0260889 -0.0448352 -0.0364749 -0.008919 0.00417019
internal_weight=778.501 760.596 478.031 357.234 282.565 120.797 92.1481 77.8481 56.3789 335.803 324.587 292.676 173.565 119.111 104.443 78.7318 204.717 142.215 60.503 87.9617 28.6491 81.7116 39.5152 27.7538 25.7114 40.4464 28.8594 64.4972 85.6033 59.6238
internal_count=3420 3342 2065 1516 1277 549 430 329 241 1415 1363 1232 722 510 439 327 948 652 262 363 119 390 167 117 112 168 118 266 359 253
is_linear=0
shrinkage=0.05


Tree=13
num_leaves=31
num_cat=0
split_feature=7 18 7 3 3 3 12 3 3 3 7 18 7 18 7 3 7 3 18 18 18 18 13 16 3 13 18 14 13 7
split_gain=35.0697 27.4487 50.9771 37.9674 35.313 35.0449 27.1415 24.6055 28.5088 31.0997 30.1703 24.4867 24.2752 20.5058 28.3905 19.5701 18.9896 19.9121 17.2557 16.0345 15.9912 14.6959 13.3103 11.8505 11.6275 12.8651 19.6637 11.1924 14.6122 14.5735
threshold=0.16899666666667298 214.50000000000003 0.47651666666666498 -0.0018967285909154434 0.0035706199054662091 0.0032867907675669513 -0.47296244985786001 -0.004193944632813233 -0.0014399776481140391 0.0007256964302520515 0.30490666666668181 62.500000000000007 0.26746333333332667 113.50000000000001 0.66205333333331673 0.0029225861865303598 0.35604666666666468 -0.0038292222342532598 52.500000000000007 166.50000000000003 43.500000000000007 169.50000000000003 -0.054104273797648046 0.00071372396379100207 0.0012075466221608642 0.013141357900859888 140.50000000000003 -0.00033661886419857431 0.01697788845323921 0.35859666666665746
decision_type=2 2 2 2 2 2 2 2 2 2 2 2 2 2 2 2 2 2 2 2 2 2 2 2 2 2 2 2 2 2
left_child=-1 2 4 16 7 23 11 -2 -9 12 21 -4 -10 14 15 -8 -3 -18 22 -15 -16 -11 -14 -5 -12 -26 -27 -20 -29 -30
right_child=1 3 6 5 -6 -7 13 8 9 10 24 -13 18 19 20 -17 17 -19 27 -21 -22 -23 -24 -25 25 26 -28 28 29 -31
leaf_value=-0.060402584419928768 0.053937062331053824 -0.064617106329460661 -0.060222096946883387 0.060642117813768839 0.049641435665488051 -0.03409201529100931 -0.023953846501959756 -0.05895876168796782 0.066943940691576206 -0.069398904657463747 -0.039182840821928015 0.012363484541939527 -0.008271325707379016 0.068639593218991463 0.012510817216268259 0.048297153501169712 0.037120959408433372 -0.045211737408744165 0.026936679979062919 0.014503950710633613 0.056268444522089123 -0.027738796930298706 0.064286703373110279 0.011774441953102777 0.025911630073226079 -0.053923299010088126 0.026105815221936213 -0.052884612140246728 0.035562799773098328 -0.040111072938294107
leaf_weight=23.760279893875122 10.98371936380863 14.149932339787481 21.45988729596138 66.489500254392624 19.47907643020153 13.999396100640295 57.624703958630562 45.207758903503418 13.906110078096388 46.08972330391407 22.1618572473526 25.337383553385735 11.731198638677599 33.955804824829102 49.618552267551422 11.192682161927221 18.999042764306068 11.970647111535074 11.47879485785961 22.904754728078842 36.047909319400787 39.150023609399796 13.704069048166273 15.251814469695089 30.857648968696594 17.882521808147434 13.447453916072844 27.398599565029144 13.423870965838434 12.094453647732733
leaf_count=106 52 58 88 323 93 62 244 187 69 191 90 108 50 164 233 55 84 51 50 105 178 163 62 72 133 73 58 112 56 50
internal_value=-0.000600014 0.00129962 -0.00331388 0.0211848 -0.0157743 0.0390051 0.0135321 -0.0196413 -0.0221784 -0.016095 -0.0292859 -0.0209222 0.00546952 0.0211612 0.0117124 -0.0122027 -0.0166287 0.00529708 -0.00404691 0.0468325 0.0309238 -0.0502647 0.0308216 0.0515241 -0.00808565 0.00299648 -0.0195732 -0.0178194 -0.027528 -0.000302962
internal_weight=771.759 747.999 607.139 140.86 348.997 95.7407 258.142 329.518 318.534 273.326 169.589 46.7973 103.737 211.344 154.484 68.8174 45.1196 30.9697 89.831 56.8606 85.6665 85.2397 25.4353 81.7413 84.3495 62.1876 31.33 64.3957 52.9169 25.5183
internal_count=3420 3314 2664 650 1489 457 1175 1396 1344 1157 708 196 449 979 710 299 193 135 380 269 411 354 112 395 354 264 131 268 218 106
is_linear=0
shrinkage=0.05


Tree=14
num_leaves=31
num_cat=0
split_feature=7 7 18 3 12 18 3 3 18 3 3 3 7 7 18 18 7 12 18 7 7 11 11 7 3 7 12 7 7 16
split_gain=32.8766 22.9275 41.0177 37.3497 29.4097 25.9815 24.845 38.8252 24.1559 22.2977 25.7723 20.9735 25.6644 25.2803 20.8026 18.0134 27.174 17.2127 17.0467 16.8008 21.4161 16.4669 16.0068 15.4839 14.9811 15.5479 14.3875 14.023 13.1034 11.1897
threshold=0.15665666666666692 0.47828333333334672 214.50000000000003 0.0035706199054662091 -0.28991494170051091 34.500000000000007 -0.0018172855663389699 0.0032557528925969931 147.50000000000003 -0.004193944632813233 -0.0019435637767669157 0.0007256964302520515 0.26746333333332667 0.30490666666668181 56.500000000000007 113.50000000000001 0.66824999999996637 0.12087101020201145 169.50000000000003 0.20016999999998389 0.23815666666667998 -0.31792107375218842 0.35779925839125332 0.35604666666666468 -0.0010164272339298172 0.36746000000001316 -0.057702415247434378 0.18149999999998653 1.074359999999998 0.00071372396379100207
decision_type=2 2 2 2 2 2 2 2 2 2 2 2 2 2 2 2 2 2 2 2 2 2 2 2 2 2 2 2 2 2
left_child=-1 2 3 9 5 -3 23 27 -7 -2 -11 12 -12 18 17 16 22 -14 -13 -20 -21 -16 26 -4 -23 -26 -6 -8 -18 -29
right_child=1 4 6 -5 15 8 7 -9 -10 10 11 13 14 -15 21 -17 28 -19 19 20 -22 24 -24 -25 25 -27 -28 29 -30 -31
leaf_value=-0.074531587623971357 0.052384997126166025 -0.059949531335476813 -0.057411745735786057 0.050515516342333026 0.018615261178997224 0.026514218631252268 -0.012278510045089286 -0.059128469682761531 -0.042248821437554866 -0.06537392188646178 0.063118217874180579 -0.067075060186124955 0.064328649163044968 -0.008115673968423465 0.031255984932178286 0.045802801543767979 0.042919680569109511 -0.015563240587055469 0.0282138968181956 -0.080560866504241005 0.0058380333628960009 -0.065471823296768691 0.02445792272444532 0.016500153378848675 0.012719192885871981 -0.047023426065414382 -0.045356328501982512 0.061894728686996296 -0.015650657722373982 0.012989243247109365
leaf_weight=14.7342162579298 10.749677836894987 21.742748320102692 14.51212051510811 20.863123565912247 12.117901816964148 39.20921279489994 9.7436729222536069 10.299962416291235 18.941843032836914 29.482475951313972 14.10495103895664 46.519647061824799 15.186753362417223 85.301330342888832 12.303338557481764 58.875244081020355 61.639226198196411 12.124374419450758 11.566730082035063 16.495115712285045 12.690483540296553 21.961009711027145 21.961691096425056 13.846778213977812 23.57932060956955 20.237157329916954 31.997142270207405 56.084818959236145 11.299824073910711 14.777983248233793
leaf_count=67 52 90 60 102 53 173 48 42 79 123 72 195 70 359 53 288 307 51 50 68 52 91 101 59 98 83 135 278 51 70
internal_value=-0.000566558 0.000886114 -0.00581644 -0.014378 0.0122852 -0.0133194 0.0195359 0.0322821 0.00411568 -0.0184523 -0.0208204 -0.016323 -0.000221401 -0.0274725 -0.00869835 0.0226224 0.0128052 0.0288618 -0.0463922 -0.0227823 -0.0429929 -0.0218362 -0.0104206 -0.0213228 -0.0317668 -0.0148736 -0.0277841 0.0439626 0.0338459 0.0516958
internal_weight=764.95 750.216 472.431 353.165 277.785 79.8938 119.265 90.9064 58.1511 332.302 321.553 292.07 119.497 172.573 105.392 197.891 139.016 27.3111 87.272 40.7523 29.1856 78.0808 66.0767 28.3589 65.7775 43.8165 44.115 80.6065 72.9391 70.8628
internal_count=3420 3353 2076 1519 1277 342 557 438 252 1417 1365 1242 518 724 446 935 647 121 365 170 120 325 289 119 272 181 188 396 358 348
is_linear=0
shrinkage=0.05


Tree=15
num_leaves=31
num_cat=0
split_feature=7 6 18 3 12 3 3 3 3 18 7 4 7 7 15 3 14 18 13 18 3 3 12 12 3 18 3 10 2 10
split_gain=34.677 27.2636 35.8612 31.9889 27.9039 18.9047 38.7584 31.4677 30.1715 18.3442 18.3182 16.9649 17.9763 17.9964 11.9869 11.1688 15.6457 14.334 13.9108 11.0377 33.2786 23.9089 27.5825 9.0821 9.03992 8.88397 11.195 9.97108 8.70173 8.5882
threshold=0.16279666666667938 0.58200000000000507 149.50000000000003 0.0034725786463030623 -0.56858220379070734 -0.0018477630279939694 -0.0037410510916401603 0.00067567931773481838 -0.0060043899008215091 61.500000000000007 0.29176666666666057 0.40211152361332825 0.27092999999999851 0.39266000000001977 -0.00039554505769706644 -0.0010164272339298172 0.00050787386403074967 40.500000000000007 0.025820573836103405 225.50000000000003 0.0024293984757974541 0.0024435892413597888 0.099848165886629495 0.033101311576485194 0.0017297418956466852 35.500000000000007 -0.000556377505420983 36.252459506761866 0.00016095945143979054 64.246654008005052
decision_type=2 2 2 2 2 2 2 2 2 2 2 2 2 2 2 2 2 2 2 2 2 2 2 2 2 2 2 2 2 2
left_child=-1 2 3 10 9 6 8 -7 -4 -3 24 -9 19 -14 -12 28 17 18 -17 21 -21 23 -23 -13 -2 26 -6 -27 -16 -5
right_child=1 4 5 29 25 7 -8 11 -10 -11 14 12 13 -15 15 16 -18 -19 -20 20 -22 22 -24 -25 -26 27 -28 -29 -30 -31
leaf_value=-0.067612315229871586 -0.019591000049292179 -0.063729108922752062 -0.036481072297551619 0.063677909784435521 -0.022241262222676934 0.045081601684850363 -0.052354361599054315 -0.054854448828958402 0.055692340228518988 0.010915975525534386 0.021662092668364899 -0.080983091481076089 0.046046779927109018 -0.01046085945344407 -0.061470843434231252 0.054559102346506197 -0.050905223610226563 -0.015919653801887 -0.016846783713164299 0.060667786400239614 -0.046663189484631037 0.069832423244551828 -0.034781623624989121 -0.022187912762728457 -0.075018804880441436 -0.0034579898676473822 0.0286656284437132 0.04382076636889623 -0.0098465155733009676 0.0047155640658454231
leaf_weight=18.069475069642067 11.08513982594013 14.618090465664862 14.153853654861448 13.982846692204477 16.366102516651154 66.451079428195953 33.661440208554268 11.334966689348219 23.818986922502518 18.836660161614418 18.943610444664955 14.406726330518724 44.632965326309204 20.590032890439034 25.039372026920319 16.202966094017032 24.301471903920174 101.4654778689146 11.778928741812704 17.820218205451969 12.14323206245899 11.757209137082102 13.576480016112326 12.071756988763807 21.867385074496269 12.841094970703123 31.75232045352459 84.777399569749832 12.110847130417822 11.061176016926764
leaf_count=84 50 61 59 71 75 325 142 48 112 79 84 60 203 92 107 70 101 424 50 97 50 55 56 50 95 60 152 424 50 55
internal_value=0.000826684 0.00249009 -0.00290571 -0.0161662 0.019481 0.00907625 -0.0132916 0.0162044 0.021336 -0.0217003 -0.0217158 0.00408496 0.00862974 0.0282081 -0.0162735 -0.0200379 -0.014093 -0.00718217 0.0245009 -0.00698564 0.01717 -0.020955 0.0137691 -0.0541779 -0.056373 0.0289344 0.0113511 0.0376015 -0.0446415 0.0376361
internal_weight=761.519 743.45 564.258 267.839 179.192 296.419 71.6343 224.785 37.9728 33.4548 242.795 158.334 146.999 65.223 209.843 190.899 153.749 129.447 27.9819 81.7756 29.9635 51.8122 25.3337 26.4785 32.9525 145.737 48.1184 97.6185 37.1502 25.044
internal_count=3441 3357 2506 1157 851 1349 313 1036 171 140 1031 711 663 295 886 802 645 544 120 368 147 221 111 110 145 711 227 484 157 126
is_linear=0
shrinkage=0.05


Tree=16
num_leaves=31
num_cat=0
split_feature=7 7 18 3 3 3 3 3 3 11 7 7 7 4 18 18 18 13 7 18 11 18 7 13 3 3 18 3 13 17
split_gain=32.4353 23.1159 42.2044 28.7962 24.4739 26.494 23.1929 23.8617 35.7026 20.3875 20.0925 19.6544 18.6149 14.3708 13.7253 12.8888 11.4045 22.7769 18.0089 9.84042 15.9915 9.61604 14.7645 23.2013 16.2006 14.8753 13.5324 12.0616 10.3843 17.9398
threshold=0.16899666666667298 0.48072333333334433 215.50000000000003 0.0035706199054662091 -0.0018967285909154434 0.0030999497819382614 -0.0044135305851976253 -0.0014399776481140391 0.0007256964302520515 -0.61658765379968361 0.38754000000000893 0.26746333333332667 0.28678666666666769 0.46723021865361419 146.50000000000003 59.500000000000007 136.50000000000003 0.013141357900859888 0.39266000000001977 52.500000000000007 0.11357953385947896 101.50000000000001 0.65544333333334648 0.16986733717698421 -0.0003639167024712178 0.0027128529850058603 167.50000000000003 0.0012319886800247319 -0.027248021815396619 0.0011544316691190304
decision_type=2 2 2 2 2 2 2 2 2 2 2 2 2 2 2 2 2 2 2 2 2 2 2 2 2 2 2 2 2 2
left_child=-1 2 3 6 10 -6 -2 -8 11 15 -4 -9 14 -14 -10 -3 17 -15 -18 20 -13 22 25 24 -24 -11 -23 -25 -28 -30
right_child=1 9 4 -5 5 -7 7 8 12 21 -12 19 13 16 -16 -17 18 -19 -20 -21 -22 26 23 27 -26 -27 28 -29 29 -31
leaf_value=-0.057177557999585127 0.055815440937431252 -0.051793231495283559 -0.054284489871754972 0.049468553910677643 0.046186949346073591 -0.039170161143572475 -0.052028008238444667 0.063874988809065503 -0.076125398029937716 -0.016859882408083844 0.029206580383004915 0.068255546235197112 -0.060429022543603141 0.0074809894549072269 -0.030567805476636886 0.0055977099154810132 0.04646957239014677 -0.061777422465217641 -0.031025545201011112 -0.0097431716615447236 -0.009760892961043344 0.053284431970183094 0.012243281313745122 -0.048459061049796949 0.064375495005111763 0.047195601618300186 0.046952304208771778 0.022073948508163299 -0.041785075609957388 0.042866201737784888
leaf_weight=23.377185329794884 10.804268077015875 16.973976731300354 16.26410481333733 17.574790716171265 74.519327744841576 10.354076355695723 45.880409210920334 14.696025028824804 24.916073128581047 52.813763841986656 12.938623547554014 12.375677451491358 13.445876210927961 30.243247970938683 49.135841354727745 23.091512382030487 20.691930428147316 19.541447922587395 11.756259843707083 60.572903126478195 13.997586056590078 42.438710555434227 25.783940359950066 12.914620876312258 35.311774969100952 10.941080838441847 14.263237670063971 11.421804636716841 14.90931783616543 10.787123098969458
leaf_count=110 54 72 68 90 382 42 196 79 110 222 56 59 55 126 207 98 92 80 50 254 60 212 124 57 183 53 71 57 68 54
internal_value=0.000798772 0.00265193 -0.00418127 -0.0128848 0.0221892 0.0357739 -0.0162253 -0.0186786 -0.0130403 0.0142156 -0.0172928 0.0103954 -0.0270747 -0.0125074 -0.0458965 -0.0187163 -0.00467173 -0.0197043 0.0183924 0.0013561 0.0268484 0.019913 0.012341 0.0259292 0.0423744 -0.00586721 0.0336224 -0.0153558 0.0127405 -0.00624927
internal_weight=754.737 731.359 459.708 345.632 114.076 84.8734 328.058 317.253 271.373 271.651 29.2027 101.642 169.731 95.6788 74.0519 40.0655 82.2329 49.7847 32.4482 86.9462 26.3733 231.585 149.187 85.4321 61.0957 63.7548 82.3984 24.3364 39.9597 25.6964
internal_count=3441 3331 2060 1512 548 424 1422 1368 1172 1271 124 452 720 403 317 170 348 206 142 373 119 1101 696 421 307 275 405 114 193 122
is_linear=0
shrinkage=0.05


Tree=17
num_leaves=31
num_cat=0
split_feature=7 6 18 3 14 7 3 3 3 3 4 7 7 3 3 3 14 18 13 15 15 3 18 3 3 14 1 3 18 14
split_gain=30.1249 22.9631 30.5654 27.39 19.899 16.3025 16.2168 33.2019 27.8898 26.7861 13.8807 14.703 17.4224 20.4107 12.3034 17.8816 10.4788 16.4854 12.9594 11.3169 12.6094 10.4841 8.99149 33.5612 21.9529 12.0187 8.62053 8.51188 18.9159 8.30953
threshold=0.16279666666667938 0.58200000000000507 150.50000000000003 0.0034725786463030623 -0.0010091190845886353 0.29176666666666057 -0.0018477630279939694 -0.0037410510916401603 0.00067567931773481838 -0.0057282704641663804 0.40211152361332825 0.27092999999999851 0.35604666666666468 0.0022768014532061763 0.0013359740925566177 -0.0029664547757116328 0.00052885697751372466 40.500000000000007 0.025820573836103405 0.00032056785595913079 -0.00039554505769706644 -0.0010164272339298172 225.50000000000003 0.0025704668976142659 0.0024435892413597888 0.00014274659970720267 0.00053089134969164242 -0.00083670328297667774 221.50000000000003 1.7835322688546837e-05
decision_type=2 2 2 2 2 2 2 2 2 2 2 2 2 2 2 2 2 2 2 2 2 2 2 2 2 2 2 2 2 2
left_child=-1 2 3 5 -3 -2 7 9 27 -4 -10 22 -13 -14 15 -6 17 18 -7 20 -19 -22 24 -24 29 -26 -5 28 -8 -12
right_child=1 4 6 26 14 16 8 -9 10 -11 11 12 13 -15 -16 -17 -18 19 -20 -21 21 -23 23 -25 25 -27 -28 -29 -30 -31
leaf_value=-0.064630530026492258 -0.053027089750396196 -0.025017006289160718 -0.02928536889172105 0.061991205467748535 0.055024332173461324 0.049844448440537814 -0.011985205071254607 -0.048919427993498299 -0.050220248184524613 0.056751630776534105 -0.076477869171121982 0.052336031791268403 -0.02926117372599767 0.054406840944328787 0.046372887985892293 0.0047368903973693532 -0.046350949696242066 0.018022922229325482 -0.01716168848990372 0.019706230128490182 -0.051580367452040934 -0.018806017720091908 0.057328261071057846 -0.053894109315290928 0.050045346396687479 -0.020329335760360466 0.0022471710890978511 0.06380891135298089 0.061074078417549776 -0.020072739578774309
leaf_weight=17.200067937374115 32.247764751315117 23.209855034947395 15.744209125638006 13.653368249535562 22.407443031668663 18.026569679379467 16.611638680100441 32.835764095187187 11.012766048312185 21.265306040644646 14.264980599284174 31.545299276709557 20.845792770385742 11.208442762494085 45.730539798736572 83.751491323113441 23.460278138518333 17.049193039536476 12.03259167075157 18.175195246934891 33.753146678209305 88.061726033687592 18.208087444305423 10.808913558721541 12.279647514224054 11.991164565086363 10.824974492192267 28.052700787782669 18.985111489892006 12.041002810001372
leaf_count=84 147 100 67 72 112 80 74 141 47 103 60 147 92 54 240 399 97 76 51 77 145 367 103 44 58 50 56 143 105 50
internal_value=0.000774469 0.00231535 -0.00266546 -0.0148393 0.0181023 -0.0199214 0.00864449 -0.0123207 0.015366 0.0201507 0.00387243 0.00803261 0.0259562 -4.87926e-06 0.0246912 0.0153513 -0.0148511 -0.0109013 0.0230221 -0.0173947 -0.0222506 -0.0278873 -0.00628922 0.0158976 -0.0190183 0.0152762 0.0355708 0.0432119 0.0269801 -0.0506596
internal_weight=747.285 730.085 554.986 267.285 175.099 242.806 287.701 69.8453 217.856 37.0095 154.206 143.193 63.5995 32.0542 151.889 106.159 210.559 187.098 30.0592 157.039 138.864 121.815 79.5938 29.017 50.5768 24.2708 24.4783 63.6495 35.5968 26.306
internal_count=3441 3357 2506 1168 851 1040 1338 311 1027 170 705 658 293 146 751 511 893 796 131 665 588 512 365 147 218 108 128 322 179 110
is_linear=0
shrinkage=0.05


Tree=18
num_leaves=31
num_cat=0
split_feature=7 17 12 18 16 3 3 3 3 3 3 7 11 12 18 7 3 12 13 7 12 5 18 3 17 13 7 6 7 13
split_gain=27.9837 21.0924 22.7997 15.4692 32.2598 33.153 26.3663 32.226 21.1983 19.2933 32.0145 24.0387 18.1766 14.568 14.4358 27.7519 15.466 13.3914 11.8337 13.0418 11.5988 10.9423 10.6182 9.1701 7.68144 7.46023 8.09085 7.42467 7.26207 7.06408
threshold=0.16279666666667938 0.0011372182104489191 -0.56858220379070734 220.50000000000003 0.00083804745566490671 0.0035706199054662091 -0.0018967285909154434 0.0030999497819382614 -0.0036378257169344401 -0.0011110223304932286 0.00067567931773481838 0.32006333333332965 -0.13388340824297981 0.052451076041113702 158.50000000000003 0.24977666666666973 0.0015492365364013767 -0.23358494995537196 0.020773281516507942 0.3495766666666707 -0.30838042044487168 1.2193288538237081 192.50000000000003 -0.0027124955471865306 0.00066002247912684 0.21086300746194739 0.51365666666666066 0.33501000000001119 0.33575666666667608 -0.017315517268308208
decision_type=2 2 2 2 2 2 2 2 2 2 2 2 2 2 2 2 2 2 2 2 2 2 2 2 2 2 2 2 2 2
left_child=-1 3 -3 4 5 8 17 27 -2 28 11 -11 -12 -13 18 22 -17 -5 19 -14 23 25 -16 -6 -22 26 -4 -8 -10 -15
right_child=1 2 21 6 20 -7 7 -9 9 10 12 13 14 29 15 16 -18 -19 -20 -21 24 -23 -24 -25 -26 -27 -28 -29 -30 -31
leaf_value=-0.06319186442670896 0.043806466130199916 -0.026374173268280912 0.020162489740511772 0.016534368065326273 0.010824613341143173 0.049504866455181103 0.052827336431667371 -0.051106935085008687 -0.082740492497597615 0.050711639435014916 0.027647756035839233 0.016104856567184547 -0.055183289601665686 -0.065096013218000778 -0.024728229407867869 -0.022895017638141689 0.047535801379238386 -0.047077537474749923 -0.069409421729959495 -0.0030699596761551299 0.015012176482301229 -0.016171991607885409 -0.083251169319944252 -0.039945860720729955 0.054981010936058033 0.0056106394119954115 0.05084684372204154 0.0077075896826190584 -0.03877089028978295 -0.010389809806953844
leaf_weight=16.724176347255707 12.594971552491186 23.180309668183327 35.183345705270767 13.933221086859701 18.960572615265846 18.443903386592865 52.582044959068298 10.10758191347122 14.321490257978438 24.541425183415413 12.822650015354155 25.869631066918373 26.645273491740227 12.007967785000803 18.413472041487697 13.844628781080248 17.836692675948143 20.36783929169178 36.444463670253754 21.850716844201088 111.58392797410488 12.77180404961109 13.384558469057081 16.751616299152374 13.472349584102629 20.684339120984077 55.17143440246582 11.030306056141852 27.27481783926487 11.602812245488165
leaf_count=84 64 98 159 61 84 98 290 43 64 125 56 113 117 50 80 59 79 88 156 92 523 61 56 72 69 101 278 54 117 50
internal_value=0.000750565 0.00222827 0.019136 -0.00208131 -0.00601278 -0.0154918 0.0149761 0.0318261 -0.0196334 -0.0225194 -0.0169694 0.0102529 -0.0294664 -0.00981389 -0.0344007 -0.0163629 0.0167578 -0.0212381 -0.0478811 -0.0317027 0.0121412 0.0276566 -0.0493619 -0.0129904 0.019318 0.0326978 0.0388986 0.0450036 -0.0539095 -0.0382123
internal_weight=740.404 723.68 146.991 576.689 468.668 307.899 108.021 73.7199 289.456 276.861 235.264 74.0218 161.242 49.4804 148.42 63.4794 31.6813 34.3011 84.9405 48.496 160.768 123.811 31.798 35.7122 125.056 111.039 90.3548 63.6124 41.5963 23.6108
internal_count=3441 3357 697 2660 2124 1376 536 387 1278 1214 1033 338 695 213 639 274 138 149 365 209 748 599 136 156 592 538 437 344 181 100
is_linear=0
shrinkage=0.05


Tree=19
num_leaves=31
num_cat=0
split_feature=7 6 12 4 7 10 3 7 13 3 7 3 3 3 2 13 6 13 4 12 3 13 7 6 12 15 11 7 7 12
split_gain=26.1825 18.9447 21.5862 15.2104 14.4021 14.0613 24.6539 11.9951 11.9923 11.0941 23.9513 12.0991 23.762 16.2504 14.7173 10.0264 9.84245 9.29659 8.20512 7.87561 7.48985 7.13141 7.14223 12.6912 7.06216 10.7888 8.5329 15.5602 7.29969 7.71693
threshold=0.16899666666667298 0.58200000000000507 -0.438995025955011 0.262633463049528 0.76368666666667961 63.11170602290278 0.0026631143479324887 0.41420666666666656 0.10211668570010123 0.0017297418956466852 0.21469000000000357 -0.0017810844304197227 -0.0036378257169344401 -0.006191489068409225 -0.0015406363575765634 0.052812956849899978 0.3206500000000006 -0.0006506299239646961 1.2635401529525561 0.15481461755588918 0.0014102878596322112 0.039721433841276653 0.19584999999999964 0.24883999999997289 -0.28215075937573858 0.00031328716419198882 0.064457210487603347 0.47828333333334672 0.39266000000001977 -0.067972495473429442
decision_type=2 2 2 2 2 2 2 2 2 2 2 2 2 2 2 2 2 2 2 2 2 2 2 2 2 2 2 2 2 2
left_child=-1 3 4 -2 -3 6 9 15 -9 10 -5 12 13 -12 -13 -7 19 -15 20 -16 -4 22 -11 -24 -18 26 27 28 29 -26
right_child=1 2 18 5 -6 7 -8 8 -10 21 11 14 -14 17 16 -17 24 -19 -20 -21 -22 -23 23 -25 25 -27 -28 -29 -30 -31
leaf_value=-0.053060047360686702 -0.055656859198892766 0.016009949156634996 0.023342741057349931 0.056030065037869475 -0.041841273596701374 -0.050447818984344112 0.036440660495446524 0.044576690147011579 -0.025868809202599638 0.013137867121291641 -0.038799923957819428 0.046796357706530185 -0.038394359780427892 0.05834623252074566 0.0074622112624412821 -0.0055045909650848568 -0.041628409965380087 0.0048927302473717859 -0.0013893053636017212 0.047898983197177954 0.051308199598165828 0.014895897507761111 -0.066325902232606357 -0.014996324644614839 -0.022156283971942633 0.039999572528878563 -0.024861107843902386 0.056391502520036975 -0.042309921633510092 0.033645165391079056
leaf_weight=21.950961098074913 12.997739270329474 20.869981080293655 71.848216861486435 19.603793293237686 22.204345196485519 33.580145046114922 47.778987601399422 11.838625192642214 12.33718393743038 9.9129953831434232 11.902402102947233 19.813147693872452 52.427770674228668 15.029114305973051 55.347439050674438 19.683658599853516 13.308086872100828 17.730106338858604 21.166419804096222 15.389301508665083 35.908507376909256 12.999448925256727 18.615682184696198 34.103189423680305 12.634270682930939 12.826670616865156 44.016377523541451 11.482391402125357 11.991144210100172 12.157854586839683
leaf_count=110 55 91 358 119 95 148 231 57 57 52 50 93 229 74 269 85 56 84 109 69 198 62 83 153 56 57 184 52 51 54
internal_value=0.000723677 0.00238298 0.0168328 -0.00222368 -0.0138117 -0.000904599 0.00248856 -0.0205814 0.00862757 -0.00155389 0.00245253 -0.000979273 -0.015564 0.0112362 0.00579705 -0.033839 0.00150252 0.0294159 0.0270714 0.0162595 0.0326619 -0.018805 -0.0257998 -0.0331214 -0.00731264 -0.00296783 -0.00894005 0.00557932 -0.0102824 0.00520829
internal_weight=733.456 711.505 171.997 539.508 43.0743 526.51 449.07 77.4396 24.1758 401.291 325.66 306.056 97.0894 44.6616 208.967 53.2638 189.154 32.7592 128.923 70.7367 107.757 75.6313 62.6319 52.7189 118.417 105.109 92.282 48.2657 36.7833 24.7921
internal_count=3441 3331 851 2480 186 2425 2078 347 114 1847 1497 1378 437 208 941 233 848 158 665 338 556 350 288 236 510 454 397 213 161 110
is_linear=0
shrinkage=0.05


Tree=20
num_leaves=31
num_cat=0
split_feature=7 18 7 3 3 3 12 18 7 3 3 3 7 6 18 14 18 14 7 18 12 3 12 18 7 8 7 11 1 3
split_gain=22.0621 20.3462 33.1975 29.1443 23.1541 32.0194 22.4903 17.7072 20.7754 17.1672 17.3758 18.7895 20.7585 16.8825 16.6947 17.2283 15.9317 12.7207 15.363 11.9971 11.2828 10.9802 11.5125 21.7703 10.9481 10.5589 10.4841 9.74812 9.25423 8.27699
threshold=0.16693666666666712 215.50000000000003 0.48072333333334433 0.0035706199054662091 0.0037183894236773565 -0.0019435637767669157 -0.56858220379070734 113.50000000000001 0.6318333333333348 -0.004193944632813233 -0.0018172855663389699 0.00067567931773481838 0.25784333333333137 0.26605000000001844 51.500000000000007 -0.00038242327981258132 38.500000000000007 -7.9264900856687836e-05 0.36538999999999838 166.50000000000003 -0.77884893450170989 0.0010403761984475095 0.16070491561431396 129.50000000000003 0.35604666666666468 0.00051701381909840247 0.57275666666665759 0.11357953385947896 -0.00035706865064832888 -0.00070581741687834561
decision_type=2 2 2 2 2 2 2 2 2 2 2 2 2 2 2 2 2 2 2 2 2 2 2 2 2 2 2 2 2 2
left_child=-1 2 3 9 5 24 20 8 25 -2 -11 12 -12 -13 27 -16 -10 -17 -19 -9 -4 -15 23 -23 -3 26 -8 -14 -26 -21
right_child=1 4 6 -5 -6 -7 7 19 16 10 11 13 14 21 15 17 -18 18 -20 29 -22 22 -24 -25 28 -27 -28 -29 -30 -31
leaf_value=-0.054385530415663311 0.044945742792998455 -0.049427941319355961 0.0010367126261482866 0.047682233695745826 -0.048323214938915837 0.044691779897877495 0.014158456046326109 0.060202028973415492 0.0033796236680170666 -0.054537495933077634 0.063554057591034427 -0.047090431445879016 0.065440913136304915 -0.048591445006225566 0.032878125422261699 -0.054506799808870902 0.044517736216710721 0.016947606289667346 -0.052365879738602308 0.041224947950310328 -0.053505290244433762 -0.066874731641080029 0.01340865015243819 0.0023887986405554153 -0.022561780482408936 -0.046976518509779019 -0.041733799055427789 0.0011677146766220961 0.03339111863705959 -0.019702689877257984
leaf_weight=18.653566390275955 10.821558669209479 12.29365825653076 20.055151984095573 18.441504612565041 11.74106480181217 75.842346638441086 30.78795425593853 33.33819591999054 49.478548303246498 31.148124992847443 11.773347869515417 59.623903840780258 10.62960457801819 18.84550966322422 13.549403160810469 27.759373307228088 44.885026142001152 21.405554205179214 12.759672418236731 11.986931979656221 17.98502404987812 17.823502168059349 39.795042976737022 31.210395708680153 14.130448207259178 17.795010089874268 11.532945200800894 13.256535246968268 15.491453021764755 10.419570639729498
leaf_count=97 57 53 87 102 55 407 135 179 241 138 72 267 53 78 60 117 241 92 52 61 76 74 168 138 63 79 50 58 71 49
internal_value=-0.000703129 0.000694246 -0.00326257 -0.0134396 0.0186332 0.0253091 0.0106275 0.0170292 0.00831209 -0.0169576 -0.0191215 -0.0151595 0.00077691 -0.0257458 -0.00666166 -0.0181916 0.0229474 -0.0293659 -0.00893887 0.0411859 -0.0247502 -0.0139264 -0.00657206 -0.022788 -0.00976204 -0.0146609 -0.00107284 0.02977 0.00670007 0.0128921
internal_weight=735.26 716.606 587.107 338.843 129.499 117.758 248.264 210.224 154.479 320.402 309.58 278.432 111.133 167.298 99.3601 75.474 94.3636 61.9246 34.1652 55.7447 38.0402 107.674 88.8289 49.0339 41.9156 60.1159 42.3209 23.8861 29.6219 22.4065
internal_count=3470 3373 2724 1526 649 594 1198 1035 746 1424 1367 1229 504 725 432 321 482 261 144 289 163 458 380 212 187 264 185 111 134 110
is_linear=0
shrinkage=0.05


Tree=21
num_leaves=31
num_cat=0
split_feature=7 18 16 3 7 12 3 18 3 18 12 18 7 3 3 7 3 18 3 3 7 7 11 3 8 18 7 8 12 18
split_gain=20.3932 18.6335 34.4957 31.3449 30.1568 24.8823 22.8213 19.7741 16.8369 18.7688 26.8595 16.2252 26.1151 17.652 15.5966 16.9586 14.4501 14.1496 14.8633 20.1653 18.7157 16.0507 10.6872 14.9453 15.11 10.5586 10.1299 12.0442 9.83392 13.2061
threshold=0.16693666666666712 216.50000000000003 0.0010311327260550214 0.003022207933042676 0.48072333333334433 -0.56858220379070734 0.0034120035672932296 63.500000000000007 -0.004193944632813233 62.500000000000007 0.36402887081890234 112.50000000000001 0.6318333333333348 0.00098119826787776529 -0.0019435637767669157 0.40704333333333892 -0.0018477630279939694 153.50000000000003 0.00067567931773481838 -0.00070581741687834561 0.24977666666666973 0.36148666666666718 0.18996221681987893 0.0042844793467815704 0.00040980065672984643 166.50000000000003 0.36148666666666718 0.00030504100885381811 -0.085196571178882644 72.500000000000014
decision_type=2 2 2 2 2 2 2 2 2 2 2 2 2 2 2 2 2 2 2 2 2 2 2 2 2 2 2 2 2 2
left_child=-1 3 6 4 8 7 14 -6 -2 10 26 12 28 -14 15 -3 -11 -18 19 -19 -20 -22 -5 24 -24 -13 -10 -28 -7 -30
right_child=1 2 -4 22 5 11 -8 -9 9 16 -12 25 13 -15 -16 -17 17 18 20 -21 21 -23 23 -25 -26 -27 27 -29 29 -31
leaf_value=-0.052872019146014075 0.044109118747497525 -0.036432288039151585 -0.041168000491063152 0.060994169672998436 -0.070103905876546566 0.017430697880897957 -0.041287405495562562 0.0039450918084824134 0.062867996831449321 -0.059707943258835716 -0.050377223832722286 0.058564155171523385 0.0066230746714848509 0.055720200543764614 0.050584147800003657 0.041559049419748556 -0.033361726971409621 -0.018175872070055159 -0.052577121786813341 0.061476746715437139 0.025669783300279692 -0.040721069054292625 -0.033228130244082464 0.060485474192776514 0.044721357905971475 0.012755669707420409 -0.018430501628911796 0.050059948256369641 -0.015513532553590961 -0.078258675237412742
leaf_weight=18.238796204328537 10.784904479980467 12.757547229528429 20.497476816177368 20.033947601914406 17.034230470657349 11.659497305750845 10.20677277445793 19.152385801076889 13.748710185289381 27.484921455383301 14.984916359186171 28.592626675963402 56.624846085906029 27.053961336612701 66.609992355108261 15.364407077431677 111.25883848965168 16.242987886071209 27.27920363843441 15.555592432618139 24.853029012680054 14.36593124270439 17.160787105560306 12.89095728099346 9.748648598790167 22.460828438401222 15.486273378133776 10.962850853800772 27.206353634595871 12.122575774788855
leaf_count=97 58 55 95 102 74 50 45 81 63 125 62 155 276 150 371 72 483 72 119 88 108 63 82 76 56 111 66 51 114 50
internal_value=-0.000667419 0.000673284 0.0181598 -0.0030778 -0.0069862 0.00701802 0.0297482 -0.0309122 -0.0172422 -0.0195064 0.00675637 0.0144085 0.00530903 0.0224965 0.0374019 0.00617822 -0.0256204 -0.0211495 -0.00732689 0.0207895 -0.0207718 0.00135077 0.0312099 0.0162176 -0.00498888 0.0384108 0.0280546 0.00995798 -0.0228979 -0.0348538
internal_weight=728.425 710.186 125.436 584.75 524.915 221.907 104.939 36.1866 303.008 292.223 55.1828 185.721 134.667 83.6788 94.7319 28.122 237.041 209.556 98.2967 31.7986 66.4982 39.219 59.8343 39.8004 26.9094 51.0535 40.1978 26.4491 50.9884 39.3289
internal_count=3470 3373 638 2735 2419 1061 543 155 1358 1300 242 906 640 426 498 127 1058 933 450 160 290 171 316 214 138 266 180 117 214 164
is_linear=0
shrinkage=0.05


Tree=22
num_leaves=31
num_cat=0
split_feature=7 18 16 3 7 3 12 18 3 7 3 18 12 18 7 3 3 18 7 3 3 7 3 7 18 12 11 3 8 7
split_gain=18.9583 18.0878 32.3845 28.699 27.3137 23.1755 22.6909 18.2943 15.972 15.4917 15.3888 17.0102 24.3797 15.0411 23.7234 16.6772 13.5698 12.6988 13.8372 15.0292 27.7908 18.0832 13.6172 13.714 10.1056 9.57455 9.4515 13.7288 13.5034 9.35579
threshold=0.16899666666667298 216.50000000000003 0.0010311327260550214 0.003022207933042676 0.48072333333334433 0.0037183894236773565 -0.56858220379070734 63.500000000000007 -0.0019435637767669157 0.40704333333333892 -0.004193944632813233 62.500000000000007 0.36402887081890234 112.50000000000001 0.6318333333333348 0.00098119826787776529 -0.0018477630279939694 153.50000000000003 0.30490666666668181 -0.00062752227314593441 0.00079759082230917088 0.24977666666666973 0.0007256964302520515 0.37820666666664998 166.50000000000003 0.53645049538705125 0.18996221681987893 0.0042844793467815704 0.00040980065672984643 0.36148666666666718
decision_type=2 2 2 2 2 2 2 2 2 2 2 2 2 2 2 2 2 2 2 2 2 2 2 2 2 2 2 2 2 2
left_child=-1 3 5 4 10 8 7 -6 9 -3 -2 12 29 14 -8 25 -13 -18 19 -19 -21 -22 -20 -24 -15 -16 -5 28 -28 -12
right_child=1 2 -4 26 6 -7 13 -9 -10 -11 11 16 -14 24 15 -17 17 18 22 20 21 -23 23 -25 -26 -27 27 -29 -30 -31
leaf_value=-0.047758963253981962 0.042861799054894331 -0.03490307997673317 -0.038777603685935316 0.059081312619557617 -0.067823512290423216 -0.044578780070786889 -0.021715616911092823 0.0037507632913602387 0.051322113493988512 0.040037833191927906 0.06069118518824982 -0.057833661833118923 -0.04795678654102483 0.057344679318575058 0.01672576020277702 0.054517133946850621 -0.031708950999387829 -0.078022296923271311 0.062205406200214877 0.055962253274062901 -0.055568821141173168 0.013896719008305559 0.034862999211006857 -0.042199575333946152 0.012176653944735768 -0.034368760437151348 -0.03084586226091289 0.059518277786183696 0.043560604330631227 0.0095268200170693373
leaf_weight=20.727249160408974 10.549854770302771 12.653359040617945 20.668381631374359 19.211116313934326 16.734232842922211 9.468936547636984 51.06900717318058 19.137827917933464 64.018090978264809 15.156132727861403 13.535198867321013 26.970030695199966 14.954875916242598 27.76180474460125 44.968159422278404 26.287973240017891 110.8072724789381 9.7611275464296323 11.718875005841253 12.117644995450972 25.798957571387291 14.71062298119068 11.456996351480486 11.637323081493376 22.355189681053162 11.516983598470686 16.981005460023884 12.456455424427984 9.514016926288603 26.287908181548119
leaf_count=111 58 55 95 100 74 42 214 81 366 72 63 125 62 155 224 150 482 43 53 73 114 62 53 50 111 52 81 76 56 117
internal_value=-0.000632528 0.000762374 0.0182605 -0.00292802 -0.0066527 0.0298984 0.00673909 -0.0296385 0.0375783 0.00593961 -0.0164558 -0.0186155 0.00647559 0.0138327 0.00508399 0.0216187 -0.0244647 -0.0201382 -0.00694774 -0.0210399 -0.010471 -0.0303431 0.0183066 -0.00396915 0.037197 0.00630789 0.0303812 0.0162261 -0.00412747 0.0269167
internal_weight=720.993 700.265 121.965 578.3 520.138 101.297 219.831 35.8721 91.8276 27.8095 300.307 289.757 54.778 183.959 133.842 82.7731 234.979 208.009 97.2015 62.3884 52.6272 40.5096 34.8132 23.0943 50.117 56.4851 58.1626 38.9515 26.495 39.8231
internal_count=3470 3359 630 2729 2416 535 1061 155 493 127 1355 1297 242 906 640 426 1055 930 448 292 249 176 156 103 266 276 313 213 137 180
is_linear=0
shrinkage=0.05


Tree=23
num_leaves=31
num_cat=0
split_feature=7 3 3 3 7 14 6 3 15 12 13 4 7 4 13 12 8 13 15 10 3 8 3 7 16 16 6 3 7 12
split_gain=17.6511 12.5517 21.2483 13.1308 22.3417 12.3801 21.55 15.09 13.3868 10.5964 10.1255 9.69003 9.569 9.17113 7.46398 8.91664 5.79248 4.93248 6.96167 6.06996 10.0831 8.52529 9.69376 11.6578 9.10499 5.94631 5.92612 5.90509 5.27236 6.38115
threshold=0.15665666666666692 -0.0063810131396654932 -0.0036378257169344401 -0.0020419135148395076 0.53826666666665246 -0.00089722353213089366 0.69599999999994699 0.0042844793467815704 -0.0004511670493133057 -0.54909988526317943 -0.14555038821351518 0.24540580010053653 0.75497999999998922 1.2230823312977803 0.11542889945540111 0.052451076041113702 0.00042753323878378253 0.16295367585977075 0.00053026274897616254 63.11170602290278 0.0028699685034060062 0.00036373980683091287 0.001761909146123906 0.21469000000000357 0.00033493211334754833 0.00011932155746031434 0.28453999999999274 0.0026631143479324887 0.63789000000000462 -0.055403599454678938
decision_type=2 2 2 2 2 2 2 2 2 2 2 2 2 2 2 2 2 2 2 2 2 2 2 2 2 2 2 2 2 2
left_child=-1 -2 9 4 -4 -5 7 8 -7 -3 -10 -12 -6 17 -8 -16 -15 18 19 20 21 22 23 -13 -24 -21 -22 -27 29 -23
right_child=1 2 3 5 12 6 14 -9 10 -11 11 13 -14 16 15 -17 -18 -19 -20 25 26 28 24 -25 -26 27 -28 -29 -30 -31
leaf_value=-0.060200693133420705 -0.057286917724864876 -0.0041305915583390966 -0.049493789685143702 -0.048625270558987049 0.042504653512695327 0.039027300061497155 0.044069958818770821 0.053861851403502553 -0.046553846292240089 0.043144666650835037 -0.046264005601105988 0.05336555978213231 -0.019304791912088448 -0.011653964486358996 -0.021913661418566963 0.035806095629625459 -0.048646852136122659 -0.022798974172545131 0.043250366630971086 -0.036824295757684068 0.012647840842558279 0.0050413750028173408 -0.034108479759614584 0.0074352331945355694 0.0077063244545997186 0.02361564533484228 0.057561507620876189 -0.025814706857676964 0.013409451621900157 -0.035727876442070886
leaf_weight=12.209694921970366 9.2921402156352979 16.446152940392494 35.014828115701675 12.359835520386694 12.832271188497545 18.308706030249596 36.624716222286224 11.993277907371519 13.924483120441435 42.441185727715492 12.734422817826269 15.388757303357123 12.229310378432272 62.439398847520351 12.331259354948999 14.628561362624167 12.741372987627981 20.136121571063995 10.249454289674757 19.178995013237 17.627328664064411 13.612131491303442 25.660631716251373 135.10468085110188 26.424358397722244 12.880930006504061 12.589865386486052 11.379851236939428 12.071494847536085 32.545389667153358
leaf_count=71 41 71 161 57 62 93 204 75 62 222 56 102 58 298 61 81 58 92 49 88 86 61 129 626 124 58 68 51 64 141
internal_value=-0.000599507 0.000438315 0.00121356 -0.00145892 -0.0236976 0.000872963 0.00196432 -0.00154221 -0.00291227 0.0299416 -0.0045576 -0.00326604 0.0123435 -0.00202168 0.0293722 0.00940543 -0.0179234 0.00125502 0.00266011 0.00141624 0.0040186 0.000850713 0.00569732 0.0121319 -0.0128945 -0.0160182 0.0313609 0.000429663 -0.0160106 -0.0237048
internal_weight=713.402 701.192 691.9 633.012 60.0764 572.936 560.576 496.992 484.998 58.8873 466.69 452.765 25.0616 440.031 63.5845 26.9598 75.1808 364.85 344.714 334.464 291.025 260.807 202.578 150.493 52.085 43.4398 30.2172 24.2608 58.229 46.1575
internal_count=3470 3399 3358 3065 281 2784 2727 2381 2306 293 2213 2151 120 2095 346 142 356 1739 1647 1598 1401 1247 981 728 253 197 154 109 266 202
is_linear=0
shrinkage=0.05


Tree=24
num_leaves=31
num_cat=0
split_feature=7 18 3 16 7 3 12 14 18 18 7 3 10 18 12 11 18 3 3 7 3 3 3 18 7 7 14 8 7 8
split_gain=16.5157 12.5912 27.2804 27.1161 24.7806 22.3871 17.7516 14.104 13.324 13.159 21.9207 16.3168 12.061 10.3395 24.2121 15.5869 19.0967 11.482 17.476 12.4493 16.5132 15.3625 21.9416 9.89997 9.03717 12.7072 11.815 8.91931 8.58427 11.0035
threshold=0.15665666666666692 215.50000000000003 0.0034725786463030623 0.0010311327260550214 0.48072333333334433 0.0037183894236773565 -0.56858220379070734 3.1140037850548151e-06 63.500000000000007 113.50000000000001 0.6318333333333348 0.00098119826787776529 64.246654008005052 62.500000000000007 0.35495163338923713 0.2993180663351041 151.50000000000003 -0.0039516950455789866 -0.002093846279384675 0.30490666666668181 0.00067567931773481838 -0.00062752227314593441 0.00061753539862126415 166.50000000000003 1.0075700000000061 0.77304666666664923 -0.00033661886419857431 0.00051701381909840247 0.36148666666666718 0.00030504100885381811
decision_type=2 2 2 2 2 2 2 2 2 2 2 2 2 2 2 2 2 2 2 2 2 2 2 2 2 2 2 2 2 2
left_child=-1 2 4 5 13 7 8 -3 -6 10 27 24 -4 14 28 16 -15 -18 -19 21 -21 -20 -23 -11 25 26 -12 -8 -2 -30
right_child=1 3 12 -5 6 -7 9 -9 -10 23 11 -13 -14 15 -16 -17 17 18 19 20 -22 22 -24 -25 -26 -27 -28 -29 29 -31
leaf_value=-0.059226033666083644 0.058681954913523772 0.017820442725618318 0.063633080645184539 -0.036808207859833908 -0.057213113415283949 -0.044837045346769938 -0.0061325107961434557 0.057660209679426991 0.0036814533135550846 0.056027267072270882 0.02868512489735205 0.05119178943669353 0.0039192874013075849 -0.035392927396366194 -0.046976942592699446 0.037822721326623378 0.048626660892430826 -0.07233105696083085 -0.073107075029959875 0.069216710565933204 -0.0055508161867204578 0.062679853406277131 -0.020671500163235379 0.01072535500097755 -0.033866579246442229 0.045761793881675943 -0.040701797919911686 -0.050602177969781115 -0.017645402536157678 0.048214575425422221
leaf_weight=11.80048908293247 13.28414276242256 59.471609599888325 21.227578774094582 21.261319532990456 16.957919389009476 10.320845291018484 36.89020112156868 35.461304396390915 19.101152926683426 26.871787831187248 11.52371610701084 29.593991562724113 14.055162370204924 123.59031492471695 15.995784699916838 11.573395207524298 8.4836634099483472 10.748939722776411 10.471473410725585 11.239402756094931 21.533683016896248 9.3929334208369308 49.528136670589447 21.878872945904732 11.669284939765928 19.504457786679268 13.119850978255274 16.239341109991074 15.474366158246996 10.746238365769385
leaf_count=71 63 321 128 98 77 47 155 197 81 156 59 177 81 550 67 50 48 53 47 52 97 63 219 110 52 102 63 69 66 51
internal_value=-0.000568508 0.000424287 -0.00273938 0.0146952 -0.00554565 0.025099 0.00716912 0.0327022 -0.0249561 0.0133542 0.00549233 0.0211785 0.0398456 -0.0146459 0.00492212 -0.018879 -0.0215576 -0.00747241 -0.0116873 -0.00530694 0.0200904 -0.0173017 -0.007384 0.0356962 0.00526571 0.0156092 -0.00825539 -0.0197249 0.0259365 0.00934662
internal_weight=709.011 697.211 570.696 126.515 535.413 105.254 223.351 94.9329 36.0591 187.292 138.541 85.4113 35.2827 312.062 55.5005 256.562 244.989 121.398 112.915 102.166 32.7731 69.3925 58.9211 48.7507 55.8173 44.148 24.6436 53.1295 39.5047 26.2206
internal_count=3470 3399 2736 663 2527 565 1101 518 158 943 677 453 209 1426 247 1179 1129 579 531 478 149 329 282 266 276 224 122 224 180 117
is_linear=0
shrinkage=0.05


end of trees

feature_importances:
vwap_dev=206
atr_15=152
minutes_into_session=104
macd_signal=72
atr_5=35
macd_hist=31
macd=29
ema_9_21_spread=24
ema_slope=20
rsi_14=19
rv_5=16
rvol=14
high_dist_5=13
ret_15=5
low_dist_5=4
ret_5=3
vol_z=3

parameters:
[boosting: gbdt]
[objective: binary]
[metric: binary_logloss]
[tree_learner: serial]
[device_type: cpu]
[data_sample_strategy: bagging]
[data: ]
[valid: ]
[num_iterations: 1000]
[learning_rate: 0.05]
[num_leaves: 31]
[num_threads: 0]
[seed: 42]
[deterministic: 0]
[force_col_wise: 0]
[force_row_wise: 0]
[histogram_pool_size: -1]
[max_depth: -1]
[min_data_in_leaf: 50]
[min_sum_hessian_in_leaf: 0.001]
[bagging_fraction: 0.8]
[pos_bagging_fraction: 1]
[neg_bagging_fraction: 1]
[bagging_freq: 5]
[bagging_seed: 400]
[bagging_by_query: 0]
[feature_fraction: 0.8]
[feature_fraction_bynode: 1]
[feature_fraction_seed: 30056]
[extra_trees: 0]
[extra_seed: 12879]
[early_stopping_round: 0]
[early_stopping_min_delta: 0]
[first_metric_only: 0]
[max_delta_step: 0]
[lambda_l1: 0]
[lambda_l2: 0]
[linear_lambda: 0]
[min_gain_to_split: 0]
[drop_rate: 0.1]
[max_drop: 50]
[skip_drop: 0.5]
[xgboost_dart_mode: 0]
[uniform_drop: 0]
[drop_seed: 17869]
[top_rate: 0.2]
[other_rate: 0.1]
[min_data_per_group: 100]
[max_cat_threshold: 32]
[cat_l2: 10]
[cat_smooth: 10]
[max_cat_to_onehot: 4]
[top_k: 20]
[monotone_constraints: ]
[monotone_constraints_method: basic]
[monotone_penalty: 0]
[feature_contri: ]
[forcedsplits_filename: ]
[refit_decay_rate: 0.9]
[cegb_tradeoff: 1]
[cegb_penalty_split: 0]
[cegb_penalty_feature_lazy: ]
[cegb_penalty_feature_coupled: ]
[path_smooth: 0]
[interaction_constraints: ]
[verbosity: -1]
[saved_feature_importance_type: 0]
[use_quantized_grad: 0]
[num_grad_quant_bins: 4]
[quant_train_renew_leaf: 0]
[stochastic_rounding: 1]
[linear_tree: 0]
[max_bin: 255]
[max_bin_by_feature: ]
[min_data_in_bin: 3]
[bin_construct_sample_cnt: 200000]
[data_random_seed: 175]
[is_enable_sparse: 1]
[enable_bundle: 1]
[use_missing: 1]
[zero_as_missing: 0]
[feature_pre_filter: 1]
[pre_partition: 0]
[two_round: 0]
[header: 0]
[label_column: ]
[weight_column: ]
[group_column: ]
[ignore_column: ]
[categorical_feature: ]
[forcedbins_filename: ]
[precise_float_parser: 0]
[parser_config_file: ]
[objective_seed: 16083]
[num_class: 1]
[is_unbalance: 0]
[scale_pos_weight: 1]
[sigmoid: 1]
[boost_from_average: 1]
[reg_sqrt: 0]
[alpha: 0.9]
[fair_c: 1]
[poisson_max_delta_step: 0.7]
[tweedie_variance_power: 1.5]
[lambdarank_truncation_level: 30]
[lambdarank_norm: 1]
[label_gain: ]
[lambdarank_position_bias_regularization: 0]
[eval_at: ]
[multi_error_top_k: 1]
[auc_mu_weights: ]
[num_machines: 1]
[local_listen_port: 12400]
[time_out: 120]
[machine_list_filename: ]
[machines: ]
[gpu_platform_id: -1]
[gpu_device_id: -1]
[gpu_use_dp: 0]
[num_gpu: 1]

end of parameters

pandas_categorical:[]
